-2.858759376427191801e-02
8.897309053598714823e-02
8.083147690557328235e-02
-6.163418472859331920e-03
9.712215226130797852e-02
2.267430126190499440e-01
7.614174050919372827e-02
-7.621012158232878808e-02
2.125134869239300381e-02
1.737311882919358175e-01
6.618968429255492336e-02
-6.016903679567379981e-02
-1.013486425411031511e-01
-6.318580143581355169e-02
9.310362015745236863e-02
1.441909310384333065e-01
-2.274319319432844752e-02
-8.019714373748086655e-02
1.152423825315091049e-01
9.132051772388016797e-02
2.742888332488045700e-02
-2.375074353026041668e-02
8.355568701036877877e-02
6.695790392513595313e-02
-6.301102614246961720e-02
3.749655537305724567e-02
1.244854251018261693e-01
8.368381563583397742e-02
6.926576586601694563e-02
5.537164433416936343e-02
-1.599306226312594281e-01
-1.268070708970696070e-01
2.646572079181587836e-02
1.749726268989565681e-01
1.314986372914156987e-01
-8.179362120481163678e-02
-2.681960781571773519e-02
-8.293253356313672053e-02
8.989510333910989692e-02
2.090200306762379501e-01
1.561622977586193603e-02
1.166841395502643264e-01
2.638636315280458097e-02
2.171435408398056377e-01
-5.076909272091127689e-02
1.222429442753540929e-01
1.776413037238492865e-01
1.722535608305819643e-01
2.639564773343933829e-02
2.015144335100879924e-01
1.517510786284977375e-01
2.709395110130822792e-01
7.180747956237418239e-02
-8.043733062201893769e-02
-4.681322346053314043e-02
1.251605788698071514e-02
9.031614623513552209e-02
4.850033930333406962e-02
-6.831186851210470368e-02
8.760655321551953645e-02
1.971771328308075388e-01
1.035317002839927225e-01
3.079408719096793368e-02
-1.559360071489802047e-01
6.775277655656467002e-02
1.635542811698534882e-01
6.086865825691397530e-02
-8.255867455803296562e-02
-9.889297947052703985e-02
2.610848780655506962e-01
1.407125643675968991e-02
1.248463290323831298e-01
3.375732891174657579e-01
1.715572838392329935e-01
2.004976024073774898e-01
-3.688078589063206042e-02
1.951364718802902909e-01
1.289308547076118139e-01
1.373939367361888819e-01
-1.647673292148705559e-01
1.610805125846321573e-01
-6.998623269062780039e-02
1.731000561093286316e-01
5.392668302711011580e-02
4.919034433436284687e-02
1.054329939824577705e-01
-1.470978508277165087e-01
1.194344415701021206e-01
-3.049240434428903135e-01
-3.746089695338832015e-02
-5.245698235633156070e-02
1.179092741145770090e-02
2.918720138676365525e-02
2.397310831772994921e-01
2.506916214908341822e-01
1.779293177846189844e-01
-1.018993517065803350e-01
2.190641350357944162e-02
1.910958492675760290e-01
4.829805691317599903e-02
9.097827299362568065e-02
7.635556420155190094e-02
-7.705988623583744090e-02
-1.968337944151043670e-02
5.546869669542729697e-02
2.097220453231624440e-02
-5.960333140968659960e-02
4.997535221336854572e-02
4.995885471888575347e-02
2.180521028999948541e-01
-1.933029910431366481e-04
8.266203740999553129e-02
9.024609350454086687e-02
-1.033136023759158861e-01
-4.407016417357981913e-02
-7.418669107368413770e-03
1.443018948682492641e-01
9.394802977535702398e-03
3.016772491452534427e-02
2.875528013564560004e-01
1.619707835259419915e-01
-5.904441402638086617e-02
4.093270862195418913e-01
4.688367906716046224e-02
5.479813442323534095e-02
-1.767798349083265497e-01
2.796364289840386035e-03
-2.973202916208739777e-01
-1.356140586050477714e-01
6.297128578899098550e-02
1.156517791032565801e-01
-1.305677789989737325e-01
-4.717443424344711089e-02
-1.634745525653182596e-01
8.352722209896742966e-02
7.254811170022004707e-02
-1.673331498792957339e-01
-2.276725707934681986e-01
4.915694181469670854e-02
1.277620990619655061e-01
1.064638680596160791e-01
3.675148096713688750e-03
-9.578442860943101045e-02
4.667241237593071357e-02
1.228108048973221463e-02
-2.914093495075209539e-01
3.733754166500892480e-02
-7.575033699967906320e-02
-4.907023333383880165e-02
-1.934170333015260146e-01
-1.742453919784978794e-02
8.053409225342443578e-02
3.293716279449621781e-02
-3.458104537278851032e-01
-2.732315507927672860e-01
-3.127779538778578949e-01
-2.996113247981201932e-01
-2.901547673566388097e-01
-2.276978571469639445e-01
-3.344567193361455137e-01
-4.845939844223097204e-01
6.463810812528539285e-02
-2.088982895645694060e-01
7.024970896127981368e-02
1.140072811351426074e-01
2.933777366323850333e-01
1.265657528883503205e-02
-1.719559358114216008e-01
1.155418652184677375e-01
1.690138693183783347e-01
6.128077111124942584e-03
-2.024809966516301699e-02
9.035929646042192842e-02
1.841033898894087473e-01
-2.180906835664427751e-02
-1.787120827094651199e-01
1.922006629579224024e-01
-7.561918932766913126e-02
-9.555939956418151027e-02
-2.281424422973286556e-02
-1.779077024385525563e-01
-1.958601243899059374e-01
8.634177360929150280e-02
-1.148147043404082884e-01
1.299346957157941629e-01
4.394661320132122601e-02
2.281982825487656116e-02
-9.633363557000224064e-02
-2.106057984562548779e-01
-3.315559851533889102e-02
-2.078843590167963051e-01
-1.848545777914400445e-01
-1.890132130393641086e-01
1.649038922113658379e-01
2.082748683538177548e-01
8.147198581777297111e-02
1.858682807603153075e-01
-8.721463974210172387e-02
1.128188687900754661e-01
7.333681036552389121e-02
7.651965820935653639e-02
1.110443148793274354e-01
-1.356656179423300357e-01
-2.057467696919245970e-01
-7.786676688453299244e-02
-2.040865786790438952e-01
8.357746095205179082e-02
9.620247776334012874e-03
3.587881495797505278e-03
4.028545808713259596e-02
2.321969916233146414e-01
2.837312080042707074e-01
5.388367884113528516e-01
3.045689114570699907e-01
1.332138465641515002e-01
-1.821815105379311350e-01
-3.844532675154457846e-02
-1.354970986474414163e-01
-3.249378537434666758e-01
-4.029269409201190477e-01
-1.718809836721506557e-01
1.610437370052674178e-01
-1.344299001326741960e-01
1.034083724141668034e-02
4.125873370405806762e-02
1.683411069523503834e-01
1.060321894936134407e-01
-3.525013800190344299e-02
9.745781776866782598e-02
-1.062526730386378349e-01
-2.376375531298408894e-01
-3.378839817196884199e-01
-2.457259014164226915e-02
-7.161053324411742471e-02
-9.950815723954765935e-02
7.131169060085916500e-02
4.795997478326928520e-02
-7.940914895712482269e-02
1.766699051236312878e-01
2.375719548697953210e-01
1.519779344338701155e-01
3.942349239458579208e-02
-1.863871856491741003e-02
-3.767231381224979761e-03
9.520554910141680593e-02
1.213211540841809405e-01
-3.716710373688613123e-01
2.343023538643496106e-02
-1.099997398890245892e-01
-3.396948820148362747e-01
-1.226548343628064280e-01
-9.070374959844046403e-02
-1.304476966982542341e-01
-1.078953931955328044e-01
-1.565867651246212813e-02
8.814933754087424245e-02
2.141069334762654014e-02
6.216325621885685632e-02
-1.514390438847265929e-01
-4.828180280526773310e-02
-9.705827909681238874e-02
-2.692297418969413769e-01
-4.050713015264125610e-02
1.595599199772309781e-02
-3.909136378578614845e-02
1.407158611383881319e-01
7.021486672724948364e-02
2.698745654853073606e-01
9.837677005678302500e-02
2.495531917231106900e-01
1.313959684985713805e-01
2.000944315592228795e-01
-2.558196035355785325e-01
-1.316604975749890161e-01
-3.163134404297412994e-01
-3.882646110953541507e-01
-2.438933292259920782e-01
-2.097902998222654358e-01
-6.637918675163535787e-02
-1.237042685219239546e-01
-8.646732838846951652e-02
-1.847654729906628435e-01
1.717213745186827178e-01
1.615800063772790673e-01
-1.791546270937884322e-01
1.533967969476651982e-01
-1.801340358292823352e-01
-9.519520989147452206e-02
-9.660563646567887908e-02
-1.633976955936369824e-01
6.868990312368612738e-02
2.039734171078426417e-01
3.624822322884185821e-02
1.760073492180761479e-01
3.755341802864898409e-02
1.055305693125215272e-01
2.583506261157730854e-01
6.485999343480555734e-02
-8.651343044958104134e-02
-9.608469266041784473e-02
-6.083713179919184033e-02
-1.705359318578719974e-01
-1.113653647552211717e-01
-2.394620657514604650e-02
-1.897898462425393756e-02
9.512446183897567409e-02
9.670123926507440126e-02
-1.083629028219915309e-02
7.991141525272207891e-02
1.569495849527379472e-01
-1.775681126568782187e-01
6.336326757132888787e-02
1.521294763277036277e-01
-8.995184881429003909e-02
-8.628389695105502522e-02
-6.751946327015152793e-02
3.956223309808609007e-02
2.056647521381161359e-01
1.400587522380657979e-01
3.374024820102311528e-01
1.055302656151237556e-01
-2.546927967255050440e-01
3.976593662372181898e-02
2.299084493637896798e-01
4.793452704309730805e-01
2.405271290544711282e-01
4.246278684038163886e-01
2.330652177655222201e-01
1.454144031560629935e-01
9.475506412134699491e-03
-1.213492747688355855e-01
-1.638033896974549208e-01
-3.477316682066988185e-01
-6.370099076556796913e-02
5.493995111726209662e-02
4.855819064668227131e-02
-4.739812009141065874e-03
1.665552352626130383e-01
2.297169860979284342e-02
-1.195827983818321255e-01
1.579175956591015728e-01
5.227279252093027483e-03
1.641517706293492973e-01
3.030319951936998324e-01
2.293581686553383125e-01
2.832471700446026475e-01
3.863327191731149579e-01
7.918066324183381521e-02
-7.355841289935002338e-03
-3.185330001031534408e-01
3.355504312530706301e-02
-5.770321226686572769e-02
6.069768872374763369e-01
3.884264291068515451e-01
1.254993643840339734e-01
2.667432939797479419e-01
1.867650880595670693e-01
-9.777825721181199192e-02
-1.009477203006215462e-01
2.840471754142988026e-01
-4.386937389524925290e-02
-1.079284126127465077e-01
1.836671843002416205e-01
-8.951886946898187508e-03
9.562480269822160039e-02
2.033219835721672072e-02
1.059609411865159063e-02
-7.184065359942579110e-02
1.756068144953740473e-01
1.666652348813560391e-01
4.157830181866144503e-01
2.931376063064528026e-01
3.874145466160048290e-01
4.099933646421320965e-01
3.598374780370454107e-01
-4.449872916645920135e-02
-3.811016139359222898e-01
-3.737548622982622692e-01
-1.714410489606422658e-02
1.166547989544729630e-01
4.193257048423773004e-01
7.822357836569870937e-01
3.379604238207524758e-01
3.906527337886022688e-01
2.244357656562407100e-01
-4.665991588933037838e-04
1.269985479135744000e-01
8.540564551268432780e-02
1.791206944235962037e-02
-5.480657044933662930e-02
2.395930165835850334e-01
-7.920087590351078399e-02
-5.572821675720615597e-02
1.851252992600246894e-02
2.484086488454851915e-01
1.019225463643393809e-01
1.335583842770721452e-01
3.092093729908005906e-01
5.067704367119243436e-01
1.540538372776044385e-01
2.045624347309212276e-01
3.183501553428049191e-01
4.530548354954852530e-02
-1.834755256375786570e-01
-3.160995657049722740e-01
-2.881132303344758339e-01
-3.688703494228017798e-01
1.147398373053289261e-01
6.238543712291538812e-01
4.289004327324241195e-01
2.449229731875608440e-01
3.678414531504861640e-01
4.492223707813281508e-01
2.209236247016913846e-01
3.018247540837495357e-01
-3.004389983109884837e-02
-6.083197186347934216e-02
-7.862541470564980706e-02
1.621212616122883199e-01
1.547178619836845626e-01
1.091970799282436649e-01
-3.647853124023073268e-02
1.471788072026286587e-01
9.057166677651394548e-02
8.266647166993089380e-02
2.137928684819373759e-01
4.832976831197421386e-01
4.326897410170063019e-01
2.741089429966585000e-01
1.444171404444377083e-01
3.099942159356069427e-01
-2.124638944233252780e-01
-2.448455541024507076e-01
-5.351131907310525682e-01
-4.570680580396344062e-01
2.301932402739627070e-01
4.861563618486515193e-01
6.753646664866264082e-01
3.391058150154337980e-01
3.455606686339895983e-01
3.897628613095791006e-01
2.409468653754522627e-01
2.400497399127825005e-01
8.188066973381616376e-02
-1.518826030616023948e-01
8.024419456191460298e-02
-9.896720648545282925e-03
2.256510283133162098e-01
-5.295362890627727803e-02
-5.438430474068643022e-02
-4.270735689485592734e-02
-6.007769122459533095e-02
8.270912265382064643e-02
4.065960996337100175e-01
2.408817725287347444e-01
2.567234392549009869e-01
7.120909303765084186e-02
-4.365135763867091651e-02
-2.940351332994141642e-01
-2.109458849632233346e-01
-3.651043956341921137e-01
-5.338001135138975561e-01
-2.672371474300878624e-01
2.986591887157161729e-01
2.550762698442656240e-01
2.886928734134914243e-01
2.912609366781754860e-01
2.331126549952396432e-01
2.499407151502833768e-01
7.324853779267083420e-02
7.124419970627608734e-02
1.542911397791926027e-03
-1.623850056381447027e-01
-4.862411320445697398e-03
-5.765331290959364863e-02
2.417479277010033678e-01
-5.963168650100673408e-03
-8.994491959844519479e-04
1.689702530174304884e-01
-1.954556001400183443e-02
7.786336226624050727e-02
4.621990127201706239e-02
1.826561321653109027e-01
-1.640767958279122640e-01
-1.127410025019561640e-02
-8.272573563417660869e-02
-1.188088468571317502e-01
-3.681700502722897728e-01
-4.834134281609271944e-01
-6.409173031551810285e-01
-2.025808703747889600e-02
4.739091787489976837e-01
2.659419790151201224e-01
1.048306275436589746e-01
1.986874133940871312e-01
2.448603552433962771e-01
1.784964683631793947e-01
1.368686211921841533e-01
1.973054156364571765e-01
2.098210004910050150e-02
-1.699536918709688149e-01
-7.403709925635351685e-02
7.641239286393702868e-02
-7.081210739934592005e-03
-5.065658116438352676e-02
-2.004282910950215824e-01
1.143212303549267922e-01
1.297926717684965148e-01
2.276945150640900806e-01
1.656240297801256020e-02
-2.015448064011211293e-01
-2.098475067087029744e-01
-5.338603792577174129e-02
-3.212086180506980582e-01
-3.513322519456061332e-01
-6.217701820176054772e-01
-3.640186403537113424e-01
-4.829858806776719526e-01
1.076478179682391068e-01
5.730915035536582325e-02
1.767532049218069889e-01
2.121674789590753951e-01
-5.517058265114257315e-02
1.575926631548063908e-02
1.311541119747173384e-02
-1.454058592148669282e-01
-1.761843948347749378e-01
-4.033982927656493134e-01
-4.391626978308772050e-02
7.232453783498392352e-02
-1.157406800710232136e-01
1.221048766517684736e-01
5.635646395268505832e-02
-4.662304868446732337e-02
1.946924246826802207e-01
3.789592207370317406e-02
2.795799191255349606e-02
3.856515093021292001e-02
-1.524359602165517302e-01
-4.905421552313148359e-01
-3.568512342879381904e-01
-5.460546573093740808e-01
-3.388593779849580212e-01
-3.906552941777767796e-01
-4.075776226885849396e-01
-6.700734211202234725e-02
3.378982626959037977e-02
-2.307900712456952830e-01
-2.851039207929571828e-02
-1.884580436815982696e-01
-1.457165210509050735e-01
-5.628630022287189200e-02
-4.409390930464297809e-02
-2.914174787862532923e-01
-2.172185994705934653e-01
-1.496779868955534498e-01
1.572785139155589151e-01
5.390770691470460341e-02
4.554551083905428177e-02
-1.838620218062985423e-01
-3.440056445528978657e-02
5.850629914044645080e-02
-3.128961471522372778e-02
4.107661778302747896e-02
-5.729788588498329477e-03
-1.507739192818585705e-01
-2.689514054488615913e-01
-3.369477026430534039e-01
-4.190984324923694992e-01
-6.766184910537050845e-01
-3.840781911580375407e-01
-3.650690555802166282e-01
-6.751127376506714795e-01
-3.423986031548602593e-01
-2.120380652193100124e-01
-2.669965357400651620e-02
-5.636627772661079172e-02
-4.065917186126695726e-01
-9.303201356374196651e-02
-2.208595625090924164e-01
1.000540027507175189e-01
-3.010365428470525573e-01
-7.786788455849961987e-02
1.186788321129002149e-01
8.451237855123949760e-02
1.761947232453823509e-01
3.702968368245916631e-02
5.427582556799257548e-04
5.770897970832811891e-02
2.358752346610868134e-01
-1.124487995532818529e-01
1.290621042092601201e-01
1.098425560140417062e-01
-2.543402868404079364e-01
-3.459566901423417537e-03
-4.776834269921217402e-01
-3.033789025838873887e-01
-4.335483400522363029e-01
-3.669584520369831293e-01
-4.390049806855602088e-01
-1.953831692121264785e-01
-2.387256786401826536e-01
-3.665895214017685921e-01
-4.832268041787864954e-01
-7.769281601455479969e-02
-2.635727060432795366e-01
-2.458818120490072201e-01
-1.333191894307128866e-01
-4.105238585696749931e-01
-3.128118924524909694e-01
-1.798770758716118079e-01
-8.201418366134272109e-02
1.634502629868933299e-01
3.840107270845507376e-02
1.840114096081867379e-01
-2.679859968427608305e-02
-4.929697436085177242e-02
-5.738060325245761262e-02
1.213019333708337533e-01
1.172600511800020867e-01
-1.735554424961685202e-02
-2.241689055767262240e-01
-3.159635182580570328e-02
-3.591476260840439916e-01
3.999755092698029785e-02
-2.303769526218290287e-01
-3.239551691363509178e-01
-1.126327557734191770e-01
-4.389072001465833539e-01
-2.864854027357531252e-01
-3.183914961722574821e-01
-5.039655364500084112e-01
-3.448358648921277525e-01
-2.843206614616332617e-01
-2.480478732306820033e-01
-4.349184040098952875e-01
-1.623522635894879829e-01
-1.929337313740647764e-01
-1.973656368305719278e-02
-1.960432746890063138e-01
1.450589002525930760e-01
1.512640169899566178e-01
2.996103724159897980e-02
-2.510331525796992772e-02
8.148868677385268100e-02
-9.573182102536492710e-02
1.438204052540421884e-01
-3.148444416438279658e-01
-3.152578985737516937e-02
1.523309576396612020e-01
3.992910561811716663e-01
-2.159389646465993337e-02
1.798214474019666637e-02
-1.831819319399252133e-01
3.721951813467826858e-02
-4.714256900970855146e-01
-3.235113010365570085e-01
-6.554528780576936997e-01
-2.743160698056909541e-01
-1.981034142384419383e-01
-3.822514097704343139e-01
-3.897774399490592234e-01
-2.830802913669874243e-01
-3.867779789792433753e-01
-2.054245062229647922e-01
-2.258246989642828835e-03
-3.941865673206058907e-02
9.344837898846478086e-02
1.968330366061719905e-01
-1.286164998729033282e-01
1.236676390424140404e-01
-1.191246845222500433e-01
2.484108943904311546e-03
3.021614445615956532e-02
3.874135175069129411e-02
1.046857894334936451e-01
1.758598630813987540e-01
-3.493179454092881081e-02
1.037432444859442415e-01
1.404889057250813256e-01
4.741143247614569844e-01
1.138484762657506338e-01
2.009193972837443332e-01
3.800203675482010518e-02
-1.479796001545680417e-01
-2.530525816621111979e-01
-4.317196730660480819e-01
-3.571705848828213292e-01
-1.977711183106407866e-01
-8.739888519923921101e-03
-1.520450409748760022e-02
-6.711540305997082401e-02
1.832767138761916825e-01
-3.281692140728147133e-02
-1.562132447635767966e-02
-3.053281762304316162e-03
7.958151393342781377e-02
-6.165248837530765136e-02
1.532531568572702008e-01
1.523140062022879659e-01
6.589062450080801492e-02
1.932118955655874326e-01
-9.650220516337675025e-02
2.146353593713291041e-01
6.895593363063111034e-03
1.223119603052231497e-01
2.778573854120858777e-01
8.510184878006914200e-02
-9.845782628972872541e-02
1.334738871717028597e-01
1.880168784630736611e-01
-1.485455692319619971e-02
2.970911684042351064e-01
6.113680164688770763e-02
1.637197922659905103e-01
1.902657956771563741e-01
2.343166032896611128e-01
6.096343710101417498e-03
2.810188142037375533e-02
-1.580017940243582872e-02
1.242683627997039214e-01
-1.342578560864595913e-02
1.768498053310753049e-01
1.508825498134847565e-01
-3.453970885470127733e-02
-7.251876667865184145e-02
1.311154462099936857e-01
-2.096608499094917977e-01
-3.446900186664710736e-02
-2.016449516467921088e-01
6.178345320770350403e-03
3.609306552028750809e-02
5.602378565964049040e-01
-2.048511967226941399e-01
4.845193343768740279e-02
1.544863917579606949e-01
1.413933988144359666e-01
-1.504286882286767491e-01
-2.972368944957486103e-02
7.674354166636773722e-02
-9.021478671197383226e-02
5.275281505431155850e-03
4.101783075040017768e-02
1.036561620550602997e-01
-3.850145988969176647e-02
-7.362672518257652732e-02
2.052333200068343078e-01
-1.303717228439136566e-01
2.450366150211805705e-01
5.765728522943532747e-02
-1.890677285174401090e-02
-5.265212828716249460e-02
1.708300026549631340e-02
1.459745725031064978e-01
2.307632839279910031e-01
1.766178610801531490e-01
8.965106053428233135e-02
1.937206123251944689e-01
1.255886648910648773e-01
1.415454428430955869e-01
3.856730153698578051e-02
1.890048084181976951e-01
-2.068852253303779809e-01
-6.013241887073544206e-02
4.553631544245915347e-02
-8.100817437899607287e-02
8.306444888296206364e-02
1.220876722737206793e-01
3.533876649908294920e-02
-1.240954677194009564e-01
7.543498893779813919e-02
-2.355915020519710190e-01
9.726112464202606167e-02
8.282017148130203787e-02
3.434999678297952913e-02
8.822390736792352917e-02
-3.886132906214326277e-02
5.426079707448633327e-02
-1.241794184690283021e-01
1.291192239029637367e-01
-1.190411389634970507e-01
4.896865587891127518e-03
1.326132220658321481e-01
-3.430583409705999232e-02
9.611751395334873216e-01
