-8.570181870033877214e-02
3.518462577510152178e-02
2.102608481417509723e-01
-2.328198232683664215e-01
1.906987526493038668e-02
2.461640364559111172e-01
1.603019966641393290e-01
5.444377078161954930e-02
-2.359913333161317850e-01
-6.375022532949536913e-02
7.414776302280298714e-02
-1.062383979908638337e-01
4.057975556673473760e-02
3.040233231804082698e-04
4.302343964466909948e-02
7.018783630982429467e-02
-2.422530498384634773e-02
-1.040835074015275946e-01
2.062197841475031934e-01
2.183211665868575180e-01
-2.254190993267803922e-01
-3.983402264794847630e-02
2.047826470189903214e-01
7.314095437902021213e-02
6.398359108140817819e-02
-3.345822920535892689e-05
2.451821582367393615e-01
8.096520965667200476e-02
2.028848110994565732e-02
1.311590408898977989e-01
8.168679351359157959e-02
-9.145773676891141846e-02
5.732580734836196373e-02
-1.097900231467274362e-01
1.050385425587768706e-01
1.694044133842218525e-01
4.298908265800003431e-02
7.300611061255884993e-02
8.132606404044009918e-02
2.120868566810352185e-02
1.456868337127618582e-02
4.690903387078572927e-03
3.060621394097554418e-02
-1.957092985987660960e-01
-1.024431224903352144e-01
1.070328345363694977e-01
1.426775791580607300e-01
-2.873847653981529207e-02
2.191537609456207514e-01
-1.701013602309907682e-02
1.794635646439214360e-01
9.472598725696698696e-02
1.794086840686163198e-01
9.622302969632615111e-02
-4.920050360723418614e-02
-3.705765837506971860e-02
1.198742896404385444e-01
-1.879593930238570090e-02
4.450713622794803814e-02
-2.451217040705002889e-02
2.041492946300643430e-01
2.423644906061855897e-01
5.497787075368188586e-02
-2.567181639296097634e-02
-9.655742474370161352e-03
1.628474782233620965e-01
-3.996942158945678003e-02
-1.202025263788092657e-01
-2.003245001269157374e-02
1.868369636500957776e-01
-9.990347363994829533e-02
-1.857494174418881649e-01
1.930155296440130008e-01
1.304834103494774411e-01
3.009964565058677044e-01
3.537459435116729889e-02
1.594025975801424966e-01
3.579869732085154688e-01
8.284810759268685233e-05
2.859757086663732850e-01
1.022217338735550846e-01
4.381189122766609295e-02
2.746120463701741121e-01
-8.575047702976568154e-02
-3.217548481979247421e-02
5.165322513222277839e-02
-1.436157862947860520e-01
4.733021505077575353e-02
6.620524685308504242e-02
7.556555617964613725e-02
4.985592830067313297e-02
-1.346475221241172915e-01
-4.529727482095496222e-02
2.253679141500280758e-01
1.597665178047419920e-01
1.558100025630517471e-01
1.769180585470273015e-02
-1.313816087054732740e-01
2.332708443675311771e-01
6.282558405610093322e-02
1.794536504905898042e-02
-4.702748877609451428e-02
-1.262245291600724295e-01
5.983013124921373466e-02
2.225448927596367643e-01
1.262650811417567742e-01
7.021122061934961800e-02
2.015822158263664565e-01
1.340640960114410363e-01
1.744234303456632384e-01
1.397604869434748431e-01
1.444090694682398368e-01
1.252458687725949149e-01
1.115838119039909426e-01
-3.631901199748486242e-01
1.896079142231311965e-01
1.021622617993982046e-01
-3.491172636136444588e-03
1.020438238850752619e-02
1.760251351577811763e-01
2.105810716122866744e-01
-6.271756390427836447e-02
1.742855950218137606e-01
8.321481924327001067e-02
4.694562753318646392e-02
-2.043247336450276508e-01
-1.629389636462150182e-01
-2.883379322776426917e-02
-1.815781620884623915e-01
-2.117107327790115068e-01
-6.710710556844530494e-02
5.545982182882850525e-02
1.975794837040390217e-01
-1.806163277764505637e-01
1.259526740200808854e-02
-1.517465953675063792e-03
-7.439251930303833471e-02
-1.556681813858646346e-01
9.563043892216852027e-02
2.482714759650792025e-01
3.770183688916851905e-02
-7.035205099638036641e-02
7.330503140445199239e-02
-1.528122993773571407e-02
-1.226119018393813515e-01
-3.372444102459081217e-01
4.292113800744632585e-02
2.572043305292543436e-01
5.522553100836757878e-02
-2.870224530202619140e-01
-2.664955606975964036e-02
-6.161652087763496224e-03
-4.032963034829866594e-02
-8.970971231849471372e-02
-3.260081330625436702e-01
-1.838070705361120327e-01
-4.342928688176059260e-01
-2.739949376312394991e-01
-2.694758461650573755e-01
-3.475488013909323604e-01
-2.494983158707698434e-01
1.417918379761656800e-01
2.794153410797466444e-02
2.400637726560234386e-01
-9.247072023864034984e-02
6.290092597231050370e-04
1.259338787237352097e-01
3.160543692317486358e-02
3.897535501995246648e-02
1.646843207809778609e-01
8.062302872279722421e-02
-4.231586258681227660e-04
-1.569658942540845190e-02
8.615837700953744849e-02
-5.530877454720549424e-02
-1.824445533516078355e-01
4.284331077506069868e-02
1.669571066725148746e-03
2.103214896692301439e-02
7.337692215263332159e-03
1.338812231902116638e-03
-1.727600739741149971e-01
-1.715793247553351053e-01
-5.216514168548537500e-02
5.618753675644275886e-02
-3.670221991567695213e-02
-1.600603547514959368e-01
3.123987177317008590e-02
-3.190977605250099325e-01
-1.509523904898550928e-01
-3.392184565865276058e-01
-2.161993080483606278e-01
-1.441034941166087213e-01
1.644900430501490540e-01
4.595140145614325794e-02
5.607417727661685031e-02
1.005799420366968455e-01
5.729955190774462664e-02
1.228120926778544092e-01
8.432414621263878418e-02
-1.267489568123357224e-01
9.296120392177222025e-02
2.341593429473709867e-02
-1.731698623475886878e-01
-9.622215966696699707e-02
5.600017686724247795e-02
-1.287817384419691902e-01
4.331602818452356257e-02
5.385060801180976964e-02
3.375416172529728809e-01
3.885473317251063041e-01
3.066145811349366701e-01
5.034731327465676864e-01
3.861711372198182168e-01
1.284442368844176119e-01
-8.883802656247592744e-02
-1.793444335419724922e-01
-2.749982854743113561e-02
-1.938500693982593004e-01
-4.203876704317533464e-01
-8.482045321523692949e-02
9.726285330819524344e-02
-6.585672692894425917e-02
2.000619450857364298e-02
5.187283954450357115e-02
-1.788001183374673952e-01
-5.178327725504464768e-02
1.025756617446921537e-01
-7.054889368061258159e-02
-4.834245793865427077e-02
-7.635434018270502443e-02
-2.152747618213070868e-01
4.887658139426220849e-02
-1.957161227221482780e-01
-2.032315268146353271e-01
6.586841351251747356e-02
-3.072801840687585870e-02
-3.929175857728302995e-02
8.200406454582882809e-02
8.699587924674435924e-02
9.643939463279646573e-02
-3.329528148087469719e-02
8.029049254754740128e-02
1.345574441500658469e-01
8.738921910414933214e-02
1.446853229630892454e-02
-1.567647184443938246e-01
-1.209479148391952308e-01
-1.140428845828335980e-01
-2.444748734855286543e-01
1.177039497377930510e-01
-2.092030127280321630e-02
9.305262778059941731e-02
-2.011189268414313447e-01
-3.375999054136866184e-02
-8.211751465341859957e-02
7.164414976861017970e-02
4.513324318882332847e-02
-1.793830991268449415e-01
-3.407887503194738377e-02
-9.955688928736832963e-03
-1.828374001847892782e-01
1.506835694194555084e-02
8.489856615665428152e-02
-1.361979094838263599e-02
1.332301834288540932e-01
1.980060765389227706e-01
2.406631745288724533e-01
2.439388207137799525e-01
3.756454315239904918e-01
1.091332195099912472e-01
-7.005216772995719043e-02
-9.969124800521460272e-02
-1.842778159813381611e-01
-3.218333246047558327e-01
-2.746602487096855838e-01
-2.336376505376197843e-01
-1.275181964596442674e-01
-1.683960696237203902e-01
2.898961070557570796e-02
-8.054255534671551919e-02
-2.236301577024084331e-01
8.532698129047981694e-02
1.387358356405892501e-01
-1.578074850383678063e-01
9.058307549626914978e-03
3.023570898221228376e-02
-1.578284168114977293e-01
-7.035851065178555519e-02
-5.913595610814260245e-02
8.786944909550183092e-02
1.398324953282809591e-01
1.738813417836256037e-01
8.524089411948627959e-02
3.054811005947882449e-02
2.920674840003960760e-03
1.685840717558118318e-01
2.898751743348916832e-01
-1.485446855433443791e-01
-8.212532227929228434e-02
1.063185725133587445e-01
-1.583056729571392096e-01
-7.976236702207098461e-02
-3.098326807272520633e-01
-4.763337443873968263e-02
2.954551407317480491e-02
1.634276308299980329e-01
-4.637750062973473864e-02
1.374958383581426913e-01
1.106580099210183743e-01
-2.857543809161786075e-02
1.624120865550556514e-01
1.363050407060287239e-01
5.882954862171262123e-02
-1.230663601241825111e-01
-6.082367106508827087e-02
9.638253151204863312e-02
7.475165456377466655e-02
2.294637918887827421e-01
3.141638971432836880e-01
4.562771764744014136e-02
-6.004204899460310885e-02
-1.330839972324649734e-01
8.181854874987090631e-02
4.785805075238278028e-01
3.410076529248921573e-01
4.093230191959747466e-01
2.697810401021062676e-02
1.640602885436665548e-01
-4.624648688082664411e-02
-7.958043586556594329e-02
-3.093649589824142287e-01
-2.474367541383767632e-01
1.695119571240312137e-02
-9.922757606820349977e-03
-6.652901042071281482e-03
-4.408954031680510643e-02
6.316756974523693446e-02
7.550907448426462387e-02
4.778062457890167210e-03
1.944170749044990265e-01
-4.899270540977625904e-02
6.980953307463719226e-02
2.334791351665376491e-01
7.307659714261398320e-02
8.456338526408825607e-02
4.786518296482876189e-01
2.397886516185247230e-01
-1.062938931745745358e-01
-3.460452497092539326e-01
2.817766523012264074e-02
2.043623018810553915e-01
5.469297842026662471e-01
4.441116687102686922e-01
1.463224922200254685e-01
2.371958384975750012e-01
1.853726558640060029e-01
-1.634607956108917737e-01
1.604781880997875054e-01
2.269180930950496708e-02
-4.921999162095529873e-02
-9.884497280755216719e-03
2.172868168034666064e-02
-3.057746557122437842e-02
6.752852858811908554e-02
2.250247823870848984e-01
-3.971205521227995361e-02
-2.662344462901359843e-01
1.907852072002514110e-01
2.233075654834823787e-01
2.587094697020168588e-01
3.575964859781239902e-01
2.748124308072719124e-01
4.280647617472515543e-01
1.957519360626421845e-01
-3.044697157959311631e-02
-5.828089762502821625e-01
-6.241247325918135580e-01
-1.172579713734135526e-01
1.639815005955110039e-02
4.210184987921621880e-01
6.432601099233540287e-01
2.468288522934597162e-01
1.975878513695509264e-01
3.196208732254306462e-01
3.920396661141229561e-02
6.250261810035138976e-02
-4.144772372418432244e-02
7.923853863022815858e-02
-9.534669396713532641e-02
1.023074277424157880e-01
2.699106313550740377e-01
-1.137856526980642324e-01
1.213089118865524028e-02
3.647422712624458496e-01
1.928977089973093750e-01
1.290279200963962147e-01
2.444191827124502780e-01
3.907702468069956803e-01
2.551994776267085263e-01
4.544360761353851141e-01
4.026789895764327776e-01
8.345494536604347591e-02
9.306347092642580643e-03
-2.014410321421020722e-01
-2.759007428980566612e-01
-2.703855454995721663e-01
7.414660862915567474e-02
3.602196713608628587e-01
4.637589064205211997e-01
3.500010907220451606e-01
4.076652130432011911e-01
2.120865715724642719e-01
2.332375333294618158e-01
2.908761200549387360e-01
1.901557343011653703e-03
1.075415551641007023e-01
-5.189784930300096744e-03
2.105260243677414267e-01
-6.074414487316098787e-02
-1.265597021470820926e-01
-1.058966248554452511e-01
1.208824917103003965e-01
-9.306760133507104016e-02
1.482400222367164788e-01
2.712209806480159191e-01
4.481660562061836606e-01
2.348474337472939988e-01
3.321082593422869933e-01
1.932309517005642296e-01
9.385078045044673023e-02
-2.598233081340467487e-01
-3.322291951804843824e-01
-5.859184782334495578e-01
-4.510032771554414177e-01
2.542981480188643006e-01
5.161550616399195324e-01
6.177240867379261147e-01
3.651506736495487293e-01
2.441123533004036228e-01
2.096921216752042072e-01
1.731058575321500204e-01
1.946904875805163804e-01
-4.282455241534775109e-02
-1.460054632563724253e-01
1.299224116544429597e-01
-1.002703690384959268e-01
3.000417795725576764e-01
1.316145798120952996e-02
-4.137003927213140503e-02
2.119713608805414221e-02
-1.449235444700689435e-01
6.736055212492289557e-02
2.563917090252104125e-01
5.468058096228634729e-02
3.883041666465283925e-01
2.836983311247806561e-01
1.827016649540636473e-01
-9.353550606426419556e-02
-4.886192427967913504e-02
-5.356843713525152317e-01
-7.701715829479173214e-01
-2.698896190490711056e-01
2.261057688205292682e-01
2.400303030575315077e-01
3.218212913528823993e-01
3.864889711987394560e-02
9.232175939758728578e-02
2.311738956296155723e-01
1.173209725173838536e-01
3.141047703965877541e-02
1.399188824966745084e-02
-7.441986863608784919e-02
2.197642808431639894e-01
-8.422118951109572316e-02
-8.397785289903837713e-02
-1.175598476906348638e-01
-2.783895871199888478e-03
1.323141965748073912e-01
-7.437279858012278699e-02
6.865084162545580238e-02
4.535404883046110225e-01
9.310067115979786534e-02
-1.845166618329678321e-01
-6.573170390844638999e-02
-2.737510846689892446e-02
-2.717502564979958901e-01
-3.562321265000933379e-01
-4.054664851444020335e-01
-6.528629711598484819e-01
-2.188790952683124236e-01
3.008431292707412497e-01
1.482749024854532194e-01
2.019863949288021321e-01
1.487893499680525700e-01
5.623221811039456203e-02
1.437059900591029504e-01
-3.706238041201718320e-02
-1.742360541348555725e-01
-4.087615641853016568e-02
-1.066775316664982376e-01
-1.538559749456786252e-01
-3.977526671269373398e-02
9.710678263580384273e-02
9.572257471143121726e-03
-2.953696557098936179e-02
9.670362085934029739e-02
-2.301465705485582214e-02
1.534469858832331612e-01
-1.058324490091195336e-01
-3.283598014489439582e-02
-2.515051371091953647e-01
-2.249049727436087942e-01
-3.032057410747922566e-01
-4.541983524180394083e-01
-4.130087672481923544e-01
-2.392520800925349578e-01
-2.055822854465567118e-01
1.374135634092790992e-01
1.961325855360993575e-01
1.674724625046861703e-01
1.502789636212620850e-01
4.347067086089329013e-02
-1.282402872351454670e-01
6.268474842810563274e-02
-6.268707305741520741e-02
-1.131350307799907917e-01
-9.594427989973726423e-02
1.310861498624147359e-01
1.267901443298965203e-01
-1.698457287611812236e-02
5.177587553209746229e-02
2.135499614261262558e-01
-2.987954275129336285e-02
2.067042265362174780e-01
2.133057713322746018e-02
1.795720950363222379e-01
1.548824680481097893e-01
-2.469773057327923071e-01
-3.972253543591161562e-01
-2.230936950862757173e-01
-5.423487716936024050e-01
-3.380572024920574514e-01
-4.417623567185911537e-01
-4.364897162244204543e-01
-1.951356490365745711e-01
1.063239435136307948e-01
-1.889077202963037883e-01
-1.927360533580566027e-01
-3.417388306599387082e-01
-2.151777862145381470e-01
1.714607222986276949e-02
-5.863777356960653969e-02
-2.321295223261972962e-01
-2.678121453326750001e-01
-1.986009553071214351e-01
2.115222993243659200e-01
-6.083248857108677909e-02
5.574683674910577494e-04
-1.677595866839460825e-01
-3.121824424133997841e-02
1.062498400012500122e-01
-1.198936403896264102e-01
8.354396080709522443e-02
5.646635267255704915e-02
-2.191369309511753682e-01
-1.802387713865316043e-01
-3.935354774577251025e-01
-5.224508762032873399e-01
-5.082835975461441613e-01
-5.248614163056273263e-01
-5.174105042014877087e-01
-4.356497572906485871e-01
-3.436338009487267531e-01
3.822633362000011498e-02
1.040763199839188080e-01
1.214883177274355686e-01
-2.506130899261415496e-02
-1.638430931511281330e-01
-1.193186740789115158e-01
-5.154924732520609065e-02
-1.954724399861724193e-01
-3.613803849001322455e-01
7.081771483992317651e-02
-1.930310633902269576e-02
2.525236924407076033e-01
1.852990165740039941e-01
-1.239935959013308692e-02
-1.743389067702952600e-01
-3.859341712968697435e-02
-1.051447397699457748e-01
-4.737483601921642362e-02
-1.463368511463605803e-01
-1.957202678557742881e-01
2.810945360987408478e-02
-4.104070883910484469e-01
-3.319570449378997368e-01
-4.813335983123125383e-01
-4.242363458043886815e-01
-1.572932615277106427e-01
-4.590338066767890579e-01
-3.099529486785389532e-01
-4.163812296366363741e-01
-3.955111973037382378e-01
-2.028071286356667724e-01
-1.896150844203421115e-01
-1.636418115465338163e-01
-2.238081890592520384e-01
-5.190884284205408150e-01
-9.882765410033383935e-02
-2.065389104126983677e-01
-5.436814628060093399e-03
3.117379024614825092e-02
1.851646118795048090e-01
7.117574330419987327e-02
-3.925568427824287915e-02
-2.677104135779585087e-02
9.225077241248667848e-02
2.676439882771314838e-01
1.168439467670213533e-01
7.805797381971797677e-02
-2.450610283121720800e-01
-2.449985141210393041e-02
-2.608894482401818427e-01
-3.059888930108093374e-01
-1.936160244505853445e-01
-2.994194030954717700e-01
-8.734424453074685069e-02
-4.077989814026635740e-01
-4.077318246850269445e-01
-3.384424090540117391e-01
-3.942432765839735120e-01
-1.644999449063890562e-01
-3.542888700226736187e-01
-3.916802850506891920e-01
-4.781195817582810093e-01
-1.746738263286417570e-01
8.967356325845086962e-02
4.989216060801738434e-02
-8.087777910029404771e-02
4.878207903964176112e-02
8.847525445660756049e-02
8.133372943276466482e-02
-8.969971854557319546e-02
1.113253288884819142e-01
-4.366182332922467074e-03
2.213534298833346181e-01
-2.395358685364889495e-01
6.236239658785137918e-02
-2.902226929132016228e-02
7.786051348405194361e-02
9.392666033767284317e-02
1.197884531588299696e-02
-7.272096249035164828e-02
-6.857932145554053449e-02
-3.246301127103866091e-01
-2.189874412357156741e-01
-5.214557138404868342e-01
-3.405075712578679581e-01
-4.015738398807813248e-01
-5.018200665550035522e-01
-3.690318556837865471e-01
-3.039430692461270733e-01
-2.284123296087706978e-01
-2.446968871613802166e-01
6.470547181108428358e-02
-3.119574466021857173e-02
8.981051743129124521e-02
1.039999027711581980e-01
1.308765715309946620e-01
-1.015807794285009391e-01
8.782624800249763664e-02
1.778584931492405846e-02
5.182463970414217386e-02
3.866508338471528333e-02
5.022092836724226239e-02
2.369973177478679749e-01
-1.844246569579972850e-02
6.793745625014396827e-02
1.038649713023000881e-01
3.472121790012193121e-01
2.039972003818353585e-01
1.710693804989832367e-01
7.326925854943748539e-02
-1.582619453927603115e-01
-1.881919146939790288e-01
-2.853099714792607933e-01
-3.358394604924406224e-01
-1.780279290870512565e-01
1.565465790284393810e-01
7.128441586166443800e-02
-7.030082588290736956e-02
7.932812542725538318e-02
2.307132910924126427e-03
-1.322388040136017739e-01
1.920019109987848235e-02
8.410858738390142308e-02
-6.379891120128947102e-02
2.117102284253535166e-02
1.801310023678997230e-01
-9.084531021074601642e-02
-1.210924122053484014e-01
-3.258767020612111237e-02
-4.383035682971501285e-02
-2.220217362300317201e-02
1.874766643329380256e-01
2.231574421046265688e-01
1.500897675635238793e-01
1.138836117229261036e-01
1.957041556028826235e-01
5.036814325876912135e-02
2.052962509344709030e-01
2.840827715000161513e-01
1.285978682247105320e-01
2.059671574077823752e-01
1.219555875570843551e-01
1.911882160504398687e-01
-3.680230542066406652e-02
1.462390289227609719e-01
-5.225559197887903740e-02
2.236519502485382338e-01
7.459089926749210009e-02
2.553081268415200999e-01
-1.538162583278938900e-02
3.468154024859771561e-02
7.504009184450860515e-02
5.482934228843768659e-02
-1.086995964690840311e-01
-1.684263389927931065e-01
-1.003569884319839844e-01
-4.553175424183866782e-02
-3.841482213623125669e-02
4.632388638760818189e-01
2.955779492387882595e-02
1.174145811064181699e-01
5.063106123859179020e-02
8.606690618450678343e-02
-1.905021302839133776e-02
6.174822356979569118e-03
1.487647807706969083e-01
1.011006005886366660e-01
1.207291558119949065e-01
-6.537073168518553468e-02
5.145936324626500247e-02
1.282416881173004675e-01
4.603074266705227402e-02
9.213272776583471269e-02
-1.223745411323499677e-01
-1.046269029771748904e-01
1.590455701723209048e-01
-6.950115437725473688e-02
-2.246309944923107482e-01
-3.358646780493513423e-02
1.909136305511153209e-01
2.509870902554319216e-01
1.604480841713133987e-01
2.382637604032319667e-01
1.907379841628695505e-01
1.437601782960405139e-01
8.302261127098208709e-03
2.359448104640372509e-02
7.203301493658720300e-02
9.036678774404804937e-02
-1.634947560622590501e-01
4.640198959590735583e-02
5.991702106333642724e-02
1.824494962748660076e-01
1.171005978403300285e-01
1.275005920088443379e-01
-1.624833777530747259e-02
4.245082768892867453e-02
3.943785880243763642e-02
2.720273439404549687e-01
6.092529430604463718e-03
-1.336903171204098795e-01
2.086827926906493266e-03
-1.073556449739259885e-02
-1.671048835481107539e-02
2.635577429022559204e-02
9.169457816832587982e-02
6.210178553049571643e-02
-3.416713534926193313e-02
2.636922382918278907e-02
1.365130997986365446e-01
1.024968173336937127e+00
