-1.489302635661509389e-01
4.195515999956706682e-02
-3.240726250741650383e-02
-1.170556992275313124e-01
1.682015141770470401e-01
2.376361297772091874e-01
1.770838974114184727e-01
1.630944505026026836e-01
-4.711942900804309137e-02
-4.941240576539307136e-03
4.531299619749837304e-02
-1.460862650246381751e-03
2.945481042028956498e-02
2.313536490515471222e-01
7.009781005393830866e-02
2.205150504526074140e-01
-2.605425010556882554e-02
2.617072241383146605e-02
1.942935038837227124e-01
8.405382402067644587e-02
1.109197667817635180e-01
3.644015117144387000e-02
2.117149026552133384e-01
1.277353502677629760e-01
2.160019311717075174e-01
5.906347219645304708e-03
1.489253664774387864e-01
1.370729064920504225e-01
-1.841213350942146618e-03
1.321000982255255418e-01
3.809592292829955262e-02
-1.442534561519578408e-02
-8.409071865749540020e-02
8.263247761659449353e-02
4.503184001757006699e-02
1.473533619811946971e-01
6.610326729196400186e-02
-2.616090307939127335e-01
-5.042622707738673993e-02
-3.031813394452901808e-02
4.651631276451227009e-02
-9.615584656377842987e-02
-7.766567404041468947e-02
-7.595488570840272513e-02
2.161515214689435638e-02
-1.526366343407753109e-02
2.280307727380012639e-01
2.221601693201135652e-01
2.406910261293600944e-02
1.398942868033348497e-01
1.554553331095074320e-01
2.430640009767892906e-01
1.958303197569886411e-01
1.093688185876287577e-01
1.045883182020716784e-01
3.780616818458831102e-02
1.179407841116847516e-01
-9.447557734596641332e-02
6.856379125062142532e-02
1.238969572922749701e-02
-4.922746668963994682e-02
1.792478747132000005e-01
-3.049711254273504077e-02
-8.485793956449033670e-02
3.897751638652592610e-02
8.465119885192766425e-02
6.000770131785695960e-02
-7.910636807754609090e-02
2.705297217317876451e-02
1.887770382287464466e-01
-8.293143634536060196e-03
-1.941313431853886884e-01
2.317431514765389833e-01
1.965929042396796222e-01
3.512345852293002196e-02
7.869162345197097327e-03
6.085590374669611058e-02
2.454044580708482637e-01
1.507187596093789439e-01
1.538801489047987026e-01
2.118240409387405765e-01
-5.423317590432068236e-02
-1.281314930621333358e-02
-1.366730305161511505e-01
-5.622017619093172547e-02
-1.477757614805288132e-02
-2.316009295304285731e-01
-1.253211298252342454e-01
-9.003593519872120018e-03
-1.279400109055125745e-01
7.193369370043954658e-02
-4.543926502593997885e-02
1.056610979205560991e-01
3.985833597007349960e-01
3.104906508133596366e-01
-1.049042388337543819e-01
-6.921698629053438245e-02
-1.759602886655122628e-02
1.626062435284364449e-01
6.241708350163270580e-02
-8.447363689562784050e-02
7.224136343043263686e-02
-6.357930361306551870e-02
4.561730267038872216e-02
-2.576493859376564541e-02
2.302143959587096486e-02
-8.521693602022661906e-02
1.474807689874678973e-01
1.141076312346346877e-01
-1.190994326902011652e-01
1.246398107780349596e-01
7.602976272633953092e-02
1.486113939476015056e-01
-1.428191212726661607e-01
-1.297956387857240323e-01
9.947250799359476370e-02
1.574197091405760141e-01
-1.129563166349458053e-01
7.728520794956683648e-02
1.021078116710227995e-01
1.293227152513045375e-01
-4.085803150887398066e-02
2.497587964119575565e-01
-8.863767666675115980e-03
-5.857301721466721955e-02
-3.479970371212874336e-01
-3.525627376112264177e-01
-2.498440481088250731e-01
-1.135712960337461773e-03
-4.176183841547483067e-02
3.040696193969366634e-02
2.201425463679873573e-02
2.294947952488656517e-01
-1.419564792673460585e-01
1.281589691808750209e-01
1.139671311126497361e-01
-2.894530172180515351e-02
2.076941579928734752e-02
-1.004761455301707018e-01
2.001253856511172047e-01
1.275059266439833305e-01
1.593144154517373290e-01
-9.185404966772885149e-02
-8.708072608564328132e-03
9.097430586205849934e-02
-8.861244789371044983e-02
3.645205484784303646e-02
-1.356309299508811142e-02
-1.727277400951737762e-01
-1.903419692417931686e-01
3.783475169362607304e-02
2.661072962389396390e-02
5.744248589429367703e-03
-4.080743522964407066e-02
-3.702697715736053552e-01
-3.514798877597438698e-01
-3.097014114999406265e-01
-2.039648502376343875e-01
-3.945792980093214553e-01
-2.486250743497490923e-01
-1.540716636696770336e-01
-2.381765777202352746e-02
-3.186696445342662026e-02
-5.154748926359029731e-02
-2.015790563563472568e-02
-4.884695916804860857e-03
2.351497397430887260e-01
-1.428842598102767758e-01
1.028362854269763149e-01
4.598550739536957921e-02
1.686076816477654894e-01
9.268375738014793253e-02
-1.096736700507131845e-01
-1.820359415087657168e-02
1.845689548836128291e-02
-1.113813561978249655e-01
2.194388320000118520e-01
1.427860979404762254e-01
-1.733846015063744972e-01
-4.901029430270266440e-02
-3.114932676024750879e-01
-1.798966046315252365e-01
-2.978271574613105752e-02
-1.656701192954717072e-01
1.292557326342181900e-01
-2.253840821029361521e-02
-2.454308887518245191e-02
3.904133563521493266e-02
-3.222327934172425912e-01
-1.893391977389758951e-01
-7.439349104164874604e-02
-1.194361530152880518e-01
-2.035885697753586909e-01
1.346089232350107801e-01
7.119704260310819044e-02
2.368283553157172691e-02
-8.422031336621843556e-02
1.858032724622572102e-02
-2.364971420500854016e-02
1.533458453779927011e-01
2.411283610054838766e-02
1.903277306521635737e-01
1.812602994555941316e-01
-3.410632675553926935e-02
-1.404109904649282758e-01
3.966188674924196050e-02
-4.148015768928280805e-02
1.536991823270234814e-01
1.976042896252366565e-01
2.513878097492503461e-01
2.729914499505359249e-01
3.390308394262890879e-01
4.447519683591292239e-01
2.230413284375642458e-01
1.622342121799046355e-01
-8.879748181118651829e-02
4.608833827849705134e-02
-2.320492446360495897e-01
-1.809226564527886272e-01
-4.835809386179088509e-01
-1.675753732396343676e-01
5.989976415123825920e-02
-2.223431173787119575e-01
-8.904676114950141330e-02
1.830595430012789404e-01
-7.957326078956064586e-02
-5.038460417090216692e-02
8.379454209094476524e-02
-9.475759651298779063e-02
-1.044690668268968836e-01
-1.219284406106365820e-01
-2.958219579865122850e-01
4.440350367421683903e-02
1.433988501231011964e-03
-1.265405336400882985e-01
1.424077007934106132e-01
4.858353604798627129e-02
2.793347344348158859e-02
1.882324965103787384e-01
1.971955074716376655e-01
9.696034602025134508e-02
4.042277139706018652e-02
8.642288843642949303e-02
-5.192711755300588594e-02
7.234317866626187310e-02
8.135410151205955953e-02
-3.860105372012337388e-01
4.296344676874942758e-02
2.436515769886217139e-02
-2.330467310810503123e-01
7.186369628007846511e-02
2.895145013467862252e-02
-4.512690168618309350e-02
3.469921323712874678e-02
-1.405982983516084750e-01
-4.728369145131888079e-02
-1.581462847693636542e-01
2.102611047847441350e-02
-2.496875569312832777e-02
-1.501311052592013418e-01
-1.635404414275963281e-01
-1.099356363022141875e-01
-6.128157700538306579e-02
1.169060659369107052e-01
1.152916639008692151e-01
1.255661370886750339e-01
2.246560886952044256e-01
4.384068743385801104e-01
1.157480124947023598e-01
1.352342575733427588e-01
2.252124383121432150e-01
7.129075899083269982e-03
-3.547605827273912077e-02
-2.027888761652698324e-01
-1.128996172231488543e-01
-2.788071418442716332e-01
-8.936036224775481540e-02
-4.970174751254784890e-03
-1.321253180886249046e-01
1.315798455386303981e-02
-9.449558152951140211e-02
-2.468527552274241144e-01
1.716128644971953165e-01
3.405057332116033422e-03
-1.615414265991606604e-02
4.193468152521222930e-02
-1.133599457523399856e-01
-3.339929684018783096e-02
1.062611344624658505e-01
-1.704053289311981828e-02
-1.152583657497433661e-01
4.723030546569990662e-01
4.153281397677710540e-02
1.383545420538477011e-01
8.991287780008591635e-02
1.360562733308230687e-01
2.494749197826989784e-02
1.642843898871157171e-01
-2.696181822201662928e-02
-8.704706776685859626e-02
-2.128389347954965510e-02
-1.664305404954965484e-01
-2.009528374517678337e-02
-2.801266627542887688e-01
-2.500620871453837490e-01
4.815683782537279189e-02
1.906646143439797159e-01
2.006095487166424662e-02
2.875630549985403253e-02
5.265219723579344507e-02
-6.505380473154538656e-02
6.006427353289120474e-02
2.499850145300339110e-01
1.416704983375733917e-01
-1.272138969934395458e-01
-4.601066390772930864e-02
7.640272007210105812e-03
-3.839742509733264780e-02
1.006113531463103533e-01
2.025343420593349320e-01
3.188189192787915099e-02
-2.633439296284001419e-01
-2.144761594793095638e-01
2.630627896678425226e-01
3.956795795342065714e-01
2.826628266145384538e-01
3.030648947550430017e-01
1.311596309964041807e-01
-2.364656513897691811e-02
7.050963397052120718e-02
-1.896275899356609229e-01
-1.720994502109288726e-01
-5.191701742511549700e-01
-4.344211404237074275e-02
-5.303028546093981055e-02
-9.434944024032802801e-02
-1.030364606789236498e-01
1.937929831106112444e-01
-9.186299208184349474e-02
-2.783920075962748736e-02
7.543454294505523572e-02
-1.074942360613361930e-01
7.794572971372926151e-02
1.966568240815604052e-01
-1.011103959276522246e-01
5.207071151500984596e-02
5.262201272841211530e-01
1.391164067804071536e-01
-1.769103046854664518e-01
-2.360194094216017946e-01
1.492298380775218258e-01
1.646124377230111790e-01
5.544537918219416550e-01
6.193716850897841297e-01
3.261826881218939933e-01
2.481964239566999686e-01
1.285029616731534763e-01
-1.674929948505932131e-01
8.851277706987781269e-02
8.628386695554480373e-03
-2.217221626748445695e-01
-1.929788659023700878e-02
1.462550441480862107e-01
-3.347211281084287032e-02
7.898870749933989410e-02
1.105444290590903988e-01
1.014688643321033784e-01
1.196453484849108323e-01
3.121374438107086813e-01
2.456634449831055778e-01
2.399372317387658271e-01
3.462848069083293567e-01
4.156274635779044213e-01
4.741088899600647832e-01
3.721206567736469739e-01
-6.133230709630568128e-02
-4.381253782942489128e-01
-3.728830506267704625e-01
-4.786840449495657207e-02
6.530636614997874928e-03
3.057834616035932096e-01
8.025289993712415582e-01
2.102418324360003365e-01
3.490067840988214098e-01
3.174250673336922457e-01
6.915190226769497156e-03
8.502750530390651429e-02
-1.180709756825771596e-02
2.092375948644960570e-01
-1.125745905916294420e-01
2.806267501768795053e-02
4.188426178380221659e-02
1.128533930170695226e-01
-2.105268263881411583e-01
1.275424676593209516e-01
8.036505912097609283e-02
1.667527822124753034e-01
2.842099364498395508e-01
4.324524028230204431e-01
4.214423460410119948e-01
2.126061286047843946e-01
2.224951503615367476e-01
6.185867832669861982e-02
-7.072044598523853642e-02
-3.646296666498202721e-01
-3.015035652537442767e-01
-2.865350429433587420e-01
2.090904010240766664e-01
3.843525050357676220e-01
5.204942300080346307e-01
3.526267660209853050e-01
4.536045080746111124e-01
1.907543363002846548e-01
2.431036529452465789e-01
3.216913855344663009e-01
3.477167730569453302e-02
1.498843554896018282e-01
4.244817012037886694e-02
3.221141095511609320e-02
-4.406133644842563646e-02
8.750088332196674645e-02
-2.222622170639227540e-02
2.036307585974778678e-01
3.718200601781856268e-02
1.322569405065593118e-01
2.443431459911301618e-01
3.577639836288754038e-01
3.299448940284647747e-01
3.327455257647171649e-01
2.761933965907635846e-01
1.881695498902406227e-01
-1.462573021903564585e-01
-5.149109295579514800e-01
-6.240563471532883932e-01
-4.069935241461197784e-01
2.251546574908414033e-01
4.050512854524106476e-01
5.145502420354410855e-01
3.234245300196371131e-01
2.016189949704983442e-01
2.360363046862713476e-01
5.844063730629709408e-01
3.311697726522384033e-01
9.025624948381281987e-02
-4.969242684229124851e-02
1.719142344009625401e-01
1.992938102125875743e-01
2.394475553119814748e-01
-2.322706847717033452e-02
-9.090861720319930173e-02
1.470200939955779336e-02
1.402137315221089475e-01
-1.605281714724145492e-01
1.868346751073269862e-01
1.184478083774329615e-01
3.787943775111731193e-01
9.957683194487743084e-02
-4.217364006672327109e-02
-1.813524005612177636e-01
-2.393225853370608003e-01
-4.112851095647722666e-01
-5.421438967971810019e-01
-3.345655274214643371e-01
1.295461469176060754e-01
2.258910398004241038e-01
3.497386432685409829e-01
1.730582477510644868e-01
1.929363440514732242e-01
3.259348406699603684e-01
1.503352579530048694e-01
1.053444715513582597e-01
-1.203232949969705069e-02
-5.428711508031938693e-02
2.324496750648264998e-01
1.000131486751362347e-01
1.733201182605832724e-01
-3.270469336635822843e-02
1.171420474017438422e-02
2.274178620832197420e-02
-5.372830454913627915e-03
8.541376804548951596e-02
-2.933809044170782379e-02
5.838625285907381168e-02
-3.363479689333027933e-02
-1.838476461792876993e-01
6.750505361468762955e-02
-2.883444277651129317e-01
-3.380480483157745630e-01
-4.516419546462032142e-01
-5.358713202936591369e-01
-1.177880264224913792e-01
3.354311320992179324e-01
3.957343739106654601e-01
9.442053832244033662e-02
1.865343945076845464e-02
2.065441207780140398e-01
1.720537341063299586e-01
1.055479983379010722e-01
1.475047622787423185e-02
-1.096553791526777150e-01
-9.421220344374807432e-02
5.442021718882370657e-02
5.691151612531540616e-02
4.585370945117141217e-02
-7.467711241677056633e-02
-2.777068256667979962e-01
7.250632843970572505e-02
-8.124898517218791250e-02
1.386852634061206679e-01
-8.526769258095083515e-03
8.535246874582014037e-04
-1.797495453051892456e-01
7.875927277946891125e-02
-3.191688911653240979e-01
-5.351090674018779136e-01
-4.630309500788178378e-01
-2.639806395868914968e-01
-3.603397444041510633e-01
2.869294285278922163e-01
7.739952975634814547e-02
-3.539911725832140671e-02
1.915574815076906967e-01
-6.778218250606940498e-02
-1.276302527556781308e-01
1.978733383146243363e-01
-5.608344520692965657e-02
-4.559504735490534089e-02
-1.452453119615012556e-01
-1.362271734741843099e-01
2.729154924579964975e-02
-6.243284302079039894e-02
4.530406099970819139e-02
9.274189385188434664e-02
9.916535790242814175e-02
5.048673757337224233e-02
-1.643664375317029636e-01
-2.178018272274237846e-02
2.435887507840693578e-02
-1.696160668396012317e-01
-3.500132467276432791e-01
-3.114416632505147553e-01
-5.626518915313216684e-01
-1.695760157954501191e-01
-4.312239812387125282e-01
-6.251234279535524685e-01
-1.841894936006114036e-01
1.258840364074061691e-01
-2.705778690687806950e-02
4.381520485266365145e-02
-3.695612518420581250e-01
-2.172206537098776702e-02
-3.509408590411054740e-02
-7.921172221728574325e-02
-4.022766600517559132e-02
-1.069711606117945552e-01
-7.765042834553774476e-02
1.805438061918619719e-02
4.551137490352211851e-02
1.140830503696751153e-01
4.200230914292732431e-02
-5.668223608993824825e-02
5.304251180206474153e-02
-9.831905416490437088e-02
3.121520478755863102e-03
-4.813287002463271201e-04
-2.098162253624260010e-01
-2.948704390485725191e-01
-3.632228026668380960e-01
-6.181966158463099159e-01
-6.294834796411375999e-01
-3.767975995628684571e-01
-3.849543015628524301e-01
-3.442425021756440051e-01
-3.724470153844054998e-01
-1.924402274250330835e-01
-1.601725258813395947e-01
7.897605350860646689e-02
-1.454046703916772043e-01
-1.623458936110193374e-01
-1.380455235729501351e-01
-8.247823188628192193e-02
-4.374154126938655796e-01
-8.598185828523655094e-02
4.172391872556987721e-03
1.212621708214567245e-01
1.059839587449699638e-01
-2.626637433689457744e-04
1.297818983148337768e-01
-1.103656786441036680e-01
-8.749075603288061775e-02
4.173624102946097564e-02
3.112239447712736307e-02
4.672669627881690518e-02
-3.345275016849338923e-01
-2.742672507099087054e-01
-1.837375101507635056e-01
-4.077282248531048370e-01
-1.969379475055659523e-01
-3.300950835693294283e-01
-1.366536969289833259e-01
-4.040040588149957368e-01
-2.080166073878568778e-01
-4.389447900726608509e-01
-2.351555647300638263e-01
-6.762476791710524127e-02
-1.459742762590360565e-01
-1.798986838453820181e-01
-2.233157084176746188e-01
-6.046016893283522320e-01
-3.941782748358133026e-01
-2.260973610352846191e-02
3.895643376225401550e-02
1.134968292713729454e-01
3.387604781528189002e-01
2.691167439099962158e-02
1.426637684266057922e-02
-4.473397369475514557e-02
-1.562751935684285678e-02
6.807437197912225187e-03
2.069729070355827150e-01
8.316400210239816015e-02
-1.466112688147167276e-01
3.530919593167228254e-02
-2.698991517378420690e-01
-2.087398374569327253e-01
-3.061846611867198864e-01
-3.648386862173169098e-01
-2.554250044106466389e-01
-3.938183640849493572e-01
-4.215326645726346078e-01
-4.930185286486230001e-01
-5.273468947386616978e-01
-2.568431958913157120e-01
-3.499695938358662328e-01
-3.372304873206492526e-01
-5.654523252350994733e-01
-2.736885602620258706e-01
-3.113948524279246469e-02
-1.537191490809892147e-01
-1.452128460163424062e-01
1.789665443578182871e-02
4.000382713214549468e-02
1.682688788492698595e-01
-4.752127554255951986e-02
2.016154771881125407e-01
-1.854291323384953949e-01
2.633147045507827633e-01
-2.658034703670728027e-01
4.480139494682875562e-02
-8.073807741193930743e-02
1.280506010407770623e-01
8.721383032007175296e-02
-1.059061515515596352e-01
-4.076825074545825656e-02
-1.462004024412671133e-01
-4.221945399308382751e-01
-4.999380235817839635e-01
-6.078484707401096143e-01
-3.297348437290730239e-01
-3.564246229162197355e-01
-4.810386371016863172e-01
-3.226821965385738289e-01
-2.852226926941363039e-01
-3.904387749782447514e-01
-2.496164846223665190e-01
1.246362031154658878e-02
-9.164015291323659995e-02
2.717523549856749043e-01
1.020196780607515556e-02
-1.040503422852036702e-01
1.429343754084259621e-01
2.085467350533573919e-02
4.555941998669250925e-02
1.965329517775174853e-02
5.609676196371302104e-02
7.735905531931487611e-02
1.822218896931885046e-01
3.270738977610301856e-01
2.210190200534174060e-02
8.924415277917094325e-02
2.676170154362293996e-01
1.208960322355296796e-01
2.660873585328158430e-01
8.919337507066490978e-02
-1.978743498276114010e-01
-2.007805636559714946e-01
-2.820396150010511804e-01
-4.381028624395229554e-01
-2.107778047062019988e-01
2.799017760032336891e-02
1.294279566208974552e-01
7.172102772386798261e-03
6.195762025818906532e-02
1.239486927030057778e-01
7.125963651677149659e-03
-2.025409657505537198e-01
8.676434377264052866e-02
-7.330618618348266891e-02
-2.205215969121052805e-02
1.982757642084677085e-01
1.987988337684567230e-01
1.858308282420821078e-01
-3.002045718500134103e-02
1.652372582905821397e-01
6.503529321747950065e-02
2.571623433865009578e-01
2.429175137517264049e-01
2.174337076258109624e-01
7.322715160906426157e-02
4.946937691885890109e-02
2.123989977324718392e-01
2.056786710513631433e-01
3.699206862288648701e-01
3.865930349095281215e-02
1.712862160176777671e-01
6.801176331970310018e-02
6.846417593625946096e-02
4.808902177883492973e-02
1.007017176582164775e-01
-9.800067025120168945e-03
2.228541900268825871e-01
1.083385263087320721e-01
2.185633878049660639e-01
8.702984234518314210e-02
-5.970034327374771493e-02
1.009459522415487483e-02
1.008908916715801768e-01
7.379868494404276391e-02
9.549159819877232891e-02
-2.058367856746403934e-01
1.088725221440593055e-01
3.309669068136532333e-02
3.230363011646578131e-01
-8.679249860002159755e-02
1.015606733149331947e-01
-4.758002947822879969e-03
1.319999043358933144e-01
-3.707912403507543191e-03
3.903494475152245735e-02
8.723624776918881274e-02
-3.805720618408670042e-02
7.570356846284446994e-02
-2.464653044815279942e-02
1.388979306239974953e-01
4.957796667532372858e-02
1.926376834538295196e-02
6.787079563439926688e-02
1.485743164491628576e-01
2.109958981639855069e-01
1.666168870549105674e-01
-6.210156489434875970e-02
-1.015559560990996063e-01
-2.144571494524764518e-03
8.372900567522724435e-02
1.578848463294954194e-02
1.701837041601024503e-01
1.260975666970940434e-01
2.104415272862077135e-01
-2.670069200229552644e-02
-1.552872345955604548e-02
-1.415546112733882811e-01
1.024779847039458125e-01
-2.392840774641458862e-02
-6.443285404170870367e-02
9.999117795425851996e-02
2.009781090779068635e-01
-2.835239640291293828e-01
4.572518794626791172e-02
6.402479315835116203e-02
-8.116551914152347891e-02
-1.040990629234029088e-02
8.003144579201443287e-02
-7.802236819935366718e-02
2.850747545770095093e-02
-2.878885930298639203e-03
9.191898444881622943e-02
7.486987880265119633e-02
1.610593870742135225e-01
-7.297588446998651279e-02
1.089437293247873528e-01
4.567797700388460079e-03
2.093408344919881620e-02
1.869238215916101814e-02
2.598871781921864299e-01
9.894389940629688684e-01
