8.745837779104488618e-02
4.660603858117043363e-01
7.317884935390784884e-01
1.085873506210710410e-01
4.305010822081939970e-01
1.171617631905171653e+00
7.392493137612309306e-01
-6.901739026048364645e-01
8.797260967198390347e-01
1.669317530513223236e-01
3.878657915842371740e-01
-6.585235473640672632e-01
-2.726173155829554329e-01
-4.747457903217362496e-01
6.919120958711942881e-01
4.201691238670846595e-01
-3.467606964668040748e-01
-6.197653038331882858e-01
6.687850280184157725e-01
6.975296414068923312e-01
4.513762556457781572e-02
-1.027537120032595425e-01
5.721526868851790626e-01
-1.794074788223646855e-01
-8.379513602304582420e-01
1.405642741100064930e-01
3.349675763343166190e-01
9.975550820372534044e-01
4.518776851390805538e-01
5.718281984767848575e-02
-1.421979412024191536e+00
-1.704532848645924581e+00
-2.424790324679461373e-01
1.636832509668296187e-01
9.298195154268544815e-01
-7.026581078476473730e-01
2.626574727229205042e-01
-8.365458841659862976e-01
5.047514714330494368e-01
1.418269571996390699e+00
1.971567805300913911e-02
7.266814434226506192e-01
3.688941391294626171e-01
1.885803557289872145e+00
-6.903932739968519083e-01
8.384175254470801475e-01
7.037379177492856241e-01
6.117210601780986856e-01
3.830875019170217333e-01
1.275505521960108801e+00
8.565080924269254936e-01
1.455124549106371790e+00
1.186756189089107766e-01
-5.169257855093557508e-01
-1.889266212934830047e-01
5.467382296542762088e-01
2.676849900332455290e-01
1.063458202465104696e+00
-7.431337649644413901e-01
8.422567650826725538e-01
1.022363378451110139e+00
4.275974606838658237e-02
8.582252482579207087e-02
-1.413477060385672779e+00
2.881287151092873366e-01
1.016707432514224907e+00
1.254324541628982215e-01
-6.741957778371086007e-01
-5.322811342404576429e-01
1.201969433836042711e+00
4.147719764219028327e-01
4.149578938451209953e-01
1.775638330671472920e+00
8.538108471489969098e-01
1.353651855662717951e+00
-2.458694668230850811e-01
1.487257727261268148e+00
7.706880372561293324e-01
1.039894137538711627e+00
-1.411048397590461967e+00
6.950626158510820884e-01
-5.246446514851431653e-01
1.370528134650065066e+00
-3.168445813887734164e-01
5.602759641433713300e-01
3.872282682061156667e-01
-1.155153967957849526e+00
7.159211936456799652e-01
-2.750118782823479435e+00
-2.242362802983432644e-04
-3.514632915854836170e-01
4.628799162254496752e-02
1.982713536670287213e-01
9.938859350525397485e-01
1.218674281033643281e+00
8.313536545671661449e-01
-3.484672179180908214e-01
-2.678564899854950498e-01
1.535142490105958490e+00
-2.419276443125045473e-01
1.675972802526811689e-01
2.729577637263825296e-01
-1.265539918506647932e-01
-2.930635900220536771e-01
3.029289404863632629e-01
-6.195023552298023484e-01
-1.114960042573166499e+00
8.563058558976858192e-01
3.365680483851350990e-01
9.264999586288268363e-01
4.228740765870711571e-01
7.959065222193437150e-02
-2.400636428635362085e-01
-4.958189911800804928e-01
-4.512190027207649279e-01
-8.550907999043119156e-01
1.078360006052891951e+00
1.131567823306543069e-01
3.352517663587780694e-01
1.643175724317782693e+00
1.370209761927189573e+00
-6.472823547521491250e-01
2.907666998417873128e+00
-2.902779934934719974e-01
7.154976143847255332e-02
-8.999323969580560467e-01
-8.543080024253267568e-03
-1.664555282544946335e+00
-5.359678341949164482e-01
1.106496156608163695e+00
1.606457340883108431e+00
-6.550057746138298054e-01
-1.702406095343644062e-03
-5.752224239643516368e-01
-7.181794832454110877e-02
9.424039519974558576e-03
-7.664128198153276061e-01
-1.858680458435310934e+00
5.011484778012053054e-01
4.369519261784528541e-01
1.243441737894487170e-01
3.488121422262351889e-01
-5.964756562552558927e-01
-1.934135137418435124e-01
4.166664569419630260e-01
-2.260545456901336792e+00
3.527268082180228803e-01
-4.255629245110747472e-01
-5.088900453867780671e-01
-8.010323139798137815e-01
-4.651783336669869373e-02
8.130637428869040839e-01
5.838960096097324248e-01
-1.744082701215723841e+00
-1.297879716419963803e+00
-9.880673192282579675e-02
-1.462259502015031076e+00
-7.446744381893929399e-01
-9.181159277075129355e-01
-1.356383725328382361e+00
-2.097416086954919656e+00
7.274246926175259587e-01
-7.832967430382159479e-01
7.069307299342554307e-01
4.571424042514212194e-01
1.601779137309749634e+00
3.608734559956835453e-01
-8.940202232089051737e-01
4.733364451081151780e-01
7.363132963073394655e-02
-8.666463761575546321e-02
4.805426478208587593e-01
6.535953641020569860e-02
1.168313938112986783e+00
1.454636448279261474e-01
-1.102601713588043486e+00
1.028887740728710254e+00
-6.057735964540633677e-01
3.196375801271263972e-01
7.068562214320842640e-01
-1.188642743891270337e+00
-5.279017173185434064e-01
8.876573779790764007e-01
-6.251696322018297503e-01
8.285236593670205485e-01
4.437650671021782234e-01
4.320348351967204792e-01
-4.764552299161871514e-03
-1.042255692472136674e+00
3.867150866295214484e-02
-5.984787230250195877e-01
-9.507763625882429404e-01
-7.172403622346040786e-01
9.092475302664667636e-01
1.425946979471164999e+00
8.426509398788691874e-01
8.670632273934105738e-01
-4.180740307604016159e-01
4.474269201115703143e-01
3.986942188627638495e-01
8.270563000698947231e-01
4.825319585078191031e-01
-3.733151892573085551e-01
-4.478174377503305048e-01
-2.330964784107870391e-01
-1.367702350644335541e+00
2.328333213950694452e-02
7.459160998746514615e-01
1.265947520739866272e-01
-6.444480643247160190e-01
1.284606997611930757e+00
6.377904082940373254e-01
2.586722262897527269e+00
5.967673960982514680e-01
9.915387883162978255e-01
-1.007416839167982747e+00
-1.267205662325570151e-02
3.077588707536749700e-03
-1.856138968920680643e+00
-2.154655176619715728e+00
-3.275202326808767106e-01
9.575848473727753829e-01
-5.507730977656672966e-01
4.245944329450119237e-01
3.717193390285796761e-01
7.213251415350799833e-01
2.028025862299669413e-01
-2.794272434625645896e-01
1.201814791776101565e-01
-4.597916810532488574e-01
-1.131029330997148197e+00
-1.983687039819471920e+00
-8.244439435594931587e-02
-5.202464344068832292e-01
-1.230184900433623219e-01
-1.736247800359319582e-01
1.107949193049082348e+00
-1.119159524831693231e+00
8.161283578263306415e-01
8.659568393967062017e-01
3.768989199760707787e-01
-1.256339574548191729e-01
7.862583875003298362e-03
-2.324661782273033939e-01
9.919522795104842583e-01
9.638741072512273522e-01
-1.825251125870562596e+00
6.581011049237406318e-01
-1.203483923748477485e-01
-1.566591013294243329e+00
-1.102244899105084164e+00
-9.294415804339983822e-01
-1.152310588046220774e+00
-8.964372837590923737e-01
-1.739218142178539095e-02
3.238657111143834477e-01
5.220967776325522447e-01
4.788935745305871183e-01
-7.705461890279837744e-01
1.564045706464926022e-01
4.223825424253749294e-01
-2.396376337537651668e+00
-9.127777618408633442e-02
-8.620095235814115298e-02
-5.937284857678450933e-01
1.084746660048931721e+00
-2.107475028398350936e-01
1.757238360553081913e+00
-1.568817252546888807e-01
1.557934993025710924e+00
3.128743460193880721e-02
2.147190212256364639e+00
-2.000422638909273854e+00
-3.561271588455585668e-01
-1.119499216536629316e+00
-1.917912872420590720e+00
-1.358321137026332392e+00
-5.966727389857438002e-01
-4.517102301752092819e-01
-3.286411040093212277e-01
-1.148640677500745166e+00
-1.692768761064225247e+00
9.567590213553534007e-01
7.833667407966448115e-01
-6.305751189924760913e-01
1.220865937864088480e+00
-8.876920733785726991e-01
-6.834569210897282199e-01
-4.475540280241158686e-01
-8.168714964854695282e-01
7.261923976041222140e-02
8.333816549159409615e-01
-9.071374838229502302e-01
9.498086085164511028e-01
-4.175935692732851701e-02
6.691378932327034235e-02
1.314232390229204794e+00
-7.705661636132149495e-02
-1.210532501051612586e+00
-1.056407548393918816e+00
6.979491972354183449e-02
-4.830228206948457559e-01
-7.858748701212415755e-01
4.335537499907450298e-01
1.305656135401538076e-01
9.320541491263497624e-01
1.449378446224116601e-01
-2.992194339894845290e-01
-1.890354715922879653e-02
8.450450863298383242e-01
-1.145795439241067193e+00
2.027148776152884468e-01
8.915735650677384383e-01
-3.636239194093848215e-01
-1.160208115068267931e+00
-5.207454862945002372e-01
-8.739152146266748744e-02
1.186987267015078285e+00
-2.556091157949071796e-02
1.632822291923162306e+00
1.048461502904468823e+00
-1.180432290908415061e+00
1.094771043085210227e+00
9.280636806282883677e-01
2.444334488089208168e+00
3.410409569741388314e-01
2.904338403626694820e+00
1.143898300292719661e+00
1.163328410448855932e+00
-4.878885983495709344e-01
4.887775643623507721e-02
-5.330580536875878517e-01
-2.291858796825898548e+00
-3.693485369616843483e-01
4.796579491891716507e-01
-4.752030284001232223e-03
-3.841319138396578903e-01
6.650739972556281021e-01
-7.574337164726244187e-02
-8.392371465033162670e-01
5.318863467861775218e-01
-3.888312779133766273e-01
5.602902967990748273e-01
2.409271689244911752e+00
1.196002775498192339e+00
1.390300774238421244e+00
1.871433497089344478e+00
1.329018574690479237e-01
5.439168417212127959e-01
-2.070394187340576675e+00
9.503722907318771229e-01
-1.103312004422166703e+00
2.783767011175656947e+00
6.424646992756668507e-01
-1.619851722483030554e-01
8.640490637202479229e-01
1.154687415565691877e+00
1.199134225704480694e-01
-6.182677856547987849e-01
2.436512492307493449e+00
4.335128946705024688e-02
-1.052464660722140843e+00
1.525519522502820191e+00
-3.401114622929127251e-01
1.060931766227503070e+00
-1.922224190682033651e-01
-3.008079224802263085e-01
-3.640416562681512147e-01
4.466904251334715137e-01
7.075601826273375528e-01
1.988580578344948169e+00
1.108969661731691536e+00
1.334382451085534660e+00
1.332016021336775768e+00
1.846767112756948270e+00
3.202669971084035061e-01
-1.479608575397924675e+00
-1.677258231927694743e+00
4.968070929180027906e-01
7.854069501709410872e-01
1.332818010664951869e+00
3.659682331491288299e+00
8.792076408560990375e-01
1.756930836328029599e+00
1.764429276413465864e-01
-7.870086706618755201e-01
1.191873566471089552e+00
1.043888946838381904e-01
-1.683346700716292776e-01
-1.850024656586188587e-01
2.068416708958713990e+00
-1.107374486566233607e+00
-4.919298141837931682e-01
1.933794330042080123e-01
1.302410901891130957e+00
2.477365261366843985e-01
4.830033900458913787e-01
1.408122191214402186e+00
2.565731139479410228e+00
3.314185459160925995e-01
3.389189850564798268e-01
1.086482870262903466e+00
-9.060081641371113548e-02
-1.138137900466265284e+00
-1.884635263307895325e+00
-7.470793968505983207e-01
-2.222113037720804041e+00
7.944728641914505785e-01
2.859097582270407223e+00
8.783646893485812512e-01
8.974979600670406343e-01
1.205101329158773771e+00
2.251527576563058464e+00
1.547214821718935429e+00
1.662561104852182003e+00
7.716244128931298851e-02
-5.852228175881474259e-01
-4.145951000723759328e-01
9.723684610655241034e-01
1.178630549254534365e+00
4.791878134548958612e-01
2.598981991012103143e-01
1.499174848036957552e+00
2.261477158409844757e-01
3.909634236287559683e-01
7.773634737683747797e-01
2.216507210217124157e+00
1.448402694663064372e+00
1.754061199060850784e+00
2.601021418014972664e-01
1.639256982690813436e+00
-1.146578849702354352e+00
2.946724958926874027e-01
-2.108912261231874030e+00
-1.842953015944844841e+00
5.768116267949047193e-01
1.342363799089146825e+00
3.421684910394129364e+00
4.191559571162701281e-01
9.000166863825973529e-01
1.482521482587711104e+00
1.361121402868380903e+00
8.555478842315068500e-01
8.941331448984279895e-01
-1.284789271466435956e+00
-2.142194877902746375e-01
-3.569034984271746147e-01
1.315688386955615519e+00
-8.345816127942415341e-02
-4.498866480621760977e-01
-2.190603523683695153e-01
-5.946412403766759835e-01
1.451942902375692179e-01
1.658079137625833921e+00
1.195427035962655316e+00
1.355552726319222634e+00
-2.878502936647635013e-01
-5.734846955435144444e-01
-1.873581816078027540e+00
-7.403887398340214254e-01
-1.351411259920026087e+00
-1.572020536754835218e+00
-1.401454970309553127e+00
1.665962508812742993e+00
2.357530450864089022e-01
1.203095254252729784e+00
1.315942475751431306e+00
8.306794937951772484e-01
7.216779385245887246e-01
-6.160117216639343640e-02
4.412333675757620366e-01
1.245056396054748521e-01
-8.369046072349426435e-01
-2.282320835452409380e-01
-1.431690420560433608e-01
8.953661159049068896e-01
-4.510167613022589839e-01
5.070247010914915586e-01
3.059885242051584853e-01
-1.781926919222793712e-02
2.900407609148741676e-03
-6.777646556953014212e-01
6.587275321546107731e-01
-1.601532447470541465e+00
3.000238985918474155e-01
-2.767767277752984367e-01
-3.417395641431461017e-01
-1.458745155700279739e+00
-2.289178788330559655e+00
-3.558450588433647699e+00
1.267058929383076682e-01
2.659371228148798671e+00
1.137129784746793382e+00
-7.035537191952386804e-01
5.396214652876447637e-01
1.432892397083143310e+00
1.513022145559572484e+00
1.117854251337192295e+00
1.146449275084150399e+00
1.716408623688910062e-01
-5.237146628526353487e-01
-9.009643237536278937e-01
8.571619883995756917e-01
-1.701526720847125777e-03
-9.123990611698011566e-02
-1.083247813349041966e+00
5.708286968447303655e-01
5.893536577001549093e-01
9.237050183503333622e-01
9.191811306838699666e-03
-1.086492003679779828e+00
-1.393059976829530422e+00
3.748199010907277695e-01
-1.005478897836216134e+00
-8.165695431756071487e-01
-3.016252540660589787e+00
-7.155967226936181813e-01
-1.829043619728867975e+00
3.812952702046701892e-01
-1.023954623777520334e+00
1.083902506976842428e+00
1.782755083354585546e+00
-2.433028678561252600e-01
1.825352656096109749e-01
-9.723469719534533207e-02
-7.901341104415164907e-01
-4.441571692561737117e-01
-2.425951445838479881e+00
1.424776608967954772e-01
4.162237681768028996e-01
-5.883436982642775703e-01
1.242325538160860832e-01
5.508738910144502787e-01
-4.708613681069441226e-01
9.202703946811400249e-01
5.928250093385736830e-02
2.932027142602830483e-01
-2.047915041099059377e-02
-1.563790068137127856e-02
-2.687906520448028136e+00
-9.486703541478458401e-01
-1.989626999715636613e+00
-8.961346958709084376e-01
-1.266335151481968735e+00
-1.696708415449752927e+00
1.580305857786570845e-01
1.025442805615520842e-01
-2.030712820013545361e+00
-3.273154447268197126e-02
-5.822562146956519191e-01
-6.123799838411949636e-01
-2.324656056481818334e-01
2.104200260092173869e-01
-1.451442997142567304e+00
-1.155875122360058738e+00
-1.268154875722065311e+00
6.269106822487248154e-01
-1.383837781922104826e-01
4.946968330541287040e-01
-1.058017452910012368e+00
-5.374184610578648380e-01
7.614888453510025856e-01
-4.527133098632142305e-01
4.696483784514889903e-01
-2.011524565199261302e-02
-2.121956236633075199e-01
-1.201939048035264745e+00
-1.233571585497718059e+00
-1.877319338760482736e+00
-3.383319954778548855e+00
-9.460860745154860973e-01
-1.061493357247236924e+00
-3.332055271182301492e+00
-1.883417171930978240e+00
-4.629454843373398965e-01
5.405729407608340642e-01
-3.614806474906539502e-01
-1.930624378898508020e+00
-1.430945273607643897e-01
-1.389707508339070419e+00
4.618790462317376999e-01
-1.042864311091709517e+00
6.803286058182932139e-02
1.248554736700475010e+00
-2.072717206737929863e-01
8.050976534224200121e-01
7.723043116600859515e-01
-3.800975939464103504e-01
-6.395413940391601049e-01
1.519870718739793736e+00
-5.238861856060446076e-01
5.376086088453516654e-01
3.221545033747368891e-01
-1.201222765592103947e+00
8.653550870729037614e-01
-2.256332954447465955e+00
-1.292466912793338141e+00
-1.851089847315918968e+00
-1.120075722168047960e+00
-1.770028796941568006e+00
-4.904696756552887060e-01
-5.315885467959866606e-01
-2.045992965596052926e+00
-2.415439140566872922e+00
-1.169907439611703737e-01
-1.332527306284410518e+00
-7.178024463521289755e-01
4.810687570414290404e-01
-2.394921967358416559e+00
-1.284246062392405463e+00
-8.336859552408772966e-01
-5.670786427499977522e-01
4.706533785239870593e-02
-2.743009713237776204e-02
1.089107466548043579e+00
7.765478138107195782e-02
-5.746861390590153329e-01
-4.544718040807553261e-01
6.897932440225443829e-01
8.517295211431473723e-01
-8.537589524413247144e-02
-1.590505743197509148e+00
-3.069354273701995761e-01
-1.995512520073858820e+00
6.788123906617131720e-01
-1.078982716003473286e+00
-1.614489609958147609e+00
-1.423593379848431262e-01
-2.134209460601027786e+00
-6.919498858874155722e-01
-4.709204353762685979e-01
-2.446371468293328633e+00
-1.407694238895332406e+00
-1.060337818546431388e+00
-9.608096975059410294e-01
-2.150620321234534060e+00
-3.977848465829910696e-01
-9.917956250405317586e-01
-3.579199930318205936e-01
-1.273042409277893139e+00
6.350745806404203275e-01
1.148104929398239049e+00
-2.060873920331725007e-01
-1.523032426292054986e-01
7.283983889595867511e-01
-4.106567578033781807e-01
1.004939066618338428e+00
-1.896833208576756302e+00
-4.751210942613390831e-01
6.340104773214332301e-01
2.314458412321072078e+00
5.884979719471094411e-02
1.798683399292842419e-02
-1.343745893885365916e+00
6.167636413759383096e-01
-1.868445643400648892e+00
-1.289587717586126336e+00
-2.991721831781489982e+00
-1.284510829562983680e+00
-4.669183649208715758e-01
-1.280327312279092355e+00
-2.316113123683188668e+00
-9.945735866012167525e-01
-2.342427133915991000e+00
-1.636205409624103435e+00
2.186586426798330096e-01
-7.176088365005554026e-01
-3.380027791098023648e-01
1.194193496675126864e+00
-1.040142902820925697e+00
9.948884770607169248e-01
-1.502393948313662797e+00
1.134593012817443347e-01
-4.283954789972568844e-01
-3.951719196928811795e-01
2.555454247764559206e-01
6.568494525416471719e-01
-2.171597253056142263e-01
3.008565165715838541e-01
-5.046662386272292994e-02
2.490373442705315910e+00
1.913225722655917047e-02
1.044487126261342658e+00
3.465466805780998971e-01
-6.078835292221443920e-01
-8.828424129292037348e-01
-1.865551610241574343e+00
-1.400050376160919097e+00
-5.090025532291272414e-01
2.161736844146541769e-01
-6.242849781607491544e-02
1.297337867854890525e-01
1.443585623702917653e+00
-4.590232204840700714e-01
-3.475428457692767426e-01
-1.437372986149473286e-01
3.547208674140744367e-01
-3.457011298780852115e-01
1.035556517914416830e+00
9.627837909737033684e-01
8.295290486840241062e-01
9.277151615690691910e-01
-5.299455685420112472e-01
1.686825347741177872e+00
-2.049390246693502116e-01
1.739232967804023866e-01
9.926160590646883053e-01
5.134393816260197640e-01
-1.811794013644403956e+00
5.573744790980068586e-01
4.666268637669659936e-01
-1.049682519095986727e-01
9.054639102707598974e-01
-9.873100142113676314e-02
6.540273347162197659e-01
8.113738083376017540e-01
7.885448583614339535e-01
-2.879264558796382906e-02
-2.067255422807553200e-01
-6.083058881845305743e-01
4.178977953374335419e-01
-4.243659019738308391e-01
9.186357570698542307e-01
1.398042370099296328e+00
-4.906967282723206369e-01
-5.625515929178873664e-01
6.138916008364918575e-01
-1.978845853007719757e+00
-7.924985815241089027e-01
-1.020288232153235830e+00
-1.953050019619372302e-01
-5.438796409458958037e-01
3.718653670803330868e+00
-1.279571210800142467e+00
6.892852784034499136e-02
4.739542055732643977e-01
1.041907635233371154e+00
-8.150148366610509010e-01
-1.994753047432887005e-01
5.871864671686236603e-01
-4.406817335535367919e-01
1.333127149133139511e-01
-1.145222638728048553e-01
-1.612787555196951994e-01
-7.356832425092688088e-02
-9.898674982224362484e-01
9.437155573431535993e-01
-9.840075587372890675e-01
1.405387386614896261e+00
-7.597240511356960491e-02
-1.691973259723137113e-01
-1.800247045144166835e-01
6.587282376857995780e-01
7.155883736500551207e-01
1.080846857513217296e+00
1.309707894558495012e+00
2.622358764422411115e-01
1.253489919481107329e+00
8.039625991162040464e-01
6.998668587588019463e-01
1.133264024782525137e-01
6.800366951104892532e-01
-1.273421970476630527e+00
2.130885543465713960e-01
4.619724423995816287e-01
-5.570105498097269736e-01
7.686008603207484802e-01
3.898913915197096958e-01
1.485138116135058528e-01
-7.277123000332006431e-01
5.394929804254378070e-01
-1.735142094359564124e+00
-2.422827285816217258e-01
8.284881599819668985e-01
1.461458115746319675e-01
-3.467312771904482172e-01
-2.928732051186763718e-01
-3.994186826705191651e-01
-6.245769136141223754e-01
1.217642977570175589e+00
-1.266764995170533759e+00
-5.018049020930102078e-01
6.399197446975015691e-01
-6.762893785299683991e-01
6.060092452470117408e+00
