9.040635575136973801e-02
4.815820421934709494e-01
7.588718907458807950e-01
1.110431634490972874e-01
4.442570901053154442e-01
1.213865511579394596e+00
7.669705653095586495e-01
-7.217196340089129247e-01
9.198132854063202357e-01
1.654997845063585493e-01
4.064437779369863835e-01
-6.862010259182896865e-01
-2.782837466407931948e-01
-4.877059542253227020e-01
7.220880054935144843e-01
4.343270054098387067e-01
-3.617396802743931272e-01
-6.398281613392162726e-01
6.961850941654894598e-01
7.245632254662928151e-01
4.943270574136698209e-02
-1.031429716067252950e-01
5.961661582407287163e-01
-1.873585626493720069e-01
-8.735992020848922790e-01
1.443722715991916927e-01
3.459214790127957961e-01
1.040458878899598982e+00
4.707022439378437673e-01
6.170808675983596725e-02
-1.478582172568033481e+00
-1.768169358884765341e+00
-2.528523234230221073e-01
1.607575431647682296e-01
9.661841371295154524e-01
-7.305587846986844047e-01
2.745212236413239748e-01
-8.701259188405376932e-01
5.227078752790254024e-01
1.470324704882858269e+00
1.995549206526223487e-02
7.559013226240892669e-01
3.868198950026704441e-01
1.958701287252457623e+00
-7.208289449747039557e-01
8.721951804365840610e-01
7.277673155751540612e-01
6.308020410593958571e-01
3.973007040600990969e-01
1.321193660994494312e+00
8.829848525254723191e-01
1.506086272247357805e+00
1.218190352056200410e-01
-5.369642176495607044e-01
-1.972659186238587825e-01
5.687626982628560812e-01
2.734883369832774580e-01
1.104574865859691890e+00
-7.749397178155840171e-01
8.719500676073916878e-01
1.059563484497390684e+00
3.921075388988956578e-02
8.748108876057542060e-02
-1.462387977693371699e+00
2.980767190052012738e-01
1.054256979411165585e+00
1.285165474550118425e-01
-6.991351609075007190e-01
-5.518033341874253317e-01
1.242602357237834187e+00
4.307681658052813778e-01
4.267882905053097531e-01
1.835217193346149411e+00
8.871740251720031667e-01
1.406694291376026307e+00
-2.563081488515022710e-01
1.543369854004998043e+00
8.007650816938134408e-01
1.079895003810479537e+00
-1.464987355824900472e+00
7.188953474763798424e-01
-5.441067399584460507e-01
1.424611255604578686e+00
-3.322658059583615819e-01
5.836048538339169145e-01
4.004303777331704173e-01
-1.197578137092006001e+00
7.406309551533112323e-01
-2.854207976353000831e+00
1.729633678439878664e-03
-3.646358678017215249e-01
5.241594164466886752e-02
2.074024243236580189e-01
1.021328362145939028e+00
1.263176536077652345e+00
8.603463277358159855e-01
-3.578583997132833705e-01
-2.850309628185896949e-01
1.594855228549200143e+00
-2.549876351198154256e-01
1.688494356676921160e-01
2.831159922817894636e-01
-1.264908418092697828e-01
-3.057964406037627092e-01
3.166105644564964905e-01
-6.495108346144139455e-01
-1.157432359772752051e+00
8.901665795246479496e-01
3.511602890846327596e-01
9.568901290038476226e-01
4.433119242900572243e-01
8.027064391371754870e-02
-2.598740606199337333e-01
-5.120400357971858218e-01
-4.717748650212761352e-01
-8.953098082303243554e-01
1.122224249070110424e+00
1.187574551169828657e-01
3.459249846397116079e-01
1.707216554419108245e+00
1.421698157364752468e+00
-6.727995144818801343e-01
3.017617573502565431e+00
-3.012525542816874013e-01
6.918421559144694033e-02
-9.313003900232903476e-01
-5.719973012940808739e-03
-1.725664299973006965e+00
-5.549072131850077971e-01
1.148703438244356168e+00
1.670419384941856489e+00
-6.787452640820952343e-01
-1.966651036915942775e-03
-5.892286775861258485e-01
-8.056638837664938102e-02
7.552208636544115519e-03
-7.922467651705351610e-01
-1.929203393554390633e+00
5.214216316435436038e-01
4.489606943277615336e-01
1.258502448731793066e-01
3.668091922722410136e-01
-6.200739515208122388e-01
-1.998654013046819722e-01
4.319520006691086045e-01
-2.348024401068058875e+00
3.679526447836380942e-01
-4.423412682615306402e-01
-5.285728676541044946e-01
-8.224594199175190301e-01
-4.777597717643891628e-02
8.448637575454545079e-01
6.035511275208190751e-01
-1.806576182236461436e+00
-1.345158081714463938e+00
-9.032108709346413356e-02
-1.519161278926752345e+00
-7.641580876129961952e-01
-9.540891777971971521e-01
-1.403223002436138955e+00
-2.170578214867606714e+00
7.561581093598034320e-01
-8.108426226888718613e-01
7.354088269698860758e-01
4.730935584529649685e-01
1.657546003745206775e+00
3.742257803243783099e-01
-9.253029148099887191e-01
4.886014356571032335e-01
6.957178552734964716e-02
-9.244367082992493989e-02
5.067612717417083745e-01
6.692123851761744291e-02
1.215668447194574675e+00
1.548859849986496950e-01
-1.142038007905541663e+00
1.066702502696008192e+00
-6.269625328257042440e-01
3.368721974218770177e-01
7.378745073479958672e-01
-1.237172356347792768e+00
-5.432319384361096182e-01
9.201380710839059951e-01
-6.472306409359549484e-01
8.580558936186225560e-01
4.618162065666907568e-01
4.502883756692354633e-01
-2.086791076145593903e-03
-1.081567216101960494e+00
4.275972680774930285e-02
-6.164140548287856403e-01
-9.818949226719895229e-01
-7.380221937702440282e-01
9.451537943829936284e-01
1.480246108344522193e+00
8.735625259731971681e-01
9.005267360387319009e-01
-4.338401273288089999e-01
4.605382865947978410e-01
4.147181813682340734e-01
8.574653622735520786e-01
5.008904133081029109e-01
-3.846157744972338310e-01
-4.540516443435891336e-01
-2.425631271708050818e-01
-1.417038821239082758e+00
1.828448887007662338e-02
7.793095954828644922e-01
1.318884737889368386e-01
-6.748754022161892463e-01
1.329498578762100980e+00
6.599380309307534276e-01
2.677490143117597476e+00
6.099760128837613538e-01
1.031240152596740289e+00
-1.046154968432319254e+00
-1.520099984782126608e-02
7.736851695263496399e-03
-1.924339359989394538e+00
-2.232963632601283610e+00
-3.358055403520813775e-01
9.897505744554216944e-01
-5.726257194282966534e-01
4.418339693354330633e-01
3.846592594847009772e-01
7.453832652961772665e-01
2.064733685561725152e-01
-2.920089602604784562e-01
1.221298951741695699e-01
-4.739910009959143466e-01
-1.169566218669038760e+00
-2.063371413584586644e+00
-8.951062373299664698e-02
-5.446623634528747759e-01
-1.234226341116675812e-01
-1.882328606199523136e-01
1.155273010391983268e+00
-1.160307357139796158e+00
8.447376623036501053e-01
8.941143083444028639e-01
3.895280638209071555e-01
-1.300181081019729790e-01
8.585644861455743460e-03
-2.425114305490792266e-01
1.029935908340017026e+00
1.001330965935210315e+00
-1.892428522239346211e+00
6.865299138005119817e-01
-1.257090757366274014e-01
-1.617924420100115501e+00
-1.143250643457566884e+00
-9.665889712737463224e-01
-1.197532939620546077e+00
-9.249717579329075345e-01
-1.706348663706506660e-02
3.339425421511423298e-01
5.455262393659174869e-01
4.930855879010613840e-01
-7.948864218853826102e-01
1.611406273035410064e-01
4.429628723039003013e-01
-2.486338175852722987e+00
-9.231308070979853120e-02
-9.152610072763034399e-02
-6.216300889727957024e-01
1.125975270542009410e+00
-2.187308331761244062e-01
1.824410906403630461e+00
-1.683425637694142274e-01
1.615535973324829788e+00
2.296085822645251712e-02
2.233370435623374117e+00
-2.079521927479449417e+00
-3.702198088375790452e-01
-1.159206641186617759e+00
-1.983719455487802596e+00
-1.408872717674524822e+00
-6.106813150796877032e-01
-4.667180184969485501e-01
-3.362856808130964548e-01
-1.201493928136703193e+00
-1.757123744409827548e+00
9.899420888444619981e-01
8.054820031752804033e-01
-6.517195058394806839e-01
1.265682339417279145e+00
-9.198050568640780966e-01
-7.110257205365169142e-01
-4.622032875450903244e-01
-8.442061752853651235e-01
7.562774449780622354e-02
8.645563409785955722e-01
-9.462420701427554093e-01
9.828293470272307930e-01
-4.409612421099957241e-02
6.457658753404776908e-02
1.366007604041582502e+00
-8.323752275141831081e-02
-1.255776445579136480e+00
-1.097519454736396671e+00
7.788281525913749725e-02
-5.009651342454234380e-01
-8.141691344738801739e-01
4.468688270029093079e-01
1.387965933600578960e-01
9.691495463227817186e-01
1.474092076914004790e-01
-3.081292119947205421e-01
-2.583700253028896679e-02
8.782218285127258994e-01
-1.186469785896688611e+00
2.079513887154366969e-01
9.189852029099010444e-01
-3.707884235587969868e-01
-1.204760510015519648e+00
-5.385230887966883095e-01
-9.575311515000639595e-02
1.229236079211429855e+00
-3.046111430067287296e-02
1.691578548650100045e+00
1.089283488683947532e+00
-1.225651446359773411e+00
1.137221437829186721e+00
9.604219088061346499e-01
2.531628320471291271e+00
3.504060943550858509e-01
3.015315472288756293e+00
1.183341815621237192e+00
1.208142295393679344e+00
-5.114018979153253097e-01
5.296008075247298635e-02
-5.519390239545272081e-01
-2.381953334846908188e+00
-3.829370679137873434e-01
4.979127396025295749e-01
-5.772622902181622634e-03
-3.949365313816921019e-01
6.833871223962070252e-01
-7.686441057935776422e-02
-8.709913788759375830e-01
5.508336130107345241e-01
-4.087767117441284959e-01
5.792312560550169076e-01
2.499078220982903442e+00
1.238115450008481666e+00
1.437521324340073070e+00
1.935851314990101546e+00
1.347774033089950696e-01
5.627882929821008684e-01
-2.150957391337624536e+00
9.904342529653498151e-01
-1.146257707206696175e+00
2.881110126323707110e+00
6.571464387042555977e-01
-1.682482086303130620e-01
8.914339348139067587e-01
1.198073469796294255e+00
1.331360881926866024e-01
-6.418094299829386618e-01
2.526951585806206602e+00
4.302269157970212837e-02
-1.090634706557511491e+00
1.586361343236081467e+00
-3.548593470608534250e-01
1.101957024517204564e+00
-2.029795597985377398e-01
-3.139187800321219801e-01
-3.757273836285756063e-01
4.582403235878156900e-01
7.354637937242618495e-01
2.060810916464872911e+00
1.150131138131754049e+00
1.378846686027533908e+00
1.375733221546733942e+00
1.916976283870579056e+00
3.365000572700592718e-01
-1.528017302929347343e+00
-1.737472008091009545e+00
5.161910920337359210e-01
8.197196705499472102e-01
1.375508814819976555e+00
3.784368691154426312e+00
9.031237737482873396e-01
1.820474456412154884e+00
1.734021616481473682e-01
-8.233433581654637790e-01
1.237905982314855047e+00
1.028563695370762338e-01
-1.765338984273262801e-01
-1.914065247535230718e-01
2.146795364178965215e+00
-1.147769850468697062e+00
-5.106160934715781030e-01
2.012605964694499094e-01
1.348077593408479435e+00
2.552257922994680128e-01
4.980523394197212128e-01
1.455986787586128095e+00
2.661700106787557640e+00
3.423629738729823124e-01
3.520038240190734857e-01
1.122803825383333232e+00
-9.033481623723564613e-02
-1.179146172658901870e+00
-1.958335291467875106e+00
-7.688816008359928844e-01
-2.302755054209243202e+00
8.223397558672159713e-01
2.962345554247278301e+00
9.039462883886941746e-01
9.302100407456993514e-01
1.248479820227142989e+00
2.336939920773345225e+00
1.606097897559510823e+00
1.720336626420562398e+00
8.214849732276829908e-02
-6.055706400736723394e-01
-4.242889570627274010e-01
1.003597803331518712e+00
1.223994819239003329e+00
4.949167435426670147e-01
2.715452365499718690e-01
1.555056572224799094e+00
2.273678264464089882e-01
4.033875973776205326e-01
8.045324988319044746e-01
2.294734566030432354e+00
1.493254767116332982e+00
1.820476051073920631e+00
2.657260125586807797e-01
1.695013203420017822e+00
-1.191259687879752116e+00
3.166471541141211432e-01
-2.185907011021279711e+00
-1.906494051471538276e+00
5.925259841704124675e-01
1.385028075808669490e+00
3.544759586628821069e+00
4.290012206249439464e-01
9.241597595757827799e-01
1.531792059313687560e+00
1.408348904468480267e+00
8.798478945022704112e-01
9.274417119224920292e-01
-1.335880288041631392e+00
-2.267698769698754668e-01
-3.746060707599568884e-01
1.361055340445891826e+00
-8.724573378987415806e-02
-4.657474377538452504e-01
-2.292159698549356694e-01
-6.165009303522585027e-01
1.460793960229947175e-01
1.715193020170462157e+00
1.240419676686856265e+00
1.406163720199851142e+00
-3.009240561830651695e-01
-5.936846278038745428e-01
-1.945642207839689997e+00
-7.624458063226431381e-01
-1.401834132660173537e+00
-1.619386757362666796e+00
-1.452956485041879464e+00
1.731552009435819217e+00
2.372605665517598938e-01
1.246167875021948257e+00
1.365191178336699895e+00
8.606801505635373051e-01
7.445516454745565449e-01
-6.918650296402222011e-02
4.559480480039719841e-01
1.289643192014752471e-01
-8.637258242452962032e-01
-2.389576214894584827e-01
-1.464409040265879924e-01
9.267208488322935533e-01
-4.700849739501199442e-01
5.311702071880579634e-01
3.125314794992032907e-01
-1.957097478081113243e-02
1.297217851485556140e-03
-7.068385765941548327e-01
6.817207270292562349e-01
-1.661971901357203851e+00
3.101818983404323049e-01
-2.853957331292940047e-01
-3.559249687341163315e-01
-1.507318808703255408e+00
-2.376939330587267474e+00
-3.688774054266090729e+00
1.346997664967019837e-01
2.757811544513413704e+00
1.180418882914313405e+00
-7.392047399789575257e-01
5.558855532180502212e-01
1.482263430491621126e+00
1.570348042206427985e+00
1.161961977409334601e+00
1.186210984169443705e+00
1.776287249594650508e-01
-5.394865878206541732e-01
-9.392572609709752829e-01
8.940190839314039462e-01
-1.908381027527831207e-04
-9.242051390997815807e-02
-1.118932484339938194e+00
5.894078875043550214e-01
6.098009091252055702e-01
9.579411337583233488e-01
9.406700249508436959e-03
-1.122410422448824274e+00
-1.448385052033619891e+00
3.885789557541973749e-01
-1.033776736959248321e+00
-8.380487614303679944e-01
-3.120795383233628151e+00
-7.358282261331513530e-01
-1.886054733242477743e+00
3.883913090552360559e-01
-1.071222025519357413e+00
1.122332246014024815e+00
1.855977015413221576e+00
-2.487802817356580543e-01
1.913954579433119751e-01
-1.009308782354210038e-01
-8.220571133325822455e-01
-4.571461680830620211e-01
-2.513479959758135429e+00
1.526511502245928020e-01
4.299540526737332669e-01
-6.076318311771425895e-01
1.271900513058771831e-01
5.720734940351401843e-01
-4.882618426871992434e-01
9.498274009509650728e-01
6.004545066213589494e-02
3.099953525654552955e-01
-2.179502388017580394e-02
-1.202412404945532066e-02
-2.783667126717118467e+00
-9.777242560495614798e-01
-2.053492271770116950e+00
-9.245627050616822551e-01
-1.307442934349246189e+00
-1.757124056520291688e+00
1.669687425322571306e-01
1.082853911376919082e-01
-2.104732615002847584e+00
-3.556331605275494384e-02
-6.032705916389173861e-01
-6.329171675140734532e-01
-2.413117576423723931e-01
2.240151996939974688e-01
-1.505434015321081898e+00
-1.197712259610489438e+00
-1.312769134954957062e+00
6.481398707331328390e-01
-1.451315473851440552e-01
5.160360017540921440e-01
-1.094322872113447698e+00
-5.575714779113589703e-01
7.962774846388607219e-01
-4.705063344595586949e-01
4.869282011319115977e-01
-1.937167148406584646e-02
-2.163621379740699457e-01
-1.244616534685848208e+00
-1.276584659123312093e+00
-1.942000308752309223e+00
-3.506835768403757658e+00
-9.726266136432899501e-01
-1.093027154873153606e+00
-3.451623199100951389e+00
-1.952883929772031513e+00
-4.714311414897019992e-01
5.620803047902180882e-01
-3.777803178339700918e-01
-1.996601754278340080e+00
-1.470631376409625990e-01
-1.442834726043516147e+00
4.783799004212960782e-01
-1.076665647445211649e+00
7.882260798074570973e-02
1.295697323087370512e+00
-2.190266373390900301e-01
8.329803099630902485e-01
8.039247215687702619e-01
-3.950993287640428009e-01
-6.717353734927953290e-01
1.577862881585659016e+00
-5.405514145001754089e-01
5.557239668362117246e-01
3.340316039773723600e-01
-1.240131387259502338e+00
9.014410300131372455e-01
-2.341311921437879473e+00
-1.337151679750219868e+00
-1.917737716788188163e+00
-1.153720988487624721e+00
-1.832689018980823814e+00
-5.046190478296622706e-01
-5.457135319399124551e-01
-2.119409040946689249e+00
-2.502393939069696760e+00
-1.218155074969588386e-01
-1.373827463370785207e+00
-7.379881998271069499e-01
5.062515351223934035e-01
-2.479332531742865164e+00
-1.325793067683392668e+00
-8.594779059620327732e-01
-5.871720642428749359e-01
4.164965583762579582e-02
-2.423582327741882064e-02
1.126530791423038691e+00
8.642990387134463770e-02
-5.964776858601062992e-01
-4.768501577930743252e-01
7.149329567182129974e-01
8.782955177506041045e-01
-9.019138329786215158e-02
-1.648421357250999586e+00
-3.243801164098154000e-01
-2.068794398405339408e+00
7.048266810903742741e-01
-1.119467588255657287e+00
-1.674387244823171361e+00
-1.473274452094419373e-01
-2.208758208124848466e+00
-7.144638638999011304e-01
-4.785169639206995895e-01
-2.530951681861040026e+00
-1.456267154031882560e+00
-1.098588239594257665e+00
-9.939828346091130751e-01
-2.227292567454428163e+00
-4.087424639283034900e-01
-1.026213287783328543e+00
-3.689702478421710286e-01
-1.321098174229017985e+00
6.537420208761056672e-01
1.184633382537894963e+00
-2.136037616976290687e-01
-1.604747951742795942e-01
7.586957482613966297e-01
-4.301045939193253176e-01
1.039995838846773157e+00
-1.966901228618645137e+00
-4.936347089404625743e-01
6.552107493589948151e-01
2.397876939275313646e+00
6.462492250532173022e-02
1.686507259682389070e-02
-1.391588776701610408e+00
6.392005922178876087e-01
-1.931004936897005253e+00
-1.335969395867057985e+00
-3.096233558745148162e+00
-1.337649376063245743e+00
-4.806044312242304661e-01
-1.321924264433880891e+00
-2.405694228487809561e+00
-1.026942745769062082e+00
-2.424355311976862382e+00
-1.697345120467760315e+00
2.291187951432282488e-01
-7.458233660309303570e-01
-3.577005225766483609e-01
1.237493475473466775e+00
-1.078995313975182890e+00
1.033338105573414767e+00
-1.562207281509974122e+00
1.187092856526137941e-01
-4.473681316125571739e-01
-4.123143476927089157e-01
2.590704598968707195e-01
6.834742895446692668e-01
-2.166811332763852738e-01
3.130467902388501256e-01
-5.728644351232887316e-02
2.583064854698171597e+00
1.770929435646979161e-02
1.082503102814118101e+00
3.597844841526165460e-01
-6.235597376502365341e-01
-9.142055932644752581e-01
-1.928523907721523489e+00
-1.445217252674179775e+00
-5.242701948253173372e-01
2.290279858230275245e-01
-6.669006758810032409e-02
1.392447716235302724e-01
1.494845573336502476e+00
-4.730280919896295844e-01
-3.599366007808716406e-01
-1.515000791896693177e-01
3.696901391696351125e-01
-3.559322179186008017e-01
1.074675003103339410e+00
9.999986939945317843e-01
8.655686997156074591e-01
9.627993369902930754e-01
-5.448541065577443554e-01
1.748630881340335730e+00
-2.171735807151719266e-01
1.788734034301298070e-01
1.023131994147441937e+00
5.321889870400263733e-01
-1.885410909594054552e+00
5.823369630705600430e-01
4.823823354809713693e-01
-1.104316004520846939e-01
9.358864059446412309e-01
-1.042576862214851657e-01
6.752633541879832224e-01
8.407351114153033267e-01
8.155657224621647439e-01
-2.727340201455509885e-02
-2.149674004549645412e-01
-6.315396993925880276e-01
4.248593399119243719e-01
-4.427966940003160712e-01
9.517172733368423065e-01
1.453283890752408825e+00
-5.095805217748387017e-01
-5.770683476844014059e-01
6.332283726095910836e-01
-2.056850853536878354e+00
-8.241748590509722083e-01
-1.055807844744284685e+00
-2.094916621290484338e-01
-5.705198953054405608e-01
3.857730301995542899e+00
-1.326897093427134688e+00
6.887144746210153989e-02
4.876610031174241078e-01
1.076400633788277439e+00
-8.429419527590353844e-01
-2.027788613068280121e-01
6.138464027895066399e-01
-4.552002676529168235e-01
1.423977162415823172e-01
-1.248759588726772313e-01
-1.756740513966912609e-01
-7.367571975548893592e-02
-1.032616425586960096e+00
9.712795385092787281e-01
-1.022488504440921098e+00
1.455538207622676383e+00
-8.531213384766900276e-02
-1.761340361690743872e-01
-1.844774195163006725e-01
6.894482066755568406e-01
7.453561855624057930e-01
1.116824322312837570e+00
1.353020584706699836e+00
2.697032291317278396e-01
1.299002779955406250e+00
8.321362317649586560e-01
7.228999848361868930e-01
1.189285664507852558e-01
6.981673119310083386e-01
-1.316649248975808817e+00
2.223535203357373535e-01
4.793308331445385040e-01
-5.726737249298393673e-01
7.959936063931962735e-01
3.976201237259511245e-01
1.554645951837951290e-01
-7.545665783698350948e-01
5.576960998482083376e-01
-1.802600631520084207e+00
-2.545014043780776669e-01
8.614021967524490009e-01
1.505100812581053049e-01
-3.615843562838320091e-01
-3.011499751433653893e-01
-4.223876321220079721e-01
-6.450788453433342617e-01
1.267922293190790750e+00
-1.320807847998368922e+00
-5.230169290549607775e-01
6.620278926417046961e-01
-7.033965822673753365e-01
6.281246723908197716e+00
