-5.193609809613092265e-01
-1.415822748858313641e-02
5.477315154751903614e-02
-4.635460506909506173e-01
3.118831885805695148e-01
7.261553596104873831e-01
6.941747948829634085e-01
5.741285056536188369e-01
5.263616835025499568e-02
-2.987227545189408695e-01
2.012311103432756210e-01
-2.126122788685510037e-02
1.474013072022245796e-01
5.715144993130114592e-01
2.305193354994807542e-01
4.236331293055601854e-01
-1.999171967384652249e-01
6.203892038125470576e-02
3.480351707480000001e-01
1.520932965169854989e-01
2.563101678081293189e-01
1.380782672544280387e-01
5.517741110888322309e-01
4.087087945826263780e-01
5.160395201279259769e-01
1.793058575137001509e-01
2.993113254300375781e-01
4.210512486410772914e-01
-7.580293392581073653e-02
3.325268225971227398e-01
9.863014851004538175e-02
-1.637855263396831018e-01
-3.323821543254838473e-01
2.860616138933251840e-01
-1.231402151112851312e-01
4.013722187200043368e-01
-1.192972251681561346e-01
-9.501786276021577660e-01
-1.816068944820082853e-01
-4.110996914538708052e-02
1.627629276799238967e-01
-2.024337530489560000e-01
-2.316211714818243173e-01
-1.992022308921249651e-01
1.968024347380915029e-01
-3.254342141624259194e-02
6.423692934545514044e-01
2.959549269854995224e-01
2.343262675968819930e-01
6.397638282455009318e-01
2.353564360876407302e-01
6.155427068399829116e-01
5.289092017541954238e-01
3.569942436541761466e-01
2.532896639237084413e-01
4.019509058010593133e-02
3.233246532681689489e-01
-3.941112598193438066e-01
1.893383413287224870e-01
1.184829174907149098e-02
-2.159866554444894449e-01
5.743531020471902560e-01
-3.084201256850884754e-01
-3.471481605346639632e-01
3.781764348591103164e-02
1.219238724379589772e-01
5.326845367554715327e-02
-2.269460998737179436e-01
5.616536245681682724e-05
2.412255901208167908e-01
4.967153567158166978e-03
-8.116412880413550468e-01
7.818200361448540692e-01
5.898238902351369273e-01
3.445986070538891721e-01
-1.433835980046508640e-01
1.437651248302328488e-01
5.127079446001771013e-01
3.810854024165599707e-01
6.168988451545439622e-01
4.959156412092981525e-01
-3.092540376806385827e-01
-1.451640895118231911e-01
-5.395562450980467828e-01
-1.309072568883497267e-01
-2.391057706857766529e-01
-8.757257215398978056e-01
-2.814479802964749977e-01
-1.498401326454324722e-01
-4.340574501415564446e-01
8.457321961192187931e-02
-3.838736371300536243e-01
1.667708804812416956e-01
1.074187056476025637e+00
8.130447847828761176e-01
-4.411076415587720234e-01
-3.586131144126150083e-01
9.329477875077145377e-02
2.482554810420047331e-01
3.595654212526874782e-01
-3.297032438611049998e-01
1.286237567261152570e-01
-3.364356933740823563e-01
1.246539510260273043e-01
-4.015748186488290322e-02
1.381668841793695091e-01
-2.973822674335252492e-01
4.859856318471144077e-01
2.754870526284941001e-01
-7.439753543961058480e-01
3.076765418045285805e-01
-1.823765699566211040e-01
3.620204117628710860e-01
-6.059184402710201534e-01
-4.283746441841188024e-01
3.766655445194593832e-01
3.348594970277928295e-01
-4.085011707552498872e-01
2.965217941793089618e-01
3.017111569043225416e-01
3.256672602971095731e-01
-1.005740238836048545e-01
5.896116628481734567e-01
-3.826929401122532853e-02
-1.658001843262135733e-01
-8.042139074775800367e-01
-9.313956972508899979e-01
-6.381497968299333357e-01
2.694746573790031755e-02
1.238768283409625859e-01
2.277036100718018985e-01
4.533672464725285733e-01
7.856133912321286994e-01
-5.117566948951993711e-01
3.569587607148514419e-01
1.545481277747400850e-01
-1.545054206789558127e-01
1.544274817208139139e-01
-2.846830728251037446e-01
3.710854819877799082e-01
4.065600892823940105e-01
5.017025001724660926e-01
-3.719216771840769264e-01
6.097366841935307480e-02
3.302992898408206313e-01
-3.923524351527376552e-01
1.402245019701518491e-01
-4.263730108691346499e-02
-5.001236757821732049e-01
-6.392698944178982767e-01
1.410482101029611468e-01
2.414755690018184353e-01
-3.923134545573353504e-02
5.322648939847167242e-03
-7.427897854662385280e-01
-3.931222536571397641e-01
-6.973605778061124916e-01
-1.866132736526039115e-01
-1.000664994311203371e+00
-3.253065422507396276e-01
-2.025572556418164527e-01
-1.431717513036504796e-01
1.747029719026825523e-01
-3.526522164826965122e-01
-2.985336880092254730e-01
-1.363376639010957514e-01
4.310336728159795960e-01
-2.102241547866686988e-01
5.263951358079989318e-02
2.812534069970280548e-01
6.662535471614513538e-01
2.774515048800110240e-01
-2.199474974726530196e-01
1.803665582136484979e-02
5.140123692956268669e-02
-3.590752785599377606e-01
7.821714941428833390e-01
4.526625163575117017e-01
-5.724210993695353356e-01
1.308429398163685475e-01
-7.507528190769006127e-01
-3.611201431229580372e-01
9.600905443805821116e-02
-4.546106938116730722e-01
2.348583471184816363e-01
1.196803160597304932e-01
-7.880248197177022740e-02
2.040302717912083064e-01
-7.252434486779893996e-01
-3.375880433606367470e-01
-1.289758275436365953e-01
-1.718612283059452461e-01
-6.099399635496648431e-01
1.859096718438916773e-01
6.510740488198785147e-02
4.824520118227291349e-02
-2.668267301850590911e-01
7.684402384271188380e-02
-3.203453782300094699e-01
5.927725294063115324e-01
3.492992875997367325e-02
3.786178591187253639e-01
4.304913386230934669e-01
8.464874811353582940e-02
-2.499360781568753798e-01
3.103599258229948754e-01
1.294930726015653321e-03
7.479226556341569410e-01
4.809537001269165168e-01
5.999248483098136298e-01
4.776697316114904002e-01
5.404459565676857924e-01
1.036004846576163096e+00
2.690441980660486232e-01
2.968915261201248712e-01
-1.982714368372179847e-01
6.630591948413013803e-01
-3.661696452669735979e-01
-2.322969780338970114e-01
-1.066851430238009213e+00
-2.850018821945304870e-01
4.251321309886016975e-01
-7.912386209939914483e-01
-1.895373996485506807e-01
5.083669905457619542e-01
-2.209391684242056619e-01
-1.885150415349776398e-01
1.845679843733989411e-01
-3.018796412198765378e-01
-3.318045296390184640e-01
-4.019452912769597153e-01
-6.650782378895101488e-01
1.668145679843554829e-01
-1.574706890051441599e-02
-3.461052597907109951e-01
3.279385251552532909e-01
1.248835759557269942e-01
-2.590347753561457744e-01
4.076750169316717409e-01
7.022056879994549583e-02
1.353834938417399769e-01
-9.754524541069968524e-02
2.680058252080062542e-01
-2.625952031646165974e-01
2.702018462112755759e-01
5.421970210828268577e-01
-9.660046508035079471e-01
2.615924465956658285e-01
1.834436087031615648e-01
-5.377818998247553273e-01
1.732424757745370525e-01
8.561459192741260882e-02
-3.893205905477119949e-02
-6.486822915530264522e-02
-4.180220870481867190e-01
-2.286870498578165711e-01
-5.130969685836226368e-01
1.352228466042507404e-01
1.082429405587809479e-01
-4.853929398272566753e-01
-3.303571920129260153e-01
-2.885978174851049349e-01
-2.695254721718997604e-01
4.954683075760644151e-01
1.934273444479824022e-01
3.265665962991477489e-01
5.053073288173616229e-01
1.004133989187311560e+00
1.270651449113862630e-01
3.677919199747829992e-01
5.295795085763781440e-01
3.631444605512264001e-01
-1.102830149540228594e-01
-4.543289529369006763e-01
-8.001300357439074251e-02
-5.683897367261119271e-01
-5.496434940530146168e-02
1.114476055586770542e-01
-5.763394685116117744e-01
1.202290379969111894e-01
-2.625790063645560418e-02
-7.552199371486967294e-01
4.297723337582615155e-01
-2.300381343930089375e-04
-2.666033492894701387e-02
1.618340154124105479e-01
-1.805829668541017174e-01
-4.914589463932637903e-02
3.412746180010485797e-01
-2.489487874542867935e-02
-6.157757035423604419e-01
1.226348118917210961e+00
-5.166701744054132822e-02
3.619526434929944414e-01
2.123215761825362480e-01
4.144159144836193631e-01
-1.638409236491778775e-01
1.421508345750506497e-01
-2.831941296928973673e-01
-4.440649675472637670e-01
-3.096182480502673862e-01
-1.976845194186795107e-01
-4.838284730128632888e-02
-5.974278073959377044e-01
-6.304876875870643049e-01
4.289361966855171349e-01
2.440873975656567274e-01
1.465266857715258331e-01
-6.346095674197142766e-02
2.884517691382506091e-02
-1.697427591996464036e-01
1.060964122501962537e-01
6.561359400928070684e-01
5.032955396518206115e-01
-3.930066328019608535e-01
-1.434875656275891864e-01
4.602866293006990100e-02
1.793901750654865457e-01
1.596747404597673170e-01
7.895247689944832892e-02
1.661484944525504492e-01
-6.737142554336402744e-01
-6.354473147867052418e-01
5.666256787402326189e-01
9.819416982438688990e-01
4.794770958650262371e-01
6.945552389833125062e-01
2.037302591303988275e-01
-9.372839041628119872e-02
2.807537386661762557e-01
-1.875737903818239238e-01
-4.563952491622041974e-01
-1.500048971312287538e+00
-2.339879692170762360e-01
-7.029888563783034949e-02
-3.765889437174429477e-01
-4.534758337338395395e-01
4.999251767164860638e-01
-2.271570444053330751e-01
-7.724080179246282929e-02
-3.509015699627982682e-02
-5.698257349346735889e-01
-5.994269748170075879e-02
4.220267039991663638e-01
-3.264618449866396044e-01
-2.808214027654954981e-01
1.415370317988253523e+00
3.472044470117699455e-01
-5.622280963778081980e-02
-3.921324133056578454e-01
4.815787933003266574e-01
2.069407751095244663e-01
1.150725228584893456e+00
1.339922202645918325e+00
7.083771907872350448e-01
5.707435750536020702e-01
2.360628056286695198e-01
-5.410656312725102834e-01
3.270349697095795705e-01
2.556918030215045157e-01
-3.732018944516340420e-01
-1.340086673799462946e-01
5.807050909491644486e-01
-2.147743691479510886e-01
3.438009289725229567e-01
3.697911702736740858e-01
1.889205710016947648e-01
2.826388076726969456e-01
8.131106758059361006e-01
6.278680956216273756e-01
6.831478122108840534e-01
5.245534742143810325e-01
8.381343826680445197e-01
1.018570884872099569e+00
8.258975507712891240e-01
-2.738067399401247770e-01
-1.121009145257966022e+00
-7.712266847482253107e-01
-1.602608947934365535e-01
-9.123977459464834017e-02
1.621388345892829652e-01
2.003388038620323108e+00
-4.285726625337644979e-02
7.457225282966741808e-01
6.095547691904253940e-01
-1.392313843409004881e-01
1.071076406426021144e-01
-1.095105033428779920e-02
5.798942457162727937e-01
-1.825892921742664210e-01
2.142452210280691716e-02
5.351656204657192356e-02
9.891419819529836954e-02
-6.341243537228725691e-01
4.993352857611274009e-01
2.283174475173218032e-01
3.482886213922972707e-01
6.627407707043103668e-01
1.089597560741690119e+00
7.969073558364871968e-01
2.649765853088257295e-01
3.084249163509602543e-01
-6.768227518718239466e-02
2.494516640126891172e-02
-7.541244738487956623e-01
-4.431847394823678066e-01
-8.154118309415937516e-01
7.268658161817342922e-01
6.270615875797774796e-01
7.819125369091269873e-01
7.466216679105441845e-01
9.186112291932224672e-01
5.030750839819682074e-01
4.991530360472409833e-01
8.146455515550568016e-01
3.429275615861157589e-01
2.839882673499675159e-01
4.780269853709622277e-03
4.587709721615239600e-01
-2.274627011254227449e-01
1.688569406234502190e-01
1.147373750028075762e-01
5.145697455142893562e-01
1.109600875671886040e-02
3.546885916554012308e-01
3.584698158673069734e-01
6.098340229305081461e-01
6.070919705746516959e-01
9.127679692627721497e-01
3.629638591729994479e-01
3.958708979947145323e-01
-2.423686457466135979e-01
-7.856780277933336221e-01
-1.311475110007110034e+00
-8.723142375722683362e-01
3.586172353549064717e-01
8.820050752882477862e-01
8.716731727625088855e-01
2.382912480220556461e-01
2.983285278132467022e-01
1.002992365155742083e-01
1.573709243936961322e+00
7.323438036578708843e-01
3.532380966514561127e-01
-2.855714004147692497e-01
2.844724406734558952e-01
4.932616766595114832e-01
6.286911755351946018e-01
-2.107716565569205669e-01
-2.439680588372375725e-01
1.621875064913679276e-01
2.619974007987134756e-01
-4.383807259580456694e-01
2.372815969252682899e-01
8.480060856117280221e-02
8.883747857303218032e-01
-2.923186199199134805e-02
-1.412676618749935664e-01
-3.238610060749639863e-01
-4.796646107677491888e-01
-8.864437672921170464e-01
-1.018768947549013371e+00
-4.254967686867071053e-01
1.815981337350379421e-01
5.093722621971045160e-03
8.150393126037330793e-01
1.723356326864481924e-01
1.973725738178174760e-01
6.141000718216218512e-01
6.041189277348210096e-01
2.957781639777921634e-01
-1.353505117658934109e-01
-1.350846833857425322e-01
5.997437312873584725e-01
4.304398216790986109e-01
3.311096285743934664e-01
-1.969971691483265452e-01
4.031154396047527400e-02
-1.497312095700494006e-02
-1.168630112074425659e-01
3.460605918782007073e-01
-1.686869194890191492e-01
8.524209813393497648e-02
-8.581454925644106668e-02
-6.834857255800264042e-01
4.447276898445445270e-01
-7.245630551232615790e-01
-7.138947619744356876e-01
-8.218738773065245029e-01
-1.148028296776242296e+00
-2.011440664265085332e-01
6.817847551590527910e-01
1.028407535669582984e+00
6.892275475359797843e-02
-2.547635322727889173e-01
5.828871443588393708e-01
4.760265723022962248e-01
3.392987638146723328e-01
-1.451601547507720691e-01
-3.710407630069152418e-01
6.273781122143282443e-03
1.328284499867351739e-02
5.643658759841031075e-02
2.544330217414009915e-02
-1.993929524633911710e-01
-8.841901766033791743e-01
1.195542742381962148e-01
-4.179451277272252518e-01
2.845618615064547385e-01
-1.339510647912077468e-01
2.045694262906378458e-01
-5.097025312064431546e-01
4.338655893003861008e-01
-7.518226512661762007e-01
-1.054954516410397725e+00
-8.228296621181986348e-01
-1.425866259099939359e-01
-7.976921779752410568e-01
7.278178505475475513e-01
-5.077930507022875017e-02
-3.803384919118392715e-01
5.966510988225419698e-01
-1.169539574369811291e-01
-4.560252663759936098e-01
6.850014408632782992e-01
-6.947751925804070139e-02
-3.220732008416316711e-02
-4.190642386316252854e-01
-4.215962219046544557e-01
-1.213527446858784775e-01
-1.853255584059885219e-01
-1.283468682274324299e-02
1.753315836957229923e-01
3.102957158305040819e-01
-1.313396996663189313e-02
-5.169764688469995484e-01
-1.965228186105566766e-01
-1.266090562778527107e-01
-3.227823353225681147e-01
-7.077471579184503314e-01
-4.421842234973843433e-01
-1.200842131134265856e+00
4.197726449161262585e-02
-7.825503955784132160e-01
-1.487403930524799023e+00
-3.534571988852179825e-01
1.601113883449157005e-01
-1.377521635577339532e-01
1.033592527047601656e-01
-1.056779037587636250e+00
1.165273432055568409e-02
-9.920416225582429082e-02
-4.318168145589187379e-01
3.877147469917661959e-02
-3.067025027847840035e-01
-5.025168109272958317e-01
6.257440013360868192e-02
2.378072789457990818e-02
2.440570854800078460e-01
3.625687573570531286e-01
-2.170192137161824908e-01
1.122583729190509000e-01
-3.908322411598259549e-01
-1.344086971950027021e-01
1.145524092909991909e-01
-5.342977537692376044e-01
-6.327242652377309540e-01
-6.590997885123119904e-01
-1.237582217687658970e+00
-1.224197537194179786e+00
-7.162695584986751296e-01
-5.915678756791388215e-01
-8.368313544447905095e-01
-1.145982530948573608e+00
-2.939710963498473606e-01
-3.998326283036793827e-01
4.116774440526614343e-01
-5.183526338309509818e-01
-2.271075445612577570e-01
-5.728846353805573666e-02
-1.651862272996978132e-01
-9.674961357007937357e-01
-7.987358808023790890e-02
-1.930315160645195705e-01
2.468824128015276523e-02
3.793017071093565118e-01
1.230539756160823478e-01
5.432770700430102906e-01
-1.780950342968326550e-01
-4.150272599137656560e-01
2.779395329910284707e-01
-9.173231342384642606e-02
-5.964934619899241869e-02
-7.997483034144237113e-01
-6.696919655544029126e-01
-2.047076534595269337e-01
-8.799300414632269529e-01
-3.304045850114010335e-02
-7.163361345585048667e-01
3.326225778251266224e-02
-8.289022061020167031e-01
-1.805053404838737052e-01
-1.007481335323357596e+00
-3.837159295818730054e-01
5.930756864678819740e-02
-5.581598761748381154e-02
-3.439095823772135851e-01
-2.551439408409315046e-01
-1.557131039236655079e+00
-8.453395567459015547e-01
1.561104150919762623e-01
1.969842037125064602e-02
9.256014227545723838e-02
8.311728223112633263e-01
2.600618162844777204e-01
-7.060867295722147996e-02
-4.554592501056539677e-01
-1.032945857270639450e-01
-1.344792927645986069e-01
5.430336088958095386e-01
3.475584730443233572e-01
-3.825280219140865245e-01
1.507613301954690288e-01
-5.757874272045599984e-01
-4.184150569824125476e-01
-6.370142370939203547e-01
-8.398903728595906726e-01
-4.845203266195402536e-01
-6.411738285578703067e-01
-7.756605366395885603e-01
-9.126650312657116348e-01
-1.116045828436263099e+00
-2.924610166351285234e-01
-6.918964303997762189e-01
-6.585250739524253216e-01
-1.145101802131250457e+00
-5.250527505044145782e-01
2.320243758075992216e-02
-4.741949781359960370e-01
-5.083910231035224658e-01
-3.331242142669810224e-01
1.319961399681570946e-01
3.999802606593307885e-01
-3.509953693423666921e-01
4.542661358874839350e-01
-5.303666654093229793e-01
7.990953957836572918e-01
-6.924805986515800704e-01
-1.418609077195102652e-01
-2.411445442689799101e-01
2.500912216209951744e-01
3.275707548502245769e-01
-3.556183171612092853e-01
-2.134511821558970068e-01
-1.234682824203522239e-01
-8.654034812281149458e-01
-1.197604217345603628e+00
-1.482334485998956231e+00
-3.970005467524198584e-01
-6.476575126700874208e-01
-9.074928000302907583e-01
-5.973428722196060248e-01
-4.592900117688133999e-01
-9.916236990404002638e-01
-9.101584470307023667e-01
-5.498072315724052703e-04
-4.575883824690216151e-01
5.238173273140714903e-01
-6.223835948420650827e-02
-3.419933850722943203e-01
5.377892762477721744e-01
-6.687896408076886290e-02
1.357471566910991301e-01
-1.963243002963589723e-01
9.092613475026123382e-02
2.566125774843188712e-01
2.895046811785559338e-01
8.401246031892560806e-01
-1.600672634576811582e-01
1.873419212110931931e-01
5.840173023904319249e-01
-2.004873009554294372e-01
6.972566665390600438e-01
4.450898281596293860e-01
-3.950398487002428349e-01
-3.999088306750582245e-01
-4.515149837617783990e-01
-1.033010275643808873e+00
-3.897220765173664003e-01
1.439105408756621574e-01
3.882614882529327738e-01
-1.416366488206456387e-01
2.689874239740671635e-01
2.796648968655162659e-01
-5.552105863417244186e-02
-7.527161840822486072e-01
2.487610769776343878e-01
-9.239026494053231842e-02
1.283827567045985607e-01
5.482737076430703738e-01
8.506702106481217607e-01
5.592008564439419072e-01
-5.973551173838188150e-02
4.597496707307495156e-01
2.133349311004881926e-02
8.707759409620459135e-01
7.033357831574519325e-01
3.949403782810978480e-01
-3.654344716535786602e-02
-1.624878290608071651e-01
3.795798041966744196e-01
1.819450752662176707e-01
8.895375096491540123e-01
-2.371170496133002403e-01
2.114663520087077253e-01
9.663074391173999411e-02
-1.897982000010288717e-01
5.192622077872649511e-02
-1.599690777386937601e-01
-2.096842877933948746e-01
6.575292916362072138e-01
2.298493538559636951e-01
6.895518467392565132e-01
1.346207427435244797e-01
-2.110688755806274797e-01
-1.004950912256141610e-01
9.177688995663685345e-02
5.164621706632859660e-02
4.449638344014713032e-01
-4.894156209055350870e-01
4.209957874545010026e-01
5.435243616633864822e-02
7.440308303633287323e-01
-4.103530037570377598e-01
3.343739927397079148e-01
-3.412455279065628178e-01
3.652821824482861968e-01
-9.005922514645407773e-02
9.250233097363348700e-02
4.126633771534258255e-01
-8.604474087173763497e-02
1.892071067065620726e-01
-1.168368225660065957e-01
2.420269237544454000e-01
1.090504070317962343e-01
-1.287374062217126192e-01
1.744172262594719525e-01
2.191826316402904207e-01
7.251492554609244579e-01
3.884688440208196036e-01
-2.614438210427221243e-01
-5.703476512828837830e-01
-2.061759736175347579e-02
1.708745512108326980e-01
1.826939690697076610e-02
7.751379124621701200e-01
2.458991871209054991e-01
3.876633720329662469e-01
-6.007059385846269528e-02
-4.560677123182759612e-02
-3.420713458183159972e-01
1.510713372612256244e-01
-4.719895986794848952e-02
-2.327069308178241203e-01
1.871487723154770522e-01
6.590943630925637509e-01
-8.334758680974259093e-01
1.956675893279095080e-01
8.550050398270021834e-02
-4.648028245769221245e-01
-1.017124581702803787e-01
-1.993583497322283776e-03
-5.860736175780648649e-01
1.816947305970026960e-01
9.055478459834903626e-02
-1.617042688305240020e-02
1.091994425186789824e-01
5.698191208805970520e-01
-2.985636611495107173e-01
3.719332558734605998e-01
-4.184885620485421370e-02
2.094358403403884239e-01
1.499523109781903119e-01
7.784552403422811961e-01
2.985403192047675347e+00
