7.077312849839057949e-05
3.656961561601362984e-04
8.200741103538839989e-05
1.961530520910912507e-04
6.850041341075990115e-05
1.181301244490473492e-04
1.166982006084040744e-04
-4.230114333919380659e-05
1.377541868363043448e-04
2.535997855387928904e-04
1.481889360749207810e-04
2.286477684521313021e-05
3.495832347447228500e-05
1.516973162712073110e-04
1.370036555153495642e-04
2.374740455815747798e-04
3.808655057595489803e-05
6.111666517012482062e-05
1.972852677196070415e-04
2.183240812437738939e-05
2.629079994818110173e-06
3.348099891632027079e-05
2.773141273695928677e-04
2.131927668816832795e-04
1.628920388485295754e-04
1.533289538654843945e-04
1.055011821393009070e-04
2.493730136797821868e-04
8.840592316553843016e-05
1.832827825573608697e-04
-1.965284554359976438e-05
5.382596269078671416e-05
2.330427920326506289e-04
3.315395060270879060e-04
2.473995933494671420e-04
-1.400268315822427473e-05
4.898098519231849839e-06
6.220457075726259501e-05
-1.394749318941877661e-04
1.060802206743631423e-04
7.637748568141239597e-05
1.862775436848549684e-04
2.520924185687811281e-04
9.180911762515199732e-05
1.023849689832876926e-04
8.394495185005119270e-05
2.353443215423559347e-04
1.868340647246050231e-04
3.589192339675225719e-04
-2.559628897463847233e-06
3.936086427445929445e-05
3.990343334599406920e-04
1.935952492221088711e-04
-6.629397332376847990e-06
-5.360073314271832979e-05
-4.897652418885586190e-06
1.363218776351861079e-04
4.080008611076901007e-05
-8.313117512440687941e-05
1.140729850634413813e-04
1.685655971840198961e-04
3.051200591499484273e-04
2.649430697932081196e-04
1.984403406711147760e-04
8.266983174768987794e-05
1.432652863688715190e-04
2.586173310271062939e-05
-1.330456549263464561e-04
3.893743181024448597e-05
1.917937513797680817e-04
-1.426826793481828111e-04
-1.507060735942990340e-05
3.500273603596290605e-04
2.238511169075652074e-04
2.673895946004790263e-04
2.013115097686339324e-04
2.855373175361499219e-04
4.551622249401753630e-05
-6.379625557266235477e-05
8.044664178616089945e-05
6.772292192624073878e-05
2.211156725154681186e-04
4.846705491088505182e-05
-5.448772811021222729e-05
8.437894653710357692e-05
1.763664983979370280e-04
6.206810761173171636e-05
3.754086963258397835e-05
8.752892343669366800e-05
-1.440803863154539808e-04
-3.831855806542609994e-05
-2.053670649439246149e-04
9.373568451077539615e-05
5.853214957588528900e-05
2.600493163880994115e-04
6.557795489154692281e-05
1.200598953929150488e-05
1.774886955733129019e-04
-3.990606748375273078e-05
1.601469228393719306e-04
1.725522145403333854e-04
4.438702378221122001e-05
1.777974688074748745e-04
3.066634998893897983e-04
-1.963297483386061468e-05
3.172662753983758379e-04
2.585461225837039985e-04
-1.248284428480953000e-05
-1.935374389713320290e-05
2.942606202506613429e-04
2.775592727779767777e-04
-2.686722039575603662e-05
-1.496979485791547729e-04
-6.449062958814069625e-05
9.647229452423865031e-05
2.201560994575453871e-04
2.412800815708398931e-04
2.087058057591857207e-04
1.132536989694598749e-04
2.753142046303794547e-04
2.010952933243374873e-04
8.770037816246942138e-06
-1.712105817029418127e-05
-2.958649504533806705e-04
-6.856711674711817809e-04
-1.157649367950267221e-03
-1.506320868796673937e-03
-1.858986930878344865e-03
-2.019773427852203634e-03
-1.676088905958620246e-03
-1.358090093815450582e-03
-9.294447603486608511e-04
-3.989385726000369871e-04
-3.496103507451463958e-04
5.723054905834749293e-05
-8.961926433207030791e-05
-1.889328650790172905e-04
1.581401103089233188e-04
-6.188394231133370258e-05
4.295105766121286761e-04
4.302632617590903386e-05
1.222024982851324681e-04
1.245120038841334559e-04
3.554745675578760682e-04
3.981363026821566937e-05
7.693294095096512252e-05
2.277052196584094927e-04
-1.600141692929136616e-04
-2.613239440906969411e-04
-4.831001930632600194e-04
-1.007871859821390329e-03
-2.064801202581969218e-03
-3.387911308611912461e-03
-4.987023120827631904e-03
-6.545401476897869456e-03
-7.500327644100044343e-03
-7.655430752871299552e-03
-7.133424890948234648e-03
-6.022021282931795845e-03
-4.392689427054227019e-03
-3.167006307151185984e-03
-1.887765085056118848e-03
-1.186864763050679648e-03
-3.798933899030739825e-04
-3.519325738334721176e-04
2.185086018790146072e-04
8.367199913076251892e-05
-1.385147962481075780e-04
-5.124403637104231951e-05
2.585278453022094817e-05
2.703790663362866506e-05
2.366462760195575492e-04
2.052601737898652535e-04
1.976305082802344874e-04
-1.784854140365981748e-04
-3.535490527489711381e-04
-8.294342701365559067e-04
-1.442161523390313258e-03
-2.519267864106542777e-03
-3.587537039458027575e-03
-4.454147658246161018e-03
-4.904728475320525687e-03
-4.573778241979202866e-03
-4.323377436607750597e-03
-4.280837339727836151e-03
-4.820160037552283748e-03
-5.094225438171703750e-03
-5.059510913692782594e-03
-4.188867682897131836e-03
-2.978307835185598548e-03
-2.183031019637971578e-03
-8.654815572795348860e-04
-5.958230138328962991e-04
-6.481233541685019412e-05
2.967536307517906107e-04
-5.165807185631863060e-05
1.788836224674212369e-04
1.447496353946556900e-06
9.310684151364830073e-06
2.240021282314549422e-04
-8.060425978722343373e-05
2.303663464829569865e-04
-2.522531764612720526e-04
-8.778736035261909803e-04
-1.208238346166162942e-03
-2.041341283593831046e-03
-2.382711217300387783e-03
-2.179745366254159239e-03
-1.126892517093573036e-03
8.499341644847670588e-04
2.538149200611199054e-03
3.323427890858954639e-03
3.146634655282530210e-03
1.511360587869608682e-03
-1.056081419770779498e-03
-2.971612526852629877e-03
-3.659860723655163593e-03
-3.344779021436764671e-03
-2.732971415562326575e-03
-1.537073175264616533e-03
-7.607784382892895589e-04
-1.139979553845062751e-04
1.877526978382542105e-04
4.598313182274440798e-05
2.153695965957851751e-04
1.151871161200170783e-04
2.895222433259053881e-04
3.876201834150427046e-06
8.709159824406819946e-05
-2.001831670503029432e-05
-2.740939164586773859e-04
-7.660510464628436786e-04
-9.052718562730220240e-04
-1.090138886918284086e-03
-2.498799400219353433e-04
1.085003194152819655e-03
2.615996894507162124e-03
3.999743214355607097e-03
4.723174073405371313e-03
5.234879042126334113e-03
5.031748804109802131e-03
3.924650863412185511e-03
1.550559330449899180e-03
-1.163010700576867914e-03
-2.791870953738814602e-03
-3.022417004469502792e-03
-2.970137455862999123e-03
-1.716085844341964624e-03
-9.232381548986309762e-04
-4.463474648821999968e-04
1.580181112837902380e-04
2.172475288783766152e-04
-2.794761959572099097e-05
2.378937463261169357e-04
8.612048962793870694e-05
2.675990717524220214e-04
6.293068374904487815e-06
7.989449642876607339e-05
-2.296148405246608594e-04
-3.731840960637131739e-04
4.012561764524489200e-05
1.061632488046797057e-03
1.896192120615549336e-03
2.707526155353079389e-03
2.577092863661196824e-03
2.356773784856017791e-03
2.323845756778111261e-03
2.635269373191250018e-03
2.962521518826107154e-03
3.047397278033475015e-03
1.747811899590665354e-03
-6.086221029923368419e-04
-2.378662485881081600e-03
-2.929437640567037794e-03
-2.795560193701011279e-03
-1.752974668851007591e-03
-7.945919387178304464e-04
-3.047474382427569316e-04
-4.224968699296946474e-05
3.922064403878606782e-05
-3.560782085839720498e-06
6.713149416822246059e-05
-6.523801714193614646e-05
2.393621243593805506e-05
-8.651010665997770814e-05
2.148732397521878844e-04
5.026455842831703720e-04
1.104876095322959023e-03
2.017232579210107707e-03
3.021029014553617588e-03
2.860163964791571922e-03
1.343766254160738824e-03
-3.584527008519926955e-04
-1.105207434718084641e-03
-6.253003212833050479e-04
4.602531310144592093e-05
1.219379938398138744e-03
1.627997528955825706e-03
1.307115287322167330e-03
2.876685707198256716e-05
-1.668057302308510173e-03
-2.224922271765321889e-03
-1.823376756576008256e-03
-1.083327943151031697e-03
-3.411803817167509910e-04
-2.632610824851603975e-04
2.117962258436139955e-05
1.596086796366730785e-04
1.237424725605848833e-04
1.493520714753320574e-04
4.059586005146117429e-05
6.997044258881105524e-05
1.591069662511442051e-04
5.579621419789493851e-04
9.450180231436745284e-04
2.469314953755138899e-03
3.849455297560110557e-03
4.254196005408407248e-03
2.106715355755514347e-03
-1.507234044958585340e-03
-4.118168609201664117e-03
-4.038184698536065147e-03
-2.617467881017732350e-03
-1.156398783708789809e-03
1.630187584814620351e-04
1.442155087698655065e-03
1.729269323247875590e-03
1.175673433806455727e-03
-2.075982288690367055e-04
-9.103721571136380759e-04
-1.252462960859473777e-03
-4.417335210567504612e-04
-5.698949272375783198e-04
6.624127159467354427e-06
1.543430042437657216e-04
1.222611714783714877e-04
2.409336031969490464e-04
1.543405250192065464e-06
1.446400251387025592e-04
3.373990971953089299e-04
3.811583985987045380e-04
6.946597600291427345e-04
1.798579706907164986e-03
3.549221633236333134e-03
5.495287264584760092e-03
5.127586070004558523e-03
1.478477017720127408e-03
-3.640196844709031945e-03
-5.970651031513653229e-03
-5.486887537428158587e-03
-3.747478722840292230e-03
-2.223842307067678322e-03
-1.760877161652996538e-04
2.286098353558028637e-03
3.318680562881148009e-03
2.603951265768742265e-03
9.541229653922283539e-04
-7.800092528118770022e-05
-5.967688044636358050e-04
-6.065923343291493487e-05
-2.630044642416010038e-04
2.956061300018589163e-05
8.902907324364017468e-05
1.116444518295505979e-04
3.499465980108218920e-05
1.911196310889949840e-04
3.876858482768414283e-04
2.741759688284548359e-04
3.363454427851263195e-04
1.279561437223640996e-03
2.495455319952585849e-03
4.580138611729410274e-03
6.646210064963875910e-03
6.081517714153964090e-03
2.211561472434240509e-03
-2.842361188640276422e-03
-5.636829288515611894e-03
-5.597396772325339241e-03
-4.025669099413874651e-03
-1.975327610896709767e-03
1.033907837890392194e-03
4.548547464352424574e-03
5.476675073186746019e-03
3.813528323359343698e-03
1.441766886238109299e-03
1.810805856902610142e-04
5.238294230887453960e-05
-2.044721126380108942e-05
3.749606958312251331e-04
-1.759420265770411359e-04
1.260392561038352322e-04
1.986077659098944848e-04
9.443773456506878285e-05
2.354886384512824756e-05
2.231288958311659302e-04
1.229269727437545053e-04
4.491003854103517109e-04
1.088332040988615078e-03
2.698858733765681622e-03
4.275718113206649316e-03
6.689533340246788320e-03
6.680466900315569848e-03
3.924130666029700641e-03
-2.087339240439805557e-04
-3.334205147434788144e-03
-4.196791338438608798e-03
-3.529285535243367484e-03
-1.285668195660010123e-03
3.094338152159056051e-03
6.684313140491331129e-03
5.950751507413919693e-03
3.525205906594738522e-03
1.305067650115850509e-03
4.061624302079865903e-04
8.937960140538809487e-05
-8.584594432969963075e-05
-1.114417946707288443e-04
1.163577646062038154e-04
2.507284791033367313e-04
1.319369972060565048e-04
8.001174826337305985e-05
-3.620420613009852576e-05
-7.302900042169830887e-06
1.933348382197092757e-04
1.715308243959588123e-04
1.051595510107789129e-03
2.460653172586682504e-03
3.967535494705613612e-03
5.813544601235981490e-03
6.102203523065317242e-03
4.416502942655394816e-03
8.208898452358534157e-04
-2.447929024406519070e-03
-3.946883844041682021e-03
-3.524357419011783267e-03
-2.555198623501489757e-04
4.721395024953300469e-03
7.278769438012522991e-03
5.576975807153793964e-03
2.398613119319927163e-03
7.931094813925339748e-04
2.207377557900691849e-05
2.847816923886871388e-04
-1.052531375140816411e-04
1.760078722782460771e-04
2.857339831279601550e-04
1.470078306603619705e-04
1.156806512939743357e-04
1.600103899361702750e-04
1.042438981633509826e-04
-8.901572965740269219e-06
7.447046792318626532e-05
2.994321268737495456e-04
8.383732724439299424e-04
1.325668448415833660e-03
2.221792673624672313e-03
3.221328409766526131e-03
3.185108686056785897e-03
1.487610562525930021e-03
-1.613088508013309523e-03
-3.945939940991129505e-03
-4.480494613699378438e-03
-2.624307927250880881e-03
1.242671254845070490e-03
5.140243638695219178e-03
5.926801340705392489e-03
3.516559995588388471e-03
1.123509299024126173e-03
4.440317546182682680e-04
-5.111631427515990191e-05
-6.776589647059416861e-05
-4.605587612045345357e-05
-7.309486593730673521e-06
5.238950827188814248e-05
7.932487416979224588e-05
2.524488384444319449e-04
2.361065098752904048e-04
3.390268911358184604e-05
2.541081231989116441e-04
-3.127283920561478461e-05
1.790532163353264516e-04
1.984119868670689750e-04
4.967915000596129747e-04
5.399565499822976244e-04
1.749980636696673512e-04
-1.145514692702819838e-03
-3.365202772114735293e-03
-5.366289084339594985e-03
-5.725675554225434158e-03
-3.895186216686495270e-03
-9.630587173267914254e-04
2.620254653560364928e-03
4.438004142885760249e-03
3.746882925812602353e-03
1.331162760896624671e-03
5.748610837233825534e-05
-1.975069112517712411e-04
-5.751522145987128217e-04
-1.951142672599412041e-04
1.117108969102099741e-04
-2.007087582864785201e-04
1.028840651821172038e-04
1.864957163412412982e-04
1.870869367528671065e-04
2.256110729770476281e-04
2.544765608085202899e-05
3.171189076628800322e-05
1.316997241039521874e-04
1.882714740844237099e-04
-1.671900902515932304e-04
-2.910751958898300331e-04
-1.072585015881779213e-03
-2.751774510475500646e-03
-5.011406495998746782e-03
-6.853931592378621589e-03
-7.070390571860582507e-03
-5.185468709226838217e-03
-2.028504808654321874e-03
1.157050740327351685e-03
2.993310296464398498e-03
3.247524585372418837e-03
1.605113411270669239e-03
6.755855531377684756e-05
-5.230772145885174669e-04
-6.430659450983281129e-04
-5.583889633440163687e-04
-1.169726255086977665e-04
-7.257631730705495741e-05
3.573869346200376769e-04
4.348536878411545637e-05
1.108387668917703818e-04
1.307087524380528057e-04
1.397583537569202408e-04
1.366040210651945058e-04
1.108221844577447367e-04
2.179024346200440440e-04
2.559852676135049472e-04
-4.427162490801326666e-04
-1.024840106764888766e-03
-2.378962573098208303e-03
-5.031033706205651108e-03
-7.134461637420382030e-03
-7.714337455437697035e-03
-6.514466904309504890e-03
-3.358454137799816996e-03
2.213366044052895532e-04
2.444295791725948231e-03
2.763252573495408176e-03
1.420124970560987304e-03
-5.580498537560566261e-07
-9.481622365800135071e-04
-1.058006315207866543e-03
-7.566689396044115829e-04
-9.417534775619867352e-04
-2.650617086458750284e-04
-1.071404981363526226e-04
1.198097461838575187e-04
-3.022474421847344203e-05
1.855265851418543617e-04
-7.214850101503132967e-05
1.780613047354711795e-04
1.235449739848309741e-04
3.376840237753294440e-05
2.153250550362733318e-05
5.373417619678497685e-05
-2.326103945865806515e-04
-1.480763432953893614e-03
-3.466649878146655685e-03
-5.641121750616392636e-03
-7.472556654933563969e-03
-7.167554932873595672e-03
-5.210614451104563991e-03
-2.342459322510453100e-03
7.322038873292192798e-04
1.790576695406435014e-03
1.332021643102760571e-03
7.719768631992587177e-05
-1.172455965853980544e-03
-1.351586459075150614e-03
-1.426914574693425924e-03
-8.318080926218509056e-04
-5.415274393735277757e-04
-3.394037892607979965e-04
-8.768794502653574406e-06
2.670853090461036174e-04
1.092285015774323168e-04
2.210187738208594039e-04
6.560690292351543734e-06
1.139995503376004600e-04
4.643111838602706704e-04
6.960886988810513997e-05
5.912774573063738913e-05
2.106066814808137111e-04
-5.451875149191544442e-04
-1.936139486965769924e-03
-3.802786191459459238e-03
-5.648955654329765493e-03
-7.002960773540764343e-03
-6.981902742757385011e-03
-5.400248624136942503e-03
-2.899313348461796027e-03
-1.038420340412739415e-03
-6.789965712917471604e-04
-1.328328113936070361e-03
-1.764607393853868640e-03
-1.635881173280737903e-03
-1.625040790341438250e-03
-9.501909929959457320e-04
-6.019983876878983505e-04
-5.915372880776014310e-04
-1.514775345570878713e-04
-8.264524715416321650e-05
3.477884947257996314e-04
3.464947878372368344e-04
1.210176844957010158e-04
7.646193090736788601e-05
9.312023947876048758e-05
2.790704646517545959e-05
-1.823604040018843983e-05
1.023240753466267563e-04
1.879869162440640307e-04
-4.610209564474278504e-04
-1.278608792174978481e-03
-3.173559028532473968e-03
-4.817777752373037653e-03
-6.490693932016034298e-03
-7.300290133761841091e-03
-6.713036709584888594e-03
-5.580949181579011355e-03
-4.186493617860627577e-03
-3.952732995169286855e-03
-3.552755891684810513e-03
-2.601130540933754495e-03
-1.767863629532956306e-03
-9.194932180482893449e-04
-3.069518466726635342e-04
-2.783230823508622522e-06
4.946677406011022943e-05
1.069709318462757379e-05
1.415177308881051860e-04
2.710694027956636609e-04
2.977369406635532322e-04
2.634684298066681130e-04
1.007943349975172183e-04
1.048104822852314667e-04
-2.121607860381620242e-04
2.198854121712108577e-04
3.875213052363853940e-05
-2.218564412521434307e-05
7.173828202396903477e-05
-6.429952612019622328e-04
-2.157512252905811629e-03
-3.171953220775049209e-03
-4.651285664297126650e-03
-5.626480457892243763e-03
-6.161849776402556454e-03
-5.661484205884732487e-03
-5.331859423438126133e-03
-4.337018600585620942e-03
-2.831452461932192511e-03
-1.394734021798475472e-03
-3.006894626457911777e-04
4.435707262455376764e-04
8.163624495068959536e-04
5.710641273876245708e-04
5.093663608572397347e-04
4.475116218215325839e-05
2.104242161772973527e-04
2.986822328178814941e-04
1.444061770075706012e-04
1.840878471047043496e-04
1.218239859725616140e-04
2.275278565553838235e-04
3.677104371802775900e-04
3.363917830458622673e-04
1.968110355231384638e-04
1.999848873686319451e-04
1.565958564928585301e-04
2.953219223374236002e-05
-3.474928341031898100e-04
-7.553431776431319836e-04
-1.044961123956219921e-03
-1.110260893714066360e-03
-1.197004587314209412e-03
-1.100772871788802901e-03
-5.688879298903590665e-04
-5.105606023818027141e-04
1.686439966324943104e-04
1.100856766245036054e-03
2.069923117209119135e-03
1.778081867767104633e-03
1.212817402842668877e-03
8.824578120838512396e-04
4.413950430305996165e-04
3.262621753103361411e-04
1.624656625877318164e-04
5.738509792252883694e-05
-4.866902798748370685e-05
3.515035133591969205e-04
1.427688601624776618e-04
1.114605223606480566e-04
3.213409493515804040e-04
2.721313269156223810e-05
3.101565340024146238e-04
6.231886843064507215e-05
1.738706148755083248e-04
4.974249192025289798e-04
4.256412534761071687e-04
7.458683580304975103e-04
1.483354034032681066e-03
2.306776313506955171e-03
2.703537927734556059e-03
3.313316958192299121e-03
3.218992057701148494e-03
2.845493355489645687e-03
2.767146099998648960e-03
2.795748653322560357e-03
2.498098430032270889e-03
1.808579562908490266e-03
1.426821089110303330e-03
7.493951348277859024e-04
5.055371775433091779e-04
4.414610576374512698e-04
7.483216903518846600e-05
5.222560805881783106e-05
2.491809690294574751e-04
2.368278703861993132e-04
1.859018547938684810e-04
1.826507407669775108e-04
-1.428744956048517623e-05
-3.488021708839050882e-05
1.973289028966616844e-04
1.481199493437205205e-04
-1.141541143741631810e-04
1.431431361422009214e-05
2.071684935579675595e-04
2.901808430912678231e-04
3.838834413731918578e-04
7.101506595911922072e-04
9.886266023413474175e-04
1.281129704220773484e-03
1.066928400349757876e-03
8.856245640985691827e-04
9.871092992386326908e-04
7.325063971420059774e-04
8.503703412462372459e-04
7.593486597804534376e-04
4.513256553893092628e-04
5.917678129015723236e-04
1.412524323619965424e-04
5.734225264047352445e-05
3.322387855387401207e-04
-3.147160615279769139e-05
2.877468988805420677e-04
9.200401787516084657e-05
6.317142460908565312e-05
1.160579448444543072e-04
4.492699108348284292e-05
1.775883274276933920e-04
-1.143720516059886156e-04
1.480568864535449067e-04
3.311758038463733216e-04
-9.907388306243944745e-05
-4.284528230579332604e-05
3.793002489664203732e-05
1.681367708591041601e-04
8.490134497435563319e-05
1.378900192441163877e-04
2.182358500041336211e-04
-1.003123259200561186e-05
3.036142855406432782e-04
-1.438650692116739277e-04
1.303410115581530259e-04
-8.470895382265925878e-05
1.686448974291550979e-04
2.346029791870395446e-04
1.330965201937544737e-04
3.243921843892809778e-04
-7.502442200407582736e-05
2.838253422058725534e-04
6.193767857810963734e-05
6.101330238297292946e-05
7.004960180198600416e-05
1.708417321053008612e-04
1.112934380032105713e-03
