1.013333586243137446e-04
2.571468028202926470e-04
1.634360976068078750e-04
1.623866314809664082e-04
2.366821726445892933e-04
8.867395374209283924e-05
2.380078406975067948e-04
3.085184513571013012e-04
1.639987799977595754e-04
3.038090369906117365e-04
1.373018903596415091e-05
1.388675958332915433e-04
1.191246628920752905e-04
6.445934461883444638e-05
5.034242827112491017e-05
2.492811196760348841e-04
1.087845476037213274e-04
1.723232436188130534e-04
2.195823160080513908e-04
2.156343436775324531e-04
2.447979967647718981e-04
-2.924782101542535649e-05
4.284309406543914452e-04
1.629496167104794383e-04
3.167012809771427729e-04
-7.046882397385837208e-05
9.990144070818277467e-05
2.287175777637090804e-04
1.682433756715885317e-04
1.936395627236499383e-04
6.313043621092770375e-05
2.677082165791615795e-04
1.854897058477270814e-04
9.459633467028447334e-05
1.310495378231973256e-04
1.072102935371488640e-04
-1.329655725289609588e-05
-9.153652588468281831e-05
-1.880631018504123593e-05
1.397841918692511478e-04
2.531964455564933046e-04
1.283485381403082193e-04
2.168180792954781935e-04
2.510008144767853617e-04
2.403120082845960307e-04
-3.218695059150692415e-05
1.318810684725993962e-04
1.150156602141612908e-04
-3.067879120782396915e-05
-1.449274261359226540e-05
2.057092108198387915e-04
2.984526552141977796e-04
1.080918434575934206e-04
3.066224445831300008e-05
2.071613983126183796e-04
-4.464983391996496168e-05
2.974704097890910979e-04
1.402910923335697340e-04
5.743317313661424126e-05
1.371511216165601269e-04
-1.179647379983829019e-04
1.924333790610316061e-04
1.716259806249918643e-04
2.943600820272673373e-05
2.245219401381621041e-05
1.714883948649420628e-04
1.287480369295091549e-04
-5.354162422489348313e-05
2.321130154243316712e-04
4.602620421685992388e-05
1.456981889529906373e-04
-9.888718563391185113e-05
2.330486682205475211e-04
1.949284770558435873e-04
1.682382106812232785e-04
-7.296697389283609192e-05
2.329174170169266526e-04
1.936982331837635999e-04
2.044160359342676490e-04
1.569518336615619383e-04
1.649440596974304960e-04
2.023530628473135676e-04
1.986982579701617260e-04
-7.817985141479119672e-06
1.073346220290670748e-04
2.446501265941972668e-04
-1.181641003468648259e-04
1.486725951161542751e-04
2.388997388645920043e-04
-7.675215974699610779e-05
1.152638543149643363e-04
2.388125013869861384e-05
1.928313229490210114e-04
2.995706278342450757e-04
3.326140412347445793e-04
1.679769122326389751e-04
-1.600267255345082750e-04
1.270171202352035687e-04
6.776484683360300737e-05
5.884279694135124587e-05
-3.028533604046252810e-05
-5.464613799566093050e-05
1.084262121969960940e-04
3.536548246348002905e-04
-3.194588877842028583e-05
1.831167983663947361e-04
7.862922940392702944e-05
-1.657246704486774590e-05
7.815670154475807890e-05
3.186902791334888922e-04
3.572420826919460836e-04
3.053489493407680433e-04
2.195147115124377257e-04
-3.921699668406260015e-06
9.973110528726905394e-05
3.112966773944331037e-04
-5.174261086048440196e-05
1.840468046956971946e-04
2.253667164075433792e-04
1.935468241457908439e-04
2.531987193477584406e-04
9.507548469472990212e-05
-2.359436662675245373e-04
-9.167292170496151222e-05
-5.970039720282844988e-04
-1.099780453045008047e-03
-1.737440531896542904e-03
-1.921334985937636457e-03
-1.953276034251304801e-03
-1.551556119650392401e-03
-1.119144301359480858e-03
-8.569721887318928599e-04
-2.678762522704875482e-04
-3.302041851868563671e-04
1.255757353938316858e-05
-6.231575187400957430e-05
-6.668477814452951173e-05
1.773078403565591353e-04
-7.742237248441965634e-05
4.591030164112469667e-04
2.552769083587737515e-04
2.929390204172670339e-04
2.437753014651065973e-04
2.474686294364476617e-04
2.796601999382121342e-04
1.923865038877274256e-04
8.425885447979325601e-05
-3.630671270919645009e-05
-2.463706567470571695e-04
-6.579748013623074303e-04
-1.077646673228451531e-03
-2.186769675106824910e-03
-3.431320392428860531e-03
-5.082997627503907032e-03
-6.436427545088187901e-03
-7.342847391678275319e-03
-7.532984142645757566e-03
-6.917748478163667988e-03
-5.932112355642042527e-03
-4.338820287176956003e-03
-2.909733592008690618e-03
-1.779880407076940042e-03
-8.935113098602810331e-04
-3.153411307748837759e-04
-1.840872537387855043e-04
2.198648690887966507e-04
8.048750405015201684e-05
-1.504930390490688530e-04
3.970569223686118963e-05
-8.603432664312722937e-05
6.522866151036008618e-05
2.006164046866083664e-05
5.499826316562305968e-05
1.432838560659044336e-04
-1.077705141542153712e-04
-3.447150853433403545e-04
-7.124605370576737699e-04
-1.477503318489748916e-03
-2.452879874632881135e-03
-3.587080419063489942e-03
-4.316431063043506093e-03
-4.516402343128259403e-03
-4.272182695508701215e-03
-4.160031036617507436e-03
-4.314211446877600116e-03
-4.740568566025663531e-03
-4.960005013699428714e-03
-4.761647462309359126e-03
-4.183301233759692539e-03
-3.085720950346160837e-03
-2.166878360306987925e-03
-1.046778083746275050e-03
-5.296571889046443153e-04
3.509293120061432122e-05
6.978619373464810109e-05
1.452372749333701431e-04
2.174821626463645458e-04
1.025029373673979510e-04
1.501275139250240727e-04
2.984403559057983448e-04
1.948062009413122596e-04
1.393810462539157630e-04
-1.018189683685807775e-04
-6.676951221772459101e-04
-1.072558908312264961e-03
-1.856133764341283453e-03
-2.315074743178999975e-03
-1.864352915607489026e-03
-7.213124709525222007e-04
1.107408475528154444e-03
2.685368682882735211e-03
3.499164567826273334e-03
3.014653141771239664e-03
1.208251282630316316e-03
-1.081000428626818863e-03
-2.802634151198797868e-03
-3.786235088999642066e-03
-3.485610258747678328e-03
-2.652540780002026182e-03
-1.798060988645084832e-03
-6.304616688360297665e-04
-1.871813263703892873e-04
-7.953309592380545102e-05
7.511075846724913469e-05
2.319928001451554119e-04
-3.027472672857185013e-05
2.752532362920538374e-04
2.977442365135856946e-04
8.084561575130729916e-05
-4.495667872454787246e-05
-1.402225328713245533e-04
-6.251114417048255194e-04
-7.870058013995551334e-04
-8.728403690958886707e-04
-1.776858646988305407e-04
1.463573659156237102e-03
3.002759815490974038e-03
4.166161018583465318e-03
4.944763172195656628e-03
5.478424603877997921e-03
5.082602784418880845e-03
3.697672683681172811e-03
1.329681532003885482e-03
-1.179542152410714261e-03
-2.750498791553344664e-03
-3.168463428229854190e-03
-3.145246631211076876e-03
-1.692582659881276992e-03
-9.579058762606586491e-04
-3.810996175826701486e-04
1.629269712790585971e-04
2.372273506582063399e-04
4.015665485420812313e-06
2.061642848410106415e-04
-1.433037533212191321e-04
1.557670899905581516e-04
6.299760209048636155e-05
1.150300908973064205e-04
1.026566507140711353e-05
2.012869323884161735e-05
2.708932148704618331e-04
1.030071690163622891e-03
2.170064961682004190e-03
3.030348253487764182e-03
2.907932942066388665e-03
2.465263653852258884e-03
2.423911947094801837e-03
2.890302522348653889e-03
3.145079346997658315e-03
3.185595118856604947e-03
1.899603332723967877e-03
-3.264569450400375242e-04
-2.335018842062466099e-03
-3.088732164384863643e-03
-2.733095942782587731e-03
-1.874793494994924205e-03
-8.337170826479883747e-04
-1.202595266256304888e-04
3.119711024943430352e-05
1.423048299170452679e-04
-1.857188510406410076e-04
1.215510463387894837e-04
5.476726984359176593e-05
9.937826172463733372e-05
-1.946894344012583446e-05
2.581628885859523631e-04
3.891710713220387203e-04
1.329941431816680352e-03
1.937380447056969400e-03
3.111349425051721483e-03
3.105638274755516490e-03
1.832596827609905442e-03
-1.988976837594352105e-04
-1.126972576013153147e-03
-7.122055057453618651e-04
2.378759694582199412e-04
1.355384925415429459e-03
2.134912015967152174e-03
1.660660340652111771e-03
1.323914491749763071e-04
-1.628893348374759560e-03
-2.249905685747041143e-03
-1.970496932736074108e-03
-1.310556169390940558e-03
-6.428447080004421818e-04
-1.967757689297678660e-04
2.664947032895167251e-04
2.846533665109607413e-04
-9.752685893593775722e-05
1.618429362862758183e-04
1.096020392261624644e-04
1.911355478735250496e-04
1.424593917211484375e-04
8.150860255471087217e-04
1.171801666416107286e-03
2.522181580844932124e-03
3.863909689503675082e-03
4.041879309169883229e-03
2.419425318483692765e-03
-1.119668852120837962e-03
-3.952706069050016847e-03
-3.978375122312574272e-03
-2.510104090183088409e-03
-8.541382652526479172e-04
5.618469719401062660e-04
1.903801974098217557e-03
2.090171055188891694e-03
1.142121475161540821e-03
-4.107050990763934438e-04
-8.690330148818517855e-04
-1.106041036552736197e-03
-6.758093384971933628e-04
-5.256789831028927306e-04
-8.958440028005072459e-05
1.570637099003518110e-04
2.246366641891206766e-04
1.768778293901137515e-04
1.600816839988992285e-04
2.120829987780904996e-04
2.512705565610973916e-04
4.983196842148910136e-04
9.039663390674445567e-04
2.002994931782529301e-03
3.623073070238754141e-03
5.090964118191813881e-03
4.912071750446530931e-03
1.876363651837187341e-03
-3.116523081900810736e-03
-5.864309322399305878e-03
-5.413441338931949953e-03
-3.593707171721232090e-03
-1.881085513161777183e-03
1.983726594287989642e-04
2.701905528902125327e-03
3.398161400607640180e-03
2.243687602964083896e-03
7.909333658303818954e-04
-1.425163828899463135e-04
-3.537960077556229926e-04
-1.738908730567766982e-04
-1.512588431555472875e-04
6.576694415387673756e-05
-7.081607669263905000e-05
1.744663144091957200e-04
8.800075455540829264e-05
3.378072384209244148e-04
3.364076867714163132e-04
3.496604126319754189e-04
4.746509978491855134e-04
1.342547444178251830e-03
2.550392777471222235e-03
4.554691475667153704e-03
6.471466464197913118e-03
5.704042114710098504e-03
2.042536237365421767e-03
-2.607547964303935303e-03
-5.356341231714784219e-03
-5.412624489728154291e-03
-3.783692192993739004e-03
-1.896691450550226296e-03
1.299775443381713481e-03
4.692478604318007021e-03
5.226259719948048686e-03
3.486755705117395698e-03
1.503025296855322072e-03
2.623759857571165803e-04
-3.450565426914166780e-05
1.195188210081015541e-04
1.506265721605097303e-04
-2.323555072950828743e-04
2.083696869667958098e-04
3.609333989819281385e-04
6.262135546403537216e-05
3.589552804258895082e-05
1.095057471381847918e-04
1.222488292037034890e-04
4.742153336325222700e-04
1.330084096628147581e-03
2.882079629791817286e-03
4.605072455570275933e-03
6.631644810730096679e-03
6.375660737401160107e-03
3.613679305748989778e-03
-5.207640037009895508e-04
-3.396604001638376617e-03
-4.299235589115106733e-03
-3.346388297129381049e-03
-1.106533089228288426e-03
3.123291568861921805e-03
6.649902390177546592e-03
5.949279194016466113e-03
3.419993063566080429e-03
1.195145783481972980e-03
4.146800984206854002e-04
2.578648548476511720e-04
5.989132899843052892e-05
1.079583373232855816e-04
3.185931723160779144e-05
1.083575584496167835e-04
2.042683431165394565e-04
1.187948833322809795e-04
-1.244513856697142414e-04
2.132573606800069197e-04
3.268440049835107455e-04
3.675194756893373290e-04
9.129984696307442754e-04
2.499891770332749157e-03
3.897714685242055412e-03
5.713491442467165567e-03
5.893186872896231769e-03
4.002632945889515043e-03
5.141615912264739865e-04
-2.599626049584517328e-03
-3.812046011880350360e-03
-3.152760440355375105e-03
-2.391781738565047536e-05
4.714676231488140398e-03
7.242960192110348139e-03
5.378809830446970759e-03
2.475613104451959874e-03
9.400477739621405319e-04
2.795384969584503222e-04
1.973495411379174998e-04
7.757406733580980970e-06
6.106471713482522067e-05
1.805883933056593620e-04
2.883472733855092134e-04
1.122933284498128022e-04
1.815154852863181962e-04
-3.613597722296864811e-05
-5.445869214012161012e-05
3.608271055120842920e-04
3.368643279938885924e-04
9.085444609642792874e-04
1.368144775183266493e-03
2.403255994793207419e-03
3.163689135903582569e-03
3.057642034604842168e-03
1.449740586895535352e-03
-1.419663803420120841e-03
-3.567442993432104036e-03
-4.151773390024977688e-03
-2.124501323658267282e-03
1.765041121864848687e-03
5.269689964218589665e-03
5.955344828022169495e-03
3.547283842081552958e-03
1.185324916718887836e-03
4.656568333915262555e-04
-6.084969297348361871e-06
7.909048433842721376e-06
7.444451193903699372e-06
3.230844339059912819e-04
2.041893367665328115e-04
1.057673575181727194e-04
3.457285940677419468e-04
1.088237747470099118e-04
1.198931978838174445e-04
1.045592270857306446e-04
-7.111270699076678537e-05
1.014988956995251931e-04
2.829408421654312756e-04
4.313735805492456988e-04
4.999625262691600406e-04
-1.100700124833095875e-04
-9.946750829516203853e-04
-3.365738676997885766e-03
-5.064388737989240427e-03
-5.311951932266082560e-03
-3.741508963685129686e-03
-4.970437095702023638e-04
3.098717069555983767e-03
4.682005881591931769e-03
3.715267558751499024e-03
1.329939661312191240e-03
3.040534055148606070e-04
-6.453385264766717949e-05
-5.802183927089825952e-04
-1.653059357789113404e-04
-8.828636804759655132e-05
-8.822580343788233510e-05
7.584235244419635562e-05
7.302317259340322826e-05
1.947405612841765217e-04
1.605171251144075714e-04
2.113484492058968821e-05
1.568452768416808934e-04
3.563868192398903217e-04
4.562140670038899374e-04
-4.627790665920352261e-05
-3.257555032671711017e-04
-1.456370665042554463e-03
-2.890244137645308926e-03
-4.938382925540803561e-03
-6.743806427687818947e-03
-6.911168401072597528e-03
-5.006506823646885047e-03
-1.996173614777997998e-03
1.478718048887858348e-03
3.228674248712842376e-03
3.461296695961830257e-03
2.008288501687031762e-03
2.710706045293383095e-04
-5.583227981554764836e-04
-6.465013964568901671e-04
-5.947653259671671329e-04
-1.532307304781308865e-04
-1.342994950781502923e-04
3.161067080466452121e-04
1.319394835634302903e-04
2.935857980398334438e-05
4.709182115074589061e-05
2.697224730765473001e-04
3.135698218634791609e-04
8.235962294767871345e-05
1.015599137549693211e-04
1.437923470584298005e-04
-4.024889666752369272e-04
-1.277784853046114773e-03
-2.446679291455355724e-03
-4.891859609749679705e-03
-6.800266238468103026e-03
-7.196099057361230421e-03
-6.245870257691797309e-03
-3.468246414022333694e-03
1.725419620741496895e-04
2.617375294019123194e-03
3.063848311464712187e-03
1.539243087344339261e-03
2.464572028447492460e-04
-7.571999413847545039e-04
-1.206514158364790359e-03
-7.461041342822459510e-04
-8.595570437650782011e-04
-3.760011945826848109e-04
9.823528277730744670e-06
6.700996231446858448e-05
1.195448745868021151e-04
1.907477200865689945e-04
-1.088657852967030505e-05
1.891485587459515645e-04
9.086624748219971183e-05
1.120388994013951574e-04
1.421529796742010735e-04
1.652705085583993532e-04
-4.989957536088492768e-04
-1.612633757398525443e-03
-3.330201794436411702e-03
-5.534949655059722556e-03
-7.311249027118005457e-03
-7.038852423190230211e-03
-5.402908666158458793e-03
-2.043548108805411361e-03
8.894340680889200636e-04
1.903591738996335964e-03
1.166185545720952073e-03
6.422791629281482352e-05
-8.339400560664700715e-04
-1.320242896740979549e-03
-1.482960086730300856e-03
-9.407037041964710824e-04
-6.919424019702832005e-04
-1.948695602218372572e-04
-9.905037404998240293e-05
3.890422211524748931e-04
4.639196101529208786e-05
1.672008322899973091e-04
1.840130325820072028e-04
-1.034827293345362965e-04
3.354335998627815162e-04
2.370166317563341922e-05
2.080899819659883193e-04
3.156352253076911063e-04
-4.914175128026695375e-04
-2.124917849186053545e-03
-3.544113773452955106e-03
-5.387141601162668061e-03
-6.832738911129445855e-03
-7.004861621013306998e-03
-5.343531153130530280e-03
-2.985807263161023399e-03
-9.670527222172668226e-04
-5.657280951691576448e-04
-1.257249568684473424e-03
-1.600646362147972691e-03
-1.533917845804352647e-03
-1.584973627753545481e-03
-1.073893053903927572e-03
-6.438851796987814279e-04
-5.471894054971565861e-04
4.038752351281295230e-05
9.381924499126738945e-05
1.289623945756440118e-04
3.713580284933819882e-04
1.445847170475647809e-04
8.319005921940925109e-05
2.943193327160062477e-04
-7.637121129349019584e-05
7.664031354424630997e-05
8.573176135718420341e-05
1.813062882769247671e-04
-5.954115944753553442e-04
-1.242919638911000810e-03
-3.210614570139797876e-03
-4.789599902864944553e-03
-6.275580081099920403e-03
-7.066378508410237416e-03
-6.672406983901077449e-03
-5.591788250689464293e-03
-4.231352457986943365e-03
-3.910552745162556958e-03
-3.518938379543129664e-03
-2.565768258390934038e-03
-1.822804034814846453e-03
-8.332756315504894970e-04
-6.067734487944780476e-04
-1.203101150291075957e-04
4.347834904954805366e-05
1.599456461525065962e-04
1.829885577345427713e-04
3.491569220589847092e-04
1.282005123572239208e-04
2.489163111193244357e-04
1.558317987091897757e-05
1.350525447616787809e-04
-8.641992762814684986e-05
2.269346084567758551e-04
1.416174499067319288e-04
5.965507833897466805e-05
1.293007183176930861e-04
-6.269073893407378249e-04
-2.028297846261822423e-03
-3.188341344408898888e-03
-4.409451533140571616e-03
-5.516120033401666206e-03
-5.740201018492437079e-03
-5.587694674376396560e-03
-5.262721823397229458e-03
-4.335167537145258841e-03
-3.074903732773453385e-03
-1.588512527587308300e-03
-4.037612109669983049e-04
3.854638836434280203e-04
7.067183388616154766e-04
4.664203735608900628e-04
6.233640991208174061e-04
4.240404101178453771e-04
5.912860405392362509e-04
1.441576229895438626e-05
1.382342996145174594e-04
6.147519438355989743e-05
3.802006097097153587e-04
2.808384939420279012e-04
2.079228798222082042e-04
3.085935759563981527e-04
2.020016716707617537e-04
2.201995568620499313e-04
5.358049647286401490e-04
-2.734369515521683884e-04
-5.565140758815271139e-04
-7.514559068449483577e-04
-9.743791203715243153e-04
-1.052708617665711619e-03
-1.045485593517594307e-03
-1.078663694236139383e-03
-6.205731503166514017e-04
-3.641858261599194443e-04
2.294162630972056702e-04
1.449181093534140409e-03
2.162082964910674431e-03
1.987391179788756609e-03
1.590190388495050372e-03
9.459495122243744263e-04
7.691172872743236213e-04
4.956044915505740823e-04
2.616971536594452736e-04
1.038934801938592068e-04
2.277587423304351557e-04
9.008139768153609211e-05
2.004228030926894768e-04
1.055311106833199886e-04
2.666123734269275651e-04
1.845321956649542921e-04
2.698858692403732383e-04
2.240336900819843956e-04
9.385703797236626502e-05
5.848819004908805243e-04
3.808811288848428086e-04
9.353675217692666724e-04
1.535612222532512384e-03
2.358706820347192864e-03
2.992800572903036964e-03
3.375209943906562829e-03
3.314244945425192605e-03
3.093465945183172718e-03
2.550387753886205512e-03
2.704371536169824803e-03
2.670847972716161155e-03
1.920929132575941800e-03
1.201838557653641141e-03
9.468782311829766892e-04
4.769169964793009016e-04
4.512661151101504415e-04
1.926272346680708749e-04
1.011568542967985910e-04
2.864309777345434003e-04
1.338163882585444088e-04
1.161596398685240620e-04
9.873241365411171259e-05
-1.027734378761539286e-04
2.304454856314006394e-05
1.310820795403563736e-04
4.210077209247678432e-04
5.432080547576959435e-05
2.770762788678615978e-04
1.943539139749750767e-04
1.824513037243736461e-04
4.447710136692903642e-04
5.944963927879366380e-04
9.968940907486110049e-04
1.022145962674140401e-03
1.281925034203880128e-03
1.010941116528574126e-03
9.142637841766380240e-04
8.352925957463897856e-04
8.653944319433725784e-04
5.997748943472216814e-04
6.955051188792311283e-04
4.113792999865487510e-04
2.282073800215615473e-04
5.591473162014363909e-05
2.488526695381959174e-04
3.014267297474608001e-05
2.957803281253632423e-04
6.996956738074661369e-05
-4.528519082579677147e-05
1.959445474028892725e-04
3.094599459302254719e-05
1.547339456663358176e-04
-7.789693565049587415e-06
-9.063225595677068004e-05
3.329086201707432964e-04
7.943222527792323626e-05
1.420100999244002334e-05
1.220441863730922511e-04
1.742459718527781675e-04
1.681501622320946619e-05
1.634957196243369461e-04
1.700344623415785746e-04
9.344083706869318222e-05
3.703019522107498288e-04
1.026513687838840358e-04
7.515887981093515306e-05
6.898892265844467969e-05
8.431425316651042614e-05
2.474061854200314704e-04
1.642568252684271576e-04
3.360271345772800652e-04
2.301402999119184223e-05
3.171439325664401226e-04
2.053554697239791697e-04
-6.350353901821148561e-05
1.887579106286943671e-04
2.682073492087564911e-04
1.404127909316579955e-03
