2.967097897193285080e-03
1.389673377051958182e-02
9.142096254994762448e-04
4.857855989637242279e-03
4.737919255920178437e-03
1.097640749782627899e-02
6.271727267346249683e-03
2.213289061458424624e-04
5.088254015254858528e-03
1.653234656337155065e-02
8.979972451283495943e-03
3.258994047403596540e-03
1.000966800693521086e-03
3.562110278856100813e-03
6.751483707731106322e-03
1.529424487476978116e-02
5.944943462014557964e-03
5.379973666626135069e-03
8.530264931832410788e-03
5.236757955932395611e-03
4.041045228047562658e-03
2.531370557458985891e-03
1.065490839639484863e-02
1.024530642007339190e-02
6.342268385793905366e-03
6.395175332944674773e-03
6.661030428465236457e-03
1.297480522235286947e-02
8.038161804555493672e-03
6.680717237714615432e-03
-1.528661166807538654e-03
4.801449232756748071e-03
1.167009387748254787e-02
1.544333165316451317e-02
1.118080558786148371e-02
-1.118851007445804090e-03
3.011565121926767195e-03
5.406459362660280023e-03
-2.837582907684329126e-03
8.020153752652262047e-03
6.234702136126038345e-03
9.610060702638017344e-03
6.683582354457824615e-03
1.003051693920529661e-02
3.007311412057549465e-03
5.055107364551445978e-03
1.196065847827284569e-02
1.007178557507171744e-02
1.444382663570290166e-02
6.517172815460008442e-03
6.359608347358784199e-03
1.722390366827279695e-02
8.476560356153356110e-03
2.101871388429290958e-04
-5.619178430799355020e-04
2.378335236784321401e-03
6.149742167427869888e-03
2.497396433566060909e-03
-2.079099455523990975e-03
8.151229301816772382e-03
1.170973102073778749e-02
1.123898825103562989e-02
6.833732000782617375e-03
8.776180747858599446e-03
8.399556722810515297e-03
9.139819725120732971e-03
4.760296159752632796e-03
-1.978063551217151741e-03
-5.637332383666604670e-04
1.170290999329540865e-02
-1.194267569729570971e-03
3.624935708795090031e-03
1.904552518908849898e-02
1.398834008407420955e-02
1.440527722176243239e-02
6.548315761203105621e-03
1.181412611182312486e-02
6.514842145546986645e-03
3.613747541001534856e-03
3.820698697379012587e-03
8.817616430621625506e-03
1.035970196483176377e-02
4.850441205277947893e-03
4.169808795276783338e-03
1.168912444643625337e-03
8.251737552309360013e-03
3.590316737528095100e-03
4.714936073514118704e-03
-1.534087733200320720e-03
-3.598082997247853583e-03
7.676289794393639397e-04
-1.670191387066050071e-04
5.098866917976487001e-03
6.590054032129379590e-03
1.499950738598653660e-02
1.030118559693914658e-02
-1.585490112261434253e-03
9.034626640217906929e-03
3.055634572516922540e-03
8.142355492255575269e-03
7.462516176985158067e-03
4.010367179358785561e-03
6.621214062109028256e-03
8.642902868629937993e-03
5.631434556532561621e-03
8.780038990920051301e-03
8.211082837436099388e-03
-3.123675969792142661e-03
4.850588793909176542e-03
1.674234889348943586e-02
1.173475081454044243e-02
4.992756849323774608e-03
1.404823598063096527e-04
7.873960023220697227e-04
2.304186962203812021e-03
5.399620668189085600e-03
1.118842835498430090e-02
6.654028744933502236e-03
6.035564950032935340e-03
1.389867264513611721e-02
6.410081070078446283e-03
1.247950422415263416e-03
6.599517134222410153e-03
-3.609931349608926261e-03
-8.217262686860453413e-03
-2.292643092535226121e-02
-2.133655952180010459e-02
-3.429434989470017681e-02
-3.637259163019722352e-02
-2.633141347592612286e-02
-1.788403339802785777e-02
-1.674245598646163097e-02
-5.645050931673050755e-03
-4.381387719746745318e-03
6.870916278629296201e-03
6.963066189802906425e-03
-6.215001793259889579e-03
7.645948358590917877e-03
2.479244860282038554e-03
1.871922568665189759e-02
6.479751124534539539e-03
5.980474140204859387e-03
1.012207838389634220e-05
1.509302541856026060e-02
3.063399695580209386e-03
7.971367522292613491e-04
7.611586119858330772e-03
-3.474497876941825148e-03
-5.808958163905167567e-03
-1.044063648055400251e-02
-1.560560504539940455e-02
-3.788187433767171292e-02
-6.267104393628085413e-02
-9.031803304912762453e-02
-1.176719599562417173e-01
-1.350415435437768152e-01
-1.328940445954306659e-01
-1.185549232907382039e-01
-1.007395389683022058e-01
-7.616434882701927922e-02
-6.322967713121512012e-02
-3.248782980641189144e-02
-2.623825723937099272e-02
-5.278866059394093924e-03
5.451102455228313583e-04
1.162038276497054899e-02
4.085117053335762111e-03
-3.678848259413071507e-03
2.698363761654554160e-03
7.724909708575291613e-03
6.692646709816405101e-04
7.721832850614475212e-03
1.250647304596308636e-02
1.281294923810365541e-02
-1.920665735676155197e-03
-7.708310925679719844e-03
-1.094280432186120304e-02
-2.992622474266077442e-02
-5.239126704304622462e-02
-6.596138833686716885e-02
-7.460113748935898181e-02
-8.081097468007047979e-02
-6.297587185282151057e-02
-5.617637869810376827e-02
-4.366376995890568907e-02
-5.200391001014208897e-02
-6.131956922883494143e-02
-7.201448934276447056e-02
-6.829799236044604982e-02
-4.539407871892718604e-02
-4.523720300443710707e-02
-1.791915745765213647e-02
-1.633610388230284649e-02
3.478320364191130401e-03
1.738429484926479890e-02
-5.074282785892087573e-04
1.274454918158743344e-02
2.130863574887260393e-03
4.493624410152417988e-03
1.037369157596041043e-02
-3.417892014327851688e-04
8.814361830136266743e-03
-1.011500524924739512e-02
-2.818739806421823729e-02
-3.245738060636519512e-02
-4.894442271567802510e-02
-4.734245528363338618e-02
-3.740863492349792707e-02
-1.622898378910557493e-02
2.744561860614982626e-02
6.392043392819470038e-02
8.456181498478544667e-02
8.702514790520093912e-02
5.596736894355899133e-02
4.650301843068897593e-03
-3.513762283362032585e-02
-4.822899534773114616e-02
-5.881944565205327741e-02
-5.665580173884439408e-02
-4.219927631024914666e-02
-2.300282934459086867e-02
4.402601154402839491e-04
5.558195341706608471e-03
3.403848891477150463e-03
8.964980145712724002e-03
9.105234277708401658e-03
1.252319438855830497e-02
2.035513476853283068e-03
8.432675652156461366e-03
-3.528459104792798420e-03
-1.690726754884723515e-02
-2.911822056832813824e-02
-2.688000399293303741e-02
-3.554358371047766640e-02
-1.582498744362226609e-02
1.602039107262073769e-02
4.664051541361118741e-02
7.523214034058497979e-02
8.411273362002151532e-02
9.159033199762603439e-02
8.535904320713438853e-02
6.911113602950112733e-02
2.996154372489905765e-02
-7.213839247881864009e-03
-3.363823363025803675e-02
-4.388824696438245465e-02
-6.288931823563501111e-02
-3.457970542557570193e-02
-2.513124014165388914e-02
-1.620370935167627507e-02
3.624143483653402293e-03
8.526185865803861258e-03
-1.116435218704392961e-03
9.999657444054867866e-03
6.515903347231755474e-03
1.055641063266560611e-02
-2.289599284560670401e-03
1.361393438154325126e-03
-1.234978468084052018e-02
-2.329856381312589431e-02
-1.862262268098922521e-02
-2.672103399713936754e-03
2.230736763327336933e-02
5.186425604129789313e-02
5.765750084931001163e-02
5.291208277726888731e-02
4.202546232701823842e-02
4.440428605603917445e-02
4.719249770089269796e-02
5.878197921247906022e-02
3.525227336674049972e-02
-1.303428212331030718e-03
-3.553929123423528458e-02
-5.049574788996845365e-02
-6.469427853025894182e-02
-5.411461110481857045e-02
-2.578962790461966290e-02
-1.369655849150503563e-02
3.788869032245491264e-03
-1.302631365583102477e-03
-5.652945075901451939e-04
2.731083950954385584e-03
2.406712394896958970e-03
4.181985084238460000e-03
-7.362617334274196117e-03
9.109787978588187313e-04
2.719622436307141990e-03
5.840520880508788364e-03
8.091607351033466844e-03
2.836952261832646413e-02
5.293042160742508079e-02
5.670274733928069855e-02
2.847186686697728356e-02
6.002052775697246144e-04
-7.225430005828410371e-03
4.932223764406793408e-03
3.514231651878976792e-02
4.838607637832304659e-02
3.831608607222698748e-02
9.437014140965812453e-03
-2.177848583237721250e-02
-4.590615333303416784e-02
-3.882309316073237482e-02
-3.043415166628772595e-02
-1.165833237273692854e-02
-6.071992509195964054e-03
5.450714407024758248e-03
6.757377240572052905e-03
7.584870981465222962e-03
8.218791749143659897e-03
2.166927390437057600e-03
6.434987177044042272e-03
3.911294716165939107e-03
7.333869710182240945e-03
1.113228613075215902e-02
2.591015346655860946e-02
3.897818763476315618e-02
5.689912588755858397e-02
5.406333442103361531e-02
1.844298731034636415e-02
-3.886675211353021048e-02
-6.288429459590429149e-02
-4.445056045501810660e-02
-3.778547661109779923e-03
3.852114027228493998e-02
6.888110466035182733e-02
5.812993295036397723e-02
3.854981766836471091e-02
5.332379046489728672e-03
-1.349579882700885532e-02
-3.641691672215157521e-02
-1.822977989833898804e-02
-2.400188253454501458e-02
-1.646210867200337095e-03
7.355441284782104037e-03
8.627912873759404841e-03
8.801964863089373203e-03
9.057923775844512609e-03
4.997715829039291006e-03
1.177555390402316993e-02
1.601017349891763891e-02
1.719189739850639220e-02
3.083502355901097600e-02
5.176213906098934420e-02
7.272777887670396624e-02
8.154787679259516142e-02
5.362134374594181019e-02
-3.320582819894224436e-02
-8.299363066226113361e-02
-8.292364017701558954e-02
-4.942634479387700286e-02
-1.177791888762873794e-02
5.179732740024524384e-02
9.470407357422423733e-02
8.523266219108767416e-02
5.861764955247913966e-02
2.552957942989893952e-02
-6.333269579438763341e-03
-1.756508619224322887e-02
3.739174081060622681e-03
-6.883040518979866018e-03
1.851746913069219225e-03
5.322236962132095503e-03
6.886360703928485170e-03
-5.819399703345257959e-04
1.015731241706003575e-02
1.384694786771202210e-02
9.879852769424563724e-03
1.860288050886830732e-02
3.489240000672792080e-02
5.797039340933505397e-02
7.797196815609389042e-02
1.081659869741128654e-01
1.105682994002637753e-01
5.842083039312442883e-02
-3.806138793439158008e-02
-9.594757043784939154e-02
-8.925651884877386366e-02
-5.037062849612075621e-02
2.615297253575558922e-03
7.221093467489003714e-02
1.334860275099541416e-01
1.211546240905719690e-01
8.220061350846372128e-02
3.620071436333675147e-02
7.161886501958801901e-03
8.816879262237198658e-03
4.892221072219929238e-03
1.290737483536508363e-02
-4.135867945020374123e-03
1.099508158987358430e-02
9.026977738055833728e-03
6.729043171252704382e-03
4.533421983837570592e-03
1.156530992459190929e-02
1.230628663247959435e-02
1.671159358489629834e-02
3.664109986374936706e-02
6.847404010610928793e-02
7.739875336204403433e-02
1.101918514137351229e-01
1.183224997088148794e-01
7.174896317660565959e-02
-1.046169805929526853e-02
-6.633683041186418106e-02
-7.943733753166508371e-02
-6.276927563186396331e-02
-3.829407074726558875e-04
1.052712196278695472e-01
1.592429053441307141e-01
1.207735084484384547e-01
8.165036407176522182e-02
4.225265305543784988e-02
1.608285497406294895e-02
1.272592721381420218e-02
-8.608915887634077321e-04
1.979866372527358184e-03
7.060554189054592429e-03
1.358246710326522361e-02
6.793682974253372961e-03
6.441848218985289989e-03
-1.959807546845003783e-03
2.370081238090081515e-03
1.144200467713234713e-02
1.058836975669627013e-02
3.434369857191586772e-02
7.106681685350693667e-02
8.785060336181012286e-02
1.058474967920934873e-01
1.015361104840904888e-01
7.146485296481122629e-02
-5.888383612796327209e-03
-7.088271221330343097e-02
-1.061452109341246147e-01
-8.453647597252376966e-02
1.804525205714555686e-02
1.307664434942157616e-01
1.639246276469308317e-01
1.169131958308341768e-01
6.090525865992129501e-02
3.378617244302736800e-02
1.076608361200803027e-02
1.626132600525946603e-02
4.825181447484081475e-03
5.312200776101982588e-03
1.165992370341403100e-02
6.006662263937491072e-03
1.030853444120229633e-02
3.049115269114679137e-03
3.655984469230402507e-03
3.360047080196569991e-03
6.274220154489935225e-03
1.415012240325818835e-02
3.797305479763297964e-02
4.298030912730319009e-02
5.733750098003059792e-02
6.027270572177696045e-02
5.046009649251761986e-02
1.239355701653899189e-02
-4.654182547555225924e-02
-1.034597527755300450e-01
-1.212730151490628572e-01
-5.619079450811804988e-02
5.499517705104881721e-02
1.263031358999384679e-01
1.202418608054318383e-01
7.288422262217211789e-02
3.410941284765572207e-02
2.202743416462241144e-02
5.547635048972673552e-03
1.783285375638918530e-03
1.720986895590941555e-03
-2.240747362059543769e-03
4.926029738408820371e-03
3.601381665572841052e-03
1.645989880091839816e-02
1.040971779974175782e-02
7.792661793664035956e-04
9.700460849746298658e-03
2.368651510632490548e-03
7.783924276829638431e-03
1.621342960190078064e-02
2.271441201668610022e-02
1.692563280976088977e-02
6.844083806752623844e-03
-1.531113632063286871e-02
-5.864270902987301498e-02
-1.100388698774572571e-01
-1.314007303832761819e-01
-9.390155827382802578e-02
-4.716118528961368676e-03
8.537771381259501302e-02
9.496852831247110105e-02
6.957190601302491728e-02
3.485737001860091111e-02
1.093757828103364936e-02
3.483591462716297861e-03
-8.273260541330561268e-03
-1.529581707462937751e-03
6.604388217607931773e-03
-8.951230539673792758e-03
5.184383102071163894e-03
8.829107540822254269e-03
9.058580540100676093e-03
8.736527017396354330e-03
-2.528073737693103257e-03
6.187024838112404300e-03
8.187892815349824549e-03
1.600019607391120133e-02
1.294915220317884594e-03
-4.428625817301864477e-03
-2.020831141636849834e-02
-4.714946132418089408e-02
-8.795213562229413362e-02
-1.236539983084346817e-01
-1.466658121969335316e-01
-1.191821578421424360e-01
-5.101918670519194760e-02
4.412793580211540889e-02
7.447745522056441192e-02
5.818170861687831791e-02
2.772238080077123190e-02
8.441813665801254675e-04
-7.275976467683077133e-03
-1.014546943476588026e-02
-1.536661603207974645e-02
-7.526689266047053781e-03
-7.757630987170772811e-03
1.006585277857229704e-02
5.719151518877260178e-03
-1.571291815428330053e-04
1.167790909098654489e-02
3.555985018348086293e-03
7.322674896293252661e-03
1.004289083730885122e-02
9.054771913210777484e-03
8.858407454479296644e-03
-4.362141978236679096e-03
-2.642653535983137403e-02
-5.229572272424523605e-02
-9.634140181213851628e-02
-1.335048608293902261e-01
-1.438725177123229004e-01
-1.326706616535590910e-01
-8.339478292171119411e-02
2.769674543204197082e-03
5.873437624915766458e-02
5.242665643203768544e-02
1.465982223635532884e-02
-1.402917577423040685e-02
-2.450712266624231403e-02
-2.314597018394015659e-02
-1.457518505029445702e-02
-2.850819381258589205e-02
-1.461438200325881377e-02
-4.091196086298573391e-03
9.575416429479580160e-03
3.719592398494454746e-03
9.755626693783839287e-03
-1.831691523016830241e-03
6.408806883631055010e-03
5.238304037102741069e-03
-2.026789992781288308e-04
6.446694313810579294e-03
8.502313881495277004e-03
-3.204921977523251912e-03
-3.463564918218207944e-02
-7.029369343012516202e-02
-1.048533400024150575e-01
-1.403557924110093724e-01
-1.341127516180243562e-01
-1.063491122298387687e-01
-6.120805718410537305e-02
6.009686942376108766e-03
2.722336810551384545e-02
1.699580946230103140e-02
-8.442893550857160159e-03
-4.050654715054802929e-02
-3.567582453200836279e-02
-3.968025292333126480e-02
-1.821783625632721060e-02
-2.255885123194557168e-02
-1.219595562943926598e-02
2.029405955459495994e-03
1.575224236909506317e-02
1.044384628479979107e-02
4.908448725239717390e-03
5.889815297269700677e-03
5.801687737471157742e-03
1.840731047974071902e-02
1.517671514005230040e-03
7.024845317464044683e-03
1.228474230890338678e-02
-1.308100862996219513e-02
-3.537346397797681841e-02
-8.030647727189099694e-02
-9.870041171094520727e-02
-1.222138626264935163e-01
-1.189169026155854070e-01
-9.884107760749209770e-02
-5.825596329585918526e-02
-3.008050450445370547e-02
-2.809329035060706761e-02
-4.549117971450819531e-02
-4.580059016666925692e-02
-4.488704357381106264e-02
-4.981938005520524654e-02
-3.406422237868969582e-02
-2.464251204858689676e-02
-2.369033675238246123e-02
-6.723755521524107416e-03
1.219096168756336838e-03
1.728856425214994608e-02
1.117011206719237433e-02
8.660611386660714214e-03
-1.409401427857931335e-04
7.788651647126919493e-03
2.409956097223477089e-03
5.004617594249118062e-03
4.503863196710193584e-03
5.948790055826944437e-03
-1.028433051093087525e-02
-1.927862542980520594e-02
-6.033689448143680911e-02
-7.093226225848994759e-02
-9.343428104449678917e-02
-1.100247523180277187e-01
-1.035874996315081509e-01
-1.064818439610303452e-01
-8.946559708719617476e-02
-9.530783765149938858e-02
-9.230507695041109684e-02
-7.584313272520477878e-02
-5.957408713500239594e-02
-4.023933616831666671e-02
-3.024361686530037049e-02
-1.171758615762400445e-02
-8.356142348376772305e-03
-1.172657538237041434e-03
8.414649042796520191e-04
1.305244514854216921e-02
8.600274999470301426e-03
9.672260689528124067e-03
3.352372052041154103e-03
7.827058934388585187e-03
-3.366917305266881738e-03
8.397928888206545456e-03
-3.422951809432419560e-03
3.075786602178130769e-03
1.195330045374667222e-02
2.292999604883461020e-03
-2.784227330420292051e-02
-3.196733090796213123e-02
-5.091033707544614928e-02
-6.461492370718510680e-02
-9.934279082068961375e-02
-1.017984317903992963e-01
-1.270515734622441884e-01
-1.101660566717442696e-01
-7.998375250139629078e-02
-6.166495577516805521e-02
-3.580984304032136523e-02
-1.602465908926984858e-02
-2.307120347054739725e-03
7.266356616212004890e-03
7.319941433383598053e-03
2.200928516476836991e-03
1.135934922246618906e-02
1.163787971459424690e-02
4.075155357087035732e-03
1.032122960506320387e-02
9.907887548975126413e-03
6.221480345350281944e-03
1.254278354512982502e-02
1.101564188916369889e-02
1.006831714372544151e-02
1.262052001370437930e-02
1.132573791155649760e-02
1.545435307932003545e-02
1.529441682926658240e-02
2.385302178198460757e-02
1.961395598561275350e-02
1.695112061510148371e-02
2.258836058877556762e-04
-2.219734586768910833e-02
-3.127167389880835396e-02
-4.366502464131256922e-02
-2.459358324417007871e-02
-6.250273294026925837e-03
2.677890275870115772e-02
2.877770185095944455e-02
1.615062463856388464e-02
2.092854558545463942e-02
1.122996485897759071e-02
1.143065164776605087e-02
7.586170808922288247e-03
5.758133257412583784e-03
-3.817203212108048922e-03
1.635950929531540532e-02
1.007168678306213927e-02
3.500279539190305055e-03
1.932442580236754318e-02
-9.833666462799501597e-05
1.575537434066369424e-02
4.877817387593670270e-03
1.513366027005721808e-02
2.277507911983083985e-02
2.086749102713416834e-02
3.375346178170908484e-02
5.410245565394370543e-02
6.533405062160532739e-02
5.821119076023965194e-02
7.040053333455892348e-02
5.821916015926810462e-02
4.955494900089306431e-02
5.444735440024806028e-02
6.094820016471755308e-02
5.187753996749729785e-02
4.113975537356198697e-02
3.188335352671348155e-02
2.009920961732204053e-02
1.141348987226947602e-02
1.642411212259123343e-02
9.260277195899169200e-03
4.720397076156692372e-03
7.036280345735692471e-03
1.212032061314526933e-02
4.213265300345317953e-03
7.345741572080797047e-03
-1.946875639582275200e-03
2.450152136956538270e-03
1.070160392130897406e-02
1.581241223857322853e-02
-5.006201978896208937e-03
6.195575714041320903e-03
1.371750552641349923e-02
1.148587022632208653e-02
7.608010761911396073e-03
1.725348160195038644e-02
1.868896180671151055e-02
2.085846693355260240e-02
1.865393829013031052e-02
1.667774442145403963e-02
2.518417720339559060e-02
9.918488183962508031e-03
1.910200840990423227e-02
2.051896082423184872e-02
1.014523853225607168e-02
1.965881262661703724e-02
6.757799534135348028e-03
5.570037152119428070e-03
8.870869764591275686e-03
2.052756009740240931e-03
1.451325236772451829e-02
1.013892011342513305e-02
6.148342288448785040e-03
7.853599248111190617e-03
8.481222396186864632e-03
9.522217723585345642e-03
1.681842080274404544e-03
9.897756331498849813e-03
1.836962004600872084e-02
-3.467067510195510731e-03
2.655667645226758751e-03
3.392595107257154099e-03
3.774221321349840313e-03
6.950575051754623659e-03
1.060086266276963167e-02
8.167980130009737383e-03
1.298754316312167052e-03
1.427218602658961340e-02
-5.195614088170971701e-03
1.232170939799270316e-02
-5.554439652623362894e-04
1.003317995093629296e-02
1.423643695924475643e-02
4.753160703484604968e-03
1.345528663324191063e-02
-9.071365836054298346e-04
9.912700333553349855e-03
4.872440567821840346e-03
4.568069319976838551e-03
8.564160221019913657e-03
4.688336051196781602e-03
6.954170893612612869e-02
