-2.096864419240003150e-02
1.355165050652210393e-02
4.885355825920475320e-02
-5.685446037761167359e-02
7.080494042603074391e-03
6.749719279893767743e-02
6.910361373969857446e-02
1.769455320381074781e-02
-4.317625457671063482e-02
1.178249826813084497e-03
2.794679227000243862e-02
-1.496013103847023719e-02
3.339162929972155913e-02
6.901554408288113236e-03
1.343019233711191876e-02
2.991195842339653549e-02
-4.511123730036346174e-03
-1.900853373174397074e-03
5.382964459856050266e-02
5.077107297407734005e-02
-3.149348398106052022e-02
-1.866839013898696428e-02
6.405445906611734186e-02
1.540986121746786529e-02
5.534413252583993137e-02
-1.869351655886839197e-03
7.568537364964937619e-02
2.604240384943849393e-02
2.862096901272641672e-02
3.969488106571086167e-02
2.920090103243608293e-02
1.478052454782353628e-02
2.604438515278942670e-02
-1.538283944853331350e-02
3.023334668599140379e-02
3.648492282483910276e-02
1.979440253100795896e-02
3.102961670162368568e-02
3.838470226654518147e-02
4.774231395807124363e-03
1.374156444939983630e-02
2.753881666237591695e-03
9.835061356587173828e-03
-3.764458848192785145e-02
-1.991446689407066692e-02
4.060487963022670066e-02
4.306545212415367752e-02
1.949883657636626577e-02
5.581834542680827460e-02
2.687608278818796360e-03
4.014500018097747619e-02
5.176439026901873131e-02
4.302189827534865646e-02
3.129617180232371204e-02
-6.629238681922498475e-03
-9.659683953011689167e-03
4.401917845425594444e-02
9.341267725135956809e-03
6.041690887356706945e-03
1.888606969146515088e-02
5.580057786959349841e-02
5.772244219153872119e-02
2.892338880178589935e-02
1.171474058348717477e-02
2.762231231188873662e-02
4.017534465139381561e-02
4.518660589345210518e-03
-1.306196024106086144e-02
-8.254430463300934176e-03
5.260364727959401104e-02
-1.476159081774422455e-02
-2.288734000102627536e-02
5.574225798127682707e-02
3.211554028131156230e-02
8.580886559547087900e-02
2.515734929126491048e-02
3.635098113316956314e-02
9.442702364638116963e-02
1.418527685186460894e-03
7.333996146173231423e-02
2.389252830610834322e-02
3.225749209797070666e-02
5.811811438899498056e-02
9.985435736299770257e-03
1.842573937547274264e-04
1.641654809689171990e-02
-7.209470902917898376e-03
1.308117221915479703e-02
2.923956444681401201e-02
1.716395420703510991e-02
1.304092065389238740e-02
-3.056978806829063755e-02
-1.837896778191889179e-04
4.754888921033425392e-02
4.858038039961167648e-02
4.172732787051634806e-02
2.850701846373109808e-03
-2.258741342629919449e-02
4.609666342283832985e-02
1.954513564115332308e-02
-4.877385453871045488e-03
1.180548100597059169e-02
3.564161107549269122e-03
3.846056752872940160e-02
8.189315181576917180e-02
6.125226289039196331e-02
3.032888416785270783e-02
3.801429347527736369e-02
3.414597554563265913e-02
8.137383598994185618e-02
5.190829165710463683e-02
6.445347979369477065e-02
4.054651546411049134e-02
3.085728432319117046e-02
-7.231724548621551452e-02
3.548244969053106906e-02
3.349132718742652698e-02
7.282986672354880078e-03
5.699768868783208590e-03
5.209381970981643434e-02
5.640927634902378335e-02
-1.209956787626781816e-03
4.337772126382336002e-02
1.618403977538800803e-02
-1.017011289439982355e-02
-7.565243941206119260e-02
-8.026905916902403459e-02
-4.731856830444275408e-02
-7.803953816767486562e-02
-8.048854867850287198e-02
-3.061734003749823005e-02
-4.920419514108207923e-03
2.522325940807558856e-02
-2.046205465964352072e-02
9.805968144816098325e-03
1.048200691333454199e-02
-2.166179388033913703e-02
3.749021605171343544e-03
3.119293791854716932e-02
6.209536817955622207e-02
3.044375299304466487e-02
1.103737159693969454e-02
1.467386457735265354e-02
2.206463920091920883e-02
2.452837979898749195e-03
-6.426895680014443890e-02
3.371898090424763073e-02
5.276554705432497799e-02
3.905542294623665436e-03
-7.496873931997256879e-02
-2.052355630180161331e-02
-6.728864837749383432e-02
-9.640450973029508763e-02
-1.230618480312125756e-01
-2.022325710408560684e-01
-1.876918065364719945e-01
-2.388252632211351756e-01
-2.024451465534308769e-01
-1.769246714470438520e-01
-1.552895504465397203e-01
-1.245160172716175545e-01
-1.839169770257894493e-02
-1.631480555462636733e-02
1.490165660809205511e-02
-9.512447769411054230e-03
2.014366063182857283e-02
5.104017354156314273e-02
1.342372932455988647e-02
1.262214848998724839e-02
3.067668880772669859e-02
1.288686187731651056e-02
2.034714275148982558e-04
5.503060034842240794e-03
2.181368451058772820e-02
-9.254720826700141637e-03
-4.818652347025372679e-02
6.429668070848599919e-03
-1.931517046899892953e-02
-4.514204962682161898e-02
-8.793941296078433556e-02
-6.168131876631541277e-02
-1.074505557385702220e-01
-9.453143384583972963e-02
-5.898675464815220093e-02
-3.666128787249988558e-02
-6.505401804556654177e-02
-9.039158437961762604e-02
-6.563424147660130992e-02
-1.515363717097852891e-01
-8.872373858164367411e-02
-1.169434170982561194e-01
-5.965866416347499757e-02
-4.803976947619041649e-02
4.948424724793794305e-02
3.448912709237222235e-02
3.503493058366086849e-02
3.796141944867147122e-02
3.243627055197257497e-02
3.062592051316211789e-02
2.873975987989197192e-02
-2.634656885370298060e-02
2.357358848283730088e-02
8.969259184283413441e-03
-5.374809736885523270e-02
-6.665066652377342471e-02
-5.983661372405294637e-02
-9.219369150932200940e-02
-2.988928338072762217e-02
3.779951291947868802e-03
9.875602468812501311e-02
1.468181531630608494e-01
1.806877304450429100e-01
2.260968216354826699e-01
1.688045216876601640e-01
5.576397581590360891e-02
-5.126326189761784557e-02
-1.012589272569714843e-01
-1.045501143286736989e-01
-1.165454634354586155e-01
-1.493344544496297555e-01
-5.502155921945418166e-02
2.100136227444533363e-02
-4.257050950449961860e-03
1.574096106744251461e-02
2.068550958796046280e-02
-2.639180619000849881e-02
9.500248142884085839e-03
3.207211014165853996e-02
-1.270483695112466921e-02
-1.045861895021414330e-03
-5.260124179915760811e-02
-9.661737332465981931e-02
-4.858070644913872055e-02
-9.453929758862478216e-02
-6.822388198672672821e-02
1.349652687461826497e-02
3.283508917139472960e-02
5.992445949647505488e-02
1.013589750115228699e-01
1.171953496183305438e-01
1.192972249032497323e-01
6.980153216496989832e-02
3.533389788985413088e-02
1.832678675035421352e-03
-3.612028363342797976e-02
-4.733800914463369425e-02
-1.094149938545522782e-01
-7.414662052438453221e-02
-6.321151117461296098e-02
-5.042140219025961767e-02
2.469408301240457598e-02
3.237378739398338867e-02
2.546103238193740334e-02
-7.569599034236607245e-03
1.617608242034133947e-02
-9.341609677702403594e-03
1.668189387322415937e-02
1.547884280061726132e-02
-7.340164916832904451e-02
-3.463060608479394398e-02
-2.536389904127185277e-02
-4.742263529796346411e-02
4.640236274600730015e-03
7.240216320391359983e-02
6.162001234544976086e-02
7.271508709074966936e-02
6.483623123697110358e-02
9.345047242628551354e-02
1.147093445293779906e-01
1.331031549858477103e-01
4.443090457478961891e-02
-3.849761017176455552e-02
-5.370621324669645757e-02
-1.021518875777703561e-01
-1.434668633084003331e-01
-1.335067765724928524e-01
-8.831887475847374769e-02
-4.326954385206277509e-02
-1.873527140878162439e-02
1.258567618391251419e-02
-2.417185583480122024e-02
-2.606494772772674495e-02
2.664470683128565207e-02
3.225928890668870730e-02
-3.334016091820278527e-02
4.036045037160807675e-03
-2.404531138636744128e-03
-3.620078991813749369e-02
-1.558106889564894737e-02
-1.485193610272054349e-02
6.297147644539491385e-02
1.218459495915768520e-01
8.357791537769621026e-02
1.475881342679452070e-02
-8.482053155708515341e-03
1.138797600829586157e-02
9.846062272142362681e-02
1.484766611906529199e-01
1.664123269721980852e-02
-1.699472878244412052e-02
-4.038471106801190362e-03
-7.933220051348015278e-02
-7.251185751578316518e-02
-1.221789483268633375e-01
-4.873112491972655252e-02
-7.491565047139699639e-03
3.469976214943374521e-02
9.107744907420388045e-03
7.411585725744747333e-02
1.828685165751165256e-02
1.328858495389182923e-02
5.669862834545808666e-02
5.025375407445565462e-02
9.486322796892402917e-03
-9.103506734321909627e-03
-7.051502911008958666e-04
3.387421041383359421e-02
5.155104219545703081e-02
1.235615832389951457e-01
1.296178612740623015e-01
-1.438729518048728097e-02
-7.934759323944898246e-02
-7.370270263292881541e-02
3.837540638525091530e-02
1.889529584081248992e-01
2.045438144484205967e-01
1.556268728781812771e-01
4.904080051347400188e-02
2.591169106075385045e-02
-1.587672176584866215e-02
-7.454738779701849949e-02
-8.991543505127080893e-02
-8.613216362272047011e-02
1.309909356227621086e-02
2.662125891374089986e-03
2.332307244311977723e-02
1.261346480815995520e-02
5.379345547433302815e-02
3.458176638968726846e-02
2.950228511662080291e-02
7.695404646302750340e-02
5.116326431571499925e-03
4.657203408916538168e-02
8.714485659031179221e-02
5.388001158120633849e-02
8.705564461888505579e-02
1.689173679795100969e-01
3.743868765922658132e-02
-1.309916325294984141e-01
-1.640167881992486698e-01
-4.960508861478063469e-02
6.689617724691064582e-02
2.378689158345056731e-01
2.518798671141178058e-01
1.543022311876365571e-01
1.324842286716576278e-01
7.623980926963928872e-02
-3.837851078094583340e-02
1.356987179652008497e-02
3.337210651047489100e-03
-2.705012442869275321e-02
1.512481596481485106e-02
3.441891594120752361e-04
6.338673505679119635e-03
2.436486157995026297e-02
6.811434605987931601e-02
3.065582703673032372e-02
-5.143098333715843268e-02
8.593484709348378492e-02
1.088150041224731496e-01
1.207972448965525941e-01
1.664019892698557768e-01
1.783060327099841857e-01
1.790130431181329584e-01
1.202994488429968561e-01
-5.310847960265171336e-02
-2.258528013772490295e-01
-2.452633042023821819e-01
-6.766850237422553094e-02
4.520414128809330939e-02
2.206635616116058018e-01
3.067363521060397225e-01
1.988674443688596694e-01
1.528507109883683601e-01
1.247777174405400452e-01
5.128336597232329569e-02
2.804537126576043746e-02
3.932326871096390210e-03
1.861792275232767094e-02
-1.798924455964513724e-02
3.516167607315606736e-02
8.419194759833674435e-02
-3.831907826167755583e-03
1.076057958699646114e-02
8.485232992377025885e-02
6.306073263790665240e-02
4.564197936522575855e-02
1.235873986826061116e-01
1.855094743571057414e-01
1.536481724635724577e-01
2.341337888828638747e-01
2.441698767467009312e-01
9.894732756632115822e-02
-3.471977640842062451e-02
-1.482468997861729754e-01
-1.913474047783000065e-01
-1.376795308582050847e-01
3.653380201624809726e-02
2.289053667317823004e-01
3.134345612919102186e-01
2.182969671762686470e-01
1.939403925334969581e-01
1.046419094221940627e-01
7.197563821699864972e-02
7.902382777541162862e-02
-7.318296631127557510e-03
3.728995536820471635e-02
2.026037545695547407e-02
6.989291032627474587e-02
1.514677574069499960e-02
-2.971808127100080896e-02
-2.743713682271503931e-02
2.966679019129262948e-02
-1.188304172224952104e-02
4.494775866311385287e-02
1.209981609819029552e-01
2.078865285962799292e-01
1.736599513668024286e-01
2.050102304426465183e-01
1.720083617298974188e-01
1.018922768252160521e-01
-8.343467138193265409e-02
-1.970771975844201607e-01
-3.025555463869327721e-01
-2.130690415020846940e-01
7.994187068891059345e-02
2.849243672061539945e-01
3.322406523476490459e-01
2.284767263420368066e-01
1.379335368208187973e-01
1.008879198715128267e-01
5.299208264842174276e-02
5.962483947636319087e-02
-4.611118215109856998e-04
-1.385133375354935005e-02
1.875490605585949239e-02
-1.331611797285823899e-02
6.752880219952761554e-02
1.461861525636490647e-02
-1.272527231213357564e-03
6.857361642842773393e-05
-9.151618586115713508e-03
3.708316921934095428e-02
1.072723234160274930e-01
8.387101964040326318e-02
1.637867474573685700e-01
1.619640124862569697e-01
9.418477909351513633e-02
-1.409599111765383328e-02
-8.253943488040826892e-02
-2.832004858123807201e-01
-3.496084262133814513e-01
-1.282064691190350214e-01
1.271910332315311642e-01
2.256628662662246432e-01
2.112229422336351914e-01
1.178137012417929397e-01
8.539250045401525213e-02
6.837539201169794134e-02
2.208480737509669820e-02
2.247766955769628719e-02
-1.454948697793836780e-03
-1.244052764711361773e-02
4.537267588564566911e-02
-1.375099331160767151e-02
-7.311893981858283778e-03
-9.147989726760707638e-03
-2.162480262404090255e-03
4.409322539787040307e-02
-1.640228260135687816e-02
2.460114420205782720e-02
1.264973332342604617e-01
4.947723809076504803e-02
-1.602448242065807396e-02
-2.809306758575061836e-03
-2.533569603395231101e-02
-1.214383880376904840e-01
-2.095410256808639959e-01
-2.590971371370248133e-01
-2.716074217655108924e-01
-5.276911565379357322e-02
1.779757458554843130e-01
1.349053724917512187e-01
1.320617117158528475e-01
8.894795411207054303e-02
4.045149030684588864e-02
3.582091325880056715e-02
-3.187773155466613190e-02
-6.017182958966476453e-02
2.767691576519146733e-03
-8.646331568377673207e-03
-2.005087148959903975e-02
9.116691201347174728e-03
5.269896284000782222e-02
8.004362403740781368e-03
6.143181232102262052e-03
3.145635395205344936e-02
1.904160914799376755e-02
6.576202483171188218e-02
-1.444142375456415085e-02
-2.125719009469186072e-02
-8.709638207438907820e-02
-1.376601454808396019e-01
-1.820576053786855386e-01
-2.416427986802714423e-01
-2.691090630351320456e-01
-2.254059228735612597e-01
-1.143373675403371453e-01
9.396593201023346886e-02
1.446754278614779121e-01
9.631610073862262311e-02
5.555123622592735011e-02
1.150553739713493749e-02
-3.703600449968548480e-02
-1.853868288795758323e-02
-3.477417607793484300e-02
-2.703306364629563460e-02
-3.024105003908364453e-02
4.388340141956759144e-02
4.647335620601331790e-02
8.378962619353927735e-03
5.409226394410893840e-02
5.987685696262082247e-02
-2.467306802839289680e-03
5.804401480880152370e-02
7.423927926973567654e-03
6.821800057528476513e-02
3.093207010347543556e-02
-8.703824043420192724e-02
-1.374057394776496133e-01
-1.699251363915578183e-01
-2.933145175383327641e-01
-2.621343758752282538e-01
-2.592681709826416547e-01
-2.101263884275042515e-01
-7.080741508146501384e-02
8.961971951894112665e-02
3.441933295426387318e-02
-2.535274675788216220e-02
-6.721330097551739269e-02
-8.081650506251762678e-02
-2.993584455279723125e-02
-6.457119631013488736e-02
-1.008272167968379818e-01
-8.255435119627650697e-02
-5.301532652621931269e-02
7.101482674098867631e-02
-4.016281133115699037e-03
1.291825227247212458e-02
-2.147875873237886646e-02
-3.398965153089691417e-03
2.550736057279081453e-02
-2.636093839874207451e-02
2.977427837550369535e-02
1.565659845274567849e-02
-7.135658247489742867e-02
-8.165731890770945578e-02
-1.871264438245961448e-01
-2.355349890784155797e-01
-2.957081524649015081e-01
-2.871699080537361559e-01
-2.688859282143953866e-01
-1.846341723622789421e-01
-9.235785209228350445e-02
2.437673005865187079e-02
1.032500846963970050e-02
-1.275034456925505828e-02
-3.310650003574357181e-02
-7.542686918380007988e-02
-8.179096198568082399e-02
-6.929449568744629195e-02
-7.690011368351386267e-02
-9.633004616120524610e-02
2.534469905760079918e-03
7.295757668474790215e-03
7.295181501387579259e-02
5.220727221177415972e-02
1.347733364606215796e-02
-2.011303933136715516e-02
1.244825652968569417e-02
-1.123834494906480151e-02
1.353623034980633646e-02
-1.536584353364064785e-02
-4.869898342729339635e-02
-6.593702935164298673e-02
-1.880396411812095825e-01
-1.946452822342592814e-01
-2.501707510930489820e-01
-2.380888602008290333e-01
-1.473929026473958515e-01
-1.987279758058959900e-01
-1.427243738756027447e-01
-1.309810415195543642e-01
-1.329768407473286007e-01
-7.684935203609957743e-02
-1.079794627767883819e-01
-1.195035157430464623e-01
-1.095721166085891762e-01
-1.394401560256983974e-01
-4.623548628143354239e-02
-5.273438205562336334e-02
1.629147695049644462e-02
1.491751575773454797e-02
5.532451272312017415e-02
1.402733834760048690e-02
-5.256248434453689210e-05
1.220791739126419681e-02
2.386004842650654711e-02
5.309868926858778149e-02
2.135657403795336237e-02
1.479836724830645329e-02
-6.357381768104526654e-02
-3.795187558186963184e-02
-1.312035123208075138e-01
-1.727214158426937651e-01
-1.482077741265062920e-01
-1.713214068512035337e-01
-1.566498267288075064e-01
-2.384962981054914444e-01
-2.277468906682076355e-01
-2.228881571349729807e-01
-2.016203277182271325e-01
-1.486675864485251242e-01
-1.723904030663619136e-01
-1.502745549207948339e-01
-1.650697602357635296e-01
-6.849792350016226106e-02
1.091186352831149259e-02
5.874131482214118780e-03
-4.007252856480501314e-04
4.247696404888143262e-02
4.137837453799138310e-02
4.320522010057196299e-02
-2.521472569611432624e-02
2.586403948759951124e-02
-2.860892797534724322e-03
5.324754869557048881e-02
-6.363768197923939940e-02
1.094737928401950076e-02
2.416591319249344547e-02
9.282981539239266999e-03
1.182425894679943468e-02
-2.220203617505952381e-02
-3.301648751795457221e-02
-6.584219989760124736e-02
-1.724746745784668245e-01
-1.633056101901230184e-01
-2.931573878985675452e-01
-2.567391961687739976e-01
-2.103496188161157465e-01
-2.082499810679458718e-01
-1.553229654130921233e-01
-9.764742894793125572e-02
-4.689404903803166130e-02
-1.871300078927687696e-02
1.503347590887675438e-02
2.048956418273025284e-02
3.863162177365130762e-02
1.120250008695501502e-02
5.518797578209710952e-02
-2.714467041998669394e-02
3.013878044185637831e-02
1.338271318205123094e-02
2.681315795118965548e-02
3.512422644566358387e-02
4.823196723582851703e-02
7.462462766102574696e-02
4.293018314780329414e-03
4.101972986034344709e-02
5.323269638225749251e-02
1.114838716291018245e-01
8.564572671200595955e-02
6.919130184886905510e-02
2.428930987119661683e-02
-4.085442094889502052e-02
-6.451537020993006188e-02
-1.308818477393134116e-01
-1.162169634920537514e-01
-6.027257937789702591e-02
5.394487576088002889e-02
5.614893489204923066e-02
1.259872975895826031e-02
4.620583280764044981e-02
4.240179293851138731e-02
-5.857753152775621412e-03
1.363637392016875220e-02
3.077814979214172492e-02
-6.442941461894714089e-03
1.049871769001333929e-02
7.022564661268955455e-02
5.463335364591411902e-04
-2.217456881461296343e-03
4.906207717262001632e-03
-2.706122485462829266e-03
-5.316563057331728619e-04
4.708638877519763510e-02
7.650717319473836209e-02
8.843731136028383510e-02
8.442399632425964806e-02
1.279265447622431884e-01
1.208980717109216507e-01
1.322518584439551781e-01
1.681477434850880970e-01
1.183940627690485137e-01
1.149498489032859810e-01
8.807621721004121884e-02
1.194251228282591781e-01
8.616489325024387358e-02
1.042655758730228754e-01
2.983390019048106842e-02
9.436873797572811751e-02
2.874273945199103120e-02
8.646523790011212407e-02
2.190450550670375654e-02
1.261420802098180485e-02
1.678697530673385618e-02
3.597678278100007593e-02
-1.219412770240494229e-02
-2.741721982750791944e-02
-3.885665569077379898e-04
-2.235095021208858418e-02
1.847304451427274341e-02
1.210714219413429743e-01
1.035132138360809508e-02
4.055648382154854181e-02
3.225562353053102599e-02
1.900923911647780379e-02
2.222065315415380424e-02
3.479836461114664548e-02
6.302838792254183975e-02
4.384896918805492039e-02
5.616421707959919074e-02
1.197465558669911188e-02
6.001393039786227096e-02
3.200594153632205924e-02
3.350425846648563688e-02
5.040763587368533860e-02
2.143082662388379536e-03
-8.859175311809656603e-03
5.139184776899327622e-02
-4.794024283927752865e-03
-1.339946921984636052e-02
-2.560931631674077859e-03
5.712559393369576188e-02
8.838517899873957195e-02
4.050687315841810382e-02
6.520959805827206135e-02
6.799167634071930089e-02
2.832886297651138890e-02
1.974276056151292019e-03
8.993256185858692839e-03
3.978826978288006744e-02
3.654562828701016231e-02
-4.915737316768502979e-02
1.965616368127479779e-02
2.083311252300560149e-02
4.672176819153451427e-02
3.936689511540499009e-02
4.312635914538088394e-02
4.736579010332094865e-03
4.756009500709366261e-02
1.493106318895216084e-02
9.349006999803655127e-02
-2.820207265029343012e-03
-2.547310145144192697e-02
1.643749585379554110e-02
2.349375916256047497e-02
2.560911423688433733e-02
3.269112646253732879e-02
2.076021653727440353e-02
1.862271039375580292e-02
9.784014084400560057e-03
3.310897865222563879e-02
4.133116983431774777e-02
2.969049875939571703e-01
