-7.122118726499329481e-05
1.553678879034882604e-04
1.407897609309341448e-04
3.664310494399265880e-06
8.082262931500796199e-05
1.541097531167330776e-04
2.554693993904306971e-04
1.539730663952606658e-04
9.545589405479174808e-05
1.158475271881551544e-04
7.107935614770426582e-05
5.072367678657321058e-05
1.371965593755135663e-04
1.651772802812552846e-04
9.825539807737729563e-05
9.351980380539896061e-05
9.686202069801794754e-05
1.459684338633563836e-04
1.704533601769462811e-04
-3.476166778616843867e-05
5.718621421052466180e-05
-4.528978722775740075e-05
4.071973251722634489e-04
-2.286085333577869154e-05
2.360351389060159476e-04
3.174069796210918768e-05
3.739879134562787660e-04
1.026530660197310719e-04
4.301260991931709921e-05
1.522307221656764048e-04
-1.558558783762180788e-05
7.073871188765501190e-05
1.921846868032449200e-04
1.884696280754700787e-04
2.511726601309211449e-04
5.158892626586693980e-05
1.945939354969580413e-04
1.537963305993881864e-04
1.903502541452807941e-04
-1.991265807105350622e-05
5.303257049049643981e-05
4.037168050558685489e-05
1.514491353473917750e-04
-1.234066595355702318e-05
1.583925914127216019e-05
1.538022806535415603e-04
1.448833934463722992e-04
9.422185230407215844e-05
-3.629845497055295557e-05
-6.568706037623501376e-05
7.190658901218066265e-05
2.535999934953314899e-04
1.712891048701649941e-04
1.649395432229222797e-04
1.193241361724663131e-04
-9.500431224764810758e-05
9.548249990522868127e-05
7.328989962822924796e-05
1.724016907683662860e-04
2.629224750230113377e-04
-1.949216524693391973e-05
2.608714019047290371e-04
1.207244411744058503e-04
8.361706220514128875e-05
2.123925862001261689e-04
2.065821415824720326e-04
1.608505828014194627e-04
-1.159807291257979571e-04
-4.452062615943137014e-06
2.564526705230969024e-04
-3.807111792657269045e-05
-1.963780116535608432e-05
2.842995203417125988e-04
1.332953344704272019e-04
2.271932385191202176e-04
2.164021107624992626e-05
1.003719142183527867e-04
2.185015172654706779e-04
4.578094696650636836e-05
1.650605130417895751e-04
5.231391433462857760e-05
2.390473915596161823e-04
9.823510309448577201e-05
2.327821976002391921e-05
9.222085116390916527e-05
3.241367798104140112e-05
1.203774869150103761e-04
2.058313735970139361e-04
3.385322158560887039e-04
7.540189384978342050e-05
-5.234568911266491536e-05
-2.427689605030813175e-04
1.645626547092355707e-04
8.185348809182054538e-05
7.239951126086386778e-05
1.183694359335545992e-04
-3.473325087415028511e-05
2.370929653664284240e-05
8.004850065636319933e-05
1.161756995984019469e-04
-9.868006953053449820e-06
3.152196991335756091e-05
2.476958853685646829e-04
3.342431738333088770e-04
1.596391380241760939e-04
3.577126615941264272e-04
2.209126347217282762e-04
6.477666767710313106e-05
-9.644891307778242535e-06
3.319694649647837899e-04
3.941230537838452371e-04
1.970498785674509716e-04
1.526597482310298179e-04
1.626013928563453930e-04
2.327522061519824920e-05
1.240994384736448359e-04
1.927390359789219756e-04
1.460723219180845762e-04
4.005565536252912593e-05
1.168150758171382651e-04
1.056402027984768759e-04
4.914414714284882298e-06
-7.479502433443476763e-05
-1.094835772534379298e-04
-7.395940225587234376e-04
-1.237642671707324480e-03
-1.723614806573826224e-03
-1.920468453718421169e-03
-2.311419909392047230e-03
-1.867986389612589669e-03
-1.318939810776678743e-03
-6.908497894474404689e-04
-3.718759125295183383e-04
-1.939821948793135468e-04
-6.876565826267923829e-05
-5.574275184795742980e-05
-1.280161028286215693e-04
1.974796031513878817e-04
-4.154105801020850836e-05
2.063639296081686166e-04
1.789338663985484004e-05
2.318686055047114035e-04
2.384627509242087683e-04
3.521729864196760729e-04
2.028866310118565585e-04
1.576324780053387051e-04
1.495121197098803830e-04
-1.209145397922413835e-04
-3.970069434096279654e-04
-8.380082095427402594e-04
-1.146112782146500690e-03
-2.348881511686427316e-03
-3.705679937859620177e-03
-5.309285532497568134e-03
-6.747155766070382817e-03
-7.461114165135228002e-03
-7.557210431663483573e-03
-6.914649452312860052e-03
-5.856685180373771837e-03
-4.390980748679375496e-03
-2.995187523147586298e-03
-1.624944743130479373e-03
-7.939774018308922007e-04
-6.018008478037747662e-04
-3.293339806994344341e-04
1.206980508322569984e-04
2.391084328386237500e-04
-1.635010373750819845e-04
7.970761874092110305e-05
-5.703451666866908056e-05
-8.377287252504205504e-05
4.074195229456343160e-05
-3.042971844619502553e-05
7.790196204643289935e-05
-9.888704297250564392e-05
-4.646124727371247175e-04
-9.653395481310950458e-04
-1.477605869698631795e-03
-2.524767145274471949e-03
-3.756850606429082678e-03
-4.351842779674914771e-03
-4.763664515286704718e-03
-4.447472524741694598e-03
-4.375241249323221990e-03
-4.698420553359929086e-03
-5.150626666902583667e-03
-5.376629558231193866e-03
-5.055320974922416534e-03
-4.343966600421118526e-03
-3.046543963438452362e-03
-1.950543406867196513e-03
-8.363391546349973693e-04
-4.770440312719173288e-04
-6.489412330316066992e-05
1.604665972287371456e-04
2.393624460755589402e-04
9.920680662577618123e-05
2.362439771936695370e-04
6.985140266078307262e-05
2.698870224025629451e-04
-4.503587755199373885e-06
1.005565868082568975e-04
-2.472936977562104955e-04
-6.866415378328622181e-04
-1.409958785002706719e-03
-2.064216997111606618e-03
-2.575584182142512564e-03
-1.973507568158563378e-03
-9.291659627571533225e-04
9.252634905017654600e-04
2.499783987742224163e-03
3.362144969393563321e-03
2.929791261643370764e-03
1.079142062963673937e-03
-1.512083772369765154e-03
-3.435452056277881524e-03
-4.107968627507655249e-03
-3.413112603224671866e-03
-2.501452776675485573e-03
-1.457546002340943730e-03
-8.009842322798889271e-04
-8.555213231453115451e-05
6.820617760394904821e-05
3.200661049275094113e-05
1.924056690587169153e-04
-8.829239714857796829e-05
1.299521457906799488e-04
1.387694069166201492e-04
-2.959271959333029694e-05
-2.882440154248766268e-05
-4.618521892625517661e-04
-8.623578648810900421e-04
-1.182621575757966930e-03
-1.076804803548305368e-03
-3.266456102941103063e-04
1.214345608350576432e-03
2.607881276247158656e-03
3.837647369246906508e-03
4.709821746898685581e-03
5.311225553890724232e-03
4.952301733420762589e-03
3.597391883223041275e-03
9.582397053159966323e-04
-1.792918730298614016e-03
-3.140481544250484178e-03
-3.077993802937190916e-03
-2.661342797619020879e-03
-1.682484287773256763e-03
-8.971645802528965038e-04
-4.187317877633031974e-04
2.291797311915926341e-04
5.003403651263391540e-04
9.431154471201868075e-05
1.901024317356569265e-04
-4.297620831190985955e-05
1.191101785268302172e-04
4.827311894677002605e-05
4.525493831706164890e-06
-3.078240651816341236e-04
-3.553205026712542912e-04
-6.084465839628515940e-05
9.622000272636416175e-04
1.986907377337112507e-03
2.659761179931131696e-03
2.532643925546369367e-03
2.246359475580118111e-03
2.320344882240808846e-03
2.680591113560265321e-03
3.210595267134695990e-03
3.226430268831808994e-03
1.444680168327270144e-03
-1.173486944005935765e-03
-2.389438305767126267e-03
-2.852113767048870905e-03
-2.578562439744649503e-03
-1.643427939191910696e-03
-7.162870637492026616e-04
-3.243376033108624854e-04
-2.925382650715164503e-05
1.124376281074464468e-04
5.131630978414315639e-05
-4.191248251065788803e-05
3.675093292501322117e-05
1.105650791067016404e-04
2.378080972106562157e-04
2.470707054468765373e-04
4.400893459398639478e-04
8.280539832811139016e-04
1.850658522875026296e-03
2.915863364085378474e-03
2.756298394152909437e-03
1.369380569637022350e-03
-4.474541906246816913e-04
-1.166823224846004438e-03
-7.406927923341626247e-04
2.386512096239969149e-04
1.550803761761002054e-03
2.022819966309831984e-03
1.097866771261440423e-03
-2.034136232511368151e-04
-1.706674960565653966e-03
-2.088580508709478659e-03
-1.909999930208289200e-03
-1.239370911224460525e-03
-4.342160847409406825e-04
-1.582084929920267186e-04
-5.218759955423990743e-05
1.503802139527885982e-04
2.780159868404850345e-04
1.457700226043737851e-04
2.255667532391473536e-05
2.423089367450905656e-04
1.264409322250522683e-04
5.782530573888365567e-04
1.026582806742551077e-03
2.270395498901730397e-03
3.788298251719778107e-03
4.086024737568944888e-03
2.166972771697896639e-03
-1.580486077293425653e-03
-4.088504544089749566e-03
-3.949267791878363458e-03
-2.656943166238855299e-03
-1.211946011320258736e-03
3.957331682740544134e-04
1.687355768850730018e-03
1.824017497305352757e-03
8.868223978244758367e-04
-4.057847715747529447e-04
-9.547462075473004415e-04
-1.208295300243963444e-03
-6.028926580921540679e-04
-3.450285624373425125e-04
-8.648914086887561062e-05
3.237291288466588503e-05
2.229837574143135896e-04
1.023821864731055622e-04
1.486410454973924496e-04
1.618176200307615417e-04
2.888764703481255499e-04
5.055550996318754296e-04
6.843781704344111851e-04
1.817440335786341251e-03
3.453150504837729663e-03
5.135352826087210935e-03
4.917689290671395201e-03
1.281278574854991577e-03
-3.728914870731223075e-03
-6.217770370637104409e-03
-5.649092310854497180e-03
-4.112919392911472058e-03
-2.330712357881473996e-03
-5.623734920481759985e-05
2.435837879145423285e-03
3.417299413062885923e-03
2.335501859896563486e-03
5.956265398833439015e-04
-2.132938384043995682e-04
-5.526797518210577057e-04
-1.130124397620261461e-04
4.763381040886632415e-06
3.707018781402003535e-05
1.780584552279113175e-05
6.219729613217082865e-05
2.206652058268598849e-04
1.745643150892635907e-04
2.562620032149993867e-04
1.213035091757148703e-04
5.388195882655130763e-04
1.408708748256823091e-03
2.360253054650283087e-03
4.413312722969791636e-03
6.539799276993038535e-03
5.700309960760530786e-03
1.820479098501169091e-03
-3.219059760551444983e-03
-5.926744562003875144e-03
-6.024310526331407879e-03
-4.315372389078973511e-03
-2.153966420094086901e-03
9.742362978691987765e-04
4.470942835529339611e-03
5.145496993786741538e-03
3.260231170720395873e-03
1.271508003089234350e-03
1.525604106363974335e-04
-1.234284726747502227e-04
1.229345459087063545e-05
1.467817529394338267e-04
-1.280563305974100519e-04
2.794974883322176237e-04
1.928449758965362015e-04
-2.743794924072197723e-05
5.118139465587571844e-05
1.376699301021725938e-04
1.185572294366719692e-04
4.345921673426575557e-04
1.300894001108077961e-03
2.568549909985264924e-03
4.470277409393359422e-03
6.874747903343836862e-03
6.627668102740947448e-03
3.598198582173711083e-03
-7.283027525952525099e-04
-3.564182896860309917e-03
-4.539739887788409728e-03
-3.631656418406291852e-03
-1.208611172534415634e-03
2.901552149275149917e-03
6.504126647847247901e-03
5.856376310179699576e-03
3.068327015609503741e-03
8.973625026534833623e-04
2.815456098948271486e-04
-6.808474891751134701e-05
-1.493715536682442579e-04
1.015070207239714915e-04
8.543905379987634424e-05
2.270642016315789664e-04
6.685575099604830376e-05
2.347086665459660891e-05
-1.423778603285956457e-04
1.777718461929279187e-04
4.006472486653170849e-05
2.730952232466561875e-04
1.052327064664837324e-03
2.355197713928753201e-03
3.935606016741786256e-03
5.817248493863166198e-03
6.159918747780010126e-03
4.360860750103520353e-03
8.156496333160721075e-04
-2.319263036576092209e-03
-3.703275771826641458e-03
-3.255594646316744591e-03
-2.066069535244578986e-04
4.450493090873777063e-03
7.156312361583633437e-03
5.261108094751954130e-03
1.863663199287812159e-03
2.966444448305074317e-04
-1.658508784549131944e-05
3.549497449568707262e-06
-5.546823584662344514e-05
2.342150194277042705e-05
2.062804224573584668e-04
4.268534848535568676e-05
2.457932823504775351e-04
8.957775987194691297e-05
1.996389174402411767e-05
-4.293109728716351344e-05
6.330982391483906408e-05
2.982933842486520330e-04
7.805460367663209081e-04
1.167744118984532587e-03
2.373699653078937665e-03
3.362957657887441325e-03
3.431968721611037935e-03
1.789909282196754364e-03
-1.168268141162861649e-03
-3.708562610415767728e-03
-4.197741315528458021e-03
-2.370314116246174680e-03
1.296644332470899561e-03
5.039832922669088000e-03
5.836088215592509683e-03
3.310005439358124947e-03
7.923774446835323264e-04
1.757073028675018334e-05
-3.144934363101256690e-04
-2.402263758829170095e-05
-1.154504669733167596e-04
1.767362723161986196e-05
1.308097968287074417e-04
8.305454371072998429e-05
1.119950054963903446e-04
2.623569854692711211e-04
-1.555333462741290162e-05
3.227175388946007441e-04
-2.480765717136895003e-05
2.812411573576137553e-04
2.729407406157073244e-04
3.603158640665255191e-04
3.054514966823150004e-04
6.687795887194543051e-05
-9.256651400006615576e-04
-3.151435971090466893e-03
-4.945249001380303509e-03
-5.453636587231102707e-03
-3.873404400746988108e-03
-7.811892937770336829e-04
2.749867911024553996e-03
4.530547342709374120e-03
3.739402611257664887e-03
1.429169410733278868e-03
-1.249439309824506357e-04
-3.030296938100439917e-04
-8.619418939802877665e-04
-4.390107366953773763e-04
-9.210252696786290765e-05
-1.527500396319795959e-05
4.178181215505920640e-05
5.615762422358759213e-05
2.774129264422591640e-04
2.029025438861859290e-04
6.072821062813134254e-05
7.268696788311838062e-05
3.253916505284193427e-04
7.598294003247295619e-05
-2.658005467060499069e-04
-3.902820611390905229e-04
-1.165224883259703735e-03
-2.794653037826034213e-03
-4.939153741390749953e-03
-6.711510606918161086e-03
-6.947316959427983496e-03
-5.174807719386492234e-03
-1.954221323027166991e-03
1.203261450573370021e-03
3.291914522846180365e-03
3.445628791522667780e-03
1.778047081220947333e-03
4.658249190991347352e-05
-1.008996668191825506e-03
-9.379111948805351432e-04
-6.778304090525758083e-04
-4.079732267687919008e-04
-2.141189907886488096e-04
3.119356423383459254e-04
7.428690323453280816e-05
1.114207689839990774e-04
1.809535810421864790e-04
3.599391233803643942e-04
4.399436583602550106e-05
2.209664247767915795e-04
-1.461670007141372065e-05
3.911668746788452781e-04
-3.931014366241562395e-04
-1.152139578950005282e-03
-2.353880902762071729e-03
-4.798780035387405565e-03
-7.098285142832625252e-03
-7.675782436701408459e-03
-6.411322722732553173e-03
-3.517553602332146919e-03
1.144717999062501060e-04
2.588517445891857106e-03
3.058842684029240352e-03
1.680744352919009629e-03
2.090729639004040808e-04
-1.152840246847734555e-03
-1.261353678941350620e-03
-9.646640704048343659e-04
-8.648384014634831604e-04
-3.312878722790919893e-04
-2.668032874641603045e-04
7.516996318008263241e-05
1.727719161419693242e-05
2.289954574943972229e-04
-7.576994757747624123e-05
2.152010669346925587e-04
-4.589047755327844584e-05
-2.844149194022765653e-05
1.885196133428903133e-04
-9.060929156039660695e-05
-7.210418154202175240e-04
-1.466980386071927139e-03
-3.331248866086110576e-03
-5.402296789090307860e-03
-7.520049080337667946e-03
-7.518625769768109632e-03
-5.729861393734421958e-03
-2.403164703269683976e-03
7.375004515349876597e-04
1.918928496768323609e-03
1.487680949081537007e-03
1.116634957511903887e-04
-8.425001972194078384e-04
-1.407154911146491676e-03
-1.657318619326731681e-03
-1.105998148223032336e-03
-6.730846580818310079e-04
-4.120442812399468320e-04
-2.525080384167198129e-04
8.967884684184487571e-05
1.357861153594328257e-04
3.299725101036272978e-04
6.555935718611921039e-05
4.193426357123578881e-05
2.587486707735962778e-04
3.103956553705412277e-05
1.770507514931539948e-04
2.241002750009120153e-04
-4.498402844704919379e-04
-1.911865220593609140e-03
-3.408242628008137376e-03
-5.341020491062702796e-03
-7.178162696735951136e-03
-7.448692116821151524e-03
-5.701166887206848485e-03
-3.324672756879599230e-03
-9.657504421205711934e-04
-4.650924865777060361e-04
-1.148953933071143654e-03
-1.496180698479807796e-03
-1.619607728413510403e-03
-1.693035577786970248e-03
-1.312298011328862481e-03
-7.870934646044827013e-04
-6.125233771616424294e-04
-2.938645657466183530e-04
-5.918193821945900019e-05
2.349100995910900530e-04
3.041374794589548573e-04
5.761270854504992647e-05
2.223386691017966785e-05
8.885103477682850513e-05
-7.637723671279372545e-05
7.404073103379964584e-05
4.234005329231354122e-06
1.692181036749014597e-04
-5.572486283662015077e-04
-1.194626066183128920e-03
-3.072932332692476873e-03
-4.962383750106812499e-03
-6.625766599438839659e-03
-7.434390401047396603e-03
-7.044713631298316764e-03
-5.785436979835463338e-03
-4.374426224645607507e-03
-3.967107279177010601e-03
-3.547965588768383586e-03
-2.517823290735222552e-03
-1.791254314190452454e-03
-1.131791664370099130e-03
-6.575781012478531173e-04
-3.235320122881577064e-04
1.112542033304233694e-04
-5.562634484746024492e-05
1.460729270692434417e-04
3.098518790548657762e-04
3.899968390751710904e-04
2.500124894514094468e-04
-1.925559644528158641e-05
3.662582657494908698e-05
-1.128992042362543508e-04
2.593842702415466786e-04
-6.089897829978361578e-05
9.246678225899541894e-05
3.043204746378480271e-04
-6.311254406896376267e-04
-1.841801069071358557e-03
-3.365789562809285828e-03
-4.786346504151158671e-03
-5.830437854941776174e-03
-6.184043569033214824e-03
-5.768509911603558055e-03
-5.483454346749981612e-03
-4.588902087581012493e-03
-3.178955256201605739e-03
-1.365357973481270406e-03
-2.810621114869585541e-04
3.204309911135506256e-04
7.237611352595021237e-04
4.339109668065808901e-04
3.116794364195752103e-04
3.716408479602239146e-04
3.422844379279702995e-04
6.882434734673681257e-05
1.770368044912536609e-04
-4.694495836915343532e-05
1.901002977296986011e-04
2.060988355352471550e-05
1.861919523912545040e-04
3.640647071519694032e-04
2.670319690718525878e-04
1.934853947305586726e-04
1.998976921255230053e-04
8.364686724378862857e-06
-5.211163760462543190e-04
-9.191761045286381965e-04
-1.242736138284875665e-03
-1.400693842773392253e-03
-1.278883332240550365e-03
-1.125104358686162620e-03
-6.074279887789238745e-04
-3.883195991241416623e-04
4.273553010799345064e-04
1.600902872116165276e-03
2.234250381139349807e-03
2.014796580880318794e-03
1.295502993726425174e-03
8.355060295379348892e-04
4.387473097735839736e-04
2.156445230441490866e-04
1.331266820958231141e-04
1.180045486972145397e-04
2.278261617764379594e-04
9.853091951982214866e-05
2.441854948466601837e-04
7.957668431054204094e-05
2.048191189233214047e-04
7.970752055477644995e-05
1.876466949215463583e-04
1.902402627978347374e-05
2.249127706116105382e-05
3.667239625595495960e-04
3.721735836626459946e-04
5.281637073542508071e-04
1.297880305678284071e-03
2.199262812481449746e-03
2.697928800461014357e-03
3.284029312146846073e-03
3.382172686664596840e-03
3.135615076270391061e-03
2.805327050175064445e-03
3.044126638368987742e-03
2.690814641830479095e-03
1.969613793981086439e-03
1.221101573901596862e-03
8.430140714533829269e-04
2.352653890364682062e-04
4.353731200566643379e-04
1.592871932817296594e-04
-3.234205418997688358e-05
1.326017890108482607e-04
2.060832965079166610e-04
1.669468700253698467e-04
1.116447483190299823e-04
2.070673816317164235e-04
-5.298920782795471252e-05
1.055731417113453362e-04
4.021193346453686432e-04
-8.586124652180652546e-06
7.592285928302935655e-05
2.800399436965869053e-04
6.036338898801702017e-05
4.888843549464669432e-04
7.346190879498523110e-04
9.977419290598304926e-04
1.203265250623124921e-03
1.229203689257311926e-03
1.115502191576451738e-03
1.047027915699205551e-03
9.890259337982706261e-04
8.016950453269522077e-04
7.677087196041352613e-04
3.212797276360760648e-04
5.201728014485735825e-04
2.692387412052513499e-04
-1.670458073210685882e-06
9.783690378868164703e-05
-1.604785608609659913e-04
2.018162393554935488e-04
2.645567270438021080e-04
2.267647312612111837e-04
2.277192272866616115e-04
1.780167792111872439e-05
3.583767011264037464e-05
-4.135611421809507355e-05
1.825921112857895819e-06
1.969756048706804835e-04
1.347809016961429750e-06
-8.093610269376324141e-05
1.046091756377138057e-04
8.327325157058809214e-05
1.419501510793662021e-04
2.014511038324511612e-04
2.134820029312063574e-04
1.001906480861952252e-04
3.309277141090089707e-04
1.646095882084154898e-05
1.974624874908365989e-04
-5.332057845201290376e-05
-7.097951250531577330e-05
-5.398719437046841356e-05
1.139662177503105529e-04
3.124086300612688048e-04
1.541270590643718525e-04
3.216245558517410552e-04
4.588468574724471769e-05
7.001791705616126164e-06
1.243014321913805042e-04
1.624492471310125968e-04
1.106769240280336278e-03
