-3.105861529737677894e-03
4.118849338922330600e-02
-6.037219736503232235e-04
-6.864348627455666568e-03
2.315215452450554781e-02
6.486878685922699284e-02
2.248708964790651840e-02
-6.953290950034052287e-03
6.086670066621471982e-03
7.945648210318945193e-02
3.001876814460099560e-02
-1.813250161992387144e-03
-1.975697600942099078e-02
-1.078158357980532438e-02
2.190315257584329531e-02
6.556815980003581623e-02
1.700639426524970521e-02
2.477545886263172060e-03
3.561143863270115062e-02
2.349030057084547374e-02
1.701562787322075457e-02
1.739935142551290830e-03
3.340080419598109862e-02
3.899458838985102316e-02
3.490520335607597696e-03
1.511769826475054673e-02
3.353405846514490724e-02
3.687387160019284238e-02
3.103553715959669543e-02
2.336184035989468527e-02
-2.690444264169390351e-02
5.528033297362926722e-03
3.273647139913802434e-02
6.303146977361023806e-02
3.715664606958246630e-02
-1.504656446794366137e-02
1.093540911339630113e-03
3.649086861122604816e-03
3.349086978670494288e-03
5.029719931089392942e-02
1.820526250355635270e-02
3.716950462983228953e-02
8.088720257352615545e-03
5.019516267107457935e-02
-5.530340032440128617e-03
3.103810619316925770e-02
6.120464933288450454e-02
5.054003107203568212e-02
2.654377478747529592e-02
5.090413268732351532e-02
3.220847052972784785e-02
7.636326596655088061e-02
3.119654587894343106e-02
-1.389565209725179308e-02
-1.452922869715057332e-02
7.977265842294467340e-04
2.817951794203132215e-02
1.421864931402314113e-03
-1.931354855897610481e-02
2.323997505230976021e-02
5.443084632705805226e-02
4.064316399039176464e-02
1.116537357432226610e-02
4.071669407270729277e-03
3.312082598914764531e-02
4.488159708022777805e-02
2.234344833489039506e-02
-1.559632214446001267e-02
-1.818765128051558905e-02
6.603016596101400626e-02
-5.356599521152606395e-03
2.445398754194156796e-02
8.776997862523930327e-02
6.774930963198348699e-02
6.620993738288037667e-02
1.448080100397445450e-05
4.886648901872032297e-02
3.279171295345075648e-02
2.699494157131637068e-02
-9.575354198655383273e-03
4.393348589866453990e-02
1.637105756809976304e-02
3.269228662658936468e-02
2.708133789180341977e-02
3.834790989602662975e-04
2.890390879514874098e-02
-1.490873025318568273e-02
3.148728503677816759e-02
-4.433273211478396675e-02
-1.871711448217446352e-02
-1.385470945779309140e-02
1.222995614874241438e-02
1.313290381381431067e-02
5.383642423016334055e-02
7.189547844590589432e-02
5.456590823447869665e-02
-2.120312278245859924e-02
2.347755747067968232e-02
3.255760955528456263e-02
2.387652919046657357e-02
2.826679709996994527e-02
2.883603647784882540e-02
-5.533417428237525412e-04
1.344282878191094439e-02
3.252379053530739944e-02
2.150703077208042033e-02
1.383453380404507313e-02
-1.350083717806738540e-02
2.317847591912730945e-02
7.076996958857588449e-02
2.158231038995359063e-02
3.098574914471836569e-02
2.082622703950117241e-02
-1.379134860307794710e-02
-1.245077414964478046e-02
9.090788731960732297e-03
4.357961917707043470e-02
1.537618242002047886e-02
6.469414005662451998e-03
7.892806376770267196e-02
2.982989884118476126e-02
-1.052865631595776771e-02
7.640718123371634252e-02
1.502305963468789259e-02
3.615729494733526533e-03
-6.160592448732596371e-02
-2.202428685781442422e-02
-9.591564235128977045e-02
-7.610127826704166099e-02
-3.621982319387857113e-02
-9.763007071200764664e-03
-5.041763642691278469e-02
-2.118565163700262058e-02
-2.910177848652635915e-02
3.518411727068106176e-02
3.200836614072384567e-02
-3.912841127329995394e-02
-1.581669684112397070e-02
1.620385458663577138e-02
6.417504879888245861e-02
3.457606257214939499e-02
2.166193480026106996e-02
-2.580805237773138236e-02
4.182204656773702567e-02
4.635746037650349469e-03
-4.122453763459425768e-02
1.752700206770793981e-02
-1.721960931866253763e-02
-1.565359600941840235e-02
-3.894428082159718391e-02
-1.323631053091754023e-02
-3.264538922096192619e-02
-7.033691423068255677e-02
-1.596190000391673747e-01
-1.921413174347763042e-01
-2.367281714102855983e-01
-2.146490061271794092e-01
-1.962142045563379789e-01
-1.663059849538902069e-01
-1.640192586505560546e-01
-1.819333539160598312e-01
-4.076089580042214361e-02
-8.058230699700531796e-02
-7.670625252532922017e-03
2.922532220161918465e-02
6.954029836992361990e-02
5.099591796789263581e-03
-3.846108930006945231e-02
2.376866334308059062e-02
5.082006904635707339e-02
-1.656846001821661758e-03
1.082479275190949448e-02
5.405415613841369621e-02
5.386974729566177539e-02
-5.351353848703025926e-03
-3.746310062450836087e-02
2.681200104952449065e-02
-4.058118455344006392e-02
-9.371669822255088156e-02
-8.623409599708690976e-02
-1.043135446006212413e-01
-1.257246045895476505e-01
-5.326656651423967992e-02
-6.791909613209795582e-02
-1.016093702985717195e-03
-2.099319940199112153e-02
-5.224651454182314275e-02
-1.072465305156565796e-01
-1.237983083792850159e-01
-5.845919045514763601e-02
-1.147776417405363542e-01
-5.681085746633407485e-02
-6.248538838318794947e-02
3.963771493797545176e-02
6.590789838907112896e-02
8.086639616874669034e-03
5.987510457406533537e-02
-8.247897994078613390e-03
2.074921013123980432e-02
3.049339217244500383e-02
5.557923522587767534e-03
4.070182954687496385e-02
-4.806159488799121443e-02
-8.924219655675810770e-02
-6.957483057180691155e-02
-9.662341050915419782e-02
-4.716431518068409795e-02
-3.777067231277150827e-02
-1.873841080253642669e-02
4.729245955749870889e-02
1.200614756949943407e-01
1.869595480629984985e-01
2.310907096367443014e-01
1.578226975753036498e-01
4.658519967507643300e-02
-6.657432458782817919e-02
-6.112687196018585373e-02
-1.182428074264006146e-01
-1.407799994954978262e-01
-1.440363062992679188e-01
-8.457299832346444612e-02
2.421081657573370682e-02
-1.351268316913854968e-02
3.605777098664639073e-03
2.620265289007141229e-02
4.806766309454395952e-02
4.960265582585249300e-02
4.162352693357247046e-05
3.976812114259263564e-02
-2.414740844319791802e-02
-8.051948744743391007e-02
-1.163572250260786756e-01
-4.547028052742169840e-02
-6.967343312487078721e-02
-5.002264654127186461e-02
2.266054967287886926e-02
3.212520576000104516e-02
6.833873519203281788e-02
1.102226103562742032e-01
1.469701695109502382e-01
1.294115333605189988e-01
8.866651857931999448e-02
2.017810732995568498e-02
-7.207785640954313469e-03
-2.061207230367186061e-02
-3.777478755780884490e-02
-1.646163366182349930e-01
-5.445533196734848869e-02
-7.074502096238480253e-02
-9.098932822101211959e-02
-1.186492117972832647e-02
7.491454178211404656e-03
-2.221680010255443899e-02
4.110930987714671823e-03
8.726989714547469038e-03
3.660585717947453799e-02
-8.035369983204580790e-03
8.987444207218094061e-03
-5.058133447224254231e-02
-7.472373999908234199e-02
-6.507459253469365101e-02
-5.016476910006612694e-02
2.682156430266975471e-03
5.015347721536221604e-02
5.329450438228025555e-02
8.333673442273968612e-02
6.863411743813904731e-02
9.845952921126738255e-02
7.625841771160551952e-02
1.150807748428980815e-01
5.862645074765433090e-02
1.440220463693433171e-02
-8.216720486665132772e-02
-9.779924611319390504e-02
-1.658396629479412243e-01
-1.674126023714204714e-01
-9.577720585289084543e-02
-6.404036983463529120e-02
-2.297970762343639044e-03
-3.529484632430573282e-02
-1.977741180261539597e-02
-1.806705467409007795e-02
3.025928415638704655e-02
2.720272492795956787e-02
-5.222660859834495767e-02
1.126721668655624765e-02
-3.263631222645189262e-02
-2.159554878377053025e-02
-2.849939875789115132e-02
-1.173221717862753428e-02
7.158180756005028123e-02
1.189770702913610506e-01
7.832171631592213523e-02
4.593916912345038378e-02
6.896609891295539703e-03
4.199541864924753731e-02
1.131273531001787958e-01
8.966219645478354372e-02
4.104903016544690642e-02
-9.937274481081521688e-04
-3.419707605997949346e-02
-1.090173253705614270e-01
-7.165525281009851866e-02
-7.324158748879981695e-02
-3.325833407503483302e-02
-3.035572257383658060e-03
3.281602409095684542e-02
2.242073525251585958e-02
3.145673710727664441e-02
4.302545661415008160e-02
-2.236743498617410272e-02
2.697501905573225500e-02
3.142077267225211468e-02
-1.275108586449942398e-02
6.211286490497974593e-03
1.784979282855042246e-02
2.920587104494975356e-02
8.709939962288641702e-02
1.121339887354653730e-01
1.187432668226304916e-01
-4.319627142244738920e-03
-1.190513638852016692e-01
-5.761590113108283617e-02
6.559413753334895902e-02
1.696415593934125776e-01
1.746883033356087800e-01
1.380752628594082987e-01
9.849698761616569598e-02
4.350522401569817399e-02
1.698959197755260404e-03
-9.202017364583706116e-02
-7.444679955036773156e-02
-1.171471412186065181e-01
-1.389948935410986915e-02
2.553177183857303911e-02
3.286392887618554137e-02
2.227337442816455446e-02
5.237369770662384655e-02
1.298733075512712755e-02
1.495477365717364643e-03
6.024784015973667223e-02
3.394673799463150676e-02
7.166646083132652278e-02
9.945689601158717863e-02
1.058561861018082889e-01
1.439201312094760821e-01
1.630052192293061919e-01
6.972272747770492073e-03
-1.033425594236885153e-01
-1.491625716358836173e-01
-4.711574686942680834e-02
1.793775117575949901e-02
2.210127527791973800e-01
2.486024114095261028e-01
1.488283406613854498e-01
1.328396157084978380e-01
8.461432162637443077e-02
-3.009869948589733585e-02
-5.004746290426255462e-02
4.195243119901530260e-02
-2.603233383012765884e-02
-1.037458977093432336e-02
4.193069920565246217e-02
1.356672092496744378e-02
4.754766486260886271e-03
3.053003631882436272e-02
2.933815480870317904e-02
4.765785489972753156e-03
7.858963914132063855e-02
9.264915070849047418e-02
1.668547204670548789e-01
1.639339308549377927e-01
2.067598313063614135e-01
2.227212336220096012e-01
1.570323600672471898e-01
-4.325778366200034447e-02
-1.986876119767789217e-01
-1.807723776723194897e-01
-6.420525181628088107e-02
7.142592171661212019e-02
2.234309249837143907e-01
3.412072707246044945e-01
2.295215971989903458e-01
1.948663790956795261e-01
1.155571441256399434e-01
2.615531770236717221e-02
4.394090793601754946e-02
2.925935899094946058e-02
2.594047868249841488e-02
-2.287666530132885859e-02
5.624110677969313549e-02
1.720821820230696714e-02
8.968969492244748681e-03
1.644884782285254213e-02
6.526046093181615826e-02
5.201501017814810779e-02
5.745247851633277641e-02
1.238650256451286347e-01
2.110503484988325296e-01
1.405597943040143571e-01
1.750687571349927030e-01
2.101125215716153072e-01
1.045902933214301611e-01
-5.570960380967331788e-02
-1.540592828951643234e-01
-1.764022053810651303e-01
-1.452601211003196335e-01
2.971461759728599369e-02
2.830588511798473039e-01
3.150453990706169605e-01
2.043267359062878041e-01
2.099572022819115036e-01
1.684379946615626455e-01
6.997642021286183678e-02
8.049500082822806657e-02
-6.686217561263382500e-03
2.252323897843069075e-03
1.033575981753210790e-02
4.126095999904192541e-02
3.122078667635637059e-02
2.785887227710477296e-02
-2.076008096543791731e-02
1.831146751465774491e-02
4.164511294493884741e-02
3.949657658255083248e-02
1.056476343632849896e-01
2.160630887444235926e-01
2.169650081962856691e-01
1.781329875326818080e-01
1.468651755382693325e-01
1.189318681726469346e-01
-7.485813883312204819e-02
-1.961439111425259396e-01
-2.859173021756837851e-01
-2.200301165780813584e-01
8.607635926790721537e-02
2.968868270910077767e-01
3.331297651288193662e-01
2.391054016457519193e-01
1.772111852424382294e-01
1.513483269314553625e-01
6.878361053378304057e-02
7.254965331652907246e-02
2.274203540836167853e-02
-1.274559473170790158e-02
4.112564602743722791e-02
9.396837934847274143e-03
5.597911310750003366e-02
-9.966191703367868401e-03
-8.347888536829861303e-03
-4.817864149455472998e-03
8.601406994956971655e-03
4.213190917616495279e-02
1.539136708743342741e-01
1.226580124581394676e-01
1.327916618270716942e-01
8.297029780157683110e-02
3.810244075143646991e-02
-5.638805845891827623e-02
-1.232696757035190993e-01
-2.366544475635642131e-01
-3.037227287920400975e-01
-1.421607754257459555e-01
1.423237384652066839e-01
2.254555328895099242e-01
2.019131707690710598e-01
1.614186518750823918e-01
1.201274407285824464e-01
1.008991057501773536e-01
3.391185225259511771e-02
1.352574773278300210e-02
-2.403237457857899939e-03
-3.580459910194257189e-02
8.003944789815383917e-03
-6.461048725928055132e-03
8.478667453461782855e-02
3.030946854282048214e-02
-7.428408384436081119e-03
4.882627669887793648e-02
5.369044063331895834e-04
2.904089882966769121e-02
5.964680759827209466e-02
7.741753528728799461e-02
2.441797137739040984e-03
-8.693451428888056623e-03
-3.858470342645381468e-02
-1.042397949016872077e-01
-2.201457989507235036e-01
-2.776832769589099303e-01
-2.527233530683392626e-01
-1.668132448581946883e-02
2.080490631193019080e-01
1.589684386491283241e-01
1.202108884770521913e-01
1.019766896529120115e-01
7.182737815121860436e-02
4.230812909846625586e-02
1.576291094625927036e-02
3.661633686038171659e-02
8.417016219040250602e-03
-5.915893075530408857e-02
-1.765935964752384695e-03
1.955935744641885271e-02
1.960771865557926069e-02
1.183764807367970046e-02
-4.486973192362328500e-02
3.580963576577717716e-02
4.205726848066970031e-02
8.429659404712865067e-02
8.628108815428530906e-03
-4.721510863249601953e-02
-6.757375376628101116e-02
-8.918548696073798354e-02
-1.759341278414683352e-01
-2.222748113029764105e-01
-3.059036407639407762e-01
-2.538290707107953570e-01
-1.906875666207842879e-01
7.420419259005328616e-02
1.146443528629804282e-01
8.483280448177552002e-02
6.846168403446013795e-02
4.650561824850251574e-03
9.098731314509873533e-03
-2.202369707425493647e-03
-4.739887562774412755e-02
-5.353632169393488655e-02
-9.216548336997171242e-02
8.902687073543186572e-03
2.060308341420477585e-02
-3.030327262148993853e-02
5.588846698072347241e-02
7.767692708241962125e-03
1.049964599087084907e-02
5.020677596966552358e-02
2.039280707051955785e-02
2.042667733949035322e-02
1.050673320078358798e-03
-9.034697320798003306e-02
-1.633964564208308656e-01
-2.148677772160413890e-01
-2.838143499130940661e-01
-2.515873744519913635e-01
-2.521708541410232485e-01
-2.207258368444186547e-01
-4.365819994536518367e-02
6.639686656520647767e-02
1.972182404490099156e-02
-8.290977970535238703e-03
-6.614000761185054311e-02
-5.868126386816965856e-02
-3.855382381614920473e-02
-3.121744426510888668e-02
-1.020317702599377874e-01
-7.775043638206843855e-02
-2.710452836033741542e-02
4.727393220372198140e-02
2.304272229630454152e-02
2.837322151849751978e-02
-3.378392547193734274e-02
9.319508908313216961e-03
1.571635336881770095e-02
-9.673065015770280703e-03
1.143480815697459421e-02
2.286230477951754769e-02
-3.449337620723175180e-02
-1.156377555577486893e-01
-1.725679984130722988e-01
-2.227784297938578129e-01
-3.069835462303183715e-01
-2.515947165632501092e-01
-2.179577958638961865e-01
-2.316059451313376427e-01
-1.017939776901251869e-01
-4.827434439219143586e-02
-2.191826085635880869e-02
-3.670455331804419602e-02
-1.347619770113452076e-01
-7.207062889661343397e-02
-1.005797216369762742e-01
-1.041217827812932276e-02
-1.107160583782799690e-01
-4.380315727195033260e-02
2.071484446244841598e-02
5.427403602531257615e-02
5.284742875684294433e-02
1.928635971934608258e-03
1.522017475444372402e-02
2.417819691850485106e-02
7.343393768954063761e-02
-2.221758098884879171e-02
3.766592340679945916e-02
4.031326562642176259e-02
-6.875267390133464607e-02
-6.045047695452089587e-02
-2.097893031402993935e-01
-1.809367194875083629e-01
-2.317527684832176027e-01
-2.149849594085350979e-01
-2.198789286635294826e-01
-1.445012311990744869e-01
-1.234915411403260388e-01
-1.326177242501001274e-01
-1.671297439203548174e-01
-8.696787167687794473e-02
-1.065050225749901019e-01
-1.361503817039801112e-01
-1.001448362058376812e-01
-1.027118279217536789e-01
-1.000973524251303481e-01
-3.992295988047891986e-02
-6.715263623219606959e-03
7.449549499928607987e-02
2.830129094732128023e-02
4.484168197650554438e-02
-1.057405114440149001e-02
1.187327217059293109e-02
-8.826463912236820475e-03
3.186488970577717322e-02
1.821932250463308145e-02
5.676451621662093223e-03
-5.524315637085525782e-02
-2.521117311140549239e-02
-1.475800727521443256e-01
-7.777656670488206081e-02
-1.352327269442538671e-01
-1.788486898128686664e-01
-1.499220646140859148e-01
-2.372483347438907597e-01
-1.886211957572999087e-01
-2.104828073028176816e-01
-2.208684913518482174e-01
-1.829042698946899137e-01
-1.595428542184401943e-01
-1.266457914130597051e-01
-1.542848289964389719e-01
-6.466034607132818690e-02
-6.141534673051222970e-02
1.061461222266202277e-03
-3.373375949469360757e-02
5.213557522528063093e-02
1.914213787456797711e-02
2.884829725752606489e-02
-5.306698803263371934e-03
3.276071010681768508e-02
-3.147888978898209095e-02
3.928333689120500766e-02
-6.320641518703928874e-02
6.672756987130082709e-03
5.842632529138450798e-02
8.060580627903302098e-02
-1.565096646977362158e-02
-4.477898990472494942e-03
-5.583170097920830272e-02
-5.531242176152420531e-02
-2.205340278067497439e-01
-1.912586425400020218e-01
-3.073586191573394188e-01
-2.250409062225642298e-01
-1.623015436287486013e-01
-1.821833266534653994e-01
-1.383749539755007585e-01
-1.080904758009309380e-01
-9.036755846343724752e-02
-2.657688663287450376e-02
3.343330773693398671e-03
1.848026382695519380e-03
4.361480011006949736e-02
5.207583168027400677e-02
-1.330747686831886510e-02
4.137521196624711906e-02
1.207345026970383511e-02
3.987198164453449947e-03
3.278073625996104357e-02
3.179140599451982935e-02
3.980020600909540268e-02
6.288802130140438984e-02
2.053504728016826084e-02
7.011370033065691953e-02
7.826669716611965588e-02
1.542124021465947348e-01
9.084903723820630939e-02
7.889710388541552877e-02
1.604205053901680209e-02
-6.354206961234515338e-02
-1.162427011011993722e-01
-1.741367494520374426e-01
-1.242878384959280602e-01
-7.721810089145798861e-02
1.139538448487398270e-02
2.601371251630535744e-02
-7.712016131062092959e-03
4.590261971263699670e-02
1.593271176264690614e-02
1.960466762204185129e-02
1.416369018105567007e-02
2.612978180424378391e-02
-2.185053952578753025e-02
5.477240849187106631e-02
4.909706807436966386e-02
9.648272946547816961e-03
7.762392050589496384e-02
-2.119889421520084957e-02
5.932913777678136547e-02
1.105704286027899344e-02
6.207750174332263976e-02
9.488563084935690284e-02
5.841532423450717521e-02
6.485911412634355611e-02
1.192406900284041504e-01
1.327321837548544603e-01
7.142319823182229077e-02
1.501527994751014061e-01
8.439750572201218382e-02
8.462802420258647151e-02
1.105446060850143325e-01
1.276786530151883536e-01
7.183048526559074332e-02
7.103375392498104124e-02
4.812544818966315446e-02
5.393112039856857304e-02
1.158556096819767824e-02
6.230720863689384603e-02
4.242078646121195951e-02
1.342284638664606802e-02
1.584530909141579954e-03
4.623371568064177373e-02
-1.758510902320145966e-02
9.486569267310262718e-03
-4.165610271068678760e-02
3.817871104717630859e-03
3.570365937114929750e-02
1.187818803232968123e-01
-4.265993110135096050e-02
2.595325224630562477e-02
5.865464710676644711e-02
3.316537866421245123e-02
-1.636358146288827489e-02
2.141748593978710577e-02
3.693906728548371904e-02
8.868469280881014979e-03
2.140413725455345140e-02
2.210826641802349918e-02
5.775955699702486207e-02
-2.054539226446647215e-03
2.553161562363491510e-02
6.854837238655367426e-02
2.387792264552136400e-03
7.040036879525628233e-02
3.172094882957043199e-02
1.173079660750099909e-02
8.100292660601216346e-03
4.028546793353638897e-03
5.751990597364169122e-02
6.338240702126575477e-02
3.457971153831199129e-02
4.003891427741919362e-02
4.803441836831275069e-02
2.926846236643168911e-02
2.735286013971144695e-02
2.955609022614905448e-02
7.168201010964390940e-02
-3.621421939283516606e-02
-4.278171905195923309e-03
8.257952936842085506e-03
-1.194872062288254710e-02
2.606142241115096819e-02
4.368324321605724508e-02
2.384593546687999860e-02
-1.838281116362894610e-02
3.993790383554562257e-02
-4.944215889442442335e-02
5.788720636793490831e-02
1.340325733402966159e-02
2.857984494329724942e-02
6.294667917533282309e-02
-1.115639443385671795e-03
3.770240082096222578e-02
-1.918386916914851387e-02
3.389858276812032084e-02
-4.155123170746163885e-03
9.359313200241884886e-03
4.542101735330171530e-02
1.628275095639179510e-03
2.761291146310208000e-01
