-1.557065308965247308e+00
-3.808056075250297878e-01
1.397311480108145210e+00
-1.544322516729956352e+00
3.801112432860833112e-01
1.058744157888394044e+00
9.686936957031085926e-01
1.228500964925112626e+00
-2.139388317998446531e+00
-3.652044086515161547e-01
-3.993717154636977629e-01
-6.091545499804082997e-01
7.539410810850416533e-01
-1.922693753832185048e-01
1.054725443854489964e+00
4.914427613520854776e-01
-3.879073205032491090e-01
-8.377074216381293903e-01
1.780800974545169391e+00
2.646315322160966765e+00
-1.739332938279630092e+00
8.974923855904550773e-01
7.888645181791665850e-01
9.734426945451681856e-01
-1.821508110169472172e-01
9.867702203122461491e-01
2.553948973779948783e+00
7.173513767527602836e-01
-5.071576831192121659e-01
2.561672378404810102e-01
-2.087736247634314202e-01
-1.020850048816728473e+00
5.258006020075686182e-01
-7.619853262817477546e-01
9.112944525636126336e-01
1.091148813916096749e+00
5.168389025475583765e-01
-1.869134907344481566e-02
2.960327590872135484e-01
6.076779559861165275e-02
-1.147628827521803979e-01
5.386831870343380402e-01
9.571820676878789458e-01
-8.370635076882316783e-01
-1.968789551330759613e-01
-1.204743057425195218e-01
9.566358785434606604e-01
-9.232567388653419860e-01
2.143345469920640234e+00
-3.965776593452385868e-01
6.245664493253185734e-01
3.519513667482486174e-01
1.372081967880107278e+00
4.396676530931729054e-01
-4.229416663790767639e-01
-5.712800725032542992e-01
4.646596983502736533e-01
-8.660878441623058865e-01
6.211404915291560691e-01
-3.717728094161418251e-01
1.395813566364368263e+00
1.845081706210570216e+00
-1.066660998353605033e-01
-9.892252104695689052e-01
-2.361551084223198760e-01
9.669254584871442848e-01
-8.950358393191666373e-01
-1.017703722061936933e+00
-3.505259997214274503e-01
1.617302153969895295e+00
3.504328674102515917e-01
-1.483547078288886656e+00
8.610089384629590059e-01
-1.568304729831483946e-01
2.371690198746601030e+00
-1.663344350209037259e-01
1.253565448167736740e+00
2.533340693941790178e+00
-9.525993769088116070e-02
2.606040384769230833e+00
1.701091473394899189e+00
-2.537593532005781860e-01
1.928920789450019990e+00
-7.623657577795114326e-01
5.486077658529833201e-01
-2.763153543122819911e-01
-1.157324774405694257e+00
1.586306110586401807e+00
1.439148461072848988e-02
2.102889990334282089e-01
-7.243136595864076155e-02
-1.522518194415355186e+00
-2.187122069709024064e-01
2.821854801924544631e+00
6.523995156629390779e-01
1.187748063363233797e+00
5.510212437371109218e-01
-8.502479921587090539e-01
2.432830712847291466e+00
4.830112429184348910e-01
5.175318868864493133e-02
-1.651288302824234000e+00
-1.400853448247967759e+00
-3.033295168005162856e-01
1.131688312736061963e+00
-3.214118005588195159e-01
-1.444605898612575934e-01
2.040846462298222086e+00
4.618848590033758916e-01
3.230958594321891031e-01
1.671816883409814380e+00
1.955864880211039825e-01
7.322486563958473527e-01
1.421035329759074761e+00
-3.103010322762952633e+00
2.311188419628743773e+00
8.745746264584588481e-01
-4.412538310915515849e-01
-4.458490501515216531e-02
3.932717275081526465e-01
2.099131671358318130e+00
-6.108885777618331403e-01
8.568151609422561821e-01
-1.290705141067748085e-01
2.856915235418410193e-01
-4.793228121723394075e-01
-1.013360778031334286e+00
2.213491120742713814e-01
-1.462090452962832243e+00
-2.034686079396960778e+00
-6.328928957474329042e-01
1.029025366067534364e+00
2.735771947886460165e+00
-1.094407223770208937e+00
-9.020002708096630517e-02
-1.934559693550916282e-01
-2.726025688857129370e-01
-2.032433302973423839e+00
7.342325111032834695e-01
2.154156592906216527e+00
5.238671207712174427e-01
-1.030638546656528431e+00
4.567826605155571040e-01
-2.339195574886551443e-01
-8.546907077556691323e-01
-2.312120664504196732e+00
-8.208843886943946455e-02
1.394192869511724941e+00
1.071850559042162976e+00
-2.294913885960272459e+00
-3.328681354386575086e-01
7.446200197814361044e-01
2.567918707332662691e-03
7.173909407039447128e-01
-1.721202641156946100e+00
-1.250075155946651362e-01
-2.876398264434989027e+00
-7.134970134755733717e-01
-7.594564574085458375e-01
-1.604798484007686543e+00
-2.012592388654965259e+00
1.364005458223287670e+00
1.026933301264937759e+00
2.017418635767208812e+00
-1.430476456978067024e+00
-6.207099393200375959e-01
1.190035841903695824e+00
2.811387192617288422e-01
-2.324924563643095965e-01
4.197394784879878160e-01
2.210988015903750936e-01
-2.964314851399384443e-01
5.258750332892588725e-02
7.476144900224971357e-01
-6.719565394195061714e-01
-1.615060114442910866e+00
4.556635537808786940e-01
-3.024982731791447249e-02
5.776568485232943528e-01
1.060507706704742814e+00
-1.122618643136763961e+00
-7.142082429802892873e-01
-5.978696484729784100e-01
1.318559587594945147e-02
-2.352056105219678117e-01
6.770021972499307150e-01
-8.018258564490188256e-01
1.331902542559565417e+00
-2.397037532995876408e+00
-4.816460146126635422e-01
-1.873953600858077939e+00
-1.275314146383910163e+00
-3.960515652920258006e-02
5.522452750009687605e-01
-7.427558726287594171e-01
-2.174848457699554705e-01
9.901113295710556317e-01
4.038304529994171665e-01
7.645088545938371061e-01
1.039031208483900848e+00
-8.718739241203125045e-01
6.284248697767016445e-01
3.445468269707773756e-01
-1.158673915583733782e+00
-2.456486872096645402e-01
1.026090615755447466e+00
-4.336223092630523412e-01
9.337207367712343498e-01
3.704076470969500101e-01
2.570147538912684659e+00
2.767357447862748288e+00
1.387543406379623034e+00
2.442753422265027563e+00
1.990700157600870934e+00
2.085278967413638773e-01
-2.839788368507839000e-01
5.123481362603734407e-02
2.556851521727072085e-01
-8.804011900037017613e-01
-2.488926766404294888e+00
8.253668678614575760e-02
8.319395336622759096e-01
2.819009323995855798e-01
-1.083361760096896061e-02
-6.619513307294387916e-01
-2.843139316120808502e+00
-6.970379994625808262e-01
7.391129135031647701e-01
1.581346271723372554e-01
-8.070963189642115232e-01
-4.403752111763716837e-01
-7.885310937455599634e-01
9.146169382652479252e-01
-9.989062241791285546e-01
-1.817888062877742295e+00
1.445009272926538468e+00
-1.010766003536512470e+00
-1.173631077473399120e+00
-2.457983793120311344e-01
-4.728876984757427598e-02
-1.176890792972682537e-02
-1.096131726301788234e+00
1.065355732491380270e+00
1.422505440643583530e+00
1.990065420851179878e+00
5.605334059206883435e-01
-4.559205004437432707e-01
-8.026934946710035934e-01
-3.490062668891183439e-01
-2.333218869672760487e+00
1.031949108835826801e+00
-1.066980747162531884e+00
1.336329220781429905e+00
-2.459165445164513741e+00
1.858744076856925220e-01
-6.486230653926912115e-01
-2.163934168093454014e-01
4.600173727543712537e-02
-8.108789251872132731e-01
-1.055261712327102863e+00
4.029412630247423688e-01
-1.437665533477382018e+00
1.126400914690417920e+00
-1.350910496316902985e-02
-1.755284196010678532e-02
8.535401803847587621e-01
1.886004066823230074e+00
1.000118991720360562e+00
1.352064378409907341e+00
3.280004498624752962e+00
9.725840927547129144e-01
-1.910620618158356931e+00
-9.435179689144207460e-02
-1.238501383434960967e+00
-2.395981044767371948e+00
-1.688524622911670603e+00
-8.815553705107375126e-01
-1.840721074853283401e+00
-1.423587009379111645e+00
3.563948045638065665e-02
-6.261387394743777035e-01
-2.798931224045662081e+00
2.868361647106327794e-01
1.486343907557965860e+00
-8.614741058226438319e-01
3.412075495765777566e-02
1.689296950438142542e+00
-1.378204799041526929e+00
-1.059231484361294440e+00
-6.447335322903159360e-01
-8.238387006967633208e-02
4.688419668212890912e-01
9.514072316906747595e-01
-4.674235509138792155e-01
3.046392126567002978e-01
8.305809089172697113e-02
7.462091136129312963e-01
1.133979148332662890e+00
-1.524655112705997073e+00
-2.668242518902727012e-01
-5.931577107208074739e-02
-2.859983056698804926e-01
-2.828821608166906532e-01
-1.275589087227352980e+00
1.304969754634621948e+00
-3.070094979791873069e-01
2.257223541809123546e+00
-7.725939506228709508e-01
-2.743503682121936071e-01
1.176817126442959216e+00
-6.781358685868261738e-01
3.778686989170158550e-01
3.448014954495414730e-01
1.142846289239209057e+00
-1.682494523306635070e+00
-4.718635955407526894e-01
1.306993760937780191e+00
1.315272849098553021e+00
9.674742277556092063e-01
1.955873948002304852e+00
6.739727526238944999e-02
8.232062783145077667e-01
-1.484639499936762252e+00
-1.998010929597480445e-01
3.094069986466803535e+00
8.178852914921714845e-01
3.161291748010398805e+00
-3.851093457887196370e-01
1.793445438667033320e+00
1.202987651500991712e-01
9.210237467461652727e-01
-1.831870177940966515e+00
-8.501452703613435746e-01
-2.983455977880955165e-02
2.650630794496921516e-01
-1.677459332151333582e+00
-9.872225104180738509e-01
-2.234635386534156443e-01
6.118172771618141104e-01
-1.366114289103924073e-01
5.392232918407076081e-01
-1.719502462408333543e-01
-2.945303272378195156e-02
2.098897972464904171e+00
9.355617544214342440e-02
-4.574735548021101050e-01
2.968128924118364154e+00
1.268762689928201848e+00
3.326049005814749604e-01
-1.822381520546271449e+00
9.387275576883942207e-01
1.361509425674912288e+00
2.326404708055340276e+00
9.130048851947168975e-01
6.701082097120434344e-01
8.083904331602134175e-01
8.735522524647415521e-01
-2.092448410532023129e+00
7.608509354856852758e-01
6.090032990916408595e-01
6.269705221871100242e-01
-2.493999494270794925e-01
4.143713481074020044e-01
-9.186417251868306266e-01
9.753944560777513262e-01
1.461840632321741218e+00
-2.012089306779336617e+00
-1.580517054759819073e+00
1.007074304402316267e+00
1.034402390213534639e+00
1.881668754579785885e+00
1.155663630818368315e+00
8.284829827518156442e-01
2.805697974728686983e+00
6.198483779938438465e-01
2.522482354958945419e-02
-4.149838581624386791e+00
-3.253785206238255068e+00
-8.504906824466852422e-01
-5.262193477133211283e-01
2.675192340191564710e+00
3.481859857045134454e+00
7.385863299915834679e-01
3.543786108128516021e-01
1.514024624884132253e+00
-3.142542763087575741e-01
6.144747666162411193e-01
-6.791705859389896016e-01
-2.879567066687622190e-01
-7.353505446918577881e-01
4.059431667360297591e-01
1.206299220647854886e+00
-8.678115109919530834e-01
5.714580036414215192e-01
2.415130391105140273e+00
1.188031042916713798e+00
7.777751012673969067e-01
1.220629106273650066e+00
2.090970811904735882e+00
8.569864927949387701e-01
2.086629339597454003e+00
1.563624959659249081e+00
-4.645814195894490406e-02
-8.664444759336868002e-03
-3.839807381780949852e-02
-6.147996592837098317e-01
-2.464284475135246844e+00
-3.461887179834087225e-01
1.663266978135107488e+00
1.004599082324725279e+00
2.377201914100053326e+00
2.045287279848627016e+00
7.086564422898725679e-01
2.897870690059605625e+00
1.935194638022623481e+00
1.031459424769141098e+00
3.340331015679160465e-01
-1.070886404011358595e+00
1.684931674950400415e+00
-1.720896310081252878e+00
-2.106189728271586764e-03
1.272191897707951880e-01
1.123440373871007258e+00
-3.690431884685931863e-01
1.525558458335576351e+00
1.371472805168340026e+00
2.095413057120182110e+00
5.560838684715618818e-01
1.078503627416476540e+00
7.534194140746657276e-01
1.204381995732572014e-01
-1.930587001379872492e+00
-7.036056623584269198e-01
-2.342220274441609185e+00
-1.913113644161007931e+00
1.580755957011035662e+00
2.409294856189616585e+00
3.395833850190974612e+00
1.182191639973263930e+00
9.606409658444446942e-01
9.509177202596498235e-01
6.032798706714103121e-01
1.718798114808983479e+00
-3.015434678757641374e-01
-1.557844223370009384e+00
2.007399755641484873e+00
-6.102800657979859933e-01
2.603543097306220133e+00
-5.447119350667354309e-01
-7.818089981446906256e-01
7.029030243206504380e-01
-2.188641207489323115e+00
2.310133990436704921e-01
1.036636494376081963e+00
-3.638540686155578019e-01
1.849981861177197207e+00
8.830015437609493034e-01
1.142208621083617093e+00
-1.883306695354750870e-01
9.571506154922655718e-02
-2.645918101384569621e+00
-3.906365876824583250e+00
-1.194012127286891545e+00
1.253675454308608828e+00
6.134116131255203802e-02
2.187057223734297118e+00
-1.059406972845998274e+00
1.070991988979086984e-01
1.559915379642878630e+00
1.654469104199510765e+00
3.334558295330882771e-01
6.855494691388922535e-01
-2.900686634748282366e-01
1.415134131801668360e+00
-9.068827290317560408e-01
-5.372479998705712578e-01
-2.276424435832997972e-01
1.346470487176755215e-01
8.730701404416198186e-02
-6.435490205585232548e-01
-1.237379195520623698e-01
3.206985826384252114e+00
2.470121224880187372e-01
-1.583103195819470788e+00
-1.342752740951549173e+00
7.587411170765626656e-01
-1.893383784800070746e+00
-1.534587347692571768e+00
-1.991035185018889875e+00
-3.883090821973003592e+00
-1.551044575817704496e+00
1.063716009416295627e+00
7.675695849762386169e-01
4.328527319289954267e-01
3.502788344356414507e-01
3.073513656501710156e-01
1.630589368205142442e+00
1.586679900491567430e-01
-7.855939239551726905e-01
-1.098127326783863156e+00
-1.087006076168328450e+00
-1.434495280978550502e+00
-1.695566233279403257e+00
1.508182636875862181e-01
4.475319974509092136e-01
-8.908844887792819467e-01
6.338217704594342194e-01
-5.101824133344601275e-01
2.471494191566822873e-01
-8.947740419460268324e-01
2.810931582758015995e-02
-1.598871687483396586e+00
-5.837163636257454158e-01
-1.794522188123100381e+00
-1.475836152698508652e+00
-2.506472262052199085e+00
8.438526897851575947e-01
-1.209562515518473713e+00
1.062647532493461000e+00
9.326640079824033425e-01
-3.477297776792332429e-01
7.709639532397515316e-01
-3.809157353601055340e-01
-1.440577109925441190e+00
9.267098619559860362e-01
-1.269330643278968163e+00
-6.093030501617436867e-01
2.233959798415213471e-01
1.576135721140149215e+00
4.404999621666819132e-01
-3.195626081338275859e-01
-4.786420158881282694e-01
1.283595596934710148e+00
-1.675086252117702346e-01
1.383218127131417008e+00
6.000102611030345701e-01
6.013665954859905849e-01
1.155064403711608900e+00
-1.655029224546443078e+00
-2.325416375953214043e+00
-3.326301149378752542e-01
-2.329371434599684765e+00
-5.497398541152286322e-01
-2.437806268833559109e+00
-2.688544812261139949e+00
-1.054949328383287366e+00
-2.032639971070759888e-01
-2.601046604192324807e+00
-1.416105742920350963e+00
-2.481262166652452361e+00
-1.397338864490188071e+00
6.853320393159902935e-01
1.787160963719799933e-01
-9.719858648741960261e-01
-1.421186389521627014e+00
-1.432365730999203945e+00
7.718224081169566819e-01
-2.111766219111871068e-01
7.877622319299433240e-01
-7.951205302334556357e-01
-6.658777982818359087e-01
8.639911396979124136e-01
-5.266718339753225786e-01
9.045040172507297083e-01
1.769446328376916566e-01
-5.135416323059506238e-01
-1.130066955649829508e+00
-2.072672566920179538e+00
-3.006883154516256429e+00
-1.794325960567331402e+00
-2.706798344889832286e+00
-1.900284580534396861e+00
-2.586771347751969152e+00
-1.073944284444935837e+00
8.349900644454004706e-01
1.824390577780115263e+00
2.097602588477973207e+00
-6.182100423986854887e-01
-7.936448581274254677e-01
-8.104740594554640243e-01
4.715927423473274122e-02
-1.084392035616751793e+00
-1.437031426760443820e+00
6.711326754590787869e-02
-6.690980862927429218e-01
2.097028441802501142e+00
1.566817076658808761e+00
-4.440097040485906921e-01
-1.864336602951088828e+00
-3.969788268329759173e-01
-5.308105616888662004e-01
-9.669066124149817976e-02
-8.859396559773405899e-01
-2.356652438131219274e+00
7.956250328145263451e-01
-2.280868868335991895e+00
-2.214756965186497784e+00
-2.709762153557749631e+00
-2.093490142152948152e+00
5.984891447991228658e-02
-3.327353556951219815e+00
-1.482296634729673546e+00
-2.043229384230459189e+00
-2.518367332114073598e+00
-9.242439377288935720e-01
-9.001213576992038723e-01
-3.939286624452255636e-01
-7.669874811759650468e-01
-4.181591056005224516e+00
-1.258369163691065218e+00
-1.386975646366019665e+00
-7.702538609308178241e-01
2.577217880616151646e-01
1.470890688214832265e+00
4.789229918894694626e-01
-9.510312808333083456e-01
-4.471548420007629421e-01
1.215825566627360743e+00
2.203994138155508153e+00
8.880315795817075308e-01
1.356707411591178580e+00
-1.979473781440250768e+00
4.974824719226942915e-01
-1.624583416546199421e+00
-9.050014504321052256e-01
-6.155988119806573428e-02
-2.577552615189033780e+00
9.925398794138460268e-01
-1.682467757449020995e+00
-2.071696918537951237e+00
-6.445355393899668828e-01
-1.685425810239414401e+00
2.139970147581294335e-01
-2.018182264066664011e+00
-2.546498561301095087e+00
-2.338299713778623001e+00
-6.081216964534116309e-01
1.346030260562556702e+00
4.555141925519911039e-01
-7.831106586238422151e-01
-2.926808147441298247e-01
7.272938368952752697e-01
2.472935939529562754e-01
-3.408668256106167083e-01
7.983397366016783958e-02
-2.996018123776095776e-01
1.639956534603659755e+00
-1.084230383241644002e+00
5.380772620544812535e-01
-2.246416634379385172e-02
6.211833463367665287e-01
6.800745310524748399e-01
7.331995313691134220e-01
-1.393349046712291983e+00
4.575702361991667577e-01
-2.218010527355632533e+00
-5.819445836473108313e-01
-2.094850217494817368e+00
-1.436304923260966371e+00
-2.301884508095084936e+00
-2.588384772627031261e+00
-1.588200250241275535e+00
-1.197436154924489182e+00
-1.629481319356697933e+00
-2.168889060224148402e+00
7.792824748986939554e-01
-5.079809476657383138e-01
-5.595361206542716070e-01
1.196108808781531918e+00
1.034210498739407180e+00
-1.361439560405066085e-01
1.305218757467841328e+00
2.085683223181024337e-01
7.291141089268291520e-01
-9.799232588644657405e-01
-1.130023294285215751e+00
7.096767753604572571e-01
-2.793073527742815920e-01
8.388267270978825296e-01
-2.048366358705702439e-01
1.424614324879506677e+00
1.131634142320603997e+00
4.416075085310642301e-01
7.277331617097076988e-01
-1.229894114446639097e+00
-1.413952808785023274e+00
-7.464734765755914880e-01
-2.561841021802452989e+00
-4.416212891217430325e-01
1.269147148068857200e+00
1.605452258453853587e-01
-3.377112819205745908e-01
-2.853655424185303491e-01
-1.253433240359095091e+00
-1.713257439532531290e+00
5.073547645217801362e-03
-4.476014565238910503e-01
7.955300530482822818e-02
4.365938414986817451e-01
5.927751107859936530e-01
-1.612378181563921542e+00
5.704274895650199295e-02
-1.111782867960632082e+00
-1.051850964783898890e-01
2.307062300304455263e-02
1.881195933472961546e+00
9.733802464176307678e-01
-1.769005216574329794e-03
-2.615021221946564611e-01
4.684059480726265323e-01
-1.105053366214464150e+00
9.294414053228350348e-01
1.676119851275372330e+00
-1.199199953522136763e-01
2.506691093537510295e-01
-2.424543279024805598e-01
1.203798310310660646e+00
-1.265834286898989136e+00
8.542927807338015489e-01
-8.049023679698762423e-01
1.035422051916882413e+00
3.622536450112051054e-01
6.590976630087679311e-01
-1.428206609303526831e+00
1.752991515246601559e-02
1.206870150588919000e+00
-1.683747530903227374e-01
-1.285820149584013361e+00
-1.101074322447076703e+00
-1.191937277100770354e+00
6.961598829240170927e-01
-1.465002920227679972e+00
2.745194794973288221e+00
2.294854526596407929e-01
8.814332504812262270e-01
-6.516528273226691592e-01
1.774485219449159212e-01
-4.767902858889561113e-01
-1.001804121194307395e+00
2.777154525022430542e-01
2.914774230787791631e-01
3.644458146509567120e-01
-9.030424341576738234e-01
-8.389684968055791114e-02
1.127577505528140511e+00
8.365199686438855586e-01
-6.286756882351134113e-02
-2.088375982363235739e+00
-3.579114230153112031e-01
1.576833292171007983e+00
-5.146009305328593797e-01
-2.148178281366885045e+00
-8.336969342998216959e-02
7.541981203848872051e-01
1.245458603502068717e-01
1.144145968259763002e+00
1.981221990882878536e+00
-1.542889955181495909e-01
1.632328225992863091e+00
-1.629441464245213189e-01
-1.045957402099059852e+00
3.936159152221433977e-01
2.091265274467259475e-02
-2.862508731877170809e-01
3.321735774498158628e-02
2.955308539444756466e-01
1.554688973492310833e+00
2.625666698335669680e-01
4.540236112181761929e-01
-5.259193800607716573e-01
7.710959165073352772e-02
4.401318515437914192e-01
9.495046359854911744e-01
6.583482415550817590e-01
-9.229718386252405704e-01
-9.792198612656909384e-01
-1.154201537156295115e-01
-4.757458931254242018e-01
-2.842733470589494105e-01
1.089562945437365427e+00
9.726026271620380470e-01
3.210664705915380335e-01
-1.975846891047675358e-01
3.622550358408404003e-01
8.610839631510483372e+00
