2.676735306224243410e-03
2.161575461427707734e-01
3.219317902211128457e-01
4.973046735607452445e-02
2.281607068959596030e-01
5.508236089957081472e-01
2.931322062714736831e-01
-2.499418541351526579e-01
2.864361856661274963e-01
1.762020303181023040e-01
1.396619123182379352e-01
-2.346688298246534243e-01
-1.973200971327300490e-01
-2.277333709693756536e-01
2.721266074422185599e-01
2.250223014512634789e-01
-1.253790685632950319e-01
-2.984452141306166983e-01
2.775839021688056851e-01
3.088680580942694265e-01
-1.843344299427179844e-04
-7.216882357641499213e-02
2.296880617219717313e-01
-3.467087225934897127e-02
-3.111682786979538262e-01
8.023554248071626538e-02
1.928732213893225855e-01
3.657724638576769771e-01
1.701411102617781945e-01
1.365593560908918980e-02
-5.897168815096436312e-01
-7.064613453085104577e-01
-9.847280571634267621e-02
2.139888141679510414e-01
3.878314167365682352e-01
-2.678723928454182501e-01
6.585173570789312758e-02
-3.426008759889263566e-01
2.417472188522172827e-01
6.249407391341268436e-01
-5.075981469677367554e-03
2.987760557762789149e-01
1.124631599047535152e-01
7.891567406847971311e-01
-2.458627413187484956e-01
3.396331063517893933e-01
3.364249799375401140e-01
3.206687499177616196e-01
1.450744733167284028e-01
5.904200593735738911e-01
4.246895223569183142e-01
6.999574525866270047e-01
8.283586068950436754e-02
-2.339080705812837391e-01
-7.288034975952094319e-02
2.042505492978418102e-01
1.712103828233134950e-01
4.148450533333093437e-01
-2.711354166721271497e-01
3.742153323472702242e-01
4.597741474859954325e-01
8.233854241095416027e-02
7.221327222252633959e-02
-6.321851957404213129e-01
1.377365062085613989e-01
4.442307082655622685e-01
9.518053694476950877e-02
-2.945384969105846462e-01
-2.495962935256585691e-01
5.845434457930370753e-01
1.797157703505555815e-01
2.352852738757955919e-01
8.734458065282408867e-01
3.569642643906671964e-01
5.682346570093180782e-01
-1.012529936275067127e-01
6.317522409274335393e-01
3.333027459526680669e-01
4.505122836899462246e-01
-6.147121660608613203e-01
3.395919446618722581e-01
-2.380173545688529235e-01
5.798684630429039588e-01
-7.774695863424820053e-02
2.068304661221963825e-01
1.969432539634330681e-01
-5.167584617288425441e-01
3.400929358355906929e-01
-1.163833741633244045e+00
-2.367183595981168370e-02
-1.420785291231841108e-01
-3.018457800379430872e-02
7.282542554741558427e-02
5.691802903632624533e-01
5.665440845568200379e-01
3.922261335779823610e-01
-2.103023829007932000e-01
-3.696301785008957591e-02
6.419781210778319203e-01
-2.936193600426478117e-02
1.412753236529341594e-01
1.245621018018412546e-01
-1.297450601952115090e-01
-1.152440091585309190e-01
1.103310285653794215e-01
-1.772256524209537831e-01
-4.585530882077550885e-01
3.168213671746382132e-01
1.229308077699969998e-01
4.784768321337851127e-01
1.101251985411940554e-01
6.276449062242969723e-02
4.235301506263432908e-02
-2.570174925940607036e-01
-1.442810607282016266e-01
-2.695163083163997220e-01
4.408735205593040662e-01
3.298783225911022104e-02
1.626653105210722761e-01
7.152689198307696783e-01
5.929639331655487400e-01
-2.665150972867981749e-01
1.281301255067961886e+00
-1.022572520553825942e-01
8.743021519393585905e-02
-4.292909613337398955e-01
-2.017120094325781238e-02
-7.622605894750165145e-01
-2.720960569225782666e-01
4.674260091472842715e-01
6.437659113467132377e-01
-3.113300819091150418e-01
-1.787280234745289298e-02
-3.635600902620053088e-01
6.871316887666138740e-02
5.041346948569458419e-02
-3.987357739476923846e-01
-7.959310894594066044e-01
1.932191077538630286e-01
2.375675832158810619e-01
1.125154173049128098e-01
7.534470977986257312e-02
-2.515165988394406082e-01
-5.425176222316180352e-02
1.643686159540644898e-01
-9.570986579162510388e-01
1.313085961935261947e-01
-1.953992806031201457e-01
-2.028213307746733474e-01
-4.576399579553457331e-01
-2.709834768580274972e-02
3.390099205526655446e-01
2.635916808131425482e-01
-8.129285246092109452e-01
-5.955814277990543193e-01
-2.405062723881759013e-01
-6.422363517990646864e-01
-4.519425137845625162e-01
-4.104267320164554089e-01
-6.636468824173281655e-01
-1.039223793090483516e+00
2.891680992268590433e-01
-3.914498978969543908e-01
2.595945027792224691e-01
2.322447005762052763e-01
7.702441619189087652e-01
1.525184569398293222e-01
-4.448346739789338922e-01
2.306595651145682546e-01
1.396866196711763763e-01
7.702582180153362632e-04
9.203128950639093142e-02
5.865886575073237658e-02
4.803270206638045048e-01
1.280541118302267779e-02
-5.263482994847950014e-01
4.817954519234778354e-01
-2.761655597794754891e-01
6.274964560134757563e-02
2.404911757735777034e-01
-5.077965771620726043e-01
-3.027498315435435683e-01
3.987426256389898227e-01
-2.918340985335661220e-01
3.771988193388976507e-01
1.623197760155287717e-01
1.735481374186112202e-01
-5.516322075794066748e-02
-4.790322325671256820e-01
-1.096757886199774268e-02
-3.204934492730637796e-01
-4.687427902208813335e-01
-4.129661971635990581e-01
3.837937488011587406e-01
6.227492823086878682e-01
3.385266702267252237e-01
3.982579481475740923e-01
-1.902030743419183823e-01
2.671818658460828333e-01
1.720620764394442115e-01
3.549413421350651743e-01
2.178396956813338226e-01
-2.367181639992606279e-01
-3.293686833623576393e-01
-9.734520730448378845e-02
-6.180508572020124713e-01
1.029520121267573363e-01
2.522940461540215673e-01
4.672032647908985065e-02
-1.888702293489183115e-01
6.208865405200516552e-01
3.264850540045461935e-01
1.247278207452716892e+00
4.012410491272483393e-01
4.112452510664367233e-01
-4.377130099578377398e-01
1.547494502849618495e-02
-8.513236260906970054e-02
-8.268404525870238775e-01
-1.005759648878108869e+00
-2.270609064953853229e-01
4.554484574410622155e-01
-2.520521859727747893e-01
1.593279897286506153e-01
1.611844093124742971e-01
3.708118886925098057e-01
1.320085304536514070e-01
-9.688787377243276988e-02
9.263004633470013627e-02
-2.522826626438697262e-01
-5.470172910785260356e-01
-8.245594298604206340e-01
3.342627482750746420e-03
-1.653850940456481899e-01
-1.156438108154376754e-01
2.246466807433813648e-02
4.106446937254647489e-01
-4.783583754524137199e-01
3.845189653469959223e-01
4.621149376870111181e-01
1.792442853457755225e-01
-4.544613240924898212e-02
-1.263533453302854472e-02
-9.564196096807903169e-02
4.203919639763059601e-01
4.355074173856489650e-01
-8.322615349980660993e-01
2.450831963832093563e-01
-6.143943610765966595e-02
-7.970949880381990038e-01
-4.851695827897631874e-01
-3.856161452043945226e-01
-4.722604350414331686e-01
-4.346996559881354805e-01
-2.079265181376573762e-02
1.619639041427897164e-01
1.739202275391217578e-01
2.359032151073403583e-01
-3.919533372057386611e-01
6.458730385653828343e-02
1.042178417347374431e-01
-1.040703718946705214e+00
-7.337423486102628845e-02
-1.995679227155587598e-02
-2.174722207853971578e-01
4.735299437779713627e-01
-6.200604795896360460e-02
7.611566115087520235e-01
1.795614329105642976e-02
7.048174005781338014e-01
1.416559738579252492e-01
8.626881635717711383e-01
-8.320060454631573732e-01
-1.690633663287778310e-01
-5.568709678074840186e-01
-9.130385052657282730e-01
-6.058244952445175358e-01
-3.746822825320184069e-01
-2.124722911804412806e-01
-2.070210248892034310e-01
-3.892364757105911677e-01
-7.180163845086479091e-01
4.720520214078310905e-01
4.332561346370042421e-01
-3.325802651589512826e-01
5.460913702163648908e-01
-4.260514029037686390e-01
-2.787491738537816177e-01
-2.345883449943750865e-01
-4.090909095831148368e-01
3.610625482095967953e-02
4.069899052596550049e-01
-3.065429063752757588e-01
4.434281222272209999e-01
-6.550627311899356008e-03
1.043191927367263516e-01
5.627780516555483947e-01
1.793404264951439092e-02
-5.192890989709346705e-01
-4.410929344585365341e-01
-5.578505300125053551e-02
-2.319574963189008354e-01
-3.620366285480551838e-01
2.040134795399401457e-01
1.918632238086520614e-02
3.734267580285640098e-01
1.228823625039351802e-01
-1.442202717149326796e-01
6.796028976529604193e-02
3.683440463892636574e-01
-5.329111396650011434e-01
1.121148172857113906e-01
4.425139164427221439e-01
-2.400303948946430344e-01
-4.774812876175422716e-01
-2.503210134757541394e-01
3.047328947670050608e-02
5.557204377112410221e-01
6.209898028264117936e-02
7.484179929420051725e-01
4.410720277114179022e-01
-5.321104872299893263e-01
4.224322957300431503e-01
4.660349248536055367e-01
1.151579952723329470e+00
2.315647746866086876e-01
1.283004648148809324e+00
5.542030454819463214e-01
4.831712292106306039e-01
-1.405625415407423529e-01
-5.790316529378700117e-02
-2.765613649303021448e-01
-9.582056257173870994e-01
-1.867228498433474715e-01
1.947644520083133546e-01
3.445274561607793596e-03
-1.882482887516177261e-01
3.654982606674556100e-01
-3.108902792804458734e-02
-3.664380454094481321e-01
2.786885116561373388e-01
-1.061783881931939733e-01
2.932103812034674850e-01
1.039812690455619304e+00
5.595543456853118158e-01
6.636126846814653923e-01
9.045868490475755808e-01
9.947585914913575911e-02
2.386869684157600091e-01
-8.842756890272513992e-01
3.350937208686874391e-01
-4.503331923438320117e-01
1.364691346119105919e+00
4.281175484734583980e-01
-3.627333210138717484e-02
4.680979760722123739e-01
5.080719057806294403e-01
-5.229029738079698370e-02
-2.721293677034344327e-01
1.070425256638107170e+00
1.193173836541502712e-02
-4.629368144440281219e-01
6.250471599523143018e-01
-1.141343977966665785e-01
4.327910919532202416e-01
-2.986292617887700493e-02
-1.093928794779883973e-01
-1.780555613612258281e-01
2.747978870991361067e-01
3.102774840623186980e-01
9.413836609082212314e-01
5.161881499201883550e-01
6.831823870493672901e-01
6.949808301211500838e-01
8.199032044257341667e-01
7.164773177214793509e-02
-7.682026354751069208e-01
-7.772307424506563756e-01
1.929595592530886361e-01
2.928866942217330793e-01
6.945644522309361024e-01
1.812725193230286580e+00
5.125208408973420671e-01
8.217057678468728810e-01
2.255898623883137166e-01
-2.412917089083965738e-01
4.837763511363171731e-01
1.265972546334810933e-01
-5.713758775875345253e-02
-1.014041267140550207e-01
8.743634561231881097e-01
-4.773320661297973388e-01
-2.151459836417912164e-01
7.454290524913473326e-02
6.321991875317879428e-01
1.553164246888489863e-01
2.641097819443896655e-01
7.009891927106098874e-01
1.154575442225649784e+00
1.848704920498651649e-01
1.918445479157754596e-01
5.783596439414901980e-01
-5.938072062531286194e-02
-5.169212603354846891e-01
-8.034791982823848988e-01
-4.381188701084537396e-01
-1.025259624961530447e+00
3.843574384959706491e-01
1.358140531788032401e+00
5.263024470156133505e-01
4.364098086999519399e-01
6.026215900692353244e-01
1.023324655383133441e+00
6.801200490948893229e-01
7.954271180908537575e-01
-2.256456679644813085e-03
-2.787222486199302240e-01
-2.601071641725011818e-01
4.965218733196142820e-01
5.107337852791388189e-01
2.420248663437732095e-01
7.374636880907847747e-02
6.299209533978855635e-01
1.898396250071322233e-01
1.993251700800149906e-01
3.745789672515415503e-01
1.058918028549348023e+00
7.899892510270611901e-01
7.651795788069187809e-01
1.703019397494193177e-01
7.952251360517583745e-01
-5.063040320039305930e-01
-5.420669063014306455e-02
-1.010419957027551607e+00
-9.039887434231980157e-01
3.642366634407938064e-01
7.284900156410176741e-01
1.610632885650259416e+00
3.074251696315342675e-01
5.427443400293393561e-01
7.509455029581404428e-01
6.517599234730639957e-01
4.930057694107359278e-01
3.714828279304170922e-01
-5.455510700969186111e-01
6.181183751630146828e-03
-9.710753420322396079e-02
6.433117912981154429e-01
-6.307132566640637206e-02
-1.879444505329635473e-01
-8.611811430384326560e-02
-2.540673446075825681e-01
1.197231523588561525e-01
8.112896617578437830e-01
5.222291101418324866e-01
6.090663363215522708e-01
-7.523451216923883467e-02
-2.481736323567935165e-01
-8.344546384759318203e-01
-4.007327149494765428e-01
-6.428245849722000749e-01
-8.781060258407781260e-01
-6.309057124824603013e-01
7.187806568097802051e-01
2.309365722285106892e-01
5.908255889694028484e-01
6.004027949357660932e-01
4.115625766855327550e-01
3.943424227951782823e-01
6.438585118240466865e-02
2.272764645178976251e-01
4.517719655244147037e-02
-4.135252519163004070e-01
-6.771324644726699205e-02
-1.045298216778580563e-01
4.474330006913243007e-01
-1.837759913793727828e-01
1.431725833974083206e-01
2.197703846367791702e-01
-1.280804350632976270e-02
2.606698427409031779e-02
-2.156086301011151674e-01
3.353915125742311099e-01
-6.814393675204646339e-01
1.217040896116199505e-01
-1.422031717419103836e-01
-1.524256254258894439e-01
-7.383026597397206459e-01
-1.016408387125534496e+00
-1.619305078822965926e+00
9.610178782520463828e-03
1.210701927450045012e+00
5.138049408785266836e-01
-1.913753402409409665e-01
3.096268045264136126e-01
6.805281679842054565e-01
6.366509746359627631e-01
4.727885217892363601e-01
5.360717377419822460e-01
7.788540287484738145e-02
-2.806901588762766298e-01
-3.306091508005453150e-01
3.250869506924672359e-01
-2.721307572441984679e-02
-9.549665512016708435e-02
-5.304430398203751063e-01
2.743519830410998672e-01
2.796432463553472081e-01
4.342417850313570193e-01
9.421679949828802927e-03
-5.299810413154050215e-01
-5.845131764916392525e-01
1.403290150814864023e-01
-5.769122069226283456e-01
-5.145178073744023362e-01
-1.437342905975977914e+00
-4.407714462597884797e-01
-9.874835069535653487e-01
2.526244159743213369e-01
-3.230124738702301879e-01
5.118864695574494306e-01
7.400357836801784162e-01
-1.443363814600009953e-01
4.058075762587756014e-02
-3.446354382462619298e-02
-3.315424498440915912e-01
-2.697300814171443295e-01
-1.112296005469300741e+00
1.197062200954068442e-02
1.855364105482220360e-01
-2.887419543034722147e-01
1.023278293871926203e-01
2.355717131659270935e-01
-2.034079428117534227e-01
4.817166054253120833e-01
5.654232829619975503e-02
6.448125820371899963e-02
3.033744853717532976e-03
-9.193371037590612749e-02
-1.261288844132876674e+00
-5.273681877694532671e-01
-1.051102997303048348e+00
-5.051902452510429464e-01
-6.656745153111665037e-01
-8.151655767533738661e-01
1.256945175636344295e-02
3.199494312412593661e-02
-8.964362584707544768e-01
-1.096379152684867457e-02
-3.089645756512310881e-01
-2.954559457374124065e-01
-8.836427537866940740e-02
1.480335979054147287e-02
-6.725804424677237492e-01
-5.282799926692441916e-01
-5.849501261131120344e-01
3.163433624132909738e-01
-1.732439130361689006e-02
1.836377751335578623e-01
-5.053447589868188539e-01
-2.159965034607924383e-01
2.551705094204668178e-01
-1.859554717171196248e-01
1.990076287712640168e-01
-3.485070414108988601e-02
-1.811221320528792755e-01
-5.831816809625077758e-01
-6.150765295345502759e-01
-9.169351741725035865e-01
-1.573210187064003618e+00
-5.575682902356352555e-01
-5.963261625283032830e-01
-1.575012107456170263e+00
-8.527228934735172627e-01
-3.449216008573500192e-01
2.063102494459814751e-01
-1.361991953713316827e-01
-9.647255893260247017e-01
-9.151531108177297924e-02
-6.015229609862949856e-01
2.343993364317618067e-01
-5.505911988885825448e-01
-6.160781887508653271e-02
5.187509996102575016e-01
-1.222303169135343336e-02
3.980522299869175273e-01
2.964805037148057210e-01
-1.469424087451717820e-01
-1.605244868178340722e-01
6.556185677469384965e-01
-2.746114439752564418e-01
2.652629096033077283e-01
1.789976314837728177e-01
-6.084777841928903364e-01
3.045006391625207920e-01
-1.041695407787480931e+00
-6.309350060535628968e-01
-8.806820113153460694e-01
-6.218236799436599460e-01
-8.713103416260540302e-01
-2.919372916756407532e-01
-3.493047857685517843e-01
-9.433927254617452407e-01
-1.153496440212564922e+00
-5.599769923030222668e-02
-6.877572787919089548e-01
-4.187056208520437139e-01
8.285845491290308451e-02
-1.129157461767228643e+00
-6.777167131409619349e-01
-4.409862103390917443e-01
-2.734085697658097391e-01
1.298623801075881046e-01
-3.955884263941051443e-02
5.208729553407204227e-01
-3.963417937454116052e-02
-2.304627384128867806e-01
-1.387637883700197639e-01
3.130716149288137462e-01
4.309425740809336713e-01
-3.893152328507350907e-02
-7.026864975438581462e-01
-8.655568243272138140e-02
-9.053267912207010326e-01
2.916952825131052807e-01
-4.916963249438880967e-01
-7.316603058966181239e-01
-7.783214189990747545e-02
-1.004968981419654961e+00
-3.898976592554925236e-01
-3.435090695670823813e-01
-1.179381307213407171e+00
-6.910753277808536765e-01
-5.095414868462382341e-01
-4.819987219327984129e-01
-1.017857742589501013e+00
-2.525258578377549412e-01
-4.655237519738626983e-01
-1.862550803744556227e-01
-5.684462871184391419e-01
3.327678388120028918e-01
5.762608808289984008e-01
-7.617025073738264984e-02
-5.813566469138155279e-02
2.868886757664880216e-01
-1.472553169162837128e-01
4.540403770808772999e-01
-8.726021447410998721e-01
-2.003087485151156255e-01
3.170935450932295674e-01
1.081429596980434171e+00
-2.390115280538058357e-02
1.536575894063958204e-02
-5.936324122055952612e-01
2.550453158743058446e-01
-9.515446896529250465e-01
-6.185194292320543852e-01
-1.452805031069952735e+00
-5.312834661183346574e-01
-2.725686483967195151e-01
-6.841793972598880780e-01
-1.010412371518560226e+00
-5.274258358726732210e-01
-1.088936502629385572e+00
-7.145603257212499448e-01
4.868632920596838165e-02
-2.788560445733292426e-01
-2.529547343691696676e-02
5.533805732693974910e-01
-4.375731016274846397e-01
4.249960758873358446e-01
-6.104059925678047005e-01
2.101844522712125601e-02
-1.284584521629492659e-01
-1.146374710416536852e-01
1.790560137808394903e-01
2.922271736527157215e-01
-1.761532381703113104e-01
1.276031622403930865e-01
6.948192776105550916e-02
1.133699526401281465e+00
5.314945055458199924e-02
4.791954342921559973e-01
1.396724214371825867e-01
-3.569761148162212128e-01
-4.288508818064386552e-01
-9.307410616870366304e-01
-7.411636250985731422e-01
-3.038352534770014102e-01
3.150045466343173728e-02
-2.851589434734301196e-02
-1.181237588860510786e-02
6.452655993164398973e-01
-2.173110586909493269e-01
-1.613117980504127358e-01
-2.942633389954812939e-02
1.503574927461450994e-01
-1.831689746228183646e-01
4.429152988179679284e-01
4.198475063267890772e-01
2.958443318254140308e-01
4.239378556364014061e-01
-2.744295666576597736e-01
7.453647189194225753e-01
-2.813466728282282975e-02
1.219180621180178808e-01
5.384286680148464566e-01
2.281482002173434442e-01
-7.166198285702247706e-01
2.204833009417561662e-01
2.518073269779058099e-01
-3.635390717386729337e-02
4.745148056950350135e-01
-1.550780947257235191e-02
3.314030244807181780e-01
3.777529608120545057e-01
4.025563261697532313e-01
-2.518447856396119344e-02
-9.466702589139808222e-02
-2.396671063007693447e-01
2.776581779583306986e-01
-1.471171649601428488e-01
4.341546351089153322e-01
5.617916484255115472e-01
-2.092938901572088395e-01
-3.078599239359671169e-01
3.098591854478248697e-01
-8.217068732943505482e-01
-3.112431934942992973e-01
-4.845853322382409623e-01
-1.597106303371144745e-02
-1.500398327774666030e-01
1.642084173103981692e+00
-5.807567902369002999e-01
5.883808158589617227e-02
2.724647818714915348e-01
4.929586562193343235e-01
-4.027114405788385643e-01
-1.302545148492119109e-01
2.074737505832334183e-01
-2.320344997689069155e-01
1.753790506143194580e-02
2.481358738236188327e-02
4.729299363447855842e-02
-5.063882864706636261e-02
-3.709398389694547049e-01
4.849925519067906921e-01
-4.285259837582838793e-01
6.491314596177542029e-01
3.252248872820683034e-02
-7.168946893664429609e-02
-1.196896996198172358e-01
2.053980281499608596e-01
2.826720617057684182e-01
5.324467413032928365e-01
6.129568269778780110e-01
1.658601014577263943e-01
5.762370835669191615e-01
3.571974533878695124e-01
3.502298550300747548e-01
5.195589355047845054e-02
3.922943982759005133e-01
-6.224885349259883238e-01
3.667590765821367171e-02
1.988507853431104588e-01
-3.006925097268164371e-01
3.406115832571751656e-01
2.515932842598238017e-01
6.147126135148909404e-02
-3.328835635813669480e-01
2.507363206647673093e-01
-7.380660370362553957e-01
-2.305513504596965607e-02
3.320682657178692931e-01
7.453868581911002322e-02
-9.198025301380634289e-02
-1.409309311701490153e-01
-5.631142721646597432e-02
-3.124309705971540785e-01
4.878628413699770960e-01
-4.665812610176240938e-01
-1.612676495758292861e-01
2.991533316245288954e-01
-2.443219574415164130e-01
2.855768441292836357e+00
