9.400108958045283458e-02
4.375119844984582951e-01
6.827832954637799157e-01
3.024680241529540195e-02
3.540139218146874933e-01
1.065101584254001477e+00
6.845629035410278895e-01
-6.296497375896301651e-01
8.435473120208417663e-01
1.210113723039093064e-01
3.916907303430559040e-01
-5.730275116193590534e-01
-2.502069961988945268e-01
-3.862655680676068681e-01
6.533410218586956919e-01
4.318046683914225081e-01
-3.067672714862672567e-01
-5.526181550447081259e-01
6.578702165392261714e-01
6.748218360352561396e-01
6.075770431655257153e-02
-8.499986078713284154e-02
5.770381306265202070e-01
-1.688711822849197908e-01
-8.093814799580729691e-01
1.426682274624525570e-01
3.094151499425458751e-01
9.341101229322826827e-01
4.351919532944170110e-01
3.895094606237870655e-02
-1.369141996471226363e+00
-1.580185667372157488e+00
-2.532970195359587895e-01
1.243845958849303934e-01
8.320262598169008150e-01
-6.448550089454001544e-01
2.590728551566129911e-01
-7.637477150082110366e-01
4.826370195266561081e-01
1.330485499922827053e+00
1.235583786141550115e-02
6.830156548379167081e-01
3.559114326755791202e-01
1.775658550572354111e+00
-6.549469970490999771e-01
7.414405909747063816e-01
6.456259771976773365e-01
5.695128305154083526e-01
3.586634919264314880e-01
1.176335352944393398e+00
7.621821897923551914e-01
1.369214522148096913e+00
1.216800044574696399e-01
-4.750194323850335243e-01
-1.665079500739398144e-01
5.343994918953247630e-01
2.332710642313794991e-01
9.833707314458031146e-01
-7.464157400144654231e-01
7.950731981361023326e-01
9.432240649982990277e-01
1.118520348465027944e-02
7.218935525238341644e-02
-1.299474600369017629e+00
2.747391985482289245e-01
9.461359012991936712e-01
1.396536516038710540e-01
-6.107610648191360569e-01
-5.326066792130530470e-01
1.087233737384364796e+00
3.843451471599188540e-01
3.467740110470949877e-01
1.588473302337906734e+00
8.246289169823276533e-01
1.274930920923048827e+00
-2.358163037283622365e-01
1.377122787753555233e+00
7.649463843889476866e-01
9.521875394408211291e-01
-1.312668070108396812e+00
6.266848063868400986e-01
-4.604818688013686545e-01
1.261513062183380995e+00
-3.103964208620694776e-01
5.184851744285881026e-01
3.946558872143599572e-01
-1.069138230415824342e+00
6.480642475612431452e-01
-2.571625554385103207e+00
-1.324247049242319521e-02
-3.113299154377334732e-01
3.478334141123436835e-02
2.035398838556078949e-01
9.107092265202016979e-01
1.132424898100528265e+00
7.662998365648707733e-01
-2.997320436535983457e-01
-2.579281999822445326e-01
1.463500156988831291e+00
-2.427070634698983986e-01
1.694188694535829764e-01
2.357003190690692973e-01
-8.345409147967300378e-02
-2.924112688705486907e-01
3.172905717520275171e-01
-5.952124478770413063e-01
-1.086748808632008956e+00
7.662830950258957552e-01
2.823117043235224832e-01
8.700375915159108686e-01
3.850267502597780056e-01
2.067565397234871760e-02
-2.830383689844626072e-01
-4.336730815628421776e-01
-4.157614854346826649e-01
-8.493756765299470546e-01
1.040350471093571372e+00
1.014989470312241127e-01
3.013109554567245940e-01
1.516780290152605071e+00
1.319107597872388515e+00
-6.446165914785064732e-01
2.710417920064464248e+00
-3.084126051079879027e-01
6.635326253033852102e-03
-8.186780855423932968e-01
2.316929812356096144e-02
-1.523412205515018991e+00
-5.288644596026220723e-01
1.057696832965376865e+00
1.528479767643635689e+00
-6.294245836136688199e-01
1.404728042706843150e-02
-5.027797926323869238e-01
-8.031699817807357034e-02
1.978054585616728991e-02
-7.059599775464420190e-01
-1.762065193968826327e+00
4.886042514760138844e-01
4.046444510603822153e-01
1.222336755408810066e-01
3.253662852503855230e-01
-5.882592216183077927e-01
-1.619780951656634715e-01
4.095315232291644181e-01
-2.085550206254223493e+00
3.385515146557936950e-01
-3.969057127728952694e-01
-4.532204537177886849e-01
-6.962162657094675966e-01
-5.275399359113752684e-03
7.371987708591685173e-01
5.378468042070232435e-01
-1.581823480227722234e+00
-1.277317302210821959e+00
-5.392163672434806265e-02
-1.352770850954077675e+00
-6.800098329952102283e-01
-8.918518977244960233e-01
-1.234673610898483265e+00
-1.941658931579522740e+00
6.604395197639585380e-01
-7.133779738573844398e-01
6.147217976901770964e-01
4.538501088990968269e-01
1.502589076476668062e+00
3.303866595693147890e-01
-8.626595884521270907e-01
3.937400571447787767e-01
2.105398484588269503e-02
-1.171474032618697453e-01
5.104041621424195707e-01
8.591683424441064199e-02
1.092924867781742027e+00
1.829476860893175516e-01
-1.010716103531289045e+00
9.478228235694532433e-01
-5.563081516244228197e-01
3.093015288004890562e-01
6.542464995106028747e-01
-1.127621076428882541e+00
-4.544170536705228747e-01
8.006412221479514146e-01
-5.738728810260671498e-01
7.517783950050874742e-01
4.355494036577842176e-01
4.190245926590338565e-01
-3.364651664841531841e-03
-1.016267691137243245e+00
4.418876346398580013e-02
-5.579553319851198179e-01
-8.608901176730302529e-01
-6.818835333880836069e-01
8.453410004715761206e-01
1.351411115000386243e+00
7.662973810660602680e-01
8.238506279888474504e-01
-3.979127499162741777e-01
4.257286710156557574e-01
3.764801107428261684e-01
7.827617411927554336e-01
4.566550543622029390e-01
-3.660248769282644088e-01
-3.722078932558658404e-01
-1.941897166245045991e-01
-1.310564842847045774e+00
-1.912053563638436635e-02
7.263158964308634724e-01
1.046358906169685965e-01
-6.481881471764370239e-01
1.230385188666700325e+00
5.543300592205950839e-01
2.460590696886462148e+00
4.733147283976542607e-01
9.130269867549197782e-01
-9.235180602311874321e-01
-2.528306625664798399e-02
2.106454924406979401e-02
-1.732223327539201829e+00
-2.027769880052065155e+00
-3.202836954143867265e-01
8.548749787654328358e-01
-4.819525514032544367e-01
4.083687321537622927e-01
3.792559130127274858e-01
6.653042427044325580e-01
1.442489681826801262e-01
-2.515516071331800330e-01
1.195441398862318039e-01
-4.456455549920526060e-01
-1.036109504447836782e+00
-1.810130641041969746e+00
-9.595376032639021946e-02
-4.967136910380813841e-01
-6.130662717983728638e-02
-2.369920133539238638e-01
1.089113685964393952e+00
-1.040050256529612582e+00
7.454437639187989628e-01
8.083608049552931663e-01
3.207357431765496258e-01
-7.959559328961905711e-02
-2.627224099355130599e-02
-2.525828031889700287e-01
9.556281689510514044e-01
9.175104358246046754e-01
-1.678609119296736729e+00
6.261479199150635777e-01
-1.075779141069644618e-01
-1.429819518759980257e+00
-1.000692098522295348e+00
-8.907382950457054527e-01
-1.066281114248287087e+00
-8.402065466411507977e-01
-2.466965531460427099e-03
2.573237164232108354e-01
4.756856375602778186e-01
3.932703802381520841e-01
-7.066477084953033394e-01
1.610245220340232042e-01
4.791752265602813865e-01
-2.248199263864047559e+00
-5.794680880452258986e-02
-7.763371448577097156e-02
-5.994980364454857158e-01
1.041874520065068310e+00
-2.060824895106486143e-01
1.667894268068770725e+00
-1.694921457941631626e-01
1.485510968767663975e+00
-1.010881439249320703e-02
2.047558871189004481e+00
-1.895475195864648743e+00
-3.535424129764355716e-01
-1.038241679315223598e+00
-1.757294540006888672e+00
-1.269875775357174108e+00
-5.038875947374485964e-01
-4.101175365807320228e-01
-2.932464113308356768e-01
-1.125034268589067299e+00
-1.570343725087329112e+00
8.781187257210703034e-01
7.065809554205186860e-01
-5.567879031214640895e-01
1.114925479383359841e+00
-8.496811069507682612e-01
-6.585842344450191232e-01
-4.153063662771165898e-01
-7.430689665933388754e-01
3.544431938150475331e-02
8.261694533557135678e-01
-8.587080782511170574e-01
8.720975022347267069e-01
-5.058517300314419041e-02
4.528429764602918267e-02
1.217995530437738561e+00
-5.680181928875835395e-02
-1.124189544089639003e+00
-1.015307923979134053e+00
8.151644344392375285e-02
-4.578878554767540354e-01
-7.542815106531366443e-01
4.171559189070856433e-01
1.376159781149127459e-01
8.524204409498558066e-01
1.047054561416779772e-01
-2.634897463735012546e-01
-5.810059605443326780e-02
7.889076570381431397e-01
-1.054726664152930926e+00
1.677406797446596431e-01
8.034233675954380871e-01
-3.295660768706336619e-01
-1.077650239258282072e+00
-4.704108073125553569e-01
-1.431218504357683607e-01
1.148420369348823744e+00
-3.417140503083557906e-02
1.478229678328616403e+00
1.048022545149355444e+00
-1.105480056447007975e+00
1.048046566905964205e+00
8.703817961255022606e-01
2.260508769300588749e+00
3.207173087731646777e-01
2.764469571537456538e+00
1.053731476147826918e+00
1.102498135726986961e+00
-5.032288131878810411e-01
4.715456309056457324e-02
-5.161826855138130776e-01
-2.133855562166341091e+00
-3.603504672402402242e-01
4.514529072965350887e-01
-3.086026691218918608e-02
-3.431648182337349584e-01
6.008074658271429502e-01
-5.795157446668969259e-02
-8.195175836838796135e-01
4.880386929156039222e-01
-3.740535686468989263e-01
5.121038597009998083e-01
2.256427715741138318e+00
1.113863705685476546e+00
1.273155187499898533e+00
1.736350727031167773e+00
1.172857259897319704e-01
4.868436825950896996e-01
-1.957262199763051269e+00
9.053094687173440791e-01
-1.083295629700305351e+00
2.620266254238746928e+00
5.395117157844637745e-01
-1.439551176187225390e-01
8.027183116941286611e-01
1.090866485163572097e+00
1.425815883259568817e-01
-5.961233638275317270e-01
2.295223130953073731e+00
4.577685054224065603e-02
-9.893509003083991171e-01
1.424192687497317200e+00
-3.038121114465439643e-01
9.876618986710834491e-01
-1.659278686719698193e-01
-2.518860041829920626e-01
-3.473880212029840653e-01
4.080270443701143890e-01
6.423393738014265830e-01
1.845879069027548613e+00
1.031397316650676688e+00
1.236233713384820909e+00
1.209469060726263923e+00
1.709435518613604321e+00
3.158646126058463621e-01
-1.373500042440031432e+00
-1.499235733253073688e+00
4.165136974968977057e-01
7.674288287360516714e-01
1.205098952082488850e+00
3.439708651486616642e+00
7.990537331030693746e-01
1.632198777741152407e+00
1.530395763822374189e-01
-7.027164908286647194e-01
1.102434873344386501e+00
8.405726146285891209e-02
-1.317324649900299960e-01
-1.769712268741472638e-01
1.965359299891013656e+00
-1.033778392814937996e+00
-4.556074166354788235e-01
1.576971524388464663e-01
1.236361464689869072e+00
2.586007772190038745e-01
4.577619430423998659e-01
1.314723659155192736e+00
2.375035207101511503e+00
3.170982128474139627e-01
2.919666834704605640e-01
1.031371954980415895e+00
-9.529682549893744858e-02
-1.020835549436373668e+00
-1.791104461526655145e+00
-6.957546947566389806e-01
-2.103356159868658981e+00
7.319613183081229435e-01
2.691274975347457854e+00
7.881760304677509765e-01
8.722348170098479514e-01
1.115467222491247634e+00
2.127628120545161483e+00
1.427990229131076427e+00
1.525147757550101790e+00
1.095396829842408132e-01
-5.609378465786868384e-01
-3.517950137239343467e-01
8.709771069689303813e-01
1.120778069284612100e+00
4.165633626433917214e-01
2.345697657272003966e-01
1.384511183026223113e+00
2.299796320595941801e-01
3.764758135113031590e-01
6.992679381128613647e-01
2.064940226009104762e+00
1.351244721539106353e+00
1.676003812363890955e+00
2.176264375663432282e-01
1.554789793092450578e+00
-1.094554178896187224e+00
3.013668604824683572e-01
-1.968115800431744500e+00
-1.649726948424407480e+00
4.878906795871854607e-01
1.237427744158995813e+00
3.213126712656011907e+00
3.981953798200679739e-01
8.371393899692516349e-01
1.341750687678777254e+00
1.265156611704176370e+00
7.353933372943015634e-01
8.268406995477212140e-01
-1.242510761022177057e+00
-1.792494740523353502e-01
-3.296659729610795786e-01
1.235564624357659458e+00
-6.660713384679899096e-02
-4.163262374417037726e-01
-1.961539490172837241e-01
-5.446542980129758238e-01
1.278870782191742772e-01
1.515253766562006721e+00
1.120076055506530777e+00
1.276762218088078882e+00
-2.990378616499796416e-01
-5.258025991357211382e-01
-1.767075509788289311e+00
-6.813389538498917375e-01
-1.275923899909686465e+00
-1.429271573731486056e+00
-1.357228496276850604e+00
1.607410703909485150e+00
2.076727600802766860e-01
1.126935416201855444e+00
1.197229049024924663e+00
7.762279307884117907e-01
6.170594086732266170e-01
-5.974884604707054320e-02
4.481387061336883915e-01
9.648790198810974772e-02
-7.935048595181949382e-01
-2.325795520168342234e-01
-1.450759580224544598e-01
8.563447927896202794e-01
-4.456239086434617969e-01
4.952640703403040079e-01
2.796294693144992793e-01
-3.321829701168755450e-02
-6.326314830287324553e-02
-5.930070091592853920e-01
6.225760277732570458e-01
-1.525389493287110376e+00
2.476302668228269332e-01
-2.854379055165330858e-01
-3.137217521402136944e-01
-1.402719643358554702e+00
-2.154071860772795777e+00
-3.301928212542651675e+00
9.049638958484801377e-02
2.509869835364028745e+00
1.068786321778649517e+00
-6.997483060838163293e-01
4.922878034927945512e-01
1.316628308890307686e+00
1.435217218238068027e+00
1.040774179616290818e+00
1.032499037808062070e+00
1.424659912547344698e-01
-4.763672057870795840e-01
-8.693747072209858651e-01
8.000693154187792366e-01
-1.764761416931993378e-03
-9.387193693829035124e-02
-9.914177433323774213e-01
4.995952807328485901e-01
5.115880078058167024e-01
8.275150277273575217e-01
5.847183711519233877e-03
-9.882434653000011782e-01
-1.284622472188809317e+00
3.449805726313589505e-01
-8.917692894110131885e-01
-7.224858439063374105e-01
-2.804557511869632425e+00
-6.298632170257841834e-01
-1.707284162527591187e+00
3.529120038563353101e-01
-1.015837777590343105e+00
1.006990643410592412e+00
1.747620832389210843e+00
-2.247948025399258143e-01
1.703408987770407557e-01
-1.271145296913780143e-01
-7.515944145063018222e-01
-3.865171285128143341e-01
-2.279424153905475592e+00
1.455524590147472541e-01
3.585073922567252880e-01
-5.140331529564571289e-01
7.443581921005081037e-02
5.016091644705803487e-01
-4.553577752811786006e-01
8.244613174029444824e-01
6.008167113126262199e-02
2.872023727733028498e-01
-1.286172498407025036e-02
4.483935751655973231e-03
-2.475625318354053750e+00
-8.415906074697530048e-01
-1.859486523356412846e+00
-8.508451485232018108e-01
-1.154650702072618662e+00
-1.630836216924082649e+00
1.188766417738389841e-01
1.283730690163400745e-01
-1.875852184998144434e+00
-4.053013194164083177e-02
-5.326742940664380699e-01
-5.673195958955983276e-01
-1.932314714323471738e-01
2.129984323956452263e-01
-1.375781404985719547e+00
-1.056365100157162118e+00
-1.169456405450170600e+00
5.808069454035597046e-01
-1.219042172930223655e-01
4.805644214276791892e-01
-9.776784063787156143e-01
-5.095349446513687264e-01
6.981528158905054848e-01
-4.445617074505755495e-01
4.243355165686248376e-01
-1.470460226305352752e-02
-1.806262315816732633e-01
-1.191892495087050863e+00
-1.140223905009480232e+00
-1.734023918598546654e+00
-3.181199667977447465e+00
-8.764055887888396734e-01
-9.176921519401002314e-01
-3.062324510643804398e+00
-1.761427946464497962e+00
-4.192465305135689158e-01
5.243882969631306068e-01
-3.745765724001918762e-01
-1.830000957112026150e+00
-1.373723864345707812e-01
-1.291029109624795668e+00
4.492254206121193416e-01
-9.347746482205091523e-01
8.475947041859882569e-02
1.175985188750099386e+00
-1.754989612346521122e-01
7.519679678170667625e-01
7.333031292994730554e-01
-3.748080285388801225e-01
-6.740206797411359974e-01
1.411534326043426546e+00
-4.908242828424750348e-01
4.837295158305345288e-01
2.976676541536837362e-01
-1.091793810034640488e+00
8.171696689267438085e-01
-2.144341746029363005e+00
-1.196432476714832660e+00
-1.702854150120925336e+00
-1.025547505328224362e+00
-1.652233642497610955e+00
-4.835873646331081965e-01
-4.886480884025566906e-01
-1.925487715515499243e+00
-2.225416977435282551e+00
-1.212212624530768917e-01
-1.171153294668744405e+00
-6.927851865033320955e-01
4.541715784502120545e-01
-2.217039903907422893e+00
-1.170464676333901943e+00
-7.676112080022634565e-01
-5.242750836060050545e-01
6.923146398529511289e-03
-4.826995358236629841e-02
9.916168038991217681e-01
9.853969228618764120e-02
-5.303738230543267873e-01
-4.478748264444057936e-01
6.622746061721228594e-01
8.154434822688423345e-01
-7.929618387519028755e-02
-1.454082286769839527e+00
-2.852886952893969319e-01
-1.840118892296207065e+00
6.282240383191773914e-01
-1.022420240118397050e+00
-1.496217659371916087e+00
-1.775607394051743337e-01
-1.983465517763739472e+00
-6.554652050442294486e-01
-3.646452373722441909e-01
-2.282655869026454454e+00
-1.322495169651492830e+00
-9.797658545293270738e-01
-8.968835062261897306e-01
-1.996204846819479739e+00
-3.793943675267574256e-01
-9.403196740168933143e-01
-3.526898637474935039e-01
-1.177924528608963906e+00
5.672313594711361207e-01
1.093888171008186694e+00
-2.107137394414696219e-01
-1.844810767406827590e-01
6.855119904969881883e-01
-3.693500004228590927e-01
9.067253998641467971e-01
-1.768808961833888915e+00
-4.882941536847837938e-01
5.876489175191673686e-01
2.136722188185314231e+00
6.943876324824370394e-02
-2.273518719913023012e-02
-1.228713046659221764e+00
5.541809320648405368e-01
-1.713085256938105649e+00
-1.196578142857405602e+00
-2.801309803403185139e+00
-1.264108560510909252e+00
-4.470839699236160425e-01
-1.188020141335541791e+00
-2.167922653620196094e+00
-9.491125915434086568e-01
-2.147854753408400263e+00
-1.505552254906264542e+00
1.904908686570098986e-01
-6.783314140353272625e-01
-2.996913412287964817e-01
1.085560274245410239e+00
-9.473689858138718556e-01
9.434713717536268307e-01
-1.418696628891767508e+00
7.630719329380629412e-02
-3.877152482521556420e-01
-3.604037972055725847e-01
2.012308561396797257e-01
5.789746906385110359e-01
-1.831470914015290719e-01
2.718073656160662210e-01
-6.565543904353390858e-02
2.321379339506234540e+00
-7.781913841960373061e-04
9.760475657438245634e-01
3.300746683373854684e-01
-5.371278554583704956e-01
-8.037720515059145754e-01
-1.689929368563385603e+00
-1.333683774728030791e+00
-4.416801680661612273e-01
2.084090810870810884e-01
-6.765327633062138968e-02
1.350952914217615763e-01
1.339522371542432477e+00
-4.482151881456105103e-01
-3.466928127246224900e-01
-1.421134057262934958e-01
3.123542257309626646e-01
-3.319318622946588193e-01
9.560725278910002789e-01
9.071968446386172724e-01
8.088881385248761768e-01
9.047383094943874937e-01
-4.602925933232366318e-01
1.565526979213748060e+00
-2.033328430786737195e-01
1.357848514569027221e-01
8.997309897267513623e-01
4.991187282222707688e-01
-1.694598831400198069e+00
5.419780320667888507e-01
4.569320939963530392e-01
-1.018927129847941870e-01
8.158430593878110981e-01
-1.039925197467695822e-01
6.036262104144787255e-01
7.624285262942247510e-01
7.311340822232059722e-01
-3.508158724531756228e-02
-1.958978765800065691e-01
-5.617188054019478516e-01
3.394358000785184237e-01
-3.957831614486215788e-01
8.309886745219203785e-01
1.329924954596785724e+00
-4.992203734034577622e-01
-5.239105317700120112e-01
5.529243022650185413e-01
-1.853700408752929851e+00
-7.493718579989818718e-01
-9.361526091355147905e-01
-2.240909087486605833e-01
-5.222075486728103844e-01
3.462681247385311245e+00
-1.189949214978254455e+00
6.334720860297210487e-02
4.370340228050141329e-01
9.496221421933208617e-01
-7.274440879461633314e-01
-1.974949883761885627e-01
5.547684751657966373e-01
-4.004929922489719463e-01
1.171799734253501091e-01
-1.480130545432923606e-01
-1.872736503990342360e-01
-7.419473529197155581e-02
-9.172397608768302346e-01
8.123492712168581820e-01
-9.271385955015044589e-01
1.275340222214705221e+00
-1.019673717763094900e-01
-1.590887513324688585e-01
-1.810975425896316215e-01
6.543350136582800625e-01
6.718770719000898284e-01
1.012408772381375277e+00
1.163131405641088634e+00
2.625351858780908265e-01
1.166358516546754931e+00
7.152163254431185280e-01
6.409191454576531610e-01
1.480364116869980207e-01
5.837670494281321787e-01
-1.194647098296747867e+00
1.695192285433909651e-01
4.225144959790615440e-01
-5.589033977965998101e-01
7.109638216248724829e-01
3.718307886835493514e-01
1.669590634082404879e-01
-6.848491311516979874e-01
4.781081017270547018e-01
-1.622944311249076232e+00
-2.101844583709920611e-01
7.936724433134954015e-01
1.382069640273716760e-01
-3.410518029734465606e-01
-2.787788302167321652e-01
-4.034257513866336131e-01
-5.749077265633749656e-01
1.140205828713767744e+00
-1.168953107705309247e+00
-4.541983685349760824e-01
6.131946324380348479e-01
-6.586664549830555382e-01
5.814960300692113115e+00
