-1.194015204416054354e+00
-1.562290286366190550e-01
1.994716863889018921e-01
-1.071336514611426649e+00
6.550485136000344655e-01
1.437986322427351249e+00
1.687946900304224895e+00
1.373811244146155408e+00
2.493963490024258545e-01
-7.806891070221838591e-01
6.266145623774161955e-01
7.052172952555305248e-03
5.179584116539281968e-01
1.086877249055980821e+00
4.897751617146655079e-01
7.809381991552631908e-01
-5.637813353749613343e-01
8.095112547546917670e-02
5.885307939913579922e-01
2.471804830945291409e-01
5.919760209732380929e-01
2.933313181194343588e-01
1.262789942236588248e+00
8.492418642222309133e-01
9.601969146986323311e-01
4.965866750904342486e-01
4.234212835301498501e-01
9.387258253817488685e-01
-2.119513563191054162e-01
7.804767400785367348e-01
1.652000076264448780e-01
-3.609890426645726569e-01
-6.686616547040885594e-01
5.959002796765974219e-01
-5.618713641893440247e-01
8.582145837537960009e-01
-6.445329929821697057e-01
-2.175377593021812217e+00
-4.993167099619836291e-01
5.386261799577786620e-03
4.226430012585947749e-01
-2.365759983619550866e-01
-3.201773706942810938e-01
-3.795944965597198850e-01
5.436347923144573269e-01
-1.357052777817893685e-02
1.375069554844784880e+00
2.658730651539811807e-01
6.621139287470860779e-01
1.613471703692980208e+00
2.874239284244400339e-01
1.238026120607003344e+00
1.188440882812249244e+00
8.157381042234134183e-01
6.046000257625313568e-01
-8.366926218459927673e-04
6.748881080457483916e-01
-9.384438611046589385e-01
4.050452047963813418e-01
-3.514386096248086483e-02
-5.165453606697008038e-01
1.282926837624369210e+00
-6.888794093505347105e-01
-6.807400783098378483e-01
-2.106016932276887771e-02
2.517396361312425612e-01
-8.868394432575783803e-02
-3.011284137203262823e-01
-4.697014311834907946e-02
2.906934367673731923e-01
3.514279318406883512e-02
-1.894589358766709530e+00
1.776283931322810705e+00
1.164389172868415256e+00
7.636308904247991469e-01
-4.329948228979509373e-01
4.036194391861772646e-01
9.165644897345421871e-01
6.825992144154638952e-01
1.444878756629325522e+00
8.640930626739284914e-01
-6.652449023155579955e-01
-3.892928857305515411e-01
-1.178111342618441304e+00
-8.396058974863848667e-02
-5.686379485012124091e-01
-2.231398794791251916e+00
-5.358884540238346705e-01
-3.996861182573970273e-01
-1.055361755786369482e+00
9.153127911153734197e-02
-9.827298524541706604e-01
3.707125987194130334e-01
2.062531232409482218e+00
1.629894511894291131e+00
-1.041745058456760686e+00
-8.737483361968906292e-01
2.036676208154190593e-01
2.672350973143858832e-01
9.368652312306275931e-01
-8.223713646541305211e-01
3.029196772592446241e-01
-9.027289759320086260e-01
3.236818936342573116e-01
2.561710945300026826e-02
3.149416213714060775e-01
-6.873064913198593251e-01
9.479330171275461847e-01
6.683144434999589434e-01
-1.811908522462217341e+00
7.367490013063470178e-01
-7.068918236696721813e-01
8.062563578337347270e-01
-1.244314994837777411e+00
-1.018542035437120852e+00
9.479078878586075785e-01
7.209737735618257926e-01
-1.021793307314524446e+00
5.917846428046523721e-01
7.139084160476131258e-01
6.543910673492979724e-01
-2.517410573948850594e-01
9.998825513052842506e-01
-1.203391980710676601e-01
-3.636786910800080541e-01
-1.551101396555913281e+00
-1.862674810017647342e+00
-1.469297605246704608e+00
4.837640644685083091e-02
3.249403680973624309e-01
6.042293312338692379e-01
1.350441867250070871e+00
1.657656064789154504e+00
-1.064780312988227173e+00
6.504902092103145295e-01
5.377118133716117521e-02
-3.515873071217104906e-01
5.434717574856545719e-01
-4.956316229710551191e-01
6.604363413179282771e-01
9.379005484334020926e-01
1.225578364642268436e+00
-9.708873588083620776e-01
3.490261904142158977e-01
6.711392642641025308e-01
-1.144200705339403212e+00
3.542010991279331278e-01
-4.929660934217538343e-02
-1.075641387113996039e+00
-1.396227312187481973e+00
3.002001477912810135e-01
7.109392831840896099e-01
-3.086795542291365102e-01
6.339386867355675803e-02
-1.380885235809721445e+00
-4.206678184196033787e-01
-1.618116829193777084e+00
-2.169673434947598234e-01
-2.220902317328558695e+00
-5.477637777292381216e-01
-2.718022225991681418e-01
-4.825380094946546405e-01
6.753192600366596521e-01
-1.062926554699513026e+00
-8.098942426295385744e-01
-3.350529367180436480e-01
6.234925443386972743e-01
-9.490461216201216688e-02
-1.806910800518289617e-01
7.274614952822955338e-01
1.569332810835871062e+00
7.419823596326162729e-01
-4.887254898083431831e-01
7.659780554348950832e-02
-3.853345183541734970e-02
-6.756510783465629055e-01
1.864884489712800297e+00
1.012968931372156822e+00
-1.352223713702250141e+00
5.507924292580081982e-01
-1.633980896592462928e+00
-6.204888517134760084e-01
3.869093767757425528e-01
-8.398424415486956951e-01
3.534898139303093156e-01
3.325289268624176398e-01
-1.959171050137129833e-01
5.266209097205747369e-01
-1.485267519533358005e+00
-5.407347404638999100e-01
-2.782921811050098615e-01
-1.886735088909572422e-01
-1.272425393126897619e+00
2.485539279814805158e-01
8.996577069457592502e-02
1.957643794076549537e-01
-5.745657693403364297e-01
3.659879126772018210e-01
-8.819882046711199353e-01
1.140654671128358499e+00
-1.875805673715709096e-02
4.662250803784241948e-01
7.990458826425689276e-01
3.981782801288988316e-01
-4.927445050553226347e-01
6.970026508989684011e-01
1.117790380230321984e-01
1.803818919800649345e+00
8.203672006001260231e-01
1.201592076076033466e+00
8.911116006413651869e-01
7.611507834206706624e-01
2.170176922634881933e+00
2.793347344810810373e-01
5.992041668153226253e-01
-4.371591929886614603e-01
1.795287586582009043e+00
-6.375703744322898103e-01
-6.042543713755164081e-01
-1.935122187573672381e+00
-4.070927549611920715e-01
1.184607360115063512e+00
-1.690222591280012621e+00
-2.976035560522751200e-01
9.746622101704826013e-01
-4.505934418508426020e-01
-3.722265773032872316e-01
4.537221692617037783e-01
-6.467344703810438133e-01
-6.923667603690303318e-01
-9.468114278915127358e-01
-1.359075804148443645e+00
3.381572822751476859e-01
-9.849634279556859773e-02
-7.846947551374853225e-01
6.126332732534904846e-01
3.879911818873946761e-01
-7.945319166326589855e-01
8.413493904525130018e-01
-2.597043319645505610e-01
2.458570274388912624e-01
-2.738674330841301408e-01
6.458879123088503427e-01
-5.723080395560494749e-01
4.321111522352387713e-01
1.507616739562538832e+00
-2.000758659245126747e+00
5.996897233080241696e-01
6.040123646735127139e-01
-1.131042461865695792e+00
4.811194621533587124e-01
1.609975957054866069e-01
2.935745727435577421e-02
-1.447385847553772920e-01
-9.465518494717148901e-01
-4.505552968505758815e-01
-1.132449070863326579e+00
3.176517848096467866e-01
1.784162442946308491e-01
-1.072206535635541025e+00
-5.133061832254597334e-01
-4.673296473439351728e-01
-5.974780537359209998e-01
1.155549862295661478e+00
4.334797580026684694e-01
7.801178512521493857e-01
1.050735700152213292e+00
2.018312508605136113e+00
3.067086089668825677e-01
9.270480079054811418e-01
9.869200451831833254e-01
1.031283297306990754e+00
-2.250745088354113299e-01
-8.217550223670583298e-01
-1.809936006767053351e-01
-1.098884183885763033e+00
-3.257471282720006758e-03
3.696174672269084693e-01
-1.208436346406526862e+00
3.532001319606375422e-01
-3.563473082953201761e-03
-1.610071006410116690e+00
8.588518205863150401e-01
-3.334773772272098952e-02
2.148251372379324231e-02
4.406767056677660666e-01
-2.288372304742818664e-01
-1.986843540937044128e-01
6.260762387922181871e-01
-1.382087931823999527e-01
-1.490739219265405202e+00
2.392248809745189497e+00
5.897237341453717002e-02
5.783224733270081463e-01
3.856893556793011824e-01
8.441788869058541867e-01
-5.687467133959874799e-01
1.038961454628361258e-01
-6.563805077480708849e-01
-1.040344312247935221e+00
-9.032324444300204869e-01
-1.326150013597159061e-01
-2.707802175563053804e-01
-1.321521763149489326e+00
-1.353691586778514200e+00
9.750798077006102016e-01
3.228668688459303548e-01
4.106545507810600015e-01
-3.467160530358766590e-01
6.755671500446204514e-02
-4.036577784693650139e-01
1.912032266669558833e-01
1.272008751307523555e+00
1.172973600505894609e+00
-8.878275755761293464e-01
-4.690391455698775941e-02
4.056458212251186357e-02
7.493336078224263064e-01
4.093619651974360063e-01
-1.573558825196169630e-01
3.141123207366174341e-01
-1.453917094518701658e+00
-1.440039170984269701e+00
1.086221845151152054e+00
2.014517052388818286e+00
9.284630577097748860e-01
1.315737852402940389e+00
3.412950167047761885e-01
-1.138299976106527389e-01
7.065460907153527925e-01
-6.398878637904684141e-02
-1.209311241041235663e+00
-3.228011867178159466e+00
-5.389904348533247624e-01
-1.013581138270300691e-01
-8.455771693014112467e-01
-1.117626456673718405e+00
9.388634863178809686e-01
-4.407342852258909205e-01
-1.266663367708360521e-01
-2.717285839116723722e-01
-1.254491992106890441e+00
-2.524112055365307361e-01
7.554839716735647359e-01
-8.056716594227562034e-01
-7.919575437591993561e-01
2.988931603443321539e+00
6.955081568970272743e-01
1.710738867952902864e-01
-5.886940869415576705e-01
1.100390265811061363e+00
3.974424526918833300e-01
2.246237200066390383e+00
2.850158216759959728e+00
1.400254545946194806e+00
1.258897900206190190e+00
4.848657736139260210e-01
-1.199860447552376419e+00
6.563761550623443686e-01
6.161684061117761457e-01
-5.864055152118129444e-01
-3.027822252314099627e-01
1.276043630006805651e+00
-4.999221247773120713e-01
8.344236086982543821e-01
9.772387191231950432e-01
4.029691392118211479e-01
5.114980624042468893e-01
1.591925601969527371e+00
1.227825795065774939e+00
1.707412025070883299e+00
8.058643441663111417e-01
1.728812861151113767e+00
2.147771878672448675e+00
1.425092344955307011e+00
-6.596639250626383788e-01
-2.348379772051398362e+00
-1.492004716171270395e+00
-4.588450261857131007e-01
-2.175433885866524808e-01
4.700789019955351096e-03
4.129599223664722096e+00
-3.618306797587400037e-01
1.501764329926131625e+00
1.020046229488143830e+00
-2.493179588528409985e-01
8.281400297470463412e-02
-1.560226433712905425e-01
1.262545165297991323e+00
-2.712680096030569143e-01
5.366156100922753192e-02
6.599332519330006197e-02
-4.002582167247270561e-02
-1.423384632865223542e+00
1.200248092656415411e+00
5.862778065553376772e-01
7.012904758491516066e-01
1.424433167994305194e+00
2.369763707987205592e+00
1.458910818298719159e+00
4.345786353210943642e-01
4.784434599692481416e-01
-1.526056215020828444e-01
2.987064557114747498e-01
-1.578666099074580886e+00
-7.450440614212884283e-01
-1.795126575112864442e+00
1.649054855595684321e+00
1.195357714853806153e+00
1.199775459414223588e+00
1.475861116370026815e+00
1.799820839184882004e+00
1.192002219596203449e+00
9.996035862512520076e-01
1.713965808988641149e+00
1.008560591163677023e+00
4.123852039923698864e-01
-7.907699541938020826e-02
1.408160353066747916e+00
-4.083186768747184003e-01
3.232459246987290369e-01
2.769173037186937192e-01
1.063189976755614330e+00
-1.341870742412334949e-01
7.819981904389738947e-01
6.631380518599652163e-01
1.029393878851931898e+00
1.050837082778529386e+00
1.999705989900502301e+00
4.888501190521674089e-01
6.508536992668438881e-01
-4.870945951784971251e-01
-1.354746461606347374e+00
-2.748716834790603247e+00
-1.644977307288575830e+00
4.201356782001811618e-01
1.969675222020448979e+00
1.579611873323610638e+00
3.350989841658694179e-01
4.840528382656544837e-01
-1.105078928759624934e-01
3.304663536728179807e+00
1.495537280254325196e+00
8.046019950363496598e-01
-7.145875315970569019e-01
5.163175819418373003e-01
1.031773033401752304e+00
1.145430221542331761e+00
-3.983625618646902677e-01
-6.681169053922016987e-01
4.364139347574331196e-01
4.414726924334767544e-01
-8.836181101934316162e-01
3.238211962812920230e-01
1.125949130461923048e-01
1.759094592890283915e+00
-1.642007919344886102e-01
-3.080783476877137494e-01
-4.165096657480262810e-01
-6.681542016257668859e-01
-1.843394729440221536e+00
-1.835971220542051086e+00
-6.863466148327157512e-01
4.711159518605480545e-01
-3.074103333876502808e-01
1.585464809206331482e+00
1.822965006627406404e-01
8.158922132251454629e-02
1.156643209630521918e+00
1.445785478198182483e+00
4.954204315524446955e-01
-3.647785926985222527e-01
-2.943146357332299123e-01
1.070413148821981242e+00
9.758249811360928394e-01
6.794561221210211333e-01
-4.936178564820942194e-01
-9.167186843508305649e-02
-1.457376069401821739e-01
-3.981111286001330907e-01
7.374695573691197881e-01
-2.364464312108677524e-01
8.069197050124243820e-02
-1.595884969101804274e-01
-1.668725173036742726e+00
1.056977416701829986e+00
-1.741904475621078863e+00
-1.534831154269409748e+00
-1.520215929591510307e+00
-2.308101857088030950e+00
-4.865449266103067383e-01
1.400102290943976868e+00
2.127724190831835394e+00
1.267309699762097785e-01
-7.247859622757523157e-01
1.358675231783028403e+00
1.103654098811956530e+00
5.156893284142987088e-01
-5.180039003937083608e-01
-8.518958928657998086e-01
1.764906699105466548e-01
-1.244734644554520431e-01
1.087266076959935990e-01
4.813348601468075277e-02
-4.517728136520082205e-01
-1.846789571953794340e+00
3.379204983825085939e-01
-1.056454604693680688e+00
6.048663919914943898e-01
-4.322584436921313444e-01
6.953608577738096264e-01
-1.192015349050798534e+00
9.582532417891213017e-01
-1.451951324512125385e+00
-1.979523930896936568e+00
-1.507518182297845621e+00
8.687037412094236744e-02
-1.348859009358207572e+00
1.332944107957449775e+00
-1.804908718960107628e-01
-9.125073612614280627e-01
1.354385824971659380e+00
-2.799572352947852227e-01
-9.227283453136926328e-01
1.416814408242724310e+00
9.356846745844360491e-03
-5.216474756298053461e-02
-7.893114778397424258e-01
-8.434540035671954650e-01
-5.360871778005555921e-01
-4.029461860739378398e-01
-2.295105893879641201e-01
3.498337261703849954e-01
8.532035193782587790e-01
-1.148980188901448235e-01
-1.112834121276708110e+00
-4.316949255605007085e-01
-4.184979433616746736e-01
-5.981257568417459591e-01
-1.352093995306141272e+00
-6.681496579446174477e-01
-2.499092886448665674e+00
4.279551870527649182e-01
-1.453185241523837323e+00
-2.963936196386374178e+00
-7.133399946617210441e-01
1.625606116237812704e-01
-1.923712154042806488e-01
9.750108353645328685e-02
-2.213659948221045948e+00
1.784812308985844198e-01
-3.286261498578233464e-01
-1.276945086382815120e+00
2.043850343025373495e-01
-8.602841413666516557e-01
-1.308104142101782275e+00
1.327773321657721994e-01
2.108180025489588827e-01
5.752544677719452215e-01
1.022096382255434976e+00
-4.584601073426156637e-01
2.398021179935918290e-01
-9.420113967878686045e-01
-4.255104998025149854e-01
4.381852195853646603e-01
-9.620266218945052739e-01
-1.355337781435303368e+00
-1.134430043862362902e+00
-2.311669241734620961e+00
-2.297270886108945032e+00
-1.586330051948059650e+00
-9.129386283420302117e-01
-1.944998378238934844e+00
-2.567681850103324948e+00
-4.112373397616682080e-01
-1.020388925152279525e+00
9.957376377855104987e-01
-1.343373822922393712e+00
-3.034811429978045427e-01
2.957232817948807560e-02
-4.227306437742405776e-01
-1.665079630520324594e+00
-4.949820805093598647e-02
-4.997058672673578839e-01
-1.104442915036674966e-01
8.835823254064418819e-01
4.597355769259682257e-01
1.421122794664996469e+00
-5.223415346607756388e-02
-9.735920905677072357e-01
6.971801139649925760e-01
-3.182742593821310528e-01
-3.389704734871800129e-01
-1.557369248416691665e+00
-1.361410623304930567e+00
-2.562959448981940169e-01
-1.762441608505803003e+00
2.470507510305843812e-01
-1.440571551781119286e+00
2.646032082638032357e-01
-1.651385810607851612e+00
-7.611289208010722784e-02
-1.921716368697571342e+00
-6.222835382941261928e-01
2.151069405820805747e-01
2.539832049481919318e-01
-8.286961610028802383e-01
-2.935912356334994811e-01
-3.037966661930865619e+00
-1.605723998394142038e+00
4.446545874613058724e-01
-1.060118260185161261e-02
7.373129519252019648e-02
1.631074572339036521e+00
7.956143333936877005e-01
-3.661959223542619046e-01
-1.237845434778530596e+00
-2.682598165669148327e-01
-4.181958163373426518e-01
1.167528290811112202e+00
1.036653010043981915e+00
-8.093350328484683054e-01
2.880859572721672368e-01
-1.117808987957806588e+00
-8.501119495620521604e-01
-1.237074172178648457e+00
-1.719169216424217606e+00
-8.939025796178754479e-01
-1.115724515275987372e+00
-1.322966687455157997e+00
-1.890536307957278339e+00
-2.104882570066391345e+00
-2.585415306256680368e-01
-1.401781108398850284e+00
-1.216953751050527055e+00
-2.255301022397493860e+00
-9.899135864761495762e-01
4.381140525668534430e-02
-8.618691646790457295e-01
-1.132089704008919284e+00
-9.562978609022139143e-01
3.342164205008522071e-01
6.991697726300512006e-01
-9.604915619138156835e-01
7.254350124174960834e-01
-1.022963567472606972e+00
1.759818397340994878e+00
-1.403572987517141213e+00
-5.121593245528158755e-01
-3.755096564521837599e-01
4.447075943059053960e-01
8.708858303440912829e-01
-8.479649269982254545e-01
-6.598033124253310788e-01
3.194330049580765968e-02
-1.732224518161830318e+00
-2.579213673423130793e+00
-3.198232610395383091e+00
-7.656777326519055293e-01
-1.207529025479167517e+00
-1.739927893479900067e+00
-1.300819889869472057e+00
-7.860933060553725316e-01
-2.011101557860213607e+00
-2.044028249032735722e+00
-4.027288261358907134e-02
-1.013275838133241624e+00
9.077771926842899131e-01
-9.771232402568476305e-02
-7.314409933406665898e-01
1.296923952214997122e+00
-1.585617117392384978e-01
2.665965904382996965e-01
-7.435530312889607751e-01
2.462690749731660800e-01
4.385884480381561090e-01
3.289141274314347219e-01
1.591048857278145157e+00
-5.146945611268753940e-01
4.842410185594990812e-01
9.387161442246211296e-01
-7.425134139385353160e-01
1.474163346579399958e+00
1.043568123041065165e+00
-7.533145099012914514e-01
-6.839656241079615784e-01
-7.346138721487347478e-01
-1.906874985048399473e+00
-6.833334080666152444e-01
3.324224591500662407e-01
9.605714891838527114e-01
-6.064494384663774440e-01
7.094758692260675348e-01
6.041459943270877098e-01
-2.600128534289690152e-01
-1.664959689908573237e+00
4.159066343586650394e-01
-1.213666423769185071e-01
5.165532688100095138e-01
1.094779754317445342e+00
2.126565498569453982e+00
1.243507545882545973e+00
-2.181779817716314462e-01
9.519742458146315256e-01
-1.437711095699310548e-01
1.919509907982962504e+00
1.514793775280231403e+00
7.737664578759366751e-01
-2.037901127490716613e-01
-4.422083376263949428e-01
7.559547786262033053e-01
5.489512094912385454e-02
1.856679368046289191e+00
-6.695082934615445014e-01
3.380560729608091952e-01
2.362127715627105051e-01
-5.703952537981574755e-01
2.947120586648157015e-01
-6.889488456921604165e-01
-5.948819502939169945e-01
1.399054138524536750e+00
4.364553608319624578e-01
1.511387447362224190e+00
2.154677246201383012e-01
-4.186700677055419373e-01
-2.574683178783805371e-01
2.718828598093523882e-02
-6.645286558496456275e-02
1.134252849674914243e+00
-8.711780250347681553e-01
8.506460074055630649e-01
3.119472998019745535e-02
1.362865146117430148e+00
-9.673584879195549213e-01
7.100680366513363317e-01
-9.949409312930714844e-01
8.029252514695839338e-01
-1.741005421777146178e-01
2.981435428870197746e-01
1.143552671547076960e+00
-1.330349331360850262e-01
2.381910249871158070e-01
-2.381620790121116715e-01
3.472906751385060886e-01
1.303736878010072764e-01
-5.485095787003438916e-01
2.544827798843692368e-01
3.483687358018868196e-01
1.612135321303497904e+00
6.533012241556093169e-01
-5.889378002787998279e-01
-1.323077489804229234e+00
-1.408414698345487326e-01
4.320850713255878772e-01
-8.092078877606760645e-02
1.963967310602380500e+00
4.101983995285637952e-01
5.801241661804230620e-01
2.502633304596029937e-02
-1.046558477762146305e-01
-6.662715851351146412e-01
2.667109851962188305e-01
-1.005556952045541519e-01
-4.765693274081126973e-01
2.485285312414829695e-01
1.415641621792736338e+00
-1.714068509821897957e+00
5.878306729254313412e-01
1.488749098675438143e-01
-1.090770006832542327e+00
-2.313074858286186253e-01
-1.884272949617631643e-01
-1.527613268201468033e+00
4.318433472289102681e-01
4.291570299839702063e-01
-1.842576744266280486e-01
2.434070271507645378e-01
1.284943729769812748e+00
-6.917841461477941545e-01
7.516554656688084757e-01
-7.201840330330948337e-02
4.083183770945170710e-01
4.815385749058382348e-01
1.707337914284229985e+00
6.344745942101534197e+00
