-2.964719495793395609e-02
3.215981141835108637e-02
-1.126227928477404987e-02
-1.702027743833809184e-02
5.507791429157671975e-02
5.250971424074370175e-02
4.252388144004503462e-02
4.629514859613242939e-02
-1.504091045306302048e-02
3.757893962959223122e-02
1.799308427698018131e-02
5.138430797646977369e-03
2.145309379510376702e-02
6.672420882670491993e-02
1.476513514234585297e-03
7.521400346878197307e-02
5.706988408005189174e-03
1.629533057536384014e-02
6.003602008379871346e-02
2.886336109915900450e-02
3.199467239466614876e-02
4.710701165618475829e-03
7.489037489458313934e-02
2.542169651468212041e-02
6.834749541976821441e-02
-3.972462398030149160e-03
4.052113421596506559e-02
4.306065592333916531e-02
2.610988099289851538e-02
3.357043012061668857e-02
1.869598564289522147e-02
3.014023129740416723e-02
1.315132257858796921e-02
9.242156342503176497e-03
2.091798902418343445e-02
4.748925653876197306e-02
2.757776309559075920e-02
-4.578495609141058215e-02
-1.623141332769836853e-02
2.888439067038808990e-03
2.434482669057493748e-02
-1.297763474815827843e-02
5.037440193577549623e-03
6.132297018862688416e-03
8.440795326601460355e-03
1.727493070312012373e-03
6.025395987671005454e-02
7.008976932101843027e-02
1.489911702423521098e-02
2.452947606499939620e-02
4.717657541348186517e-02
8.352379287322782286e-02
4.390543933477458749e-02
1.847744600505359103e-02
2.321684862715203690e-02
1.622356267967433804e-02
3.331363293760156857e-02
-5.925996294080624650e-03
1.255771892493264333e-02
1.874329204645273222e-02
1.547758411187514583e-03
3.302978449688493551e-02
3.384327905400597719e-02
1.856690820028742642e-03
2.242482128551600076e-02
3.209447692365305360e-02
2.160233116586586163e-02
-4.373511019244038719e-03
2.316287086075856372e-02
5.436045944047463579e-02
5.029766620499669626e-03
-3.346773764634036752e-02
4.827510050581009654e-02
5.168101026887312460e-02
2.343661899294767481e-02
1.135760323948362821e-02
2.349407212835337086e-02
7.514254326707536791e-02
4.839649960837223014e-02
3.931998588284445900e-02
6.046226729652504767e-02
2.009097250044724475e-02
1.870412978515694630e-02
-1.159648942340883379e-02
-8.917305000944696081e-03
2.046437932764878787e-02
-4.353502055200709348e-02
-9.291841267174791308e-03
8.595015694980877655e-03
-3.604493134145059924e-02
3.162364348451141699e-02
4.116845494816525480e-03
3.883665287304170766e-02
8.674341674904666177e-02
7.657104845818125949e-02
-2.529933978301780024e-04
-6.212606537572235715e-03
-1.000602542086372407e-02
4.592521616884463059e-02
1.302704978056250240e-02
-1.389289127919595031e-02
2.273780790795692369e-02
1.255400742044094665e-02
2.017288730658995874e-02
1.013045378484606247e-02
1.785358116048648552e-02
-2.522409414255762702e-03
2.217166268600305815e-02
4.142334983285368699e-02
2.665697153755161239e-02
5.382269239736234973e-02
5.480611964965908384e-02
4.766186114811381269e-02
-9.572934620962970237e-03
-2.567036999717936183e-02
3.109615681781811858e-02
5.148646432040931281e-02
-2.824747405062115468e-02
1.992896438700263520e-02
2.802459420117711653e-02
3.379272629797924060e-02
-4.119295577927960077e-03
4.795494434646727783e-02
2.552993258856535962e-04
-2.422766235355956754e-02
-9.144568328113217293e-02
-1.049730869147544599e-01
-9.612417734649530976e-02
-2.966985027808129172e-02
-5.341481118452184179e-02
-2.752011513296801978e-02
-1.819331587584937723e-02
3.928691358222179131e-02
-9.679291774233751353e-03
3.324032201414903187e-02
2.234911082891971948e-02
-9.903338857260753081e-03
2.245283058317144517e-02
-1.940018050809457287e-02
6.986777053073039978e-02
4.873002623631626090e-02
5.965913723982652073e-02
-8.780484746108903685e-03
2.412908260359512488e-02
3.002393760325448163e-02
-9.052562687415059012e-03
1.425199863085737512e-02
3.259804668244278749e-03
-4.626427097980685688e-02
-3.734364199838061116e-02
-1.086006912344096402e-02
-5.881282372730640973e-02
-7.454382985898069802e-02
-1.169630248418733198e-01
-2.119206001744405321e-01
-2.433004503572056554e-01
-2.265579694650816100e-01
-1.788837082238206311e-01
-1.984032966968025391e-01
-1.506258780154602350e-01
-9.769104534000451479e-02
-5.274503330764762632e-02
-3.011773865835636055e-02
-2.178959853964903756e-02
1.072794628978285779e-02
2.795278570126481441e-02
8.078051732313649980e-02
-4.165830736832423081e-02
2.671984740591517443e-02
-7.139306488497214678e-03
2.753121439311405350e-02
2.628096415930088886e-02
-8.794745220759415602e-03
9.309591112050672650e-04
1.809117365483948504e-03
-2.853177674870080449e-02
1.987615781644459095e-02
5.943754492587959706e-06
-9.278309734346565363e-02
-8.241082583513707760e-02
-1.402208914317036870e-01
-1.032946149144916559e-01
-6.870811045660397964e-02
-7.127994685309047007e-02
-2.834406116096790853e-03
-4.878498425124335597e-02
-5.096189221107925299e-02
-6.488751624183809741e-02
-1.495621365569951289e-01
-9.669043447164001048e-02
-6.836154770145856652e-02
-5.636497178002550928e-02
-6.996747447544876541e-02
5.026245882681133065e-02
3.375770368352318945e-02
2.386751084377993978e-02
-7.061387718028767435e-04
1.160432008852064524e-02
-2.881228855551308619e-03
4.110920755857844916e-02
2.282090315133148903e-02
5.200278494965514253e-02
2.674361531399570627e-02
-4.349266078597078394e-02
-8.257296297731719914e-02
-5.606918286823400072e-02
-6.164303830505175885e-02
-6.581699283317047657e-03
3.559966329622805264e-02
9.006025586324996335e-02
1.468482808316660670e-01
2.017826148379742723e-01
2.138824074675818310e-01
1.283724598182309495e-01
6.271481366757920839e-02
-2.876504128202248683e-02
-7.457822082786830231e-02
-1.446131880834991557e-01
-1.138480015480224927e-01
-1.752050201896476478e-01
-6.291973206704709609e-02
-1.091176066053007590e-03
-3.602475387831210324e-02
-1.358852364655422328e-02
4.466526300583821552e-02
-1.824479615302228644e-02
1.433003607471644222e-02
4.559146296801523668e-02
-1.808561775313736672e-02
-3.005203400791502111e-02
-4.855397407923382064e-02
-9.768326924278503132e-02
-3.019170294352007886e-02
-4.160308976320065133e-02
-5.511996519451841520e-02
4.289021688414777767e-02
5.629041008173850391e-02
8.973680504511749589e-02
1.305376413592954921e-01
1.591917536571474667e-01
1.079221357436145473e-01
7.548808169933927947e-02
3.319933854008075974e-02
-1.681159444753000179e-02
-1.847239824489945240e-02
-4.901591610977721475e-02
-1.760904559087129728e-01
-4.737894873714935950e-02
-4.117426146123145947e-02
-6.881263193322117999e-02
1.978688374317080431e-02
2.818377493880704424e-02
-1.597636171822463397e-02
3.034257187964336383e-02
-3.640408283951197116e-02
4.423014529041864422e-03
-3.486811264640709424e-02
-4.856937050880034967e-03
-3.189369909374375339e-02
-5.629758346960959253e-02
-5.429865103278693622e-02
-2.784189126264684233e-02
-3.450405276867086254e-03
6.413963170620344545e-02
1.060385308810129351e-01
7.934562999834009200e-02
9.845821854940069173e-02
1.420792818077901698e-01
8.633668452424922424e-02
8.880550317803036220e-02
6.867304151155051439e-02
-1.663972913100610421e-02
-2.325568212742886928e-02
-1.040393576301558570e-01
-1.263148473862702736e-01
-1.359958059618835424e-01
-7.640667069216521001e-02
-2.164431341834867004e-02
-4.985182752364580687e-03
6.251058152452296755e-03
-3.524013217376770202e-02
-3.413471450225078613e-02
4.104490121521087859e-02
1.041026213721977893e-02
-1.568220121104930281e-02
2.161694460376091878e-03
-1.781485893723100053e-02
-3.173863757531758100e-03
1.288984556870698822e-02
-3.279511907939965543e-03
3.295971149113804954e-02
1.844933095189337513e-01
7.564065102687647646e-02
2.141690796679545858e-02
1.153757370027706656e-03
4.264953973630835476e-02
5.513339997962138361e-02
1.148351198023720848e-01
5.832672378457562368e-02
-7.807392500551754797e-04
-1.535464969714963115e-02
-8.733213241078062461e-02
-6.767870873644615815e-02
-1.319022330827601952e-01
-1.018177812397755150e-01
-3.195543534732972479e-02
7.248024860405564984e-02
7.308408184834622179e-03
1.737740723605937440e-02
2.293902019607711035e-02
-2.521462955263138912e-03
3.337117551154126366e-02
4.759450564052323390e-02
4.359027942524021371e-02
-1.025115890800770181e-02
1.828252760274832675e-02
2.698909883441177188e-02
1.633813818834373502e-02
1.062963062963902666e-01
1.071410935475876486e-01
-3.826676007061050044e-02
-1.234244822291186150e-01
-7.274863066853763660e-02
8.886731506600771546e-02
1.687114650968773999e-01
1.817408480272180715e-01
1.472668681267820801e-01
7.614739589630685479e-02
2.896224222032346262e-03
1.566219529419104334e-02
-9.435447653695452908e-02
-7.787145593789186748e-02
-1.324031619448171604e-01
-7.169558405308358411e-03
3.472815282330732334e-03
1.992750786769700768e-03
5.232398909605126547e-03
5.487724370422580877e-02
-9.543893563679265932e-03
2.089127465083952945e-02
4.846850101193497101e-02
2.734918765634698420e-02
6.452962364287272157e-02
9.658999197169158835e-02
1.675754493883142501e-02
9.329771989774461594e-02
1.966129505008281930e-01
2.189333794995104721e-02
-1.472206133408651696e-01
-1.388204825786285845e-01
-6.117286868033460639e-03
6.866659735180395685e-02
2.281538287314467117e-01
2.996414815786898056e-01
1.734244330256591304e-01
1.217970250082825029e-01
6.395741940564159123e-02
-3.836590063484202756e-02
5.643908948839602806e-03
-1.317570813397247152e-02
-4.789145983153512282e-02
5.895422127578235291e-03
1.691864398381944315e-02
2.111632540071740546e-02
1.991366502299266733e-02
5.160615098410092916e-02
3.807769358758859163e-02
4.429435192013004424e-02
9.504626726029197226e-02
1.041581066817839213e-01
1.305156340146279847e-01
1.770188608599377600e-01
2.078379977211571861e-01
2.004656964593863056e-01
1.386529746882899927e-01
-3.565976350986686111e-02
-1.883456417323277898e-01
-1.693881464053848263e-01
-4.073076007853793784e-02
3.786828276568373480e-02
2.099893708130090575e-01
3.444459220227468754e-01
2.200649144824552150e-01
1.712897690238708859e-01
1.298596013288559892e-01
3.841059653298579957e-02
2.637098266637923072e-02
6.640325427070248830e-03
6.295903122456868173e-02
-3.617216054273708625e-02
2.879906550759899625e-02
2.987644025600155046e-02
3.496129368139578447e-02
-3.335996486104310377e-02
2.149154578122374620e-02
3.337312799672691871e-02
6.746785097254605346e-02
1.273249257350227981e-01
2.045529461739092891e-01
1.957893959067178169e-01
1.818130511430381679e-01
1.836998324622202416e-01
9.306249377629968733e-02
-4.906026746748110706e-02
-1.792335061066031021e-01
-1.881409154636099756e-01
-1.329087974336300992e-01
4.581248684973877883e-02
2.361775538304506927e-01
3.344887565185683531e-01
2.289102845670754616e-01
2.106144548267624428e-01
9.891956919473689214e-02
9.128926775734480525e-02
9.665674707213540995e-02
9.844165731154933680e-03
4.559270555680686871e-02
1.897821797354556569e-02
1.649377805116243254e-03
3.831682644609733313e-04
3.245500181879337059e-02
-2.158057159504853453e-02
4.981211999723316602e-02
2.657293481833170393e-02
5.637720758902472346e-02
1.136659179796410957e-01
1.764094793361027091e-01
1.805471369201374909e-01
1.911644001231248002e-01
1.735404092165375445e-01
9.846936761581687181e-02
-7.905835577095136901e-02
-2.621737966364691697e-01
-3.207149041931329214e-01
-2.046752337348951012e-01
6.491143810568826555e-02
2.568996732190862442e-01
3.115803915648415190e-01
2.414095971221658643e-01
1.432541467557154891e-01
1.338569655664351710e-01
1.567598962126022510e-01
9.318295493770802074e-02
1.788311237036488768e-02
9.563981126177489075e-04
6.304103317982782950e-02
5.695344804502215641e-02
5.728888593250999750e-02
1.021108722054168971e-02
-3.250233542948642584e-02
7.977889943139523671e-04
5.502049331986324371e-02
-9.564746065935034181e-03
9.289364425189385044e-02
1.025300321538910875e-01
1.624488183554078646e-01
9.298756097850899294e-02
3.433738317562434750e-02
-4.123578838310097000e-02
-1.057002452836100365e-01
-2.331577654718813286e-01
-3.051847113920224119e-01
-1.666318709116113850e-01
1.194896691326065574e-01
2.248140559177672637e-01
2.028288030764394956e-01
1.298037257646994513e-01
1.137459355548382511e-01
1.215628700915209748e-01
4.260600645366185296e-02
2.937450306283390447e-02
8.471886956880248301e-03
1.517259084267638496e-02
4.672190620774559905e-02
1.511206244243632445e-02
5.386402659310752378e-02
9.374507517628987222e-03
4.180710096404676801e-04
4.847474103772960764e-03
2.779534657806419316e-03
1.657209055991021307e-02
2.646618342041562669e-02
5.810261436830903292e-02
2.218130069050010603e-02
-3.520395271654059438e-02
-7.630533671466100711e-03
-1.497404780189810769e-01
-2.119939022605390466e-01
-2.680816265240486551e-01
-2.452621796224349615e-01
-4.503936608006545161e-02
1.848383880584536232e-01
1.752727783507529447e-01
1.036817571182109404e-01
5.910846371093098767e-02
7.959087389511851351e-02
5.692637474374563633e-02
7.663387738009657529e-03
5.407001029095062986e-04
-1.985163361523285125e-02
-2.894656305366533414e-02
2.095534111466431856e-02
2.097205202632737922e-02
3.293559372125235557e-02
-5.361720318897773147e-03
-4.889461657879646400e-02
3.478647560592360022e-02
6.969564670337040357e-03
7.426132899448691094e-02
9.948528839136534449e-03
-9.886855179355771503e-03
-7.701870143453930229e-02
-4.783567834997941998e-02
-1.651442791934838172e-01
-2.716947677837310837e-01
-2.803096486080404182e-01
-2.242506987998042489e-01
-1.491150287236581995e-01
1.109344836983632010e-01
1.018914549585987622e-01
6.227938349899563714e-02
6.570242361601671965e-02
-1.804291183276387350e-02
-1.588762197292357264e-02
2.164751394659032366e-02
-2.915036318040077970e-02
-2.882493947691972327e-02
-2.362111142064261815e-02
-1.156552460338205676e-02
2.691710738800525207e-02
2.981297774190072125e-04
3.321201601931558778e-02
4.238200659003554804e-02
2.838215636056824059e-02
3.061512319299303231e-02
-1.279429869358945406e-02
9.927915328777950008e-03
2.998002964272442755e-03
-8.805859166774884783e-02
-1.457806299845998133e-01
-1.914543371299114172e-01
-2.887749466570824208e-01
-1.921570819185933754e-01
-2.471658535157875702e-01
-2.530938959816899092e-01
-6.470969647836699590e-02
9.127641495771703084e-02
4.726322070967407113e-02
1.534277695718378950e-02
-8.094599067577731843e-02
-2.659033114039164453e-02
-3.381637300026156534e-02
-3.424444439575888982e-02
-5.245183278553493950e-02
-5.795636045659913194e-02
-3.609241841392859477e-03
1.234607429972943253e-02
3.207700877378678178e-02
3.948693633636986972e-02
9.143593294721013426e-03
-5.371506724230729925e-03
2.705245125180189350e-02
-8.376513988598597443e-03
2.409174924237381110e-02
1.101961366054434420e-02
-4.675600365025223831e-02
-1.063467046513039832e-01
-1.806476524472517831e-01
-2.850043445460939684e-01
-3.130776845824359556e-01
-2.336347052602869845e-01
-2.211834688643114777e-01
-1.474481281103357244e-01
-8.399547225102982351e-02
-3.263702215558502567e-02
-4.795190245790968003e-02
-1.508705253931300408e-02
-6.720199608800395130e-02
-9.194103350165677702e-02
-9.417933171000816839e-02
-5.456040017831049332e-02
-1.247590003474778608e-01
-4.384570353268996828e-02
1.713213706359181451e-02
4.881491929360594340e-02
1.742859521810734280e-02
-3.117055922045127835e-03
3.409403872581255601e-02
-1.971286293447819041e-02
9.899371784216808370e-03
-4.125987557452050029e-03
3.671424904155360519e-02
3.588762110841452191e-02
-8.396323485764967121e-02
-1.240341874501031255e-01
-1.410600901544509789e-01
-2.257886691886034636e-01
-1.923277351937424107e-01
-2.035710160271947955e-01
-1.575020816542463120e-01
-1.970036664232203416e-01
-1.276873292148772432e-01
-1.550644810929770745e-01
-1.224338201917753027e-01
-8.832945962384698702e-02
-9.896876181172727105e-02
-1.167063799461999507e-01
-1.197405357839961410e-01
-1.636135870448937324e-01
-1.226793811407150547e-01
-7.460012235711060286e-03
1.642265504582842914e-02
4.793210902871748724e-02
9.230198425767008330e-02
-1.856556619994828355e-03
4.444998253610033499e-03
2.204284900483321000e-02
7.840845160968756486e-03
1.511231008183910526e-02
6.280646728417964286e-02
2.813306417162668091e-02
-4.707398133271442631e-02
-7.863753527784849914e-03
-1.350815435692539479e-01
-1.230479333076744536e-01
-1.580229138703349301e-01
-1.785132009431609768e-01
-1.727937041884752833e-01
-2.550878372551160789e-01
-2.326184177844357326e-01
-2.674186567309385087e-01
-2.392034388117543209e-01
-1.666000945112792175e-01
-1.797521400650872736e-01
-1.622748116950644137e-01
-2.075173853377269839e-01
-9.306863079612065492e-02
-1.882838157903549831e-02
-3.008536816025790886e-02
-2.125740182850141199e-02
3.543575371113451972e-02
8.252622872782220884e-03
5.022307542081837911e-02
-4.212800738141607784e-03
5.312787831035752084e-02
-3.155898288346947050e-02
6.313921808353750720e-02
-6.377955534831543372e-02
2.690885408763201217e-02
1.394524988408519899e-02
2.834942543003726029e-02
4.776811413550016878e-03
-3.314960938149646985e-02
-2.735323344132554318e-02
-9.450845294626000759e-02
-1.976849358838622950e-01
-2.446668299178827166e-01
-3.076503838263829893e-01
-2.575359023236552525e-01
-2.235365972203399998e-01
-2.304774359467577638e-01
-1.606585462344246318e-01
-1.179986882167609330e-01
-9.694224108055198019e-02
-4.545373040453572905e-02
1.609928642663120690e-02
1.470941578690751483e-02
9.106992100897555453e-02
8.292227247111460739e-03
-8.329929905483781510e-03
3.355421155292847429e-02
3.752384365083148710e-02
2.193474526985619844e-02
2.199713328338513338e-02
2.972878009976495997e-02
2.179264876308250123e-02
6.116295543708877291e-02
9.212712420794705315e-02
2.720947225589398846e-02
4.254515281447816821e-02
9.970329358148820320e-02
1.051118692307413810e-01
8.879909090665537297e-02
4.243464883688550897e-03
-7.893446164784713448e-02
-8.841527906054069685e-02
-1.365390091438601627e-01
-1.409069712290085818e-01
-7.476004195574127709e-02
1.393826628273504495e-02
5.885843689513634708e-02
3.210135322340856856e-02
3.825171484876403738e-02
5.944615566069763601e-02
1.518760904116572483e-02
-2.199554716434705057e-02
2.657070655781064092e-02
-1.753641675028279681e-02
-9.375466894984323465e-03
5.379033849837061565e-02
3.750956798080398030e-02
5.924484058681401405e-02
3.605532984751975544e-03
4.961793503581191783e-02
2.831411237799134201e-02
5.695958531017877857e-02
8.241670502548628652e-02
8.727354807765087819e-02
9.285562169424112222e-02
1.157073259213446947e-01
1.501227352197625764e-01
1.473439886396182563e-01
1.719097101023288610e-01
9.153949268436195608e-02
1.133285340512482087e-01
8.818302542178423076e-02
1.040739899188038026e-01
8.996069232738611310e-02
1.106240611476379671e-01
3.231683931136653670e-02
8.891777063499346767e-02
3.561996234135843958e-02
5.352800049118554976e-02
3.349419958564123223e-02
-6.539647302541868289e-03
9.851356411013128395e-03
3.269369842165942286e-02
3.035391245452452591e-02
1.411516272150427354e-02
-4.280365123895826795e-02
1.915524452547166107e-02
5.238081177547771958e-03
9.771945989775022989e-02
-8.877820599755838985e-04
2.971507971661322203e-02
3.032265845108415847e-02
2.514082717399070827e-02
2.034816935743028257e-02
3.295024675495998590e-02
4.690366084211457232e-02
4.894174087141506084e-03
3.549239855107919062e-02
1.480114542731710697e-02
5.597364760621525298e-02
2.186400152470380220e-02
3.904593400280798737e-02
2.491898711480347930e-02
7.540455719623176400e-02
4.693040031785732091e-02
4.772254184543129468e-02
3.920240937351164752e-03
4.040890673234517720e-04
1.139315245286783842e-03
4.518338645362093842e-02
3.252318641033127757e-03
2.560850948421493356e-02
4.664335782587591961e-02
6.220302810239832642e-02
2.041678057928723346e-03
-5.759390415705626688e-03
-2.839999736021044108e-02
5.018270921119474814e-02
3.711662077065323428e-03
-5.968106100889787775e-03
2.634693427022652065e-02
4.324400794980055168e-02
-4.526580344922729454e-02
2.004168822559274782e-02
4.091461893438298053e-02
3.184837571136441350e-03
2.555181571172429264e-02
3.898913322046199115e-02
4.081868657736977511e-03
1.629829064294969002e-02
1.800162959507603522e-02
5.848830526958796738e-02
2.821323761105575326e-02
4.920962744198255356e-02
6.313371233755282405e-03
1.695744545578752732e-02
1.005902072987977652e-02
-7.427438069154836120e-03
1.664437451203421361e-02
6.311635896959280623e-02
2.846656206354473695e-01
