-1.469986755762288766e+00
-3.582758962577418105e-01
1.335597853434745463e+00
-1.468840512678036836e+00
3.631815098059369973e-01
1.012598563448143363e+00
9.190125005844533845e-01
1.164794284993622142e+00
-2.033015237749607795e+00
-3.517164216876515481e-01
-3.727752962568445794e-01
-5.791607894791841460e-01
7.176249632909276199e-01
-1.790050274306741462e-01
9.970775958183772936e-01
4.695423586612489375e-01
-3.665589763411996049e-01
-7.988874171275439640e-01
1.689094835469879374e+00
2.502680160166615320e+00
-1.659698207807486892e+00
8.458727941226316105e-01
7.552822569531967289e-01
9.186786733593447218e-01
-1.605318206121321145e-01
9.313541862957873674e-01
2.420406641806916337e+00
6.794841147852077601e-01
-4.874843562732646407e-01
2.516590949449495351e-01
-1.869250287527822185e-01
-9.710109002101150466e-01
5.014531081176102356e-01
-7.299993146602314908e-01
8.658690172773607641e-01
1.040838307387485395e+00
4.862493195727739526e-01
-8.402003791760793983e-03
2.855640765725733776e-01
6.501538652183629086e-02
-1.151367413132459716e-01
5.173692167655812302e-01
9.090887385787870256e-01
-8.072056350371471511e-01
-1.860856832790744597e-01
-1.060289422875693721e-01
9.079409093121459939e-01
-8.751077982966676272e-01
2.045208695377763064e+00
-3.783085704648951886e-01
5.980777573862772201e-01
3.343086845019682674e-01
1.309012906700098622e+00
4.187112658655585129e-01
-4.035502357618624414e-01
-5.389689065943137347e-01
4.392615493892368383e-01
-8.076648871515039740e-01
5.928878472730956251e-01
-3.566129034276621090e-01
1.326345217749216321e+00
1.752807783198190084e+00
-9.744567667082590368e-02
-9.273677759648376595e-01
-2.226391056160446358e-01
9.228607291486087272e-01
-8.490886950858956839e-01
-9.692386623216106001e-01
-3.318231601325231095e-01
1.539384576184650300e+00
3.289242745116319200e-01
-1.421752413643190494e+00
8.321337929105847575e-01
-1.342452417830662381e-01
2.259225711488185073e+00
-1.522011192221634501e-01
1.197842788183718366e+00
2.416999424150359843e+00
-9.431441158999645524e-02
2.472144802091482685e+00
1.612126336134287241e+00
-2.369176115912368930e-01
1.834086152184399854e+00
-7.294943492835578303e-01
5.117043054034586813e-01
-2.559190985899447712e-01
-1.106310353634225141e+00
1.499938381531426890e+00
1.654306626960993371e-02
2.083595462065911119e-01
-6.996115953930991116e-02
-1.444115091953759311e+00
-2.091947344395530817e-01
2.675862235559291147e+00
6.215629577096362102e-01
1.127073439690381873e+00
5.112031392500339111e-01
-8.049022278833629640e-01
2.313436215433942067e+00
4.666686642767479687e-01
5.340899353539801248e-02
-1.565295270401651617e+00
-1.330915488467243613e+00
-2.876557249750483214e-01
1.081460188757371821e+00
-2.944316163785461460e-01
-1.283046613293439830e-01
1.943863604944134016e+00
4.357436761729356345e-01
3.123018257061851988e-01
1.587294399486278706e+00
1.843087541458841017e-01
6.976497488960535787e-01
1.348132565845601150e+00
-2.951802231305003854e+00
2.193743513328459738e+00
8.312334839432975464e-01
-4.145027362047717379e-01
-4.183876494621973502e-02
3.793641413958666053e-01
1.993792718151947252e+00
-5.840901954733889179e-01
8.226041356218862788e-01
-1.115074040249730836e-01
2.788959621768399844e-01
-4.648092601940481128e-01
-9.612806830164690730e-01
2.094295775766930601e-01
-1.393710648032873811e+00
-1.935292695701030130e+00
-6.038776118213173838e-01
9.863129051747073772e-01
2.599416529860845149e+00
-1.052120527402276906e+00
-8.417518479479661753e-02
-1.900174688755211783e-01
-2.665612958004111022e-01
-1.929576662282876942e+00
6.965494278968292763e-01
2.043208948195275987e+00
4.977749242098950533e-01
-9.767353921175955245e-01
4.392660644313774454e-01
-2.238322758304835958e-01
-8.205445380107626585e-01
-2.208541387491329555e+00
-7.530900333005485781e-02
1.334039341544682289e+00
1.007753183096685712e+00
-2.187714577287482420e+00
-3.225568886147752168e-01
7.001958114816225764e-01
3.031225077453752418e-03
6.754460368608513621e-01
-1.639272941922821136e+00
-1.189287787034834509e-01
-2.737591067528981625e+00
-6.797821287155875192e-01
-7.330698002377850075e-01
-1.528695725869746003e+00
-1.907042967983821669e+00
1.305302132971422058e+00
9.735133539976537076e-01
1.922166130777350990e+00
-1.360636418606094411e+00
-5.878829078648442064e-01
1.138447813772155870e+00
2.650966097694554269e-01
-2.137449941542602094e-01
4.096757648526828666e-01
2.069967831620757315e-01
-2.748878807931467994e-01
5.286453806118647514e-02
7.107037062255832094e-01
-6.457252854753543492e-01
-1.539200271732589886e+00
4.310920439112760350e-01
-2.611804777930073346e-02
5.448587931166850584e-01
1.006325983433233873e+00
-1.056932326710082082e+00
-6.874990836964747221e-01
-5.760408538867484163e-01
8.966261419149761450e-03
-2.147759371155410490e-01
6.389048032840685121e-01
-7.691538575252051535e-01
1.267564866721522687e+00
-2.279387793313017330e+00
-4.680034879711243434e-01
-1.791789123396688721e+00
-1.216643654321792445e+00
-4.807063892810798517e-02
5.288445457234708380e-01
-7.037480242439919653e-01
-1.963344425308689023e-01
9.407985205019407937e-01
3.819025948416455707e-01
7.307949474236847820e-01
9.912199481938450685e-01
-8.311979238005573478e-01
5.960128050645236986e-01
3.250422760647452280e-01
-1.107114248189334349e+00
-2.336014771936634760e-01
9.723153963953519163e-01
-4.093686762804357171e-01
8.852280876531725129e-01
3.513262356821226784e-01
2.446694893513443159e+00
2.645494591896293990e+00
1.325197103594305759e+00
2.330644646344211868e+00
1.892577855246841079e+00
2.000054055305532374e-01
-2.712971852083185254e-01
4.153644818263403649e-02
2.433024344332869460e-01
-8.327809597229850480e-01
-2.362788675968757524e+00
7.145618519147203807e-02
7.929820956059348003e-01
2.550017539659679144e-01
-7.485760895185203032e-03
-6.217042913866235310e-01
-2.690062056110035460e+00
-6.607379504947212823e-01
7.061483339783438673e-01
1.421341926585615312e-01
-7.675957108822845099e-01
-4.245560097792284715e-01
-7.494336642764140022e-01
8.627031467092187711e-01
-9.528280187514563959e-01
-1.723825898941954815e+00
1.365921526585965218e+00
-9.515223010677702487e-01
-1.113383635881995071e+00
-2.357488139888251899e-01
-4.828212403075679560e-02
-9.046783966780934036e-03
-1.041964048854445490e+00
1.011970760968813554e+00
1.355031031466160441e+00
1.886774379783011213e+00
5.276565020076100510e-01
-4.339443649758592536e-01
-7.606770026559221964e-01
-3.311251575161546779e-01
-2.217977617040410188e+00
9.796072114324307911e-01
-1.010154433669904428e+00
1.267915285890701460e+00
-2.336057051424479614e+00
1.625678370828885777e-01
-6.185316138933931729e-01
-1.948481366688260552e-01
4.404493965913724302e-02
-7.731657165147741706e-01
-9.975965997586824230e-01
3.797212030159973217e-01
-1.369350751110805842e+00
1.055160175715083470e+00
-1.316940462809310791e-02
-2.349897860797127772e-02
8.141253078328655191e-01
1.788648060322096445e+00
9.586948845136987751e-01
1.291599649648906167e+00
3.120253123397018769e+00
9.228848423922537680e-01
-1.799956836230851120e+00
-9.985064976400551129e-02
-1.175787880313239553e+00
-2.277968609289380275e+00
-1.608930080117970451e+00
-8.414889086873887925e-01
-1.745272720761731566e+00
-1.353321384162174956e+00
3.473044357768451801e-02
-5.955152867617209411e-01
-2.654623437452503065e+00
2.694127998467690799e-01
1.414211505732189122e+00
-8.212537982029324279e-01
3.938661139803795175e-02
1.588866895309902327e+00
-1.308358489677765135e+00
-1.002439881081574002e+00
-6.092466546522780080e-01
-7.649695242042155174e-02
4.496749325144059894e-01
9.057290561647202143e-01
-4.414557365395949673e-01
2.891117561900354849e-01
7.829287163550473216e-02
7.022527340845814425e-01
1.086069916974047977e+00
-1.451718952862612433e+00
-2.583853166027063608e-01
-4.159918953288603560e-02
-2.748970928117490109e-01
-2.686092551801617101e-01
-1.216376800911514344e+00
1.228750529910034972e+00
-2.855762111411178084e-01
2.138027870993175039e+00
-7.323072468880740260e-01
-2.556585502880872607e-01
1.122380239176628436e+00
-6.458864926724567912e-01
3.600507592959120151e-01
3.301040606495694862e-01
1.088174626279988955e+00
-1.595398053885150436e+00
-4.513296654172359035e-01
1.237972554651866952e+00
1.237672992453443532e+00
9.242527712246869642e-01
1.857867536593456270e+00
6.734748032148298036e-02
7.750493488696045263e-01
-1.400898570398569465e+00
-1.878278723831271202e-01
2.949353375453257264e+00
7.899949007532302003e-01
3.006522605598393572e+00
-3.633924058309776495e-01
1.704672276825872412e+00
1.080368956778269274e-01
8.692981733642863862e-01
-1.745451508181238509e+00
-8.220521223350204520e-01
-1.699211644995409637e-02
2.592032192035154670e-01
-1.583472716631977084e+00
-9.359075998316466194e-01
-2.111073317776857305e-01
5.822878865321285957e-01
-1.288122620537079654e-01
5.160837437192002941e-01
-1.596974083506947362e-01
-2.827796587920504770e-02
1.992555988783580867e+00
9.170563490487528002e-02
-4.220194977033418504e-01
2.825606560889611263e+00
1.216936510069563271e+00
3.131691850458048210e-01
-1.739688347490840004e+00
8.866427116199433467e-01
1.291794041366002954e+00
2.216497971682320767e+00
8.815727852930601571e-01
6.307415179142421557e-01
7.615292639437619693e-01
8.344111868878149041e-01
-1.980462780407799661e+00
7.273346745709843297e-01
5.809111050220834294e-01
5.962992630963438456e-01
-2.473934247100620099e-01
4.003673614260121472e-01
-8.773825535272355980e-01
9.256910825043825897e-01
1.389112863690141753e+00
-1.903714555811236719e+00
-1.501577237159796407e+00
9.558161611424361714e-01
9.855418548903421838e-01
1.790396486584164615e+00
1.109241858887565657e+00
7.920393298329481135e-01
2.668262123002575592e+00
5.901527593967631491e-01
1.757791285227189998e-02
-3.950840376675322840e+00
-3.097955978306938363e+00
-8.123175911984190645e-01
-4.991032927079039339e-01
2.537653139278808201e+00
3.317329391668364380e+00
7.084672404245254684e-01
3.365778854869468928e-01
1.446652137840320984e+00
-2.955009559118578211e-01
5.924644590129688471e-01
-6.470795175864368920e-01
-2.569343567133963724e-01
-6.987565876760716277e-01
3.922744629175127229e-01
1.155601902482372267e+00
-8.301135084587301094e-01
5.416437893882571908e-01
2.303323809507723308e+00
1.132995303843709944e+00
7.395750332873628485e-01
1.165409575822836663e+00
1.989122567612138681e+00
8.261986929956396386e-01
1.991093490012327161e+00
1.492501645067300542e+00
-4.268140788613238035e-02
-1.468404285517163003e-04
-4.020852190186125635e-02
-5.869196971506268623e-01
-2.335215900886976836e+00
-3.254370683406431208e-01
1.587306840872796831e+00
9.726232657875639731e-01
2.264836943042806805e+00
1.948762053755366042e+00
6.782285019600652332e-01
2.735252100488261728e+00
1.845939538265290336e+00
9.707991828027645598e-01
3.143003472047423696e-01
-1.005233827794358659e+00
1.592568222436686831e+00
-1.631862812434867305e+00
-1.306499182645790881e-02
1.139328127045862449e-01
1.063843216704486450e+00
-3.574552403230782383e-01
1.452019655018097932e+00
1.303275932329386100e+00
2.003546920629124983e+00
5.274176813451769696e-01
1.040650996029832465e+00
7.153926267580211773e-01
1.171707364877509483e-01
-1.839145683546355992e+00
-6.816269312376229683e-01
-2.240395797341058426e+00
-1.830333828434900667e+00
1.501132154306301869e+00
2.302732733037995860e+00
3.232787025720970764e+00
1.131987387069925965e+00
9.164645683929364406e-01
9.029188695895138395e-01
5.782786821700957036e-01
1.631541083200835018e+00
-2.882510310945405330e-01
-1.476293483231457149e+00
1.902618315341272792e+00
-5.797252592880742794e-01
2.472420538512149157e+00
-5.162821338267167270e-01
-7.366165443556752512e-01
6.689594029653365137e-01
-2.080458320402040595e+00
2.201074470404080219e-01
9.878804314682231302e-01
-3.492054889972943110e-01
1.767761892242040167e+00
8.443529375864862185e-01
1.084471626194639882e+00
-1.782485378947171462e-01
8.999000236248369533e-02
-2.519563766683567518e+00
-3.717320494343312909e+00
-1.143827265719292496e+00
1.192176266204824087e+00
6.012953907585211893e-02
2.074692086015549108e+00
-1.006680938384851620e+00
1.010136657926127141e-01
1.481527868856853614e+00
1.567007835879023814e+00
3.158691270021169450e-01
6.486158681757648869e-01
-2.792200015726495899e-01
1.356603194450779482e+00
-8.606427734690069720e-01
-5.226105583883380312e-01
-2.228684901285424291e-01
1.304183186305415132e-01
9.254783876390761110e-02
-6.139608012215125310e-01
-1.105867577079679281e-01
3.047265989201261682e+00
2.356896810629608707e-01
-1.504076356615100529e+00
-1.274631461222928364e+00
7.197970529121516803e-01
-1.801822275618073954e+00
-1.465379273394496362e+00
-1.894857092983558866e+00
-3.692639892064272455e+00
-1.481354530259094027e+00
1.017080656862870969e+00
7.346503063346144780e-01
4.129129434466070614e-01
3.358649966708972534e-01
2.902841596610225006e-01
1.552777711630905610e+00
1.479594507527371705e-01
-7.487617809310239680e-01
-1.035513011355523316e+00
-1.034549300414800088e+00
-1.368025722351350115e+00
-1.603332304412633080e+00
1.425279140583291804e-01
4.295612945611866351e-01
-8.395901844056148366e-01
6.040552396627891785e-01
-4.827401108339274827e-01
2.377793010489634429e-01
-8.448806692981418731e-01
2.746566377443907317e-02
-1.521486377512135890e+00
-5.638554030730531519e-01
-1.704434311459234852e+00
-1.418935413583653382e+00
-2.383181840696522613e+00
7.875058398060200693e-01
-1.149268739708741327e+00
1.005869827539889183e+00
8.849990627701563861e-01
-3.196161870278222961e-01
7.402862805934123935e-01
-3.547269680580677487e-01
-1.365265846564421848e+00
8.811126149450715372e-01
-1.197437390535087021e+00
-5.826633634472374590e-01
1.996774068829661464e-01
1.490898245653319965e+00
4.185975987045022495e-01
-3.027503521447499346e-01
-4.473967421069156014e-01
1.222292593223254231e+00
-1.549939744898657379e-01
1.327492673339248253e+00
5.658840437058333395e-01
5.843221519130409325e-01
1.101585716302192708e+00
-1.574264391715494371e+00
-2.220576506640126180e+00
-3.236448140209805535e-01
-2.224340144979191525e+00
-5.299087658617538388e-01
-2.320696303299488505e+00
-2.562138386738915585e+00
-1.000266716376196019e+00
-1.811909478822636699e-01
-2.470761842658297791e+00
-1.345054611406970579e+00
-2.370284107458154654e+00
-1.328861318090858390e+00
6.479388608845214614e-01
1.701559142483768938e-01
-9.281222061810036061e-01
-1.355954864551477623e+00
-1.356042466890467146e+00
7.414494870910878221e-01
-2.046569781614544781e-01
7.388684957540574416e-01
-7.670548561353595085e-01
-6.283137726479505192e-01
8.211958405515275006e-01
-5.046119020731063554e-01
8.524241969921261264e-01
1.748089514894187735e-01
-4.946314817854270407e-01
-1.074317164242869271e+00
-1.977642801101281433e+00
-2.867183760424116823e+00
-1.712740482928776675e+00
-2.577419491427427101e+00
-1.818315109441455579e+00
-2.460272073167530937e+00
-1.030592401231936295e+00
7.843441419912129398e-01
1.736729961361663799e+00
1.995685640491333457e+00
-5.866028464824408761e-01
-7.581918854039321198e-01
-7.659206864215387656e-01
4.352037837856437275e-02
-1.033757188375843628e+00
-1.378575894390149825e+00
7.541851054017208178e-02
-6.299855604511580554e-01
1.996440140385275397e+00
1.492290060877163871e+00
-4.258536785554928872e-01
-1.774072052324543902e+00
-3.820266242495384823e-01
-5.077085077474985386e-01
-9.801927538299254339e-02
-8.485734635842931972e-01
-2.234996432198752103e+00
7.584933249481100592e-01
-2.174955875653364679e+00
-2.104677513387869681e+00
-2.579856045330839009e+00
-2.000373389427407389e+00
4.454724733202615472e-02
-3.162956248886500177e+00
-1.410310362945982554e+00
-1.952193896572347986e+00
-2.397156382935450303e+00
-8.905620686234060335e-01
-8.504026662791211999e-01
-3.709631265266557509e-01
-7.346585634142708265e-01
-3.979447611837275467e+00
-1.187876357990042209e+00
-1.320135304344522753e+00
-7.267731461945772242e-01
2.405772502501357657e-01
1.404433719862662855e+00
4.584908506881247292e-01
-9.013214899825495730e-01
-4.269372698024934132e-01
1.155745454178495057e+00
2.100799862735795109e+00
8.448304745275398986e-01
1.291330232554339208e+00
-1.871650526249607260e+00
4.613275094699613166e-01
-1.544385071731449788e+00
-8.694997592157454047e-01
-7.189335005563496361e-02
-2.447567105758654549e+00
9.414505384817749567e-01
-1.607383439817080761e+00
-1.973392052358003301e+00
-6.244274658280365431e-01
-1.608793543449565489e+00
2.051113894431155493e-01
-1.921531357917846572e+00
-2.421837116696479164e+00
-2.230407862811257136e+00
-5.794257701659600857e-01
1.277628884838145629e+00
4.308714794872272047e-01
-7.433046542485326480e-01
-2.687370443537431819e-01
6.892040980800298033e-01
2.369979906402524539e-01
-3.285611826783035316e-01
7.893994072993693045e-02
-2.794357997495289236e-01
1.564351956258928533e+00
-1.039439601403414848e+00
5.144892499344013714e-01
-2.692773057248130930e-02
5.852326140081941519e-01
6.523219857390997189e-01
6.986160133032006669e-01
-1.315329774711647914e+00
4.286805513707234727e-01
-2.107944777763148814e+00
-5.640517694731128628e-01
-1.999463164165397044e+00
-1.366837158263993546e+00
-2.194080771421830001e+00
-2.469411129192138787e+00
-1.515792762911478464e+00
-1.145110609964406834e+00
-1.547811771632801481e+00
-2.068893369368703272e+00
7.469706207261047615e-01
-4.785302724530222651e-01
-5.163049657812160964e-01
1.134159845890059026e+00
9.810370200023229570e-01
-1.312747753344524759e-01
1.235215909094698361e+00
1.993764293852945679e-01
6.858351018699478940e-01
-9.302977702236617796e-01
-1.065198575561643990e+00
6.824405289026046484e-01
-2.646263394060909269e-01
7.967208436872509347e-01
-1.938530540566282268e-01
1.358825104168559283e+00
1.070490058305324066e+00
4.285016562212091706e-01
6.866522034582334122e-01
-1.171616831509203704e+00
-1.342293834184979051e+00
-7.209417939155128296e-01
-2.430954129302634659e+00
-4.270407925852084952e-01
1.208784738314789831e+00
1.623759798792356601e-01
-3.235012418367048670e-01
-2.656352293524656960e-01
-1.178826944099755414e+00
-1.627585095081133693e+00
-2.624082106390204176e-03
-4.211667331978795059e-01
7.551847703677799784e-02
4.119777232115767740e-01
5.656325130683055313e-01
-1.532273912221610690e+00
4.311821485904438617e-02
-1.049465953594092671e+00
-1.016943572714349570e-01
1.727557429643435810e-02
1.786846771236729525e+00
9.279453694137475006e-01
1.038733215586241411e-02
-2.359187115843959515e-01
4.549565042214732680e-01
-1.042137496908815963e+00
8.879809777992022646e-01
1.596708052485746876e+00
-1.108027252510157407e-01
2.518718721077370382e-01
-2.211289125307654424e-01
1.146804276980194714e+00
-1.202988012146928298e+00
8.007146466687744546e-01
-7.599038089527103690e-01
9.868979766067036419e-01
3.458691713600980933e-01
6.405266076195806901e-01
-1.347137873614618009e+00
1.882650898832316164e-02
1.146212045627396536e+00
-1.513598906682654122e-01
-1.218147314947797266e+00
-1.046826845650754789e+00
-1.128340641808854850e+00
6.546549969671302538e-01
-1.386615218945360217e+00
2.613919882055632193e+00
2.166945787320829764e-01
8.399105456208872944e-01
-6.057633213877899880e-01
1.730738161298864819e-01
-4.551652112462382105e-01
-9.449766222167080842e-01
2.718187554965407204e-01
2.826929542419526764e-01
3.487729683433236638e-01
-8.564667619883844507e-01
-8.483962647898711518e-02
1.068848990788862308e+00
7.904810532599084727e-01
-5.932609601000751742e-02
-1.979848889021428526e+00
-3.475279907404834057e-01
1.498673096410894079e+00
-4.948862983549018879e-01
-2.046398019860744100e+00
-8.455391577238549616e-02
7.291539153191037848e-01
1.328209171511043341e-01
1.091984563937659969e+00
1.887813182225520192e+00
-1.359613296704628438e-01
1.548938703746116863e+00
-1.542246001209165440e-01
-9.773229638652910500e-01
3.757785958275680072e-01
2.642221557163402026e-02
-2.867684540948740035e-01
3.176104636096609840e-02
2.881121778926554744e-01
1.478617261167593178e+00
2.551871631610961866e-01
4.440803094882578850e-01
-4.912668443543897756e-01
7.030956892436644734e-02
4.139596712350949725e-01
9.084535917693182805e-01
6.211586242126451163e-01
-8.734190021819041583e-01
-9.226494097549019502e-01
-1.142367014028244643e-01
-4.551725522715294181e-01
-2.719101091323420927e-01
1.034445073216191613e+00
9.225634114607872416e-01
2.948897003002105555e-01
-1.890255124834311351e-01
3.474812595239997748e-01
8.190853360955875573e+00
