-1.024971352003723000e-03
7.570612310222357352e-03
7.480041217121458606e-03
-4.218728010245508149e-03
5.677032704334250036e-03
1.203291082559235919e-02
1.591482530664935224e-02
6.886525316955608572e-03
-2.084238181697552379e-03
3.932474131431384044e-03
7.273549462691368539e-03
3.060067872157458315e-03
8.574336389464518038e-03
7.843169625194072389e-03
5.925538896050919387e-03
7.701925237498214762e-03
2.127810814874717561e-03
6.171151024315314239e-03
9.533028786487547646e-03
5.439594461472631662e-03
4.887527128585705252e-04
-1.555922425055516990e-03
1.580512497348020642e-02
2.347291666561462323e-03
1.444509120374439307e-02
2.653125810447158270e-03
1.804057991260608201e-02
8.865668950613777091e-03
6.996620198234489857e-03
9.812010068671623425e-03
4.435885925133542344e-03
6.809053605678284243e-03
1.115916433935821087e-02
3.596077869962583350e-03
8.498844170414212446e-03
4.938949740529330334e-03
6.834941700876626461e-03
7.657171324568853507e-03
1.079413770177948748e-02
5.635753621455279454e-04
3.731658913545865368e-03
3.188519135751349733e-03
5.769869617092492076e-03
-1.898882329433865777e-03
4.332947613458054399e-04
9.134766081335139037e-03
8.666390061531711528e-03
7.357687651150131986e-03
1.065788280927744067e-02
1.617417324153265328e-03
5.203205749575606255e-03
1.369427481745025266e-02
1.012036361891242332e-02
7.263020804324281030e-03
3.405962093742569488e-03
-4.830389484919035952e-04
8.013249068181269724e-03
5.711624045102481860e-03
4.834155555017278366e-03
1.050089949316792594e-02
9.129493396369908059e-03
1.175859947954869221e-02
8.031622296541430714e-03
7.088325153153799893e-03
1.039267225056594510e-02
8.599516695856920454e-03
5.614509381301506161e-03
7.331594616325787803e-04
1.762352335770147813e-04
1.318212673115524286e-02
-1.829487300034847691e-04
-2.069920630134665146e-04
1.455144318189013214e-02
7.131930814512325509e-03
1.639648790901834796e-02
4.864732361262615393e-03
7.492976429782672275e-03
1.733646751302252154e-02
2.551309146519182072e-03
1.320889364464388274e-02
6.554443685748819783e-03
1.213601064665164458e-02
9.161354428523249896e-03
5.864474452581647235e-03
3.845573320766263511e-03
4.876505858817181162e-03
6.013900764784280151e-03
5.743129538915451790e-03
1.053927880157525150e-02
3.785532509172414174e-03
3.855157830186323013e-03
-6.024642556577967066e-03
6.303819885106487671e-03
6.626721289788917169e-03
8.486824655411518911e-03
9.074756003505884613e-03
-1.448352840690275830e-04
1.748171525877195926e-03
7.504135626117421250e-03
6.551693159654228132e-03
-5.730263493769013504e-04
3.346668163666016629e-03
8.756528359987766560e-03
1.255789980521914047e-02
1.684596100239725905e-02
1.795049250208956629e-02
1.066068151993251369e-02
6.190141442833166537e-03
5.346705090899774027e-03
1.944104923445538410e-02
1.564391897495199385e-02
1.451150283719985883e-02
1.065392648031552453e-02
9.088077719016559794e-03
-6.599113877046442617e-03
5.476811172200446443e-03
1.045442811421333495e-02
4.888564781769915053e-03
3.552522584328093088e-03
8.325085206120880210e-03
8.993684216935310047e-03
3.615225525546398623e-03
4.398778028534884414e-03
1.419293892012377881e-03
-1.028328963485816185e-02
-2.502980306695541321e-02
-3.261655659691664599e-02
-3.051379044546591313e-02
-4.046538437763644303e-02
-3.219824848141695367e-02
-1.719474600238911008e-02
-7.774228315558725198e-03
-1.148160337176002462e-03
4.798649415053065910e-04
3.632716884660548186e-03
2.915218635425502816e-03
-2.340698547310352852e-03
9.970831244136701618e-03
6.208907334428822797e-03
1.332641366608867256e-02
7.344195109253762697e-03
7.111157509273415868e-03
6.094092805344920698e-03
1.347904241310856656e-02
7.729287724340456155e-03
-2.123581256527687366e-03
1.073511321406808196e-02
5.258911853106363991e-03
-6.111200253176286151e-03
-2.141367391284514435e-02
-1.846595539243460135e-02
-4.509929160022662503e-02
-6.924572352254575180e-02
-9.144176839772284737e-02
-1.198864122244196473e-01
-1.269940321867719657e-01
-1.313454661374643950e-01
-1.153002300446863970e-01
-9.814006600399130531e-02
-7.411955728769922813e-02
-5.503951262278313633e-02
-2.589725380182216971e-02
-1.182608735522304791e-02
-9.502099977244589032e-03
-3.565579078506908584e-03
6.626663118625160560e-03
1.439924506137838650e-02
5.521173492250055484e-04
5.022435186268223509e-03
2.659113368610176945e-03
1.110934890716304586e-03
1.911569644433178377e-03
2.117806590898952887e-03
6.052061806493414658e-03
-7.799084939241645361e-04
-1.049248861406634065e-02
-1.176833378526850014e-02
-2.536346716537501295e-02
-4.404339925720929944e-02
-6.699435285715341082e-02
-6.564467321027490920e-02
-7.310740225853920582e-02
-6.299158308088295688e-02
-5.327729928744735777e-02
-5.519760722808882830e-02
-6.275419530456254058e-02
-6.900237865297209616e-02
-6.534905893607124983e-02
-7.463685013343238084e-02
-5.163385531267272732e-02
-4.155413753640768010e-02
-1.768908153071235487e-02
-1.241906186264598103e-02
4.613000252674108979e-03
1.030275340876802420e-02
1.210561391912970235e-02
9.978452680746655729e-03
9.643994271386954059e-03
6.103939084496744737e-03
1.053412611654114955e-02
5.853385016188967279e-04
3.543091386547831019e-03
-1.811620270765875113e-03
-1.794794790791161276e-02
-3.237753864654806940e-02
-4.358925049896202053e-02
-5.173127608641329284e-02
-3.207344111356080774e-02
-9.522959051050203239e-03
3.305155944919637573e-02
6.569628602126825756e-02
8.620241649076580692e-02
8.493996775314907599e-02
5.169624172616817115e-02
1.899074824419516973e-03
-3.776956391980686861e-02
-5.904556907196509968e-02
-5.990955823963905330e-02
-5.101357707680921616e-02
-3.949987505959082906e-02
-2.193902778568534301e-02
1.967390475283482126e-03
2.747439954285907631e-03
5.068759115755973321e-03
6.711318845810289833e-03
-2.837932248934182770e-03
6.348821187005835448e-03
9.375871768972754428e-03
5.611914180702729004e-04
-6.377113830536182372e-04
-1.743529502622362393e-02
-2.806945913926516337e-02
-3.131393857858730950e-02
-3.616076329177642101e-02
-1.920903164374074268e-02
1.784723480713639246e-02
4.630014836155587482e-02
6.947769039270935976e-02
8.393770135411930677e-02
9.048324745271134339e-02
8.482032061780801768e-02
6.160345256793871987e-02
2.465737116016053498e-02
-1.482969667265354556e-02
-4.078669374660306990e-02
-4.529052415960962974e-02
-5.341890615623980099e-02
-3.612489369717000048e-02
-2.434533055816772568e-02
-1.100848705391928133e-02
7.532031873722236717e-03
1.702418115943238330e-02
7.883651873505346380e-03
7.687548879363700557e-03
6.166378315466307727e-03
2.151469685915947776e-03
2.198480421473791684e-03
4.999895924478136265e-03
-1.652147662676346079e-02
-1.472994008514473541e-02
-1.269772639239450870e-02
-4.591466140367319107e-03
2.191556002710950621e-02
5.192529355134956059e-02
5.772924633525753496e-02
4.927920790056516953e-02
3.894640118595664446e-02
4.234404646185457172e-02
5.520564402331260695e-02
6.310724343723581042e-02
3.077114281729207562e-02
-1.524549427133214258e-02
-3.114749868980179817e-02
-5.104757878848138752e-02
-5.864974276047658225e-02
-4.713474365409055233e-02
-2.561772985809671055e-02
-1.177447953745874680e-02
1.852102446500485241e-03
4.387614606345326129e-03
4.031369654606498055e-04
-2.182203856621231757e-04
4.501184288090637371e-03
7.873302633109348359e-03
1.149149133513067056e-03
5.237824827977651150e-03
5.415471881358774851e-03
1.517522277282400698e-03
8.399642735689338141e-03
2.282238683300977233e-02
4.743539618632532096e-02
5.735669024804523897e-02
2.609593555916173147e-02
-3.818031941993606324e-03
-1.031194798315746702e-02
3.656309863331887698e-03
4.055577454524756514e-02
5.977343928139956797e-02
3.171696325425690105e-02
3.597881833107326437e-03
-1.922387766502010181e-02
-3.997109911637310165e-02
-4.108510341887673667e-02
-3.513022234376574765e-02
-1.404907955867294896e-02
-3.925808114693634179e-03
5.087479591582499787e-03
5.869194317255754974e-03
1.705258726055346175e-02
5.652794670024097884e-03
6.002700853323501839e-03
1.220977098945864002e-02
8.732104447391057442e-03
1.200816704428851571e-02
1.343205215054501384e-02
2.192832300606561285e-02
3.800821689961437350e-02
4.960361948087910200e-02
5.667715362111572230e-02
2.033200059949819352e-02
-3.733970709640893615e-02
-5.533985542103755928e-02
-4.333440510164839055e-02
-4.475976771485294485e-03
4.776118503362614121e-02
7.606986219734598875e-02
6.161890989082671743e-02
2.802890887857673041e-02
-1.147481918545021403e-03
-1.561670222838306213e-02
-3.231412556946181014e-02
-2.100884558115174300e-02
-1.466456447163514212e-02
1.736751568410096905e-03
4.147901383170473494e-03
9.703342346675728272e-03
6.714573861070909609e-03
1.306534539647286226e-02
8.932527645422697060e-03
1.321138836673049245e-02
2.111243744662492927e-02
1.594584506124937032e-02
3.109567185934801123e-02
4.974463674757781395e-02
5.962659356226205493e-02
7.015867832827551998e-02
5.044679197632421369e-02
-3.076057897309595474e-02
-8.970373393070274481e-02
-8.680854648068374313e-02
-5.322034217749713192e-02
-5.574342320329051838e-03
5.749049232813017302e-02
9.638396111251361364e-02
8.719863374592705385e-02
5.575725427485052343e-02
2.118784433596131861e-02
-8.533088890460933593e-03
-8.525175743145539317e-03
-9.201368047238939673e-04
-1.147972890998525319e-03
6.004482404903655965e-03
6.725832392744526085e-04
4.034491473292314487e-03
8.380697415945815437e-03
1.262524055522660713e-02
1.228311661245425936e-02
4.906411950482701722e-04
2.401550832199755847e-02
4.070521574172987489e-02
5.021404326607292745e-02
7.859651253985809605e-02
1.041923787365782866e-01
9.704906082619313423e-02
4.899474785218942835e-02
-4.321286299836741424e-02
-9.942708532039724878e-02
-1.010122801859522357e-01
-5.239227345202267239e-02
-2.531689458261637132e-03
7.246211059838361668e-02
1.293271727454895492e-01
1.150115205187750150e-01
7.117710566077843637e-02
3.651181500474649788e-02
1.214635363204559157e-02
5.282025303361215576e-03
3.337121459216729931e-03
6.568776689854850456e-03
-1.785119758923800698e-03
1.158778045456324707e-02
1.476611156354616303e-02
3.414820808562191428e-03
5.321372596003820510e-03
1.164698497100656073e-02
1.271995103867817369e-02
1.365817519390873439e-02
4.052113945462868655e-02
6.508762497379191880e-02
8.140371083491899917e-02
1.214501548154751087e-01
1.228194112258337023e-01
6.479345892048450628e-02
-1.578307297418391625e-02
-6.910757450694976489e-02
-8.748717353225292370e-02
-6.511598760667373920e-02
1.818268596312008073e-03
9.725385392566877896e-02
1.568393292321469401e-01
1.215076358388192806e-01
7.351903161904349560e-02
3.186068301405103192e-02
1.498614543018553930e-02
1.091607192236331535e-02
-2.248433791737332148e-03
8.956025717046831036e-03
6.476843373560554375e-03
1.656526873456340074e-02
6.384252222047843636e-03
3.280325607337269403e-04
-3.280442716921786860e-03
7.934766714005272656e-03
1.877433178087110346e-03
1.184315037735211157e-02
3.761825421031374239e-02
6.730002452006603186e-02
8.236664385408062894e-02
1.090066786081293759e-01
1.057775746254973337e-01
7.117422941313847340e-02
-7.860700483994745302e-03
-6.873977936722766580e-02
-1.041061848454998551e-01
-7.883381585781681911e-02
1.894752726387746375e-02
1.251482559112703508e-01
1.625597446065396856e-01
1.104170866317076838e-01
4.828089077661140011e-02
2.195583554437971832e-02
7.425332469249272885e-03
9.168225604389540484e-03
2.059753881190376414e-03
2.396008565676783011e-03
6.714784107023772340e-03
2.127760994862431393e-03
1.344784907464670679e-02
4.822855213644025238e-03
2.633779959170966332e-03
9.528261813943554159e-04
2.463821612025052319e-03
1.304764420640678289e-02
3.056773089928846096e-02
3.651442482652792615e-02
6.084276186737355013e-02
7.139937093507922605e-02
6.036790569037015636e-02
2.159424057103485201e-02
-3.653695569753146605e-02
-1.052678812076825593e-01
-1.217139583694083899e-01
-5.103283491762504454e-02
5.455565432898098338e-02
1.248373072414784707e-01
1.208121874561514236e-01
6.696755314604047049e-02
2.650586646118943679e-02
1.130029957794384358e-02
-1.852124699278071451e-05
6.031064972496318760e-03
-9.747805795528010015e-04
1.633479812878451797e-03
7.867137128203674848e-03
3.818561773218571466e-03
4.576803144204776540e-03
7.241633887925679955e-03
2.566157005638243244e-03
1.138190660762468213e-02
-3.150161250402726178e-04
9.021604433202476403e-03
2.264212783449490868e-02
1.674423107131470939e-02
1.022817808511716775e-02
5.555797827183302229e-03
-1.108811093167777137e-02
-5.813904167826821484e-02
-1.025015023279933629e-01
-1.256953181578070733e-01
-9.612775020422516248e-02
-4.599444394737651695e-03
8.604942812227378557e-02
9.496575463727376099e-02
7.031897811164128376e-02
3.367698394543725687e-02
5.542024384623307591e-03
9.736019297522149332e-04
-1.819051197904651695e-02
-1.327438296043068240e-02
2.750648503341381231e-03
-1.416198992527081596e-03
1.355082193231351567e-03
5.958280554151786784e-03
1.406827797466138515e-02
6.348877611945327043e-03
3.838633170729772916e-03
6.512127731807123947e-03
1.154961257915950237e-02
1.260285045606882731e-02
-3.251704160245038819e-03
-4.266284641412323823e-03
-2.491383416134191481e-02
-5.389993131787086666e-02
-8.780849372126332819e-02
-1.229697849117301484e-01
-1.425584396642746166e-01
-1.158536705714186127e-01
-3.929868232693383562e-02
5.086310626946765473e-02
8.505493131901054049e-02
6.326909208246368765e-02
2.959929396208513253e-02
4.394416407212155544e-04
-1.942927377393764699e-02
-1.735507178805359429e-02
-1.575150510474281063e-02
-8.164622940184823943e-03
-4.865706209957534022e-03
1.253092387530797824e-02
9.547943822487248156e-03
4.445882168684877657e-03
1.447531121747282906e-02
1.336446777715725141e-02
2.962633816384871704e-03
1.308827812737374009e-02
3.632804439375607840e-03
1.630787522001965473e-02
3.677820037046824857e-04
-2.489523544430606583e-02
-4.759441038241313260e-02
-8.898981176429404671e-02
-1.371543809432394789e-01
-1.457408052444409130e-01
-1.320027929815244805e-01
-8.234068436439889727e-02
2.994189286299386507e-03
6.701923625636287130e-02
5.872857583268992210e-02
1.910514032077482299e-02
-6.968157958334558408e-03
-2.869810607901350161e-02
-2.389507731778918107e-02
-2.544002223556516076e-02
-2.654577493506343061e-02
-1.470810934693133828e-02
-1.024291612786716078e-02
1.150559591189211604e-02
1.927175582109809729e-03
8.008207879739706256e-03
-8.704667976304317255e-04
4.880767763493804902e-03
2.084262271781445360e-03
-2.309749307877991160e-03
1.028006445253473906e-02
3.475541548632137077e-03
-1.531214927021234268e-02
-2.960317342272183669e-02
-7.305287835828079557e-02
-1.020895791128229035e-01
-1.438064301110454080e-01
-1.440921570221575798e-01
-1.210159165050388036e-01
-5.730907636679838379e-02
1.154583966992777863e-02
4.158110718290856239e-02
2.213714470749308591e-02
-7.304816860638335338e-03
-2.268034379010205881e-02
-3.258537698692772627e-02
-3.768454207613512741e-02
-2.969338609405316326e-02
-2.148725601971787982e-02
-1.682441503287051415e-02
-3.050092833655891622e-03
5.748919319651456250e-03
1.312316716077186786e-02
1.354211333809255541e-02
7.605757529721495283e-03
8.489229826377374562e-04
9.834822813606328151e-03
2.502534878058986466e-03
8.063863650529821958e-03
5.838119547347828640e-03
-9.494261846306181751e-03
-3.785434406220898607e-02
-7.290228083741606691e-02
-9.928376228737359477e-02
-1.278391039139816776e-01
-1.294723914309783008e-01
-9.549005963754843285e-02
-6.910850020043360353e-02
-2.725397534431000385e-02
-2.109354512869908438e-02
-3.819452073149726817e-02
-3.735137038255520459e-02
-4.493818789693656418e-02
-4.750980729786202783e-02
-3.830120377117734315e-02
-3.121859440036835881e-02
-1.828727528415517029e-02
-1.036443532260480742e-02
4.228122675839542273e-03
7.252431811528951833e-03
1.422478436432820723e-02
4.465088716447439439e-03
1.785261803345285269e-03
5.836049338927541685e-03
4.148277485212546918e-03
8.373601578473142265e-03
5.354041461365408906e-03
6.770974940545742768e-03
-1.244870790810169957e-02
-2.007801292752344272e-02
-5.901615537656986626e-02
-8.609499401108819394e-02
-1.009855588653782305e-01
-1.115670089431190365e-01
-1.091028451920181691e-01
-1.068861803031309066e-01
-9.471367980469364012e-02
-9.580738127852644892e-02
-9.012110294920343267e-02
-6.945418393440139226e-02
-6.101577885542884550e-02
-4.405772557878687157e-02
-3.523174381144371370e-02
-1.642983153667468277e-02
2.525535567301712744e-03
-6.861057814100617698e-04
5.472422619231814486e-03
1.445361428672843791e-02
1.490357187716448255e-02
1.243678106390709581e-02
-1.581425595257974223e-03
5.541244167565313045e-03
3.049998687023384959e-04
1.070240458640325104e-02
-5.744815110678548262e-03
5.523503843465219464e-03
1.154391347306580121e-02
-6.772410452013868584e-03
-1.918386902552087284e-02
-4.062267874176008625e-02
-5.391715552813647339e-02
-6.932930667155999538e-02
-9.186524384889430128e-02
-9.664178119179965554e-02
-1.251529031020083282e-01
-1.172210528061590346e-01
-9.040860531049052518e-02
-6.356841305659977071e-02
-3.940390092010964684e-02
-1.413455579832040808e-02
3.547444008966775097e-03
7.410893917288374592e-03
7.003951500155090534e-03
1.152768814660528988e-02
1.227204129555487661e-02
2.292522543920190968e-03
1.345560869552163592e-02
-1.059208035720118988e-03
9.865081793294037601e-03
5.182780559817612952e-03
8.371910604536188238e-03
1.222338569534625607e-02
1.356673865105922049e-02
1.323309591783155235e-02
9.355310391817899668e-03
1.135568546777687010e-02
6.240343088865555297e-03
1.307551344329581540e-02
1.142025000271070477e-02
9.930370966191615426e-03
1.786059557743603686e-03
-1.227633284732307893e-02
-2.119770185025906389e-02
-3.540337121308551049e-02
-2.145005095209363832e-02
3.801357651013214257e-03
3.327569496054070403e-02
3.683627760419393854e-02
2.272256346944071317e-02
2.101073643153782491e-02
1.689907525755475134e-02
6.833944760188921143e-03
6.622248226672264142e-03
7.148574256698007889e-03
4.801655256051366033e-03
5.977512831222476196e-03
1.600122829391074572e-02
3.121377980326040229e-03
6.390059298697748844e-03
4.169637629965552289e-03
5.428758953835815561e-03
2.893149233553952461e-03
9.402136182651621432e-03
1.779236345820680784e-02
2.356668683824593435e-02
2.971723864860879860e-02
5.001874024255326123e-02
6.550413840401339560e-02
6.840573134613670003e-02
7.689577560643823251e-02
6.554147734188325858e-02
5.907321132186813678e-02
5.223980722700544838e-02
6.293663295577983652e-02
5.709589070541331440e-02
4.710566974374172378e-02
2.697248195516426666e-02
2.891466380991375776e-02
8.463324773353151850e-03
2.042473819996058412e-02
8.956541486312507780e-03
3.066087555430138407e-03
5.684261902078339458e-03
1.216924532350176398e-02
2.250304133016323063e-03
2.138085404253415537e-03
8.338526447248431617e-03
-2.294297862040709044e-03
7.433868377773963747e-03
1.917988314547086973e-02
3.790617174811765355e-03
9.047843665836741503e-03
1.210871842124963335e-02
4.191108551861927496e-03
1.507991824409300914e-02
1.800539897526476710e-02
2.438495565553478600e-02
2.328329072560912302e-02
2.453675661932457411e-02
1.890167952787758301e-02
2.655315182758891807e-02
1.715862240791167503e-02
1.773979698810603314e-02
2.029895134467986015e-02
8.475532860868320237e-03
1.143445475844261788e-02
1.272679951459449073e-02
2.548984076326760249e-03
4.062081989396678673e-03
4.762034225976666799e-04
1.131753737101204652e-02
1.666811612163356104e-02
9.861001481243837630e-03
1.366241710893714538e-02
1.065524131123938428e-02
6.045217007251199072e-03
5.398824990309095779e-04
3.996452167408530778e-03
1.194011632421508942e-02
5.382855882783331436e-03
-5.370043724787929018e-03
5.768039190911441148e-03
6.878424539622167433e-03
9.819192740051841881e-03
9.750796670193972310e-03
1.100911987390302930e-02
3.985421369176661739e-03
1.739369749127859036e-02
3.859395144897131893e-03
1.660192261944158990e-02
1.529310183689841203e-03
-5.329453694008069817e-04
3.240242886428029451e-03
8.382256704772508837e-03
1.246284650950886010e-02
9.694326998214220989e-03
8.597953765732116796e-03
5.915139688369632810e-03
5.584011871835107416e-03
1.057214599072576165e-02
9.958720142931276956e-03
7.411155860064103096e-02
