-3.291593021540030820e-04
1.199096197655968345e-02
1.966381212242907395e-03
1.440635696220917078e-03
1.152198969514231335e-02
8.575331172801202440e-03
9.477282282251826145e-03
1.268391596857417619e-02
2.640056973445316542e-03
1.220374650930590964e-02
5.261218904844617433e-03
4.705011962156354852e-03
6.970645897381741972e-03
1.223978743751031467e-02
5.649675961066313824e-04
1.529307177357984264e-02
3.767668963869257471e-03
7.994674678270436569e-03
1.049776137141877376e-02
8.321804642540666860e-03
8.629745820110598653e-03
1.501113949699729765e-03
1.762649961405427304e-02
6.926237949058350156e-03
1.519409379771330046e-02
-2.120439979856524916e-03
8.326110619539743574e-03
1.217443387884009805e-02
9.058713309746042538e-03
7.373176079526270500e-03
4.488722708857317140e-03
1.151183455171156216e-02
8.641531316166111559e-03
1.985810666676102957e-03
5.356465241440133002e-03
6.930297023258842094e-03
5.219126411472554093e-03
-3.342847908362539186e-03
-1.319801193119823088e-03
2.925748252229509565e-03
9.921290372143714426e-03
4.868193505250110673e-03
7.532186256545192818e-03
8.670183694075506847e-03
6.050544972012221294e-03
8.937125923353901125e-04
9.510329039667692400e-03
1.224568032305230550e-02
5.820018299605754855e-03
2.961813420646411572e-03
9.574721105086376680e-03
1.804628955572187485e-02
7.016694790424235148e-03
2.242245826449711099e-03
6.499058316880173408e-03
3.568714857840584332e-03
9.848597504041106329e-03
5.453245632145361892e-03
3.397625809076848524e-03
7.782643650343376920e-03
1.698271369132997501e-03
7.190549504309348694e-03
9.983666172362121519e-03
4.840879663001097788e-03
5.792029363502651344e-03
8.142904876195206088e-03
5.418738532731206571e-03
1.817977277661012156e-03
8.289298971311637523e-03
8.553315070194387332e-03
4.043470282650090362e-03
-4.898123271290747566e-03
1.076584636996806219e-02
1.100099929022987401e-02
9.453915555495745124e-03
2.090178046170037673e-03
8.877748187720342285e-03
1.310872435478047972e-02
1.109220918286912133e-02
9.187530787542159266e-03
1.186372888294978320e-02
1.098370160061007753e-02
7.674348967736333883e-03
2.406254343309571341e-03
2.376236271229353533e-03
1.036848865881963115e-02
-4.559918838365388007e-03
4.278793578719890071e-03
5.776478243643465467e-03
-4.307622282646849168e-03
7.922824978036807977e-03
7.795768537889640392e-04
8.643869770546970185e-03
1.395128417166737952e-02
1.527566347623863889e-02
7.205273925903071981e-03
-1.976557768890148045e-03
2.708147209242140700e-03
6.387861165752881792e-03
4.272418028928900123e-03
-3.985485333341128554e-04
1.786799154827229102e-03
6.838258512575290209e-03
8.865790062142425015e-03
3.297993547715091962e-03
8.268426645682292950e-03
3.138864720213045342e-03
2.290918989758471656e-03
7.735106479817757848e-03
1.351150508823956153e-02
1.543650855335178609e-02
1.530664193556524263e-02
1.188010878223827449e-02
7.864971310818535304e-04
-4.476331713377231045e-04
9.594145627637393550e-03
7.879220515528886221e-03
-6.249111681484920047e-04
8.712609904954843332e-03
7.762420678497815134e-03
8.051831176257432873e-03
2.923202484285735391e-03
-1.747141345085324534e-04
1.126209418843673338e-05
-1.001892056537665408e-02
-2.337617027135094339e-02
-3.595266089412094829e-02
-3.667030109913962249e-02
-2.827345358387003960e-02
-2.576571907676221754e-02
-1.729072618196276362e-02
-1.245234686306249082e-02
3.281732967571331528e-03
-2.909060570147072120e-03
6.216650740594934117e-03
3.107911869749786175e-03
-1.238072709210578286e-03
9.225968483598169512e-03
-3.164586831289517305e-03
1.848578673260481767e-02
1.204339804088221805e-02
1.380093767065861989e-02
3.819825856336816344e-03
1.061342699716602035e-02
1.071428458351101828e-02
3.858993587714768143e-03
3.457334847164141196e-03
1.586159437080039876e-03
-9.237045800148011368e-03
-1.515121005999118045e-02
-1.897096723877601462e-02
-4.489047677865377201e-02
-6.536121184101867376e-02
-9.146272391974363813e-02
-1.206736142239573234e-01
-1.369116307442419245e-01
-1.344174403881857049e-01
-1.159238760948113900e-01
-1.044641939861106067e-01
-7.508472683255829061e-02
-5.111246469586276653e-02
-3.233591882496934800e-02
-1.587014705604806661e-02
-6.914224793869690536e-03
1.029781488004942458e-03
9.559796034477567248e-03
1.374162994902514666e-02
-5.091228303296006959e-03
5.193935522458284319e-03
-2.801298756017621579e-03
2.877643234406483848e-03
2.980897218386397655e-03
2.315609488598556736e-03
4.395167470973016834e-03
-8.748324904827612606e-04
-9.760064065474834474e-03
-1.112165800295814543e-02
-2.564724568339016644e-02
-5.087415081899861191e-02
-6.432430729468852082e-02
-7.878235687538603926e-02
-7.371767558942395049e-02
-6.171494390434320576e-02
-5.521969795982376722e-02
-4.743700023334890270e-02
-5.642927657591006313e-02
-6.018862014395833654e-02
-6.293699112434553156e-02
-7.062562590164332688e-02
-5.159285007835082842e-02
-3.915375547642901272e-02
-2.330676905497698279e-02
-1.910947832413597766e-02
7.384690301613816565e-03
7.761897511874177834e-03
7.892003072794813445e-03
6.538569417590035619e-03
5.394883433559018171e-03
2.571030801941555453e-03
1.321093775524451695e-02
1.044877757079134585e-02
7.198404283671565665e-03
-6.651494827766562959e-04
-1.956540300335497459e-02
-3.116185657277261573e-02
-4.129470863438282346e-02
-4.672983985093160514e-02
-3.096516093536635927e-02
-6.101239208943104626e-03
3.350336917287149996e-02
6.765180904068403278e-02
9.014752572651830997e-02
8.479852889403387273e-02
4.852769647529078800e-02
5.888113349477029287e-03
-2.676257120384140792e-02
-5.392130296730450467e-02
-6.468488383807806386e-02
-5.317237638780123593e-02
-5.145484657663585565e-02
-1.827620736426091574e-02
-1.821409513911328385e-03
-3.965125691124117037e-03
1.880440142880051690e-03
9.049443299379388364e-03
-1.187797145956358529e-03
8.940535612818606079e-03
1.285913345665141636e-02
7.369656322140751611e-04
-5.966138416763369645e-03
-1.244465957621202629e-02
-2.469114620117173961e-02
-2.322495098570860270e-02
-2.976339844839454712e-02
-1.908409451524362491e-02
2.168523627971886275e-02
5.441183814300389748e-02
7.955290627484505606e-02
9.169184135280483705e-02
9.900975782354806687e-02
8.370654660308995965e-02
6.035177677981533317e-02
2.414811123775177648e-02
-1.084640470717256056e-02
-3.318116062363762886e-02
-4.800442478563941850e-02
-7.046873151214838593e-02
-3.513836629712981108e-02
-2.424614881238995254e-02
-1.263225591134711952e-02
6.560689176251855749e-03
1.067715287902756827e-02
-9.140100840896348174e-04
9.905404675300332612e-03
-4.146367824880361694e-03
5.019808342938666783e-03
-3.159718772783561263e-03
2.279961717527045374e-04
-7.347400709035038606e-03
-1.390952055554077298e-02
-1.355709556046139595e-02
-4.055509043385147581e-03
2.222975093493846296e-02
5.624224997581396546e-02
6.745788332948862709e-02
5.336021792389376156e-02
4.506188697190516984e-02
5.003923449448822308e-02
4.868518153483019500e-02
5.432968315844070167e-02
3.530106668080348897e-02
-1.246205225119812127e-03
-2.869012058534595871e-02
-5.475528227982241758e-02
-6.168129738906568543e-02
-5.162998774329790458e-02
-2.744110322153100676e-02
-7.526406991454917539e-03
3.216171315639215159e-03
3.997685671807945165e-03
-5.483212917578814474e-03
1.720765294020436221e-03
5.696410683096004082e-03
4.593026825760801804e-03
-2.776275947626537493e-03
3.519091426946713459e-03
1.766783508435458951e-03
1.187065885955931703e-02
1.175030777068810164e-02
2.505448791739744649e-02
4.997887498575713516e-02
6.881024056702247926e-02
2.827433999486176838e-02
-5.077531322856423598e-03
-1.066647139952488221e-02
6.431841670690940926e-03
3.198641229074444120e-02
5.667613050344384035e-02
4.352794954522620080e-02
1.014589119326235640e-02
-2.018258991956010939e-02
-4.295126566959037162e-02
-4.079702001247244997e-02
-4.217061524610318107e-02
-2.782351966159098480e-02
-9.062348613498340255e-03
1.620907117673618669e-02
4.255048341730231776e-03
2.832383373998982774e-03
8.456101276203652553e-03
4.249620386421127695e-03
8.739311142644538150e-03
5.730811799206770793e-03
1.822723584326346388e-02
1.451219410059407557e-02
2.732360156898300252e-02
3.740818343351619973e-02
4.436204018746344596e-02
5.803014575201131953e-02
2.075064577237411070e-02
-4.372651600530174515e-02
-6.437299607912973232e-02
-3.937508669866800898e-02
7.446543830324652696e-03
4.739515258547211118e-02
7.405792225415348817e-02
6.484339806814141960e-02
3.545374618837159736e-02
-3.511790329465983886e-03
-1.076226512059001023e-02
-3.190217152377808341e-02
-2.335340190095322455e-02
-2.377706840599653690e-02
-2.949546332325107909e-03
6.311830736044661896e-03
7.053685753646592692e-03
5.718464267612903551e-03
1.137289868508615034e-02
5.420279550862314166e-03
9.682388161422816192e-03
1.661922207165672863e-02
2.126331177535309078e-02
3.523306933313552491e-02
5.396325171708080126e-02
5.445566849886968736e-02
7.086049675965531980e-02
6.198659760013598002e-02
-2.571304249196975159e-02
-8.926233200483561780e-02
-8.169238578415409513e-02
-4.084915349733352075e-02
6.203158581140777060e-04
5.824671457755269816e-02
1.047327068935956784e-01
8.589980205091804488e-02
5.294715978369152892e-02
1.938145954043383676e-02
-8.871399269888537165e-03
-6.210681332848417245e-03
-3.779290154781977419e-03
-4.097041985777216851e-03
3.399798388903059812e-03
-8.203315176392189678e-05
9.468552607048612638e-03
3.994169291682314257e-03
1.456149219912611023e-02
1.261947384531579910e-02
1.440723004182697074e-02
2.217327198020848864e-02
3.784909389362085125e-02
5.532922366427284883e-02
7.982510834774822484e-02
1.049213305909726529e-01
9.686100694258405197e-02
4.953590100617543540e-02
-3.419865634505927371e-02
-8.943462179832276093e-02
-8.493736179333051528e-02
-4.407577041124337985e-02
-2.664190556159404862e-03
7.323718701417729349e-02
1.346182470275819332e-01
1.173346408962101378e-01
7.439918268902147303e-02
3.961923430956344749e-02
1.118052610891888052e-02
4.700372454376018985e-03
4.601380659490469580e-03
1.240282924336594435e-02
-7.467016213693386702e-03
9.921612541119697454e-03
1.168672894402873925e-02
5.610092795892363850e-03
7.460079103804872786e-06
4.619894586722534530e-03
9.903099291605559421e-03
1.776597331997136278e-02
4.145490146679518123e-02
7.471354860818874011e-02
8.740694945281117512e-02
1.116333535216045003e-01
1.072367506316339314e-01
5.984920490296601753e-02
-1.759570107959116531e-02
-7.236505831806074041e-02
-8.698362382590510422e-02
-6.363452900469906970e-02
-4.564419272350859970e-04
9.943831324906637903e-02
1.617946945095823930e-01
1.226830869809581309e-01
8.040656675882217053e-02
3.311223510983587331e-02
1.851512037511670802e-02
1.784614359622678850e-02
3.527919196873605980e-03
8.713269162503796059e-03
3.716619967565287005e-03
5.836175796411434066e-03
4.327929411125080485e-03
9.091310986330104413e-03
-3.651318454454842433e-03
9.951543115094382136e-03
1.038273408530570978e-02
1.465497781699995339e-02
3.190564494256438455e-02
6.616310560353433345e-02
8.121098767234803673e-02
1.047558039776173705e-01
9.907491804331375329e-02
6.093151906667101242e-02
-1.489649070112163305e-02
-8.409256953875857143e-02
-1.130567671331339785e-01
-8.187192213979004041e-02
1.517872271718892323e-02
1.242204058820433193e-01
1.609891409022497499e-01
1.149231074633217109e-01
5.927511823485024506e-02
3.512522320306839946e-02
2.261849904166421399e-02
1.407246347560978973e-02
3.358561869044162079e-03
4.112656451940701133e-03
1.316000136622301128e-02
1.128997390578338929e-02
9.883880177814078835e-03
6.697160769659995204e-03
-3.066316524324565456e-03
1.283801206769988063e-03
1.444921846163788395e-02
9.927039411467239102e-03
3.087546338048007336e-02
4.274613114916432643e-02
6.298255502861950517e-02
6.041413971172750197e-02
4.730767325583345312e-02
1.167782370177486602e-02
-4.102432320435177304e-02
-9.964707191103729100e-02
-1.199886260875677318e-01
-5.461857031853075556e-02
5.754920535318523711e-02
1.250620947277524819e-01
1.178552513820198544e-01
7.046324647896957949e-02
3.417162447982118739e-02
2.461905127658927175e-02
6.854596822698184877e-03
4.355211991264071152e-03
2.191447531176420136e-03
1.084753926676800158e-02
8.824028302229185508e-03
5.718809813446382347e-03
1.329436369380208871e-02
7.130115768560960771e-03
3.379805821712929086e-03
2.150209996845084924e-03
1.651927160368027968e-03
4.637070342525877534e-03
1.072364179047063416e-02
2.074524481379372634e-02
1.837533844035874400e-02
8.407716245906802057e-04
-9.328503303120393511e-03
-6.539954550291865454e-02
-1.069690241431902195e-01
-1.257669883091175611e-01
-9.427619931394541630e-02
-2.583101752600037385e-03
8.726177723181409440e-02
9.611429350022340778e-02
6.611307800175464378e-02
2.757103941890167234e-02
1.478527671690875629e-02
7.177776771491329449e-03
-9.654126755125591250e-03
-3.146100679396310676e-03
-1.339095951042327138e-03
-2.615457229101763887e-03
6.061909137190605104e-03
5.772574251832599847e-03
9.624650614197056281e-03
4.455713105596767476e-03
-1.374005568690168716e-03
8.643402267354018814e-03
1.027810076694621669e-02
2.215262439173621561e-02
3.440933540021133899e-03
-2.263411461353084537e-03
-2.915374068228332449e-02
-4.480092294106907680e-02
-8.619517242439544980e-02
-1.292191398384715806e-01
-1.440440966646349963e-01
-1.135481378148967546e-01
-4.672047969294153280e-02
5.191205079140786410e-02
7.275168609663777708e-02
5.818746973697447311e-02
3.151225842458926091e-02
-3.019447864035407214e-03
-1.049249436763599608e-02
-9.313319922840429532e-03
-1.376088599108286903e-02
-5.008274117926701449e-03
-1.945094565131870630e-03
5.763477359947254651e-03
9.272300714136299388e-03
2.284923073663172252e-03
8.335124630901273243e-03
1.158492253772642165e-02
9.601362379286514093e-03
6.995088260030955969e-03
3.732045552982754012e-03
3.420787753750244731e-03
-3.779771593975571765e-03
-3.013855416975953772e-02
-5.271061297792645206e-02
-9.289088507109848070e-02
-1.317920577913484215e-01
-1.280179089854210361e-01
-1.282607949965092198e-01
-8.724149329658648089e-02
1.691437805901782436e-03
6.359571756381067476e-02
5.703438761247692224e-02
1.685727662733182280e-02
-1.080193476017710270e-02
-2.085784019737186787e-02
-2.659030824577681903e-02
-1.481262174063511898e-02
-2.372780919020106571e-02
-1.461215246153390809e-02
9.157226913149275026e-04
4.438401738671146624e-03
6.633194293006685997e-03
9.054068823374231828e-03
3.363528456086147325e-03
3.224635826079997811e-03
5.247587739625600954e-03
2.479644596158874469e-03
9.441557948881122708e-03
8.986392556289640385e-03
-9.341187428091871775e-03
-3.343748078830701548e-02
-7.121853549899721803e-02
-1.131210034130527009e-01
-1.425216624455968584e-01
-1.288065135199286670e-01
-1.096673907532348669e-01
-4.744544621898472841e-02
1.238027924219244937e-02
3.145357378236898066e-02
7.764809539418547277e-03
-9.877235368689648090e-03
-3.023897499914240949e-02
-3.753178399738713727e-02
-3.880046063791067756e-02
-2.518034895555820024e-02
-2.504874186290491009e-02
-9.183908763903859615e-03
1.819821539849871515e-03
1.352612902692494970e-02
2.423060042638339791e-03
2.544004951575651492e-03
9.719881452875764327e-03
-2.298496801546442633e-03
1.013123791379284128e-02
1.239212385072942452e-03
1.238102424140984786e-02
1.398037826793152583e-02
-1.512253711205978519e-02
-4.628215989935194341e-02
-7.018385026985381192e-02
-1.035279715702582398e-01
-1.167796933742657473e-01
-1.185289972384745844e-01
-9.316618569906894021e-02
-6.619458385782073240e-02
-3.045093903640660668e-02
-2.997756375089427952e-02
-4.371642624516547393e-02
-4.570453846163882033e-02
-4.568090357687193404e-02
-4.874633467569348955e-02
-3.910646323307020306e-02
-3.281891444749026471e-02
-2.633263534691708888e-02
-2.918052592193076016e-04
6.429019487471949318e-03
1.038734492248238883e-02
1.794905098248718300e-02
2.665963442596708342e-03
3.118352087497789846e-03
1.125151277475905549e-02
2.929956363372679656e-03
5.508322213173608498e-03
1.189992254864252752e-02
7.837690012821228042e-03
-1.251055874185506671e-02
-1.679932401356105942e-02
-6.111741015101729985e-02
-7.626971406341431781e-02
-9.577019702724437478e-02
-1.069940085033972005e-01
-1.068720966703512743e-01
-1.141056302644747195e-01
-1.000158854017332011e-01
-1.066371072422257343e-01
-9.810385593378087576e-02
-7.616567393298906419e-02
-6.583087408087844039e-02
-4.594422751933618931e-02
-4.228747926122531503e-02
-1.633643065441922268e-02
-2.604358370841958897e-03
-1.760763426141910646e-03
2.842060512481767946e-03
1.260871911642063962e-02
4.890044541473508900e-03
1.290224885359776696e-02
2.211153406250273862e-03
1.025332434130455002e-02
-1.746430659558306396e-03
1.237446571700038557e-02
-4.705950829801685241e-03
6.135774735759792591e-03
1.010932299239984677e-02
-4.375269941797647021e-03
-2.361296058329774572e-02
-3.560782565845518194e-02
-4.486430731451596793e-02
-6.899222707133570442e-02
-9.237411225879214871e-02
-1.109150861020204160e-01
-1.311667247517443735e-01
-1.189195566547558008e-01
-9.665354842880449771e-02
-7.503171930231912479e-02
-4.464192776264212098e-02
-1.998972383202819378e-02
-3.846197726531300817e-03
4.922483079932499705e-04
1.362604577580888224e-02
1.168141997628644943e-02
2.186627544849103696e-02
2.198692587282813013e-03
4.532097583174162295e-03
8.447570824317518490e-03
1.531930584746613207e-02
9.523718035749305019e-03
8.372373536791459167e-03
9.912782984703452649e-03
7.071770447707559186e-03
1.251182477020518387e-02
2.233338829482313034e-02
3.576232887828787853e-03
4.481500057904404602e-03
1.690588378038979100e-02
2.272574260617124878e-02
1.728518058080128622e-02
-1.079217198134781956e-03
-2.508633924465175982e-02
-3.045808398515505167e-02
-3.901161391530479777e-02
-2.867632919171135900e-02
-7.953816961106315465e-04
2.608073993098508972e-02
3.519230065009443936e-02
2.710828585685443048e-02
2.145327712498778724e-02
2.154422356302605410e-02
1.266571913162866346e-02
6.263900169899600662e-03
7.036990601538315598e-03
2.298592975434558122e-03
2.974582607204468918e-03
1.009145534787544637e-02
6.872683031302618574e-03
1.254806233621907734e-02
5.094981263024584046e-03
1.270873569467635689e-02
1.078290968059265713e-02
1.084368647199961816e-02
2.202355384907214372e-02
2.385224246666306155e-02
3.946786879516371582e-02
5.721456439737181154e-02
7.061697377171435863e-02
7.267251490803192104e-02
7.543462154273769538e-02
5.936374537371604670e-02
5.845064695076403888e-02
4.989090719755554654e-02
5.777426437412211402e-02
5.739700772351535862e-02
4.876798871625108445e-02
2.454532642964164443e-02
2.952379179704500006e-02
1.276765782752833575e-02
1.510197858108040629e-02
9.791282532378481687e-03
2.608163447400739434e-03
6.343855143419836577e-03
8.855455515860401194e-03
6.179527285173482681e-03
5.277106294521170630e-03
-4.154313099069219598e-03
3.675013836945629098e-03
3.603405742269357587e-03
1.899689664983209361e-02
2.615315296211157166e-03
1.064300777001305973e-02
1.200982029170197078e-02
7.306050498592900171e-03
1.228069470970775956e-02
1.467153324669545275e-02
2.209408548042315207e-02
1.540360035017922409e-02
2.340359022537387076e-02
1.677975775610808518e-02
2.219869469471036708e-02
1.479313799970104898e-02
1.839019472851784881e-02
1.271709597575119456e-02
2.242258681613013352e-02
1.361910038422344156e-02
1.056814820307316535e-02
3.859638531380946060e-03
4.115608719322089507e-03
2.491699032894641001e-03
1.291472716854677634e-02
1.636675800288881584e-03
3.422304856016296186e-03
9.843502256236598413e-03
9.577412518210579040e-03
4.512156836690982796e-03
-1.166175364475720852e-03
-1.679899015536787891e-03
1.355100826738292116e-02
4.117951109225873908e-03
1.388748242837230988e-03
5.747542075120194369e-03
9.291557785811647291e-03
-1.977188579154260089e-03
7.903251844326551409e-03
9.841481444688285340e-03
4.086085414765956540e-03
1.232350702566185376e-02
8.560329037971362368e-03
3.415226260099014314e-03
4.614779309395625716e-03
6.054231538439084313e-03
1.325586041505595787e-02
6.229078679881051503e-03
1.445037644898035552e-02
5.429642553396718356e-03
6.924789363402147555e-03
5.350288914475659179e-03
-4.790757724703131144e-04
7.448798583782089040e-03
1.257895332242959900e-02
7.219791907053799140e-02
