-3.986219717154724229e-01
-1.121575009869709566e-02
5.791776615762098679e-01
-5.736174250709757949e-01
1.160211868050486372e-01
5.181858070298037688e-01
3.246852243463996812e-01
3.456479710588130638e-01
-7.544563670589491400e-01
-2.243731257729178752e-01
1.801266196790691360e-02
-2.643975551648252154e-01
1.558677681393405012e-01
-3.918772079786639329e-02
2.541466556511611241e-01
1.651356549658698492e-01
-9.315423437706779608e-02
-3.086076594966121744e-01
6.190918145740568201e-01
7.926433487674415801e-01
-7.036513017855077212e-01
1.566968647239456169e-01
4.006914974782743166e-01
2.630908156310758916e-01
-1.798028385317950589e-02
2.532313519754235132e-01
7.848672660014982538e-01
2.274882035469562580e-01
-1.972636902379831247e-01
2.030712989467600704e-01
7.799430105908382316e-02
-3.779083664369344842e-01
2.041626369996664692e-01
-3.145867201654370393e-01
3.208180991441541008e-01
4.347867741606735725e-01
1.293014084226509486e-01
8.539429731825144698e-02
1.585633405872800827e-01
7.103415236635898800e-02
-7.368915713890392127e-02
1.565834520940533325e-01
2.745202025070805907e-01
-5.107194332887862176e-01
-2.022076576489172939e-01
1.103136310623561989e-01
3.571669806722821972e-01
-2.786478663812388956e-01
7.499072760601235288e-01
-1.268503474240055273e-01
3.278405965992374216e-01
1.212077726445898312e-01
5.531658140022159831e-01
1.781800173361521855e-01
-1.526378871881370336e-01
-1.409711865000200792e-01
1.733147814631691153e-01
-1.668484358806547607e-01
1.794146707712573063e-01
-1.152301202764179910e-01
5.179980702837969631e-01
7.073926676503802247e-01
2.536505898160991423e-02
-2.040996255956680494e-01
-8.746465904808777003e-02
3.922672064453101015e-01
-2.609119949881374412e-01
-3.906341247486589396e-01
-6.398739416911035371e-02
6.089148947144378266e-01
-4.931699977149862912e-02
-6.250732825538974913e-01
4.551156682878428894e-01
1.715971618725722625e-01
8.606034002521979476e-01
1.401225576164282643e-02
4.866854651711904345e-01
9.807397885464963494e-01
-4.488282695229114938e-02
8.295088301672146613e-01
5.228412772789352569e-01
5.887442816821076598e-03
7.431716264912129333e-01
-3.487351441259101681e-01
-1.083701837990962147e-02
2.963841197942894651e-04
-4.829010091168428609e-01
4.194557041076581450e-01
4.538321960724369525e-02
1.662030743136744260e-01
1.923854794509246777e-02
-5.053095842830817030e-01
-9.574382669535699830e-02
8.524000758404359779e-01
3.078081235992410347e-01
4.280385112966669792e-01
8.963056136016905873e-02
-3.391589896153452965e-01
8.331308061566677914e-01
1.525884329814783391e-01
7.923064121057829534e-02
-4.946454805741654637e-01
-4.605319220982752038e-01
-3.983329669487294111e-02
4.908334015046130760e-01
6.405649794580589584e-02
7.159656198164780772e-02
7.433383161970578135e-01
2.180616976631247483e-01
1.984397994777333807e-01
5.363383164256091407e-01
1.182270557541846845e-01
2.890738574546443118e-01
4.590688609886354743e-01
-1.135248769100428490e+00
7.202451195105071813e-01
3.201833878595478078e-01
-8.500726117294210571e-02
3.375647153750375995e-02
2.598002051589310413e-01
6.932106217797395775e-01
-2.812017919740370520e-01
4.294612049944988019e-01
8.408508919551276051e-02
2.100193185445955735e-01
-3.222976888829922060e-01
-3.681629909278090751e-01
5.301441653047561653e-02
-5.378626363428481438e-01
-6.535861282459712873e-01
-2.087404591373396567e-01
3.279090328662787601e-01
8.261413786444820051e-01
-5.710995745050846395e-01
-1.712024482627537078e-02
-1.229334768486664287e-01
-1.604631155090024131e-01
-6.657806042870073604e-01
2.580503814103274340e-01
7.234161184620365725e-01
1.127860496648072225e-01
-3.576656206051072595e-01
2.344296064832083748e-01
-7.853658941922163350e-02
-3.780153595992253868e-01
-9.374891665675485486e-01
-2.219909259766940715e-02
6.498568308923181602e-01
2.700280722410874912e-01
-8.761604829876634692e-01
-1.151708500944220726e-01
1.770037438614011915e-01
5.316114219640670491e-02
1.178918974323410057e-01
-6.783906283790237524e-01
-1.405359436613918822e-01
-1.034971149004519475e+00
-3.630227852811839795e-01
-4.282878770151761771e-01
-7.104355610073498362e-01
-6.303308792751610712e-01
5.188892492653066624e-01
2.700953959582677033e-01
8.133290165023506768e-01
-4.529967170318722758e-01
-1.800559010814622163e-01
4.656828882719716289e-01
2.463672102397440264e-02
3.275646943662836874e-02
3.069934512388645675e-01
1.072164416448320723e-01
-6.192938871009057850e-02
-8.776315891559546487e-03
2.608418058361042235e-01
-2.503900084851317098e-01
-5.634554648905464314e-01
1.474708963113648408e-01
-2.234481743652582883e-02
1.677345268948444157e-01
3.422355863376092544e-01
-1.968919652292088485e-01
-3.139426964727457525e-01
-3.112325804790143091e-01
-2.690018673639323760e-02
8.185955053930485392e-02
1.334732432752717135e-01
-3.792966383691986909e-01
4.361724511893034784e-01
-8.928053396773463213e-01
-2.993430521838408853e-01
-7.960012088807626451e-01
-5.139121942933388976e-01
-1.829154655140121932e-01
2.473943026327598271e-01
-1.882204983098858253e-01
3.348581801221460486e-02
3.184782575015025485e-01
1.210424145222664394e-01
3.422468383678927695e-01
3.321399818188974784e-01
-3.195774235738479407e-01
1.922418529314072477e-01
7.254362608565310955e-02
-4.906109479487072433e-01
-1.734309464016317304e-01
3.245002643954799648e-01
-1.424187836494195114e-01
2.445580007907446618e-01
1.177942493859115702e-01
9.586234868825160849e-01
1.109563094174430997e+00
5.900206326988597372e-01
1.004802581465922939e+00
7.548280372966621465e-01
1.531784300145151156e-01
-1.454209845764917186e-01
-1.730031954774520764e-01
1.327981488611587046e-01
-3.302703446200103143e-01
-8.866373677892843697e-01
-1.064508739483701616e-01
2.820434735746801258e-01
-5.874357729466807981e-02
3.109372315453756003e-02
-1.225587630241614101e-01
-8.202093310590720110e-01
-2.216791937952760361e-01
3.002255670118729181e-01
-7.393757645052471961e-02
-2.661037196011942219e-01
-1.847997652403596258e-01
-3.380811853203685158e-01
2.692858490667527360e-01
-3.961704080944266071e-01
-6.116212748433652591e-01
4.008181233686292644e-01
-2.302320579246328047e-01
-3.478659614973058090e-01
-4.803679078947305225e-02
1.730175393499998326e-02
2.272423342371617319e-02
-3.885638840867271515e-01
3.434574049448054778e-01
5.282367817925336384e-01
5.682589262446616774e-01
1.680684886533476141e-01
-2.072218724818253310e-01
-2.616010238210553229e-01
-1.105349714513993303e-01
-8.372975845549516238e-01
3.498606011765798551e-01
-3.300640964685046530e-01
4.483052225559847059e-01
-8.331062168997729334e-01
-9.124885341728103394e-02
-2.452137096545030093e-01
6.027091759722251474e-02
9.508202795519464512e-02
-3.419061375616649912e-01
-2.584660715258234043e-01
6.403128216033938946e-02
-5.546372197852104113e-01
2.348679453252355831e-01
5.245105679598533605e-02
-1.089810902075806914e-01
3.678543148239975524e-01
6.236490983474559657e-01
4.662868556767740258e-01
5.612309293019737133e-01
1.196742045006768507e+00
3.175079744716992058e-01
-4.677671029124493285e-01
-1.513586120312903627e-01
-4.075929967938084486e-01
-8.784322713509356007e-01
-6.439691161781812001e-01
-4.378703972197272587e-01
-5.377252322712321453e-01
-5.121625505461652184e-01
4.846926188709740901e-02
-2.093871785316960554e-01
-8.545211636301043301e-01
1.088404335398994310e-01
5.227472373322885613e-01
-3.551686106782513397e-01
5.715898446304315539e-02
4.009901090145334690e-01
-4.975758823544852993e-01
-3.324995559493744701e-01
-1.990755720009938223e-01
5.938140996003575534e-02
1.871590229173852593e-01
3.707287332185004725e-01
-1.651133001867925373e-02
1.199629843211620500e-01
-1.296461777571485813e-02
2.686205298408421704e-01
5.233319009196883975e-01
-5.367537242947922893e-01
-1.707652531655856343e-01
2.077537296130985700e-01
-2.478612342795215584e-01
-1.326491063014500205e-01
-5.665552845006865956e-01
1.981825979343219690e-01
-2.543446596246546135e-02
6.804808901485124295e-01
-2.714405291585220148e-01
3.009664288334080659e-02
4.200108973835888770e-01
-2.619649697400115995e-01
2.176335230081557492e-01
2.316299978979566299e-01
3.748401363855468627e-01
-4.885004026188295989e-01
-1.800040391307071719e-01
4.254061293564674884e-01
3.114346125402778220e-01
4.301188189044996002e-01
6.770207601054908375e-01
9.898819267821247492e-02
1.736791119987332044e-01
-4.175317581835355507e-01
-3.077992408644290162e-03
1.145675427997590257e+00
4.906381186599764188e-01
1.131603999075453171e+00
-5.582802647688149544e-02
6.474061661047626481e-01
-6.363952075782046414e-02
1.595206950724827044e-01
-7.531894123359587079e-01
-4.671413225075866649e-01
6.144478135542801034e-02
8.089027971847116694e-02
-3.942035516505368320e-01
-2.652266665159769832e-01
-2.701351932061527364e-02
2.056670266239258027e-01
-4.295984742663635364e-02
3.164913719033640715e-01
-4.930633322388747880e-02
6.081520330665789176e-02
7.099091801390787770e-01
7.289898255837172492e-02
-3.332309292433782016e-02
1.138007372954271457e+00
5.575610216337083536e-01
8.158617034113328781e-02
-8.057293989146344648e-01
2.713759117118038078e-01
4.926188285827240443e-01
9.662265402255585389e-01
5.789328602327070694e-01
1.277707249692329738e-01
3.099407211998973510e-01
4.022598415217651380e-01
-5.989857747877198602e-01
3.548122165645913317e-01
1.453685741415848831e-01
1.335551549755445710e-01
-1.377539854598891778e-01
1.968244818910840077e-01
-3.020447756869353850e-01
2.607080066380200734e-01
5.558269784305354122e-01
-5.504347798099673561e-01
-6.450162078787049502e-01
3.922883627025612330e-01
4.286769180418431024e-01
6.322829585844957911e-01
6.095591213602762348e-01
4.014438748937553259e-01
1.076692628528368445e+00
2.934234481078582535e-01
-3.287557917780842970e-02
-1.540499809726220581e+00
-1.319686309949863912e+00
-3.197099557612419485e-01
-1.667890776961649113e-01
9.316512954808218172e-01
1.384717941896811633e+00
3.908787186836870653e-01
1.740995996548444780e-01
6.606896279754242984e-01
-7.336477306799649156e-02
2.789072496887037289e-01
-2.585653595321587006e-01
4.374091149734861406e-02
-2.819165285545767174e-01
2.087943366586842431e-01
5.595447769168009344e-01
-3.943273318077217815e-01
1.365347101490603232e-01
9.794017948437134802e-01
4.810354492748338817e-01
3.160183217976103021e-01
4.499220537124355990e-01
8.087401997436822754e-01
4.166139650313149811e-01
8.914645935583180858e-01
6.562720214221621218e-01
3.689863509792406376e-02
5.570570457078764803e-02
-1.417556150223022171e-01
-3.444924907765530286e-01
-7.957656218308778451e-01
-1.342515511463041045e-02
6.671280269527862794e-01
6.107883112346077503e-01
8.621009381798387938e-01
8.209814753512434393e-01
3.554591656806446731e-01
8.049460916261966803e-01
7.582953365474002227e-01
1.802152767448195192e-01
1.351682336443058297e-01
-2.297486027942285125e-01
5.080358417903763080e-01
-4.863839016632587886e-01
-1.971495513485926609e-01
-1.081642616641500104e-01
3.758799578740523728e-01
-1.876749404793556231e-01
5.233731941204622373e-01
5.405694174332831281e-01
9.027648458776843521e-01
2.552340453630137507e-01
5.723010056590593919e-01
2.633442263014014739e-01
6.967336582587542460e-02
-7.140027205281165301e-01
-4.644551734697616729e-01
-1.041338872816452765e+00
-8.381320388426113377e-01
5.929917470038778005e-01
1.002540924719648174e+00
1.318912636352865819e+00
5.682302613891841991e-01
4.206018728500359183e-01
3.905104148389598739e-01
3.323628022695983009e-01
5.736554632958794642e-01
-1.376075292243927051e-01
-5.098786228733550585e-01
6.365354339991862176e-01
-2.078381273628852333e-01
9.614681387509569355e-01
-1.587052158150647485e-01
-1.870613282183140047e-01
2.573804443738768599e-01
-6.960929976325642698e-01
1.404787403821775860e-01
4.517159312538312488e-01
-1.390314792416257883e-01
8.074920437737281853e-01
4.329650695455763976e-01
4.118738341039268613e-01
-9.318816791584023929e-02
2.942440493596005374e-02
-1.007189030373198513e+00
-1.589914706855636517e+00
-5.494086696473983178e-01
4.679553335931126989e-01
1.369804389866541849e-01
7.762516093167962650e-01
-2.918655313803627527e-01
3.580678060750980968e-02
5.608631612472576577e-01
4.729078181405517722e-01
1.251433127731454154e-01
1.930246228922150031e-01
-1.597428885683659372e-01
6.089411035113468929e-01
-2.865205229393609221e-01
-2.538375046150709857e-01
-2.184998172037751207e-01
8.913777431740649293e-02
1.626938773567118413e-01
-2.431427016884960268e-01
7.477073870418357582e-02
1.182949564104835982e+00
1.405756823551723989e-01
-5.564403628245987443e-01
-3.676612961886031594e-01
1.519615696976066299e-01
-6.875298531225565446e-01
-6.708924950100259021e-01
-7.910879498767409146e-01
-1.485002358632284469e+00
-5.840858489293930811e-01
5.305808606798838589e-01
2.937192656945915026e-01
2.272700311430278786e-01
2.242115098135022966e-01
6.634658364612593118e-02
5.126645936953210247e-01
6.859222003762589955e-03
-3.287201302371854372e-01
-2.548409100376604064e-01
-4.305706493304110039e-01
-5.444204631055576948e-01
-4.109514803958928542e-01
7.566928966968278214e-02
1.498915566117073883e-01
-2.009386192284251249e-01
2.737960826842644191e-01
-1.299961840395644497e-01
1.717289355230920411e-01
-3.070975733083429193e-01
1.065516464214237222e-02
-6.060140037960489723e-01
-3.248593383860073347e-01
-6.342671042552981975e-01
-7.843403078072328505e-01
-9.200816586933581176e-01
1.736220179049383777e-02
-4.072197996476430992e-01
3.275262897156048236e-01
3.389122178244520778e-01
1.338352417207691603e-01
3.858873561667593433e-01
-2.725843973659792391e-02
-4.812783292038385619e-01
3.153311921559998066e-01
-2.899308299646979892e-01
-2.837148387894817825e-01
-1.298586354273206234e-01
4.933883957141199650e-01
2.204580435583709808e-01
-1.184435955680153835e-01
-7.478864502982394968e-02
5.213630230261191434e-01
-4.827739665731418245e-02
5.988206856501535613e-01
1.511464871792097264e-01
2.946477132258206733e-01
4.485708729816650919e-01
-6.031809050428073027e-01
-9.995614603269230569e-01
-2.485287166686490357e-01
-1.016163413034491869e+00
-3.811771322829149433e-01
-8.925441060783190217e-01
-1.027599996445210717e+00
-3.767382590434587564e-01
4.430205826355924914e-02
-8.565317013232736088e-01
-5.465728263104381313e-01
-9.849217570787180964e-01
-5.054135702348139247e-01
2.243239332448877243e-01
7.494080076157595693e-02
-3.927551284035726842e-01
-5.976580024816801062e-01
-5.164889573859821059e-01
3.745113463692680278e-01
-1.505739682596181905e-01
1.347952117900093061e-01
-4.371808827847471490e-01
-1.592921858371841859e-01
2.766608677922633430e-01
-2.636145218624140751e-01
2.775082898992729530e-01
1.483598954105749546e-01
-2.881904783736779496e-01
-3.835988693326503607e-01
-8.338806103256883873e-01
-1.217366406033398407e+00
-8.646637823974884229e-01
-1.057716609443574374e+00
-8.684951859515395167e-01
-9.795533389952721937e-01
-6.066160262827220429e-01
1.971080224522990809e-01
5.903579721156927418e-01
6.862243960129941200e-01
-1.698921118312579637e-01
-3.427118418265325817e-01
-2.092808279967132146e-01
1.836787645195726848e-02
-4.307343670941641278e-01
-7.314802040001961991e-01
1.526700519532164235e-01
-1.474402265679696789e-01
7.268756094852337757e-01
5.490088522279281680e-01
-1.442580548554746045e-01
-6.552740263093239648e-01
-1.714587842096975401e-01
-2.456466840166806054e-01
-1.453212094881505545e-01
-4.084043312939872328e-01
-7.155309925653696723e-01
3.213635057928810879e-01
-8.617707206660890629e-01
-7.690867114338880706e-01
-1.039197082901164082e+00
-8.684706977407185002e-01
-1.306984124585951201e-01
-1.214938398674709541e+00
-5.770701024541712298e-01
-9.003239418971208385e-01
-1.000595218983882040e+00
-4.899413825074884765e-01
-3.259481520902019480e-01
-1.739546018726015053e-01
-4.032362720630771613e-01
-1.524982125418443912e+00
-3.568401047103025858e-01
-5.292755071212263962e-01
-2.287508409581702484e-01
5.521590232937135384e-02
5.431537043069532000e-01
2.096826646114872961e-01
-2.397292972346614370e-01
-1.880369778964366134e-01
3.722521475098453658e-01
8.562205897378882824e-01
3.680927666528214792e-01
4.334371530772436198e-01
-6.389994934825240502e-01
6.487381415414550379e-02
-5.743021707582546265e-01
-4.750340567963837746e-01
-1.869244657521241249e-01
-8.303567836062279994e-01
2.462174641751593285e-01
-7.234243708280316820e-01
-8.206264633510150786e-01
-4.188269153046575433e-01
-7.080435031200040807e-01
1.206934379462532795e-03
-7.764308000146141753e-01
-9.703321486236695659e-01
-9.951578539864278650e-01
-2.811216528943638604e-01
3.829396345365346233e-01
1.776734364390209764e-01
-2.792199782414226950e-01
-5.879562673157721908e-03
2.353737070288079991e-01
1.031659340383291462e-01
-1.830605398931482164e-01
1.535697666001681061e-01
-4.783727399728267271e-02
5.823749625519015760e-01
-4.750808062215350902e-01
2.334997945812912201e-01
-9.172435476232633500e-02
2.345078418713867907e-01
2.508606264460412905e-01
2.141161750440893630e-01
-3.877187110462735897e-01
-2.558428345340250498e-03
-7.777924317591157211e-01
-3.307889643720207662e-01
-9.067076038042538588e-01
-5.905364356415624405e-01
-8.985285948438126447e-01
-1.058873234245786499e+00
-7.139790228917050063e-01
-5.687755061567548731e-01
-5.874286667042525334e-01
-8.749840825541327360e-01
2.825738296791247550e-01
-1.852282214130599458e-01
-2.065182097385315219e-02
3.897540381707047530e-01
3.215415586059776620e-01
-1.049168851877314290e-01
3.731494924112720990e-01
5.138489860946481719e-02
1.790858707453375775e-01
-2.431327366393534195e-01
-2.739813848404581975e-01
3.774956979363099929e-01
-8.662953226618466673e-02
2.739121922524117014e-01
-1.547095441209903402e-02
6.448961530841385015e-01
3.724931824079357190e-01
2.978166474076852643e-01
2.085085951964907869e-01
-4.610146954131060237e-01
-4.865414799081569930e-01
-4.714442929479548683e-01
-8.911038909470916369e-01
-3.074835947727880270e-01
4.558504181651028553e-01
1.656313849005803529e-01
-1.548567895489721125e-01
2.157196607589756052e-02
-2.867632105739157944e-01
-5.382982148206758577e-01
-1.933767685830577307e-03
-1.219188017271856730e-02
-6.840659182674536931e-02
1.626310366118358663e-01
2.897620222271920509e-01
-5.342705487989357627e-01
-2.097764085135863932e-01
-2.774253760914173750e-01
-8.472827586700780456e-02
6.889982779118501710e-03
6.302985595434523747e-01
4.648590567198528367e-01
1.618011897210169803e-01
5.060070349139042523e-02
2.735950573242595940e-01
-2.542989547277319518e-01
3.958912480422969726e-01
6.004350365452386651e-01
7.234266449953574664e-04
3.085690862615314001e-01
9.896599621311565065e-02
4.242573211571245007e-01
-4.098521894814401989e-01
2.214784379173951323e-01
-2.337770440887038115e-01
4.426730759107106450e-01
1.165053769742105255e-01
4.613555849666906017e-01
-3.099055023971962752e-01
5.799438365177533167e-02
3.413022819205561720e-01
4.199175207619165739e-02
-4.002870254801328409e-01
-4.488163313102656593e-01
-3.896422044255699602e-01
8.238069277989479300e-02
-4.067404597232635588e-01
1.101892760190763987e+00
9.514713497402522979e-02
3.323206885886683115e-01
-5.232603288183730605e-02
1.595440523169313618e-01
-1.946857772117594754e-01
-2.249995764706530232e-01
2.581673655612637952e-01
1.969576647321351348e-01
2.044703643668812909e-01
-2.994207145703616790e-01
-1.775016842604666342e-02
4.065423976839861453e-01
2.237739635970651952e-01
6.422779944540110697e-02
-6.595297969073032895e-01
-1.987156158427799690e-01
5.628595843144665878e-01
-2.107007188133298847e-01
-7.855172974533839447e-01
-6.192106881002234359e-02
4.215292688758761064e-01
2.839414430918211774e-01
4.580308535913812928e-01
7.384103502688706966e-01
1.587343208668843819e-01
5.183971276856831345e-01
-5.154123969239904346e-02
-1.479657594280807675e-01
1.847998175296420020e-01
5.861514661073232574e-02
-2.805659256906127275e-01
4.147242372873605892e-02
1.875565071042199494e-01
5.421898717197222162e-01
1.570436274047023739e-01
2.937612999910096390e-01
-6.860685315449019384e-02
2.451583236052445186e-02
1.191421634843319866e-01
4.558364990974096975e-01
1.780111693727381705e-01
-3.164491096772856227e-01
-2.232851790277881054e-01
-8.739827925596518887e-02
-1.537880020414900129e-01
-8.703348803595002681e-02
3.382890814963909198e-01
2.854739942811662101e-01
-6.870786889299715372e-02
-3.902511409197723796e-02
2.174845647766857348e-01
3.209357351775818934e+00
