-1.241769853927834566e+00
-2.770079635953808794e-01
1.145924780365906726e+00
-1.240294057780475523e+00
2.798334060457849382e-01
8.529937495570736328e-01
7.768735271701819878e-01
9.847194293082065508e-01
-1.723728468233138411e+00
-2.961657065737804961e-01
-2.981847291553572643e-01
-5.054724505569462290e-01
5.902285467857987244e-01
-1.483080563022844967e-01
8.231636136815826399e-01
4.351866113862800645e-01
-3.196410288231344432e-01
-6.756833241552642200e-01
1.407627956476985576e+00
2.108193132204729370e+00
-1.390900171245215811e+00
6.878363461112664279e-01
6.508100044162812292e-01
7.783128553855769294e-01
-1.392796335884583236e-01
7.843062367440530869e-01
2.022727838368628905e+00
5.887347502072722838e-01
-4.182776658235989875e-01
2.187963417766548846e-01
-1.669340143730415615e-01
-8.163876143656396689e-01
4.104100954620591435e-01
-6.418035900253652448e-01
7.411883156005237838e-01
8.850398938297475704e-01
3.928215280495808703e-01
-8.470971625686716730e-03
2.729654635906176852e-01
7.976680081451761883e-02
-1.108444045791555227e-01
4.523793478237727594e-01
7.763566435766466878e-01
-7.148723119134361426e-01
-1.643942037882674401e-01
-8.137082749844236351e-02
7.598798457095770065e-01
-7.267969495449145834e-01
1.708100507654548572e+00
-3.250148306408441878e-01
4.891912547431661040e-01
2.736445995740574011e-01
1.081516969763577807e+00
3.655190462905240634e-01
-3.250481021914406465e-01
-4.323350528129016879e-01
3.671619950654315123e-01
-6.673349876273907411e-01
4.870644689045519615e-01
-3.079014448947520188e-01
1.100505446127524767e+00
1.471757780648889291e+00
-1.198715062705266871e-01
-7.386358764460502213e-01
-1.836020422764944038e-01
7.887224180522686146e-01
-7.309945328807879728e-01
-8.273051636986554769e-01
-2.788766311037635948e-01
1.318761465894729312e+00
2.618006418728305307e-01
-1.200722615299426366e+00
6.905268193176360425e-01
-8.884621599382704071e-02
1.906186992340396680e+00
-8.897735848396827463e-02
1.036497553455271614e+00
2.047237151264226895e+00
-6.889335385177876303e-02
2.068535291963689904e+00
1.360549900824803427e+00
-1.730814733936202887e-01
1.525749288337338250e+00
-6.421692315173900267e-01
4.281602750969082938e-01
-2.206291941883490038e-01
-9.639893091270811398e-01
1.239275643330459697e+00
2.937042473680985186e-02
1.498877774734724833e-01
-7.909234779371430990e-02
-1.223877001598558056e+00
-1.778398536820061937e-01
2.236923147274520129e+00
5.236832746370407854e-01
9.467758973044394510e-01
4.230021714946638478e-01
-6.769892410930260507e-01
1.965070408829562076e+00
4.182192827471322705e-01
5.591312879720711226e-02
-1.322926859529995891e+00
-1.106961595595746584e+00
-2.407563333596891009e-01
8.943656938278908841e-01
-2.657659703952353070e-01
-9.643396434156605024e-02
1.650891800062624037e+00
3.757277561327909132e-01
2.742619246793278620e-01
1.316646275469940175e+00
1.556748421585830988e-01
5.994568877031314358e-01
1.160850665457950459e+00
-2.501121628821661780e+00
1.828819023298243751e+00
7.010051112814511542e-01
-3.518360373112952022e-01
-2.570962764654437238e-02
3.175277123830790860e-01
1.698890452854030508e+00
-4.863691756242425890e-01
7.236232541510336791e-01
-7.424267657826590094e-02
2.299140822215333391e-01
-3.808962610274812532e-01
-8.068610157765114810e-01
1.974477456471629422e-01
-1.176708511760161002e+00
-1.633524759549015215e+00
-4.872587731712019754e-01
7.930363260155085525e-01
2.188201694556727528e+00
-8.820085567111451974e-01
-5.765837192244103321e-02
-1.542727566225510216e-01
-2.450929572995695083e-01
-1.611630319407934442e+00
6.045411952858003035e-01
1.724659204233850218e+00
4.360946294155275127e-01
-8.330982163559151887e-01
3.595716235697903884e-01
-2.157425581374836643e-01
-7.030523208539847246e-01
-1.868049321344399161e+00
-6.096769183436938355e-02
1.115795629509671372e+00
8.188167408895424826e-01
-1.849077677517648954e+00
-2.985231043777211157e-01
5.790489822764348649e-01
-3.117847641696594799e-02
5.333115041419665969e-01
-1.368787092395634897e+00
-8.599209819241414310e-02
-2.343579323570633477e+00
-5.727621092420804860e-01
-6.453453362182687281e-01
-1.305361835133938664e+00
-1.617045141156256083e+00
1.083718034581828027e+00
8.316094625230641135e-01
1.629326796431961100e+00
-1.158568560639342993e+00
-5.005295069351159976e-01
9.545256232326669865e-01
1.888445078943855049e-01
-1.820641521929400042e-01
3.404587340991708233e-01
1.949349760095428763e-01
-2.129654599971412543e-01
4.859618961887152838e-02
6.333736658863408087e-01
-5.598740652135258955e-01
-1.311113407349576487e+00
3.688324516220551907e-01
-4.491680692979584111e-02
4.388145472316255513e-01
8.300271751142856980e-01
-9.060020416679015476e-01
-5.773131232343222674e-01
-5.170330228068339418e-01
1.751024597967361721e-02
-1.802499145419262094e-01
5.177997917191855537e-01
-6.320434480560290780e-01
1.071883626017132940e+00
-1.921611139310428262e+00
-3.945602338664391806e-01
-1.498503312458203229e+00
-1.034909107032857323e+00
-7.082929485628841615e-02
4.427443076530149790e-01
-6.262594880131359121e-01
-1.559386463282096125e-01
7.895698351087282463e-01
3.679199721339448392e-01
6.218108236673739464e-01
8.117534165721242978e-01
-7.033746090430169629e-01
4.929432756597160181e-01
2.540093799460356738e-01
-9.452772470232273516e-01
-2.048965247622065722e-01
8.321222981658681350e-01
-3.440464030358609260e-01
7.496084202384417638e-01
2.695138142368883605e-01
2.065013001760163558e+00
2.284652434737678650e+00
1.111007806488856664e+00
2.003365114068942798e+00
1.589720046244951446e+00
1.547732875978551359e-01
-2.630083526971813135e-01
1.904928170016516667e-02
1.758109499746385584e-01
-7.020447692393415595e-01
-1.993588449874029722e+00
3.547466005782902443e-02
6.459918965070341468e-01
2.183744930121045702e-01
1.157543375415872808e-02
-4.627740897269514986e-01
-2.241333359154840998e+00
-5.319071459159070425e-01
6.012718087518098553e-01
1.121963042301365732e-01
-6.501633094767423904e-01
-3.696433336684961102e-01
-6.121345904217622147e-01
7.005785864091700343e-01
-7.646686770046446924e-01
-1.436434503667104012e+00
1.152357297792347079e+00
-8.112298225009840769e-01
-9.350251917930005874e-01
-1.995199383196191167e-01
-6.244984842335059988e-02
6.361578642212194559e-03
-8.690561238449721060e-01
8.823095829028400061e-01
1.149337620856867082e+00
1.581158783625076669e+00
4.289384177675488186e-01
-3.669579668455667520e-01
-6.461970629453221981e-01
-2.775068532808339650e-01
-1.866533509890164977e+00
8.128995521692570225e-01
-8.657226881709673139e-01
1.031125425241825155e+00
-1.984104484507883459e+00
1.550044472892000147e-01
-5.192199133977145609e-01
-1.620579977022268969e-01
5.559330805279415894e-02
-6.282628152609256444e-01
-8.309326444612022966e-01
3.154491426995274517e-01
-1.164892512977196981e+00
8.637145518680147127e-01
7.637218805781306567e-03
-1.717220383862965924e-02
6.747508543464173503e-01
1.532799815688155709e+00
7.867804269632033831e-01
1.087263505642085404e+00
2.630489759181242615e+00
7.727334912602089600e-01
-1.509999136493038074e+00
-8.577775775100744682e-02
-1.005265193284895942e+00
-1.903542527033997400e+00
-1.380090197804258345e+00
-7.245044020386538497e-01
-1.467028689478534709e+00
-1.130488705682311856e+00
2.589234342419788337e-02
-4.821698800573733790e-01
-2.217193421274493037e+00
1.901104910356793964e-01
1.193628446626641137e+00
-6.891203552720753800e-01
6.381764797498604147e-02
1.319129305798454554e+00
-1.095935770265880738e+00
-8.593835811759757970e-01
-5.090816738672956365e-01
-8.326086562580801986e-02
3.864818371494007088e-01
7.501669586727771621e-01
-3.709929304891230739e-01
2.534304319613722156e-01
5.411891069918232933e-02
6.023766675049354591e-01
9.239030218563214492e-01
-1.243895227647358048e+00
-2.368953749724090063e-01
-3.930931578619895062e-02
-2.409966311335915712e-01
-2.112018679442844993e-01
-1.052571116777131000e+00
1.009335385748046487e+00
-2.404126211020007342e-01
1.804290909443216906e+00
-5.793201629318268653e-01
-1.728155609367513224e-01
9.487610747945998124e-01
-5.559321410512898520e-01
2.714893642271155594e-01
2.870653153463133544e-01
9.355659992226628141e-01
-1.378198234160998403e+00
-3.674510632515988751e-01
1.034439067684689961e+00
1.066881343549989536e+00
7.860252529319240455e-01
1.594477195263103608e+00
6.317499087678177250e-02
6.726615637492587840e-01
-1.173095749995955783e+00
-1.797060280714037062e-01
2.480245171796581882e+00
6.779038207756270529e-01
2.563946077969203596e+00
-3.056614262195908593e-01
1.412077102116733318e+00
8.516510178636038653e-02
7.131325523286128343e-01
-1.468394746317153388e+00
-7.168067824482438066e-01
1.073163636654574961e-02
2.179870413359558112e-01
-1.355560388072210909e+00
-7.554359590562129689e-01
-1.445956672098622775e-01
4.578757939735960125e-01
-9.331156803238144226e-02
4.235228252511149538e-01
-1.203376774133515514e-01
-4.594583520531321519e-02
1.712569199871376791e+00
6.691052712890070697e-02
-3.473618948677419382e-01
2.376712983292569081e+00
1.042780789028071142e+00
2.522154548118377693e-01
-1.500192934209413798e+00
7.373145230745051792e-01
1.097417674589355352e+00
1.902594752486126195e+00
7.392927301764010695e-01
5.430393615289745846e-01
6.652281319100867840e-01
7.253863942513688601e-01
-1.658791788513117149e+00
6.145133768084637405e-01
4.714335488106867755e-01
4.973466199827477618e-01
-2.280994247065637193e-01
3.637858081693933210e-01
-7.576027284221886759e-01
7.538153981344575261e-01
1.178308730352840783e+00
-1.601804358056379884e+00
-1.251557140696828663e+00
8.035468527783945492e-01
8.442793521396819711e-01
1.522251247203798341e+00
9.242457390436863429e-01
7.014347019707981579e-01
2.263946873911302227e+00
4.934693087089636054e-01
-8.158401155319173342e-03
-3.370061157143837249e+00
-2.600686463578553820e+00
-6.710869897716336130e-01
-4.178473376325494981e-01
2.179952672369355859e+00
2.808531905156423480e+00
5.961837605563569120e-01
2.681306688039857278e-01
1.236377689311376704e+00
-2.468707417749680944e-01
5.380598271835316249e-01
-5.498580328225639580e-01
-1.906599954831909860e-01
-5.609566778895390682e-01
3.115718421194610399e-01
9.588460620129880541e-01
-6.760699541792115630e-01
4.578434390149923039e-01
1.937483794985759733e+00
9.380043419053454290e-01
6.156928746880578895e-01
9.574293441244723368e-01
1.679754547300097656e+00
7.160902861006634978e-01
1.678848206328372727e+00
1.269654421641415176e+00
-2.350545995083258219e-02
1.013831379640584354e-02
-2.047193160100845705e-02
-5.037900324653984407e-01
-1.982299956357917337e+00
-3.601610189636086923e-01
1.361126823851628531e+00
8.212647188752376648e-01
1.917112719496793849e+00
1.640247620704605058e+00
5.748979531035627311e-01
2.272048421169948540e+00
1.539473036507062353e+00
7.931445201695090930e-01
2.846839357835850848e-01
-8.097456108976150979e-01
1.344973501249487668e+00
-1.362383997631116062e+00
-1.737326210358046494e-03
9.347730310581287005e-02
9.175527603497389828e-01
-2.916993080424298834e-01
1.211038493762861101e+00
1.105707915708207700e+00
1.695766809366719974e+00
4.742686061204289816e-01
8.980045208061354645e-01
6.056114114891006928e-01
7.649962517338879109e-02
-1.569703092445278170e+00
-5.788976884283754121e-01
-1.904818178588345345e+00
-1.542607743802713038e+00
1.258092032432765350e+00
1.990331002917969272e+00
2.755107123067886299e+00
9.715698127892843372e-01
7.698221734846552033e-01
7.490699770219917397e-01
4.930311976674915386e-01
1.379227923520162102e+00
-2.642134902219934189e-01
-1.254887201932331164e+00
1.568746628837769608e+00
-4.976430714837407066e-01
2.077838443414643521e+00
-4.478448078760647877e-01
-6.108930699022382393e-01
5.969164392500644345e-01
-1.754840900178167296e+00
1.848185309228203843e-01
8.419571416219996385e-01
-2.906399697488664113e-01
1.499812641973744309e+00
7.438283691237026485e-01
9.317240139894934492e-01
-1.616230984290284167e-01
8.990458644038480662e-02
-2.123975802837181792e+00
-3.174969321919397736e+00
-9.567142926174690976e-01
9.891958526186006573e-01
5.042145879172642980e-02
1.756300922119693464e+00
-8.427300745172340291e-01
1.142320680153763451e-01
1.252459392959014428e+00
1.320168627653064641e+00
2.669584652590077378e-01
5.590541299585231050e-01
-2.330332577809310357e-01
1.115979587977777854e+00
-7.332326434925608982e-01
-4.706060108745521720e-01
-2.079084409831403191e-01
1.427604115633454018e-01
8.513834118065347067e-02
-5.375045065228435393e-01
-9.426141417515226939e-02
2.567296261382537637e+00
2.174736366618494621e-01
-1.239548406410756698e+00
-1.072998973653974009e+00
6.152518552489715242e-01
-1.527740195757139263e+00
-1.282821639700754357e+00
-1.606536026176414111e+00
-3.113508190916804974e+00
-1.255130137187682626e+00
8.621815338686613650e-01
6.352822801962513255e-01
3.443875790640754109e-01
2.907050998670485664e-01
2.664990845459077606e-01
1.307896123112077591e+00
1.173745661472956753e-01
-6.391430437161599309e-01
-8.646597552513615170e-01
-8.533941904309879645e-01
-1.179471885693459399e+00
-1.345040914321113057e+00
1.296376134595116636e-01
3.700028678059011367e-01
-6.976740632985349855e-01
5.069895104988573209e-01
-4.084305155270688270e-01
1.941650023439621953e-01
-7.055062009596820838e-01
1.978304060631978084e-02
-1.266373272125830063e+00
-5.127979103877330358e-01
-1.448145026660850210e+00
-1.215064706239339154e+00
-2.011453993956817232e+00
6.392787912130786232e-01
-9.926032997844369543e-01
8.576766364813481758e-01
7.305883121907902344e-01
-2.355507457550890527e-01
6.557561672140677089e-01
-3.172810330759249786e-01
-1.164527987686098554e+00
7.351951506107839984e-01
-9.924805953179859364e-01
-4.878433346380381397e-01
1.829475113686305776e-01
1.240432293060349522e+00
3.557271278381814450e-01
-2.318952371569335813e-01
-3.844926948410949952e-01
1.038517719033706710e+00
-1.345334538215502140e-01
1.144824190028090216e+00
5.013307439559261391e-01
4.834116929318892919e-01
9.518208350233613446e-01
-1.327647213579316698e+00
-1.886243407583267473e+00
-3.043410201358456302e-01
-1.888721257444136326e+00
-4.612061729943375821e-01
-1.951661269042219482e+00
-2.151474740454325296e+00
-8.775144383417472493e-01
-1.383630973327401870e-01
-2.080283236671358615e+00
-1.139414059545595492e+00
-2.030217646984323832e+00
-1.124986320639156379e+00
5.659082037596183667e-01
1.315244032507590366e-01
-7.738952417916358240e-01
-1.160362755363519405e+00
-1.138730059573169973e+00
6.575254179928347043e-01
-1.662210324933743044e-01
6.361639731843674594e-01
-6.574240959327565248e-01
-4.940569419251901184e-01
6.675655645709732688e-01
-4.191477871493259344e-01
6.983592766066402113e-01
1.533634477854459721e-01
-4.296601078638161431e-01
-9.138309984731984859e-01
-1.694040972506784870e+00
-2.422001644241370766e+00
-1.442042935678613969e+00
-2.171375311125636198e+00
-1.545342789691259267e+00
-2.058047245503375589e+00
-8.427677993504046894e-01
6.357766186756151905e-01
1.457713387767247681e+00
1.698888685895371342e+00
-5.172968690062609287e-01
-6.426773212686937020e-01
-6.782673291058924914e-01
2.982667758854595091e-02
-8.922113877301764973e-01
-1.188691104283359001e+00
5.753401613169475959e-02
-5.724820396249327148e-01
1.673088271579994180e+00
1.265390820311580011e+00
-3.548075450475209891e-01
-1.502549217605071874e+00
-3.441307783076439919e-01
-4.010689867839417055e-01
-8.134631062749403396e-02
-7.161324965272173326e-01
-1.891851821182046978e+00
6.272310772531705103e-01
-1.851318107296027859e+00
-1.767137106252016032e+00
-2.202961760456171980e+00
-1.713064856566859362e+00
1.188906246772351155e-02
-2.682591630181171194e+00
-1.214787586878722569e+00
-1.669831636916176310e+00
-2.044205923429297744e+00
-7.798994139718864460e-01
-6.846902481187380207e-01
-3.122603446249036518e-01
-6.191383379869621617e-01
-3.373561889390679802e+00
-1.000119093831499439e+00
-1.102354958995480416e+00
-5.834814206302914030e-01
2.121413478743008341e-01
1.213582768859412964e+00
4.055882776385834054e-01
-7.630267177372107579e-01
-3.437909489518906625e-01
9.696350108424479641e-01
1.784903439735108011e+00
7.194130544376371450e-01
1.110326140678870477e+00
-1.547599807905473357e+00
3.831816548528779731e-01
-1.308149003675439292e+00
-7.628906338387341224e-01
-1.052438597634264006e-01
-2.060090124259144506e+00
7.886323499368779189e-01
-1.348546356685634606e+00
-1.659669723599566771e+00
-5.251076443988682563e-01
-1.354207108369438473e+00
1.868312537201340107e-01
-1.663948788114838484e+00
-2.035568173980081941e+00
-1.900014182745431102e+00
-4.638359227793132922e-01
1.051565346980932070e+00
3.385497077519565856e-01
-6.111884364828616967e-01
-2.213303028994602628e-01
5.700678040885148734e-01
1.972358395303966672e-01
-3.184505876003494440e-01
7.627551704087612294e-02
-2.152649816759311940e-01
1.321099148927479261e+00
-9.128390025381013517e-01
4.207222953069488791e-01
-2.081573646521858376e-02
4.887594940738859695e-01
5.496055753836507352e-01
6.205645284028972197e-01
-1.113653096734174452e+00
3.734980934985502321e-01
-1.810079136327479743e+00
-4.721488257014537782e-01
-1.725161290382698720e+00
-1.204703928949870440e+00
-1.868592302352110046e+00
-2.105021622249468205e+00
-1.251215979442213300e+00
-9.726654991377948756e-01
-1.316161990985750929e+00
-1.757015721940259567e+00
6.692599755472348200e-01
-4.236402111674463788e-01
-4.096034568985806312e-01
9.383497767777675413e-01
8.322880051115000288e-01
-1.065250913245306547e-01
1.022070183533436039e+00
1.626031994899199140e-01
5.913037208407924128e-01
-7.809562730748610404e-01
-9.240460931924617816e-01
5.842616028060351185e-01
-2.144421485941150618e-01
6.574456042234055886e-01
-1.854680700007715066e-01
1.167921785307470373e+00
9.028945164631203557e-01
3.810945327963936591e-01
5.601771254907664810e-01
-9.793023790481489854e-01
-1.134119302744568181e+00
-5.877680119150854310e-01
-2.073514385759982037e+00
-3.828944421684628563e-01
1.025578869938287951e+00
1.370301893050438757e-01
-2.725487403242162765e-01
-2.144335470385833053e-01
-9.476325007293748826e-01
-1.391734980452424608e+00
-1.803252576816139277e-02
-3.563048233101416828e-01
2.395289056127785851e-02
3.548706727325282584e-01
4.761260008031469315e-01
-1.300826979745862921e+00
2.398784521633507208e-02
-8.833249722430601691e-01
-8.309422794033780035e-02
2.469983586302767001e-02
1.510728945515527499e+00
7.720877210461296603e-01
3.283820730032595281e-02
-1.937910530631663242e-01
3.957337734584832623e-01
-8.562029966929121105e-01
7.486428178971551439e-01
1.336794658215479936e+00
-6.064870021375573517e-02
2.154480698107085479e-01
-1.962814713134747036e-01
9.835234494416992268e-01
-1.033382276974613267e+00
6.747381393017535256e-01
-6.170996082957382889e-01
8.144286420008540750e-01
3.122162219945412986e-01
5.703208587738241020e-01
-1.129917230736860567e+00
2.036993222648318669e-02
9.209919090187196344e-01
-9.969788977234461669e-02
-1.026358762632273436e+00
-8.925269631701464590e-01
-9.184963835487242045e-01
5.532790089135468659e-01
-1.159466020538945985e+00
2.194274835386204270e+00
1.722338065358994252e-01
6.883928062067787845e-01
-5.458609296784447951e-01
1.212088294430093555e-01
-3.721968125826793372e-01
-7.748758881659516540e-01
2.353691131189138974e-01
2.241036102755613879e-01
2.929721592633582339e-01
-7.376398352375200806e-01
-7.085958047091957257e-02
8.575314056491438741e-01
7.013262105908673050e-01
-6.216898663361998534e-02
-1.678282346456425156e+00
-3.290515702681111598e-01
1.267296141804427956e+00
-4.548178694836914060e-01
-1.729166593074476621e+00
-8.520672943808053901e-02
6.125033328645795860e-01
1.292628981764968876e-01
9.092659113544446781e-01
1.598430525717394968e+00
-1.282547779404862309e-01
1.310625545591061814e+00
-1.092927961815513549e-01
-8.175881668699658267e-01
3.094775176450106358e-01
2.355068096289706855e-02
-2.893713125514323359e-01
1.022881428320846289e-02
2.273590745047330830e-01
1.283871472825437010e+00
1.963602027355323132e-01
3.832171147966719205e-01
-4.191865722292864027e-01
6.381012612578404464e-02
3.281607471461386871e-01
7.863064884977799540e-01
5.387652177764785666e-01
-7.013436817983681459e-01
-7.510125283036384047e-01
-1.026675052261512011e-01
-3.920007270865578652e-01
-2.269246604297341097e-01
8.956217844535030448e-01
8.412079816315461978e-01
2.326239623270283108e-01
-1.801304274158283536e-01
2.778147021525469440e-01
7.114300833747668307e+00
