-1.348231102470444087e+00
-1.478423023593975760e-01
2.246801512730575989e-01
-1.193106199720390892e+00
7.434684338297636863e-01
1.617004332884787399e+00
1.903718275863327536e+00
1.559841993925015879e+00
2.270168342254091087e-01
-8.905537112025319058e-01
7.111127219942505739e-01
4.170852470456924352e-03
5.626643904185015810e-01
1.209391253996875415e+00
5.551403688717244655e-01
8.667865163717431987e-01
-6.356773694427929611e-01
1.251374696011507137e-01
6.729976943471754902e-01
2.594707518621912623e-01
6.586161014135214486e-01
3.501865254269429517e-01
1.448739709891099015e+00
9.742664662224503891e-01
1.090787972958288332e+00
5.924980728710540490e-01
4.860184509807796704e-01
1.085663134868461777e+00
-2.327351337039609835e-01
8.903260399234297351e-01
1.764400888132724443e-01
-3.997921135411855453e-01
-7.575135692950856203e-01
6.912782518482853966e-01
-6.477705102500814771e-01
1.020249300902254630e+00
-7.409494955926784199e-01
-2.422256369517655550e+00
-5.570511315953300402e-01
-2.966704930470802359e-02
4.860560438639232594e-01
-2.886911250697460907e-01
-3.723636453137849633e-01
-4.569282689626154026e-01
6.130898674965709061e-01
-2.687490794067228482e-03
1.538456331188194692e+00
3.492727069854164590e-01
7.485202756767522780e-01
1.832887640206679380e+00
3.108641429455709648e-01
1.417733984700089378e+00
1.355957243447416527e+00
9.506602746178713925e-01
6.708452184657328621e-01
2.232552818364052366e-03
7.688543325657855032e-01
-1.039603958124294403e+00
4.705187025963144531e-01
-5.542558394657538107e-02
-5.744406067531043769e-01
1.482901143911106390e+00
-7.722549460770784524e-01
-8.033404797679415399e-01
-5.260564097593050520e-02
2.670820854072351036e-01
-9.151960099304314034e-02
-3.735094589658309316e-01
-3.468834918152473995e-02
3.256409993612648379e-01
5.571829518293451577e-02
-2.138556222361577497e+00
2.038077089852317947e+00
1.312647211838703587e+00
8.969083868560747685e-01
-5.136923138115230270e-01
4.571874192673073822e-01
1.037627432302465902e+00
7.536921593166370226e-01
1.605452101070465210e+00
9.843128513411079084e-01
-7.563701941183577082e-01
-4.599822174936881169e-01
-1.307491884573061647e+00
-1.093916930387248132e-01
-6.941004150511319581e-01
-2.514325488161336608e+00
-5.922103676311147868e-01
-4.500471834454181641e-01
-1.194070295671517901e+00
1.338326614191621411e-01
-1.107544141362539980e+00
4.129083055682131187e-01
2.374711577440392851e+00
1.860426917605541908e+00
-1.175779314765989625e+00
-1.036676622119254709e+00
2.281535461972030998e-01
3.291706597086415664e-01
1.062007420608422015e+00
-9.156460286749956712e-01
3.482423236348640150e-01
-1.011530382643651471e+00
3.625341267530096112e-01
1.522881454098077084e-02
3.544153261010132283e-01
-7.598910083154466477e-01
1.087448768218373552e+00
7.489341431743297139e-01
-2.050581748552046779e+00
8.109708700377676882e-01
-7.862679331387990578e-01
8.997872636463105644e-01
-1.447413693499585818e+00
-1.147761337053253339e+00
1.071681843430517755e+00
8.142226839153777762e-01
-1.161805345044029991e+00
6.943262651521725504e-01
7.851843597807149910e-01
7.740288321687043283e-01
-2.483314999369017895e-01
1.171521996772833196e+00
-1.325823756674835985e-01
-3.904163350640295072e-01
-1.778281171443125475e+00
-2.122149117598123524e+00
-1.656079774408893535e+00
4.340302648963319243e-02
3.732989794401327388e-01
6.956189118246226544e-01
1.541350947308432584e+00
1.887215748937488335e+00
-1.244841072001910520e+00
7.339858086116466396e-01
9.106559496355225158e-02
-4.186853642779260753e-01
6.144956111018797795e-01
-5.549657935017615618e-01
7.577456897188454832e-01
1.067366044801727698e+00
1.381016752968015071e+00
-1.102862365640843167e+00
3.852531221789286531e-01
7.277921345600691927e-01
-1.273608259053738312e+00
3.842119561186611021e-01
-4.445609274772894387e-02
-1.230976788414208656e+00
-1.599178608120730649e+00
3.364382905583158667e-01
8.211087134221007888e-01
-3.545506614397060940e-01
9.183182692742399011e-02
-1.556724310361677022e+00
-4.930731954420675134e-01
-1.821602872868770984e+00
-2.380907104924896711e-01
-2.494902586860551885e+00
-6.075178953446778163e-01
-2.944353200051794128e-01
-5.313161920493376655e-01
7.927305777329044512e-01
-1.199634148842039671e+00
-9.005815106723249475e-01
-3.947310789459971825e-01
7.362115395999409007e-01
-6.601840501070800615e-02
-1.814446581046307294e-01
7.978497477906160151e-01
1.793961748835998682e+00
8.418446740705457509e-01
-5.416480128217835421e-01
9.816232059667562293e-02
-4.970077597983663803e-02
-7.641434495868834054e-01
2.122528955934636752e+00
1.151955451476499359e+00
-1.517588885901007156e+00
5.924447074780113676e-01
-1.821118246418807374e+00
-6.910125185973333695e-01
4.305358015496166812e-01
-9.502732323424690764e-01
3.957720212135640847e-01
3.761568964173254148e-01
-2.350877266327863757e-01
5.745640984174337218e-01
-1.683283168795876472e+00
-6.349402091109024315e-01
-3.097843538136251240e-01
-1.985685724015140430e-01
-1.461157652687536279e+00
2.730788771021681605e-01
5.825640193345445195e-02
2.157432842317193455e-01
-6.406156592715193110e-01
4.057880492828443431e-01
-9.997826460786495284e-01
1.333990986850966731e+00
-1.215178996308338005e-02
5.358517665857727152e-01
9.289263252365049794e-01
4.453988813811258218e-01
-5.852929853757768974e-01
8.115317847828393827e-01
1.277836490037471129e-01
2.030635108254085885e+00
9.390396696850284997e-01
1.335459200044473604e+00
9.973000887567868844e-01
9.028393256002708034e-01
2.418635465461800749e+00
3.338265689942142567e-01
6.514681837030843470e-01
-4.718843092731722644e-01
2.051616119888593825e+00
-7.078405477348355124e-01
-6.813498013328727065e-01
-2.203299737264303726e+00
-4.437765511485204373e-01
1.348094514200755656e+00
-1.936647596246889425e+00
-3.506457926252430357e-01
1.092280257399546928e+00
-4.949090808519226448e-01
-4.508177456943789907e-01
5.053668245374767221e-01
-7.245605544779948337e-01
-7.915363316753873946e-01
-1.082399894831029163e+00
-1.537492770082412141e+00
3.737717752511025560e-01
-1.263675681135125184e-01
-9.029215434913007154e-01
6.988530333465319266e-01
4.373747997785503161e-01
-8.624150941643147217e-01
9.280541711588458087e-01
-3.461221715634831830e-01
2.720923404494912656e-01
-3.402225838617132792e-01
7.574422315893409863e-01
-6.381871722229336408e-01
4.927088423385287963e-01
1.709891842732475187e+00
-2.295360972348364559e+00
6.745968556246885184e-01
7.006697575327466287e-01
-1.239689628445632241e+00
4.989900361475358981e-01
2.154569604337296662e-01
1.069955322602513491e-02
-1.832415182327875869e-01
-1.075083235378957669e+00
-5.462849671573924981e-01
-1.283372344426088718e+00
3.630832673486087403e-01
2.238927940073610900e-01
-1.233695572800740603e+00
-5.895079885785817764e-01
-5.425000599056520878e-01
-6.590420314773558497e-01
1.297671608959302558e+00
5.045490617116846765e-01
8.396613917144631900e-01
1.185148008856669488e+00
2.284733510174261628e+00
3.478345499141073383e-01
1.008303051096118175e+00
1.115429448227018838e+00
1.170784684064493764e+00
-2.557679224903873227e-01
-9.080838532396768858e-01
-2.068438831642646081e-01
-1.205906765102714440e+00
-6.165660884138853166e-03
3.977232652962785497e-01
-1.419890681315280068e+00
3.951868868726818862e-01
-8.723238139581358103e-03
-1.846613835324740105e+00
9.561141009708910010e-01
-6.839714054775732077e-02
3.995777612378639126e-02
4.734769601190368937e-01
-2.696483953881961271e-01
-1.966283990412784899e-01
7.345581614600010800e-01
-1.239084308484355024e-01
-1.695635048902199848e+00
2.674897259000704963e+00
7.409949087714692850e-02
6.855549624887539162e-01
4.484698487823204349e-01
9.288570584413236020e-01
-6.186925795701664343e-01
1.201392029908833897e-01
-7.518168432602079232e-01
-1.198090173845443251e+00
-1.051685959919016256e+00
-1.475674708368105159e-01
-2.596931029254672119e-01
-1.515848111062766179e+00
-1.546828050066664240e+00
1.148930868809056038e+00
3.602703110236330497e-01
4.535826578282873278e-01
-3.581816774962641170e-01
9.697064472290548021e-02
-4.376417908452377437e-01
2.777158769001336069e-01
1.461963198128323427e+00
1.342006362038006939e+00
-1.015433066939836371e+00
-5.859936047770911149e-02
2.954269735996596646e-02
8.068164986507079250e-01
4.639655300800674675e-01
-1.541362520812856740e-01
3.842191317683426588e-01
-1.638056698810690603e+00
-1.621377287244266441e+00
1.214639742877813733e+00
2.269111730466915056e+00
1.051433551479001638e+00
1.474511075981489894e+00
4.225327301492616816e-01
-1.244259691091918335e-01
7.739294096588595906e-01
-6.955904631557403850e-02
-1.327789209930902992e+00
-3.655167508393331488e+00
-6.292882189326042264e-01
-1.195272257391099407e-01
-9.696301551342400016e-01
-1.268941817704532848e+00
1.096304417524747610e+00
-5.183337106624270607e-01
-1.314953787889083514e-01
-3.087314241864473341e-01
-1.442534974215196275e+00
-3.056813082014697147e-01
8.534667822440907825e-01
-9.021766694927385588e-01
-8.964631100110231898e-01
3.381048061209455113e+00
7.755059572080749142e-01
1.676153097208202269e-01
-6.438105742001835052e-01
1.228687860133565790e+00
4.564567405605971517e-01
2.562883371942073829e+00
3.202102680403477120e+00
1.567417622438098457e+00
1.417337240929709363e+00
5.326793617642777701e-01
-1.402450869134577838e+00
7.642201162973027984e-01
7.003576146392719304e-01
-6.816546014640300077e-01
-3.464112318645407029e-01
1.436020604270713097e+00
-5.605780536869426900e-01
9.434041807740897179e-01
1.064543197851999690e+00
4.573491181605046085e-01
5.515019596446261163e-01
1.852384528890960169e+00
1.393575783843347793e+00
1.945296634980283157e+00
9.080546349553989538e-01
1.946513548743342703e+00
2.418594309909679829e+00
1.644953957765111552e+00
-7.260737505226873001e-01
-2.628283272351984667e+00
-1.723911149610163340e+00
-5.050508260937742744e-01
-2.512442323178131209e-01
4.222356770944324378e-02
4.662038916527754928e+00
-4.037317128871930616e-01
1.681666047598217695e+00
1.197015762745580636e+00
-2.964979154314969501e-01
7.459563652809306222e-02
-1.637808322930068838e-01
1.411394082880961687e+00
-2.833923441157235046e-01
7.941657325596132577e-02
5.720743469435658757e-02
-1.208889089831241201e-02
-1.568180566278322141e+00
1.371477317383962280e+00
6.570455698343081741e-01
8.202141389745279954e-01
1.635731893085433208e+00
2.710318603043102570e+00
1.668815711836536542e+00
5.089058451026348129e-01
5.652687237869729042e-01
-1.787839750643784587e-01
3.017813857151723789e-01
-1.774758349748317476e+00
-8.494558727319853064e-01
-2.000739328401180295e+00
1.834058214010246823e+00
1.348335778941041507e+00
1.357721137669507083e+00
1.682148158824026574e+00
2.012323984141137778e+00
1.348091466711621278e+00
1.142954518859178759e+00
1.959222955078194106e+00
1.168388996736070551e+00
4.868198790666258269e-01
-3.725507385295600410e-02
1.579097961671347639e+00
-4.751486380305679491e-01
3.682906066484015195e-01
3.223464965692711126e-01
1.248187197221494182e+00
-1.437349989767559011e-01
9.070915781676023304e-01
7.667145299503888012e-01
1.161022569563495477e+00
1.192081026825040357e+00
2.218492418583974946e+00
5.264700697185988876e-01
7.692639021573461910e-01
-5.388946680597593852e-01
-1.546402903850264243e+00
-3.082487431159178559e+00
-1.912153083282796651e+00
4.849704110811164370e-01
2.202692727836182751e+00
1.783393173969131995e+00
3.765526971265982237e-01
5.490062628969046843e-01
-1.367977601444439750e-01
3.791978641589175858e+00
1.692648545834760876e+00
8.987442321713577931e-01
-7.986999743722282830e-01
6.226645573720979154e-01
1.172252003814453936e+00
1.326782990177598931e+00
-4.701810602098630554e-01
-7.614374552557842124e-01
5.150427001911660474e-01
5.306952446258751399e-01
-1.026034858329665234e+00
3.719234465491020325e-01
1.205459542332001782e-01
1.989568008912771635e+00
-1.517744770503669516e-01
-3.686444142188249340e-01
-5.048095170523124731e-01
-7.573190139347356631e-01
-2.065118060514301579e+00
-2.085222367647853403e+00
-7.599004766409114264e-01
5.370611990640313804e-01
-3.601931505830989200e-01
1.809106356953853689e+00
1.857975886250487207e-01
1.417653854571184757e-01
1.305751548887948976e+00
1.585446423041068975e+00
5.843908003974158660e-01
-4.064042024939698017e-01
-3.222976931203864193e-01
1.231287967401756278e+00
1.110708011631993841e+00
8.023598930343751601e-01
-5.625141148507938338e-01
-1.052538774727401483e-01
-1.802396204469081942e-01
-4.398404894077462268e-01
8.561579133066904435e-01
-2.918678346622698982e-01
1.048775945934118103e-01
-2.101574739639860134e-01
-1.874576910907954863e+00
1.181384273858539613e+00
-1.956575315103275425e+00
-1.738267642843594585e+00
-1.703714655315114346e+00
-2.617949440427337571e+00
-5.011448551552742936e-01
1.555009787045896319e+00
2.413089175244910844e+00
9.958053962092573708e-02
-8.101758810757072604e-01
1.491314959901635762e+00
1.301573971781727401e+00
5.792598035267466638e-01
-5.625134107006048989e-01
-9.530466875697392037e-01
1.961697400827650262e-01
-1.626832832811001828e-01
1.010806364369615934e-01
5.455466678386280271e-02
-5.074236701616932077e-01
-2.101329757746098981e+00
3.968010488290583115e-01
-1.166779923865951529e+00
6.964334269199714544e-01
-4.561633703134980733e-01
7.623578807550582814e-01
-1.365672076132719015e+00
1.104226252027852073e+00
-1.608226974832525080e+00
-2.245086765546234098e+00
-1.656508052478114612e+00
1.089665849227690470e-01
-1.544503296730552755e+00
1.531874491438575125e+00
-1.755196752696221996e-01
-1.023529107614149947e+00
1.530731590682670173e+00
-3.559014890064907122e-01
-1.027211859704227015e+00
1.581878260614704379e+00
1.194713812303324629e-02
-7.721213168886906231e-02
-9.172425121925122937e-01
-9.583431737583837373e-01
-6.293628417563905675e-01
-4.690677313085560574e-01
-2.697162790235674845e-01
3.688964016936707724e-01
9.864304799685433833e-01
-9.414831633823185497e-02
-1.284462065950360055e+00
-4.988595358852160322e-01
-4.697075919748364137e-01
-6.709470660763918737e-01
-1.525385809194826248e+00
-7.449413449179123070e-01
-2.841258542637623563e+00
5.157432569187531124e-01
-1.653754450603765358e+00
-3.350129944438828389e+00
-8.141238049743715344e-01
1.667718804957901702e-01
-2.127852915819573310e-01
1.262152851292776823e-01
-2.498471762787651151e+00
2.177120197353042685e-01
-3.879660392731150709e-01
-1.435511646158414756e+00
2.210141697519695525e-01
-9.659975369705011694e-01
-1.471594402989197414e+00
1.114758424633650602e-01
2.154228582629689748e-01
6.149845754493810102e-01
1.145267672607987786e+00
-4.774224695550646214e-01
3.042123805256919944e-01
-1.056277008452853217e+00
-4.878062426785059746e-01
5.128004134258843383e-01
-1.114247287600180547e+00
-1.503720501220481509e+00
-1.261976720974727906e+00
-2.598651709188916303e+00
-2.585432817593263710e+00
-1.799230078408187383e+00
-1.018126640942328409e+00
-2.188058555375749226e+00
-2.894203684888204897e+00
-4.739645680546342166e-01
-1.166129896897959428e+00
1.137429728994754807e+00
-1.498245719749678351e+00
-3.695331282839465770e-01
3.201974146067912419e-02
-4.455102829675653409e-01
-1.911411721917718909e+00
-7.197016016667094618e-02
-5.573775758203362019e-01
-1.071886371547914746e-01
1.015499355692831340e+00
5.330615608623116009e-01
1.587179716869550727e+00
-9.372155162842607523e-02
-1.105820910718905647e+00
8.018869347796381275e-01
-3.594730778223547696e-01
-3.828158466022018036e-01
-1.724869345135183307e+00
-1.608724307788434782e+00
-2.993014402571316790e-01
-1.990215020459788597e+00
2.977757731779835937e-01
-1.634274963232330569e+00
2.933522016307709146e-01
-1.853769748726415756e+00
-1.031688604749844695e-01
-2.154555268251577171e+00
-6.979169586422501181e-01
2.637651673431231636e-01
2.637278893125000190e-01
-9.191269241207706830e-01
-3.291803252096371923e-01
-3.481146521274944838e+00
-1.834993970805244512e+00
5.412091313672467985e-01
-2.286180257389816561e-02
9.050087330860025203e-02
1.875217909461250443e+00
8.985214489527788562e-01
-4.149918709734667921e-01
-1.378585839816552028e+00
-3.034915158168096649e-01
-4.684302072260821403e-01
1.307015276959016425e+00
1.207963026360241221e+00
-9.051611827206056393e-01
2.955953461883332745e-01
-1.280778095576337039e+00
-9.579887129570726634e-01
-1.408432254463292566e+00
-1.957915185426753357e+00
-1.025902016237500991e+00
-1.247851737293358410e+00
-1.497662717533650323e+00
-2.152151492006582068e+00
-2.383307268701499559e+00
-2.755497111202933058e-01
-1.586533627949876735e+00
-1.347316925183606129e+00
-2.569293880481049452e+00
-1.128183158771952632e+00
6.926867179252671480e-02
-9.877246969799101661e-01
-1.262881015729699907e+00
-1.141475687407890849e+00
3.735127096227523480e-01
7.502701011781455209e-01
-1.101035087411636360e+00
8.275929820045009322e-01
-1.152174162810318370e+00
1.983571185572908346e+00
-1.607070053202037885e+00
-5.493051115820111185e-01
-4.334600642935276804e-01
4.814188109708665841e-01
1.002260363594066783e+00
-9.411013232814149365e-01
-7.540220340800335430e-01
4.630081212941959679e-02
-1.943154203450378814e+00
-2.892967743906440070e+00
-3.630392469048810966e+00
-8.378191364289863108e-01
-1.381494516042560461e+00
-1.923027665365952377e+00
-1.437095886628637409e+00
-8.678265031001639596e-01
-2.227489380054855417e+00
-2.304039669731729134e+00
-4.414534051531385922e-02
-1.178553368756227071e+00
1.022654568004911502e+00
-1.178803287526367788e-01
-8.514288630160156135e-01
1.421447358889693202e+00
-1.630841961102565962e-01
3.051134966297783246e-01
-8.399646392328790068e-01
2.948639169788178083e-01
5.077475890519619339e-01
4.005545634189668913e-01
1.797239383611217933e+00
-5.681965064322844761e-01
5.390409166189843448e-01
1.060060896589850810e+00
-8.432067738960150605e-01
1.661851506785446686e+00
1.197028732274555862e+00
-8.495259900332422509e-01
-7.958164201936864801e-01
-8.085287407711889696e-01
-2.152606910081204639e+00
-7.854537104929255609e-01
3.872215839926442249e-01
1.099730058370798069e+00
-7.117489935150599356e-01
7.858773583737772572e-01
6.653052477863902192e-01
-3.014818835681817855e-01
-1.910511177690470186e+00
4.711841340465272032e-01
-9.822526638958309353e-02
5.536936117788939793e-01
1.206264420925827308e+00
2.393175392102461885e+00
1.400218961075776258e+00
-2.276210801506415304e-01
1.055902422738755453e+00
-1.741754218129253906e-01
2.193144350662071140e+00
1.712331380876258580e+00
9.018736946748306949e-01
-2.748521366320300641e-01
-4.877517803533748530e-01
8.645894082910827727e-01
6.366724783079769079e-02
2.105000136614223472e+00
-7.648633808282206958e-01
4.136161498199383835e-01
2.631392544300141245e-01
-6.317629390865185934e-01
2.977272678122983018e-01
-7.564316759647189414e-01
-6.830400011072951250e-01
1.568491426125054211e+00
5.593419467541099754e-01
1.735110931839696224e+00
2.702357163570073828e-01
-4.689521992836386266e-01
-2.786500539774230401e-01
5.948106139998991793e-02
-2.311626123272274985e-02
1.220663517282382982e+00
-9.750278919695608559e-01
9.648775656300836445e-01
6.412499671292637426e-02
1.552947329585511183e+00
-1.095761402690041075e+00
7.752871518647744820e-01
-1.124821592112612345e+00
9.175593362077317794e-01
-2.263263542954067342e-01
3.388185060576593965e-01
1.307018607613783967e+00
-1.101128628652043445e-01
2.779971366645592745e-01
-2.504980218956755489e-01
4.289559178189934485e-01
1.190396115936255411e-01
-6.270111067812526029e-01
3.203324098742226789e-01
4.365446714254412885e-01
1.844831114387512017e+00
7.771784534444553527e-01
-7.044595554145736127e-01
-1.482546959068307135e+00
-1.521232984440150926e-01
4.913059212660177977e-01
-1.124674206066423182e-01
2.212989720318043751e+00
4.664988948237921984e-01
6.711276396524776811e-01
3.180609567219313399e-02
-1.087959308939218661e-01
-7.474028770911168573e-01
3.269342145688655110e-01
-1.170360128078127004e-01
-5.599710914587413546e-01
3.052811658907519932e-01
1.582910038345818116e+00
-1.939204261149591435e+00
6.662654945356273339e-01
1.678941137547525220e-01
-1.210195731221676896e+00
-2.631236820414733502e-01
-2.068345400868778217e-01
-1.728635278119452279e+00
4.803822143061145522e-01
4.643462281141932935e-01
-2.299536765460398202e-01
2.815159499094130324e-01
1.473818889279348010e+00
-7.844789430259961893e-01
8.847922523565958652e-01
-9.850348581795428937e-02
4.638427257300568596e-01
5.369414918140263948e-01
1.962164502936777799e+00
7.002560695194787854e+00
