-1.409336700241706097e+00
-1.569267534112734896e-01
2.369153205950200181e-01
-1.245937959402957596e+00
7.789708712936278534e-01
1.679965690434403136e+00
1.992164087492525271e+00
1.635424115131853595e+00
2.406516303295690440e-01
-9.357777455470454031e-01
7.488163039218058703e-01
8.040021508293745262e-03
5.920031576271985729e-01
1.257278949995883854e+00
5.810111747981071550e-01
9.024246128428747848e-01
-6.699287222266839814e-01
1.304857675973312148e-01
6.985496413774738844e-01
2.683969865665014054e-01
6.873307594263428077e-01
3.627160138908369635e-01
1.516740138225770806e+00
1.015469182186921948e+00
1.133473912047157750e+00
6.196528835482847386e-01
5.008029736805564847e-01
1.136778379712708675e+00
-2.452244536390876528e-01
9.326781100465628693e-01
1.830795753119736635e-01
-4.164113470791468430e-01
-7.906974354108875502e-01
7.229743947226531242e-01
-6.842360281098001096e-01
1.064961104643811884e+00
-7.849194786638205024e-01
-2.527777504794396446e+00
-5.850514636744590380e-01
-3.041171318832458850e-02
5.118032807703852827e-01
-2.966677455836961852e-01
-3.814190385683488005e-01
-4.791379421379634573e-01
6.400529639567447138e-01
-3.047094720749503674e-03
1.604270257724754067e+00
3.543984603782666665e-01
7.822563720556395817e-01
1.921843351142636047e+00
3.188365746824255997e-01
1.477250999158469025e+00
1.419174312261487492e+00
9.943758597466867410e-01
7.053431656507553882e-01
-2.426032442650590502e-03
8.008699811910392485e-01
-1.086155276004932446e+00
4.906476395237232002e-01
-6.052276320112275759e-02
-6.005028848075723014e-01
1.551196549757116960e+00
-8.069549784286674798e-01
-8.355951305806952334e-01
-5.852786445287390393e-02
2.797536785528949022e-01
-1.009474850448224270e-01
-3.855457626290521023e-01
-3.436888165437389925e-02
3.346793370420478309e-01
5.764155852646475620e-02
-2.236713496253465383e+00
2.132595913226839723e+00
1.363487302189533290e+00
9.334693258684326755e-01
-5.369996922960611485e-01
4.804937863531146824e-01
1.078642623156444769e+00
7.803672188268955257e-01
1.676978614265863587e+00
1.021209957108521582e+00
-7.881875322324989330e-01
-4.817707282833167404e-01
-1.364723591618930421e+00
-1.114524641308128339e-01
-7.251605074521091376e-01
-2.634735041386041310e+00
-6.177348962723697712e-01
-4.751517943184686010e-01
-1.250548439214977714e+00
1.357305995611307881e-01
-1.157860217084531795e+00
4.328710384277196233e-01
2.468511477548467781e+00
1.940714931603660931e+00
-1.229922977244469751e+00
-1.087327404104015294e+00
2.374615294898873297e-01
3.363488387595113260e-01
1.112673598534940078e+00
-9.609628681326182198e-01
3.678291619323703077e-01
-1.062020987582391607e+00
3.795476736681546726e-01
1.762408861485155812e-02
3.689816971249004762e-01
-7.961160680621068853e-01
1.129363255117333154e+00
7.853334344197185901e-01
-2.148202243932556321e+00
8.496071937056203227e-01
-8.283357987737095529e-01
9.419858129824525417e-01
-1.506624406305018704e+00
-1.201803109742665798e+00
1.120502876585570684e+00
8.526646026267874490e-01
-1.218174729641785969e+00
7.237241705877307529e-01
8.257397219446975800e-01
8.094946912234954883e-01
-2.619035673593647640e-01
1.215175868310503837e+00
-1.379702056435647972e-01
-4.069361883508972877e-01
-1.855077807196795492e+00
-2.212474276520018712e+00
-1.732368106778063188e+00
4.667657748345076935e-02
3.873273625590469837e-01
7.312016008361448272e-01
1.616979585987195600e+00
1.964626688563477996e+00
-1.301209028132930046e+00
7.632696483257990216e-01
8.459141877874490345e-02
-4.343916557038706161e-01
6.490075039515994515e-01
-5.754942457023570768e-01
7.855551580557047497e-01
1.112649861252387851e+00
1.447547325026532272e+00
-1.159674430774965348e+00
4.100728886608473456e-01
7.567991829213026600e-01
-1.338198517512046992e+00
4.018886430973279134e-01
-4.647654432148250886e-02
-1.287263943300254398e+00
-1.673185097402476451e+00
3.522766610654362029e-01
8.692618681734251007e-01
-3.781748157120509712e-01
9.578596744465757429e-02
-1.619009544423064106e+00
-5.043834194401629611e-01
-1.904381264824865694e+00
-2.448768169757640500e-01
-2.608580076923028734e+00
-6.336504310577218968e-01
-3.050587548369333435e-01
-5.605256664573419201e-01
8.380795085670589284e-01
-1.263226435363179689e+00
-9.417388747805092164e-01
-4.155390266516105768e-01
7.580413148035800575e-01
-5.406507407346404503e-02
-1.991215191274948726e-01
8.338810827654985491e-01
1.877786607588881385e+00
8.837268241114548672e-01
-5.708956355098717683e-01
1.030711683225744718e-01
-5.911067653513846221e-02
-7.919062311931679421e-01
2.222009707861653638e+00
1.200786469053391370e+00
-1.589202135822715523e+00
6.299992275384082019e-01
-1.902078737356462934e+00
-7.165575914013887493e-01
4.563647091023547708e-01
-9.862305075864509218e-01
4.099932297110763790e-01
3.899310496166237816e-01
-2.481406157434248028e-01
6.049323940431706736e-01
-1.758005528689541075e+00
-6.579469137903820597e-01
-3.226323023771338061e-01
-2.008318204721828981e-01
-1.525583070025693821e+00
2.795913704720273119e-01
5.692796320734706123e-02
2.276256449732031173e-01
-6.688584556849854756e-01
4.307748063636093749e-01
-1.048487995918296667e+00
1.386519597446865815e+00
-1.580305802288415121e-02
5.457796286284344323e-01
9.691352840409922509e-01
4.729939663294154273e-01
-6.099762270604117687e-01
8.459012680662342243e-01
1.373967486519626080e-01
2.121041890623542425e+00
9.720021801784031190e-01
1.393516167206432232e+00
1.037746548916224532e+00
9.277966520469115297e-01
2.523119656766722230e+00
3.388907987440361036e-01
6.794706914356066774e-01
-4.935432713930543169e-01
2.151673625235205556e+00
-7.313648380954016481e-01
-7.204305222120772623e-01
-2.287837091291522906e+00
-4.586554528785743434e-01
1.417234812529612142e+00
-2.024192563721944005e+00
-3.612477448579635153e-01
1.135476289765328106e+00
-5.139525517794608644e-01
-4.704857420977347493e-01
5.301649133015476911e-01
-7.558272175079622235e-01
-8.275945287296946340e-01
-1.130654271025354207e+00
-1.606544416824436938e+00
3.916476049227234357e-01
-1.320947348273015243e-01
-9.451732787678698289e-01
7.246956038439238412e-01
4.630076308651475681e-01
-9.034051808024955443e-01
9.676579628488345408e-01
-3.769983917285883446e-01
2.824659897952354615e-01
-3.559803973082009132e-01
7.956627236446015550e-01
-6.667575591709467009e-01
5.084962616179559136e-01
1.796140640598474780e+00
-2.397078731347688674e+00
7.049511016789881124e-01
7.418605093983033916e-01
-1.294912759022714077e+00
5.236624342477782523e-01
2.236056851113019384e-01
1.602561651887383226e-02
-1.891647000266333534e-01
-1.121567863305169777e+00
-5.686595365826947468e-01
-1.339763634896450784e+00
3.802350649111942982e-01
2.299889520067196491e-01
-1.287045620089788178e+00
-6.126511097129493377e-01
-5.626514680870542406e-01
-6.876866812484446756e-01
1.357459377635796383e+00
5.266934194343344533e-01
8.794530052421538624e-01
1.232316817017576671e+00
2.383943050253920948e+00
3.665357425210439835e-01
1.054371046430501169e+00
1.158250554517734399e+00
1.227801105226295153e+00
-2.668169962925303063e-01
-9.425284727595909517e-01
-2.179777446471817259e-01
-1.253355903188940967e+00
-2.730609591834971383e-03
4.191975196131357828e-01
-1.481319981780718997e+00
4.157825041847676983e-01
-1.155887049363200914e-02
-1.927805043078992364e+00
9.947599440675141125e-01
-7.264790875517411484e-02
4.797640174752543923e-02
4.990940887996210273e-01
-2.745658733967295539e-01
-2.096992513384399182e-01
7.640073082006458849e-01
-1.299175011331931973e-01
-1.773093108009221597e+00
2.781666292878244739e+00
8.390575154897896015e-02
7.098092612908776244e-01
4.676190293683775701e-01
9.672771731619581592e-01
-6.530708134826805900e-01
1.225244098466370946e-01
-7.865530686113004766e-01
-1.251802448722733274e+00
-1.106209787824001589e+00
-1.455268245130292848e-01
-2.730984007067494557e-01
-1.585674314456017919e+00
-1.619858572573543709e+00
1.200442152705228915e+00
3.700408371455635725e-01
4.753323738118442332e-01
-3.796931379223691949e-01
1.059238677962580644e-01
-4.600095584195197929e-01
2.929295202139246546e-01
1.522975859863736403e+00
1.403289010901434652e+00
-1.062176985222565762e+00
-5.115430826996181929e-02
2.737184498206554281e-02
8.519390085277711577e-01
4.855400841232037079e-01
-1.689652892600320977e-01
4.039863080293030762e-01
-1.710961836088657373e+00
-1.695985752536380176e+00
1.265085241680271144e+00
2.364995506758425847e+00
1.095314390374268587e+00
1.529942752681511475e+00
4.408624559099415530e-01
-1.261947349657062678e-01
8.089002110798513279e-01
-6.589407062820473726e-02
-1.397622501192124389e+00
-3.816493783606567103e+00
-6.602044805261384486e-01
-1.259793443686429426e-01
-1.014678393421958535e+00
-1.328947429938412750e+00
1.141441149578766412e+00
-5.410566879378168048e-01
-1.346319055450912183e-01
-3.273985530160608559e-01
-1.506532402526645997e+00
-3.214030869524323597e-01
8.862614779850928048e-01
-9.447168827924008472e-01
-9.387558087038719856e-01
3.525248850157121083e+00
8.070044008927713675e-01
1.846394290984078868e-01
-6.670281218728917327e-01
1.283969381620738259e+00
4.771765026271949095e-01
2.673767793740339904e+00
3.346176099060122588e+00
1.632627245106415437e+00
1.485962878638552365e+00
5.558698680969568207e-01
-1.465402025152381604e+00
7.984805863772936885e-01
7.295716342135732946e-01
-7.073273472468627476e-01
-3.601127369492291286e-01
1.498950848926540180e+00
-5.851897040514190129e-01
9.869199416167298011e-01
1.117696224487360279e+00
4.795744268483068673e-01
5.730122655204317184e-01
1.930715279531826534e+00
1.448744767153725688e+00
2.037005737521316195e+00
9.380614818927585086e-01
2.029879955363541377e+00
2.528521218921804259e+00
1.707302121456462540e+00
-7.561459277900270948e-01
-2.742645670865709651e+00
-1.797273406445005550e+00
-5.317617737484309215e-01
-2.628814235703929580e-01
3.430546502892362071e-02
4.864430367354064089e+00
-4.296581069027650690e-01
1.752119760929244485e+00
1.240854642004048713e+00
-3.080740866136373324e-01
7.433428773766312392e-02
-1.778648400153038378e-01
1.470693424547359962e+00
-2.937889109802841459e-01
8.426948763985880886e-02
5.757515896580964188e-02
-1.810527292775665487e-02
-1.640269131606093556e+00
1.436440252635790893e+00
6.881908067461927070e-01
8.563486879339761160e-01
1.707482830639169169e+00
2.831161777301762328e+00
1.738516257946869592e+00
5.297181633544831847e-01
5.847372784990262362e-01
-1.883139563110361181e-01
3.205092987517734193e-01
-1.852749380067147289e+00
-8.833172062199224905e-01
-2.091628016870156426e+00
1.915600285832170346e+00
1.406123361328073029e+00
1.402532974359367302e+00
1.750855823057687832e+00
2.099376554872858680e+00
1.412042747920483343e+00
1.193625358410464576e+00
2.047324790180337750e+00
1.227746803742221449e+00
5.022375861123045127e-01
-3.915667378907902729e-02
1.662215946654316268e+00
-4.912013181129635253e-01
3.833311775505528485e-01
3.339588980922672534e-01
1.303101931481421616e+00
-1.573267999046970289e-01
9.479305973112762684e-01
7.979792020847765732e-01
1.203417773338830044e+00
1.234365300487064943e+00
2.313294074450784166e+00
5.455857012847434850e-01
7.995539817779704350e-01
-5.641578970859971731e-01
-1.607644750962013536e+00
-3.216774530193548642e+00
-1.990228090560995255e+00
4.964513144641908293e-01
2.304430507684090745e+00
1.857033967328636459e+00
3.924259024327644840e-01
5.683759802949126527e-01
-1.493814371660677209e-01
3.958567876720657797e+00
1.768701817810098609e+00
9.375496201327415680e-01
-8.376512925434437262e-01
6.487636397187330761e-01
1.219259408749357565e+00
1.379083510314097705e+00
-4.859450056216287339e-01
-7.973555658662314638e-01
5.396012202390280121e-01
5.538087919416403437e-01
-1.070406243039730754e+00
3.879331556325197328e-01
1.256919877008233211e-01
2.073396803466935889e+00
-1.562709790467280979e-01
-3.891939534740753159e-01
-5.231332530381276325e-01
-7.773276163496765090e-01
-2.154952876630156666e+00
-2.166274857989338276e+00
-7.916088879914945364e-01
5.643103396810826844e-01
-3.799790337182460398e-01
1.883029285592470403e+00
1.911201715377713606e-01
1.401744748346355207e-01
1.360080599577567773e+00
1.658178406706755981e+00
6.051219626555044417e-01
-4.305920471016279061e-01
-3.379692496698818993e-01
1.277159400805634171e+00
1.160706588863864352e+00
8.393583303757661263e-01
-5.893881422105986534e-01
-1.161805579411158695e-01
-1.901147052090680911e-01
-4.625460418434450549e-01
8.934614302843898459e-01
-2.997057871379592564e-01
1.060608773929445359e-01
-2.203607494515180398e-01
-1.959704187296806399e+00
1.236374515152436793e+00
-2.049785653272255814e+00
-1.816776681836106855e+00
-1.769814187874348299e+00
-2.732137060827511732e+00
-5.242938987531773343e-01
1.622374806479734755e+00
2.515926492129893166e+00
1.041808836146316947e-01
-8.484138631811061204e-01
1.558146479692631425e+00
1.363996182701801008e+00
5.954077861878480649e-01
-5.938595764497776042e-01
-9.955093831291502715e-01
2.055845029503500510e-01
-1.755399334124350674e-01
1.070150922269163807e-01
5.881793147292099788e-02
-5.329316331990460176e-01
-2.188219305384942803e+00
4.178739718035777151e-01
-1.220333518567606523e+00
7.292873922837306289e-01
-4.774855284094722818e-01
8.020114368717961018e-01
-1.432300763148643963e+00
1.153228905041674857e+00
-1.671718118377592210e+00
-2.336890335905107197e+00
-1.721855360884610775e+00
1.254160745417007561e-01
-1.600742460232295938e+00
1.592674543096245676e+00
-1.838285367861476338e-01
-1.069240088883198991e+00
1.600864508786363771e+00
-3.767760395819378383e-01
-1.070301205771745368e+00
1.649133217215798863e+00
1.905408024197925709e-02
-7.787385290573056729e-02
-9.575789552853479769e-01
-9.966674194254409036e-01
-6.689877534769588241e-01
-4.902106539777971728e-01
-2.907677508526586574e-01
3.832895181835734300e-01
1.037788865466843236e+00
-1.005790053804032774e-01
-1.342557613499464342e+00
-5.250697106716889495e-01
-4.948779069186147739e-01
-6.976644298567333813e-01
-1.590158036738858804e+00
-7.706485405016724188e-01
-2.965802061455228955e+00
5.481064406592688343e-01
-1.722726284358932825e+00
-3.489043812949623291e+00
-8.511522291798623296e-01
1.677084104766756734e-01
-2.176896804594094237e-01
1.274151110352308713e-01
-2.606038459398180240e+00
2.310219327124335142e-01
-4.086672064027654372e-01
-1.508864018918857797e+00
2.384958157715415250e-01
-1.018319687994600597e+00
-1.542183949366240592e+00
1.136745995800776260e-01
2.296223444983300777e-01
6.471192121333890768e-01
1.200813754448287085e+00
-4.934333694937472203e-01
3.180984101228285232e-01
-1.106191065009876962e+00
-5.115825227096554295e-01
5.413682215792213759e-01
-1.155901331092085593e+00
-1.571886060503846716e+00
-1.306718742544386247e+00
-2.704469665315539562e+00
-2.692151914177269845e+00
-1.881333545905687021e+00
-1.053860102491229300e+00
-2.290802849835927635e+00
-3.023248783918226046e+00
-4.889982513946678488e-01
-1.226485911726274969e+00
1.189550336377178663e+00
-1.571192138209482003e+00
-3.795619901861111978e-01
3.714599365761672711e-02
-4.697211244934511032e-01
-1.985407555268292157e+00
-7.289662340576556765e-02
-5.823966275255363367e-01
-1.130184515588390781e-01
1.062675707366640188e+00
5.617358410636074106e-01
1.667699013321212176e+00
-8.766185910486794242e-02
-1.159387839356277983e+00
8.383788804372579451e-01
-3.828830150407413480e-01
-4.056543364098932347e-01
-1.794841119308771882e+00
-1.681830387548496786e+00
-3.035059442465171120e-01
-2.070626219279048552e+00
3.217804439582058196e-01
-1.704859254755271225e+00
3.125713765576250691e-01
-1.931628083982444899e+00
-9.726591477158591514e-02
-2.242771040071560584e+00
-7.221030522977543997e-01
2.766844281809883732e-01
2.858005243976354248e-01
-9.659394840135760996e-01
-3.380492378384545860e-01
-3.624153711153687674e+00
-1.913428695458028406e+00
5.634663775501655980e-01
-2.379353023588446150e-02
9.317191671409692788e-02
1.954009481627290379e+00
9.454959338953532466e-01
-4.403772244956879467e-01
-1.446640113602782662e+00
-3.186843250952642315e-01
-4.910097731524591391e-01
1.367172022583138524e+00
1.272522295643246704e+00
-9.460664531315722270e-01
3.059578646281035930e-01
-1.334688917172444311e+00
-9.988659011275832222e-01
-1.465405013728961592e+00
-2.044205000629665481e+00
-1.064401032793219404e+00
-1.294197126222700556e+00
-1.552303465623679157e+00
-2.250348684585333547e+00
-2.479633426936374452e+00
-2.743592348448625207e-01
-1.655806992283456403e+00
-1.399907584629568769e+00
-2.679490534287434222e+00
-1.177604642468059293e+00
7.235734064295934465e-02
-1.023635322435086259e+00
-1.318410566733613898e+00
-1.198667954441070771e+00
3.919164766773963748e-01
7.733819130082209004e-01
-1.155422649363930798e+00
8.570905361988714333e-01
-1.196915752850534087e+00
2.071325757426795366e+00
-1.675614126642015478e+00
-5.777794420506809914e-01
-4.483330878494709015e-01
4.992844837030395166e-01
1.054397254047942711e+00
-9.875183941641297869e-01
-7.932385958381144020e-01
5.594939654923834771e-02
-2.027417752224370595e+00
-3.020468611884078225e+00
-3.793470838643817622e+00
-8.770717457754101387e-01
-1.434958534949089870e+00
-2.003591298769318296e+00
-1.504099075371236660e+00
-9.001047676386858543e-01
-2.319969263217404709e+00
-2.407122720856279763e+00
-4.830861677641449387e-02
-1.231970083964547547e+00
1.064857339825544091e+00
-1.218161116781069225e-01
-8.879653896810547620e-01
1.488754774715518092e+00
-1.707093078092935812e-01
3.166513167499449000e-01
-8.861521611999866321e-01
3.102638336349506920e-01
5.259870257579747355e-01
4.100287334195795719e-01
1.867694212862702319e+00
-5.969885162970226533e-01
5.663707664769589423e-01
1.097419305166903003e+00
-8.876520358552875134e-01
1.734603979447760569e+00
1.254216625492278858e+00
-8.864189920427777425e-01
-8.244553616276595331e-01
-8.372391824313740738e-01
-2.236995490403019815e+00
-8.164476835464005156e-01
4.032808816534595997e-01
1.154948461892409739e+00
-7.535094039367313812e-01
8.232782957612521102e-01
6.933822993734618523e-01
-3.195927499935520832e-01
-1.995501685215992360e+00
4.892421668520213207e-01
-1.017456712935241175e-01
5.855929506836903276e-01
1.254507796152298793e+00
2.508300707400763940e+00
1.457505085620794061e+00
-2.428328952263182627e-01
1.099366343960259895e+00
-1.869989330517801418e-01
2.291305646280363373e+00
1.787052060232440898e+00
9.424208644151630399e-01
-2.899170497123413348e-01
-5.108245694901727418e-01
9.038820879421436416e-01
5.505564035303486120e-02
2.198597433119632960e+00
-8.020630468241952693e-01
4.306481520708225763e-01
2.775198910260576746e-01
-6.622419737836346965e-01
3.189989482385483521e-01
-7.994951235043086246e-01
-7.185386806944580318e-01
1.635283493952084388e+00
5.831813171591007094e-01
1.814036571572961165e+00
2.801012314796323954e-01
-4.862556241419848102e-01
-2.924836925942109200e-01
6.227548272926305972e-02
-2.815510572972322254e-02
1.280506359955947859e+00
-1.013484724466786169e+00
1.003440067120108692e+00
6.654260929142651049e-02
1.614813344033035891e+00
-1.146650776052713150e+00
8.058914505833494335e-01
-1.183184718155536386e+00
9.632298441891632423e-01
-2.394370842371649488e-01
3.584554677459150240e-01
1.370925039916217170e+00
-1.119414025947559760e-01
2.845955439127315634e-01
-2.590323673957986017e-01
4.443591621614128573e-01
1.196317728754448667e-01
-6.634226728718486399e-01
3.275084448733326936e-01
4.550961242489484637e-01
1.927670352269899245e+00
8.045161750972624759e-01
-7.353792007394616137e-01
-1.548022661017523394e+00
-1.602278327290730664e-01
5.179747709529765043e-01
-1.209130468166155353e-01
2.320086468495841991e+00
4.826973001316396394e-01
6.933658589100378800e-01
4.059847020523292549e-02
-1.130038985493369980e-01
-7.792713715056096557e-01
3.404820302870563697e-01
-1.256076213042841838e-01
-5.845804618278802600e-01
3.188430718592952795e-01
1.652125696599970439e+00
-2.020440169943822806e+00
7.001120013101290729e-01
1.740238982106747379e-01
-1.263939204789543025e+00
-2.734485358749704775e-01
-2.213452040810081345e-01
-1.811902992939455226e+00
4.997755918164845101e-01
4.911125984225242491e-01
-2.437871378939484579e-01
2.975152752568954173e-01
1.542035385557030569e+00
-8.211806900328663117e-01
9.252036116580596437e-01
-1.033533499448531096e-01
4.799906739730751548e-01
5.667723171023872908e-01
2.051927520164631868e+00
7.313756990118719159e+00
